tree
version=v4
num_class=1
num_tree_per_iteration=1
label_index=0
max_feature_idx=31
objective=binary sigmoid:1
feature_names=Column_0 Column_1 Column_2 Column_3 Column_4 Column_5 Column_6 Column_7 Column_8 Column_9 Column_10 Column_11 Column_12 Column_13 Column_14 Column_15 Column_16 Column_17 Column_18 Column_19 Column_20 Column_21 Column_22 Column_23 Column_24 Column_25 Column_26 Column_27 Column_28 Column_29 Column_30 Column_31
feature_infos=[-1.8231380991730519:26.818386160056079] [-4.3238418951083979:4.3083090420457637] [0:14.13467162281526] [-49.960466475171152:50.012172040171507] [0:96.054763821074275] [0:2.3289699240877719] [-3500867.7540000021:5264674.4559999974] [0:17900000000.000061] [-3733622196.1914363:2251583342.5506086] [-0.78675174927155167:0.92908200794840512] [-3.6474019967225786:6.8863368913272893] [-2.8815112526684286:6.0335322930449822] [0.018060412057168334:3.0415491586506804] [0:157.45758477589234] [0:7.7757142857142858] [-2.3241036623274178:10.196964729970414] [-77.387585034588781:1061.7664287379705] [-0.89573913299137387:0.97533562428083509] [0:205.31713023294373] [-16.195012608573826:32.663755458515276] [0:9] [0:7] [-7:9] [-1:1] [0:1] [-1:0] none none none none [0:1] [-1:1]
tree_sizes=1827 1555 1822 1807 1793 1470 1818 1484 1474 1775 1556 1694 1654 1682 1294 1551 1279 1775 1389 1581 1310 1300 1299 1442 1461 1637 1707 1384 1556 1287 1196 1702 1426 1201 1179 1456 1340 1263 1745 1828 1804 1338 1462 1307 1282 1384 1799 1307 1582 1341 1431 1775 1780 1278 1279 1529 1780 1540 1459 1515 1540 1576 1470 1289 1648 1448 1366 1465 1557 1467 1482 1293 1681 1775 1562 1290 1554 1791 1601 1570 1447 1269 1570 1289 1470 1585 1821 1770 1607 1491 1388 1427 1796 1759 1295 1527 1637 1838 1565 1617 1391 1800 1354 1542 1828 1753 1428 1783 1756 1500 1549 1213 1684 1762 1533 1750 1405 1837 1771 1427 1457 1778 1709 1258 1669 1292 1842 1689 1820 1729 1588 1535 1692 1640 1282 1675 1673 1230 1407 1749 1279 1844 1777 1802 1130 1792 1647 1782 1321 1355 1691 1658 1514 1171 1582 1503 1677 1778 1547 1437 1374 1274 1682 1462 1573 1527 1769 1820 1528 1429 1153 1782 1774 1793 1459 1646 1273 1767 1766 1758 1750 1792 1566 1721 1827 1802 1709 1451 1663 1554 1163 1487 1760 1689 1665 1315 1537 1634 1472 1775 1763 1625 1789 1683 1478 1428 1492 1555 1850 1559 1755 1563 1551 1644 1830 1447 1520 1844 1590 1797 1772 1636 1468 1775 1583 1809 1584 1591 1558 1647 1636 1535 1777 1651 1480 1606 1527 1608 1710 1446 1688 1669 1240 1791 1412 1764 1647 1806 1518 1637

Tree=0
num_leaves=16
num_cat=0
split_feature=5 19 16 16 22 15 5 16 16 30 9 6 7 3 15
split_gain=4.05141 8.45204 6.39384 12.6665 6.83528 4.75223 3.60994 4.60851 4.44502 3.54657 3.17417 2.86278 2.79574 2.7051 2.16507
threshold=0.65051378387379166 -0.45855651913325418 7.6632009479718244 -9.35488916461812 1.5000000000000002 -0.096251942645621466 0.40403092222347708 -35.557503078899934 -25.393655078619425 1.0000000180025095e-35 0.55910487490940641 -7160.2919999999976 97.935514214620795 0.00062383015795057517 -0.17873835558507326
decision_type=2 2 2 2 2 2 2 2 2 2 2 2 2 2 2
left_child=6 5 3 -3 -4 14 10 11 -9 -7 13 -8 -12 -1 -2
right_child=1 2 4 -5 -6 9 7 8 -10 -11 12 -13 -14 -15 -16
leaf_value=-0.76105824971996083 -0.76081825779407275 -0.76411292124805397 -0.75953758213967015 -0.77989337980775175 -0.77288288915610803 -0.7530814012315824 -0.76747681652362421 -0.75978391836755022 -0.77161552185563598 -0.76576835677313926 -0.78424193917188345 -0.79400302564602843 -0.76576835677313926 -0.76800519920109045 -0.76910622905686932
leaf_weight=203.22285223007202 105.51122498512268 159.24178719520569 233.55462121963501 141.25938129425049 73.44621205329895 173.974360704422 24.698726177215576 55.46380615234375 207.33930659294128 36.181467294692993 22.315515756607056 21.232238292694092 23.615448713302612 129.99329566955566 79.079254865646362
leaf_count=938 487 735 1078 652 339 803 114 256 957 167 103 98 109 600 365
internal_value=-0.765768 -0.764148 -0.766946 -0.771202 -0.763155 -0.759563 -0.768126 -0.771323 -0.768628 -0.755424 -0.765768 -0.783171 -0.774996 -0.764121 -0.765005
internal_weight=1690.13 1002.25 607.502 300.501 307.001 394.746 687.881 308.734 262.803 210.156 379.147 45.931 45.931 333.216 184.59
internal_count=7801 4626 2804 1387 1417 1822 3175 1425 1213 970 1750 212 212 1538 852
is_linear=0
shrinkage=1


Tree=1
num_leaves=14
num_cat=0
split_feature=19 22 4 9 3 4 9 9 14 1 1 8 13
split_gain=3.66062 3.40899 2.89381 2.90902 2.84921 6.79841 11.0855 6.07207 4.39122 3.84305 3.63497 2.66882 0.944808
threshold=-0.057386032995786963 5.5000000000000009 38.614576507996588 0.47468962945210647 -0.59563985895542237 17.33530612570193 -0.2098007038705981 0.20025855534685844 0.99142857142857099 -0.18118628820039206 -0.030842534014343458 -0.00050991022738584651 19.625799596331778
decision_type=2 2 2 2 2 2 2 2 2 2 2 2 2
left_child=4 2 3 -2 7 6 -6 10 -7 -9 -1 -4 -3
right_child=1 12 11 -5 5 8 -8 9 -10 -11 -12 -13 -14
leaf_value=0.0083747703666071389 -0.0044209098130000611 0 0.011010309467875646 0.0013155194078726235 0.018373186344861375 0 -0.015959254947489468 -0.0011390885730073704 0.01141983425600755 0.013999102493975828 -0.0036176855291466838 0 -0.02355723770029429
leaf_weight=55.72833463549614 461.09286452829838 9.089911565184595 42.040825664997101 161.65264132618904 12.790086999535559 323.42542301118374 79.933964088559151 16.052508413791656 67.443874403834343 116.68797981739044 126.65916655957699 205.33574162423611 12.325032487511633
leaf_count=257 2129 42 194 747 59 1492 369 74 311 538 584 948 57
internal_value=0 -0.00176901 -0.00120172 -0.0027409 0.0019529 0 -0.00954253 0.00489297 0.00234225 0.0112997 0 0.00218015 -0.0169238
internal_weight=1690.26 891.537 870.122 622.746 798.721 483.593 92.7241 315.128 390.869 132.74 182.388 247.377 21.4149
internal_count=7801 4117 4018 2876 3684 2231 428 1453 1803 612 841 1142 99
is_linear=0
shrinkage=0.04


Tree=2
num_leaves=16
num_cat=0
split_feature=5 19 16 16 22 3 17 5 16 16 9 15 6 7 17
split_gain=3.67369 7.40281 5.82194 11.7909 6.2801 4.60748 3.86551 3.3481 4.42665 4.11877 3.03029 2.99939 2.63056 2.62199 2.50457
threshold=0.65051378387379166 -0.45855651913325418 7.6632009479718244 -9.35488916461812 1.5000000000000002 -0.1307185151637329 -0.30935807198021037 0.40403092222347708 -35.557503078899934 -25.393655078619425 0.55910487490940641 -0.096251942645621466 -7160.2919999999976 97.935514214620795 0.32998972508891711
decision_type=2 2 2 2 2 2 2 2 2 2 2 2 2 2 2
left_child=7 5 3 -3 -4 11 -7 10 12 -10 14 -2 -9 -12 -1
right_child=1 2 4 -5 -6 6 -8 8 9 -11 13 -13 -14 -15 -16
leaf_value=-0.0025709447335694868 0.0031872078004249217 0.0016549007715498591 0.0059967900246174375 -0.013581294123557653 -0.0067847860558369342 -0.012127761392543165 0.003452504879961345 -0.0016646683706571417 0.0057848254546417803 -0.0055862486756523876 -0.017997976289063154 0.014070634529719466 -0.027495551135673688 0 0.004294422715777688
leaf_weight=112.22462047636509 116.81145131587982 159.24118429422379 234.03097733855247 140.43187707662582 73.198476731777191 28.241234362125397 130.37268595397472 24.687048614025116 55.564090669155121 206.80669686198235 22.18237715959549 120.63105672597885 21.008674874901772 23.640315324068069 221.05889259278774
leaf_count=518 538 735 1078 652 339 130 600 114 256 957 103 554 98 109 1020
internal_value=0 0.00153878 -0.00107405 -0.00515242 0.00252856 0.00582127 0 -0.00225063 -0.00533478 -0.00268775 0 0.00932211 -0.016967 -0.00900846 0.00162353
internal_weight=1690.13 1002.96 606.903 299.673 307.229 396.056 158.614 687.173 308.067 262.371 379.106 237.443 45.6957 45.8227 333.284
internal_count=7801 4626 2804 1387 1417 1822 730 3175 1425 1213 1750 1092 212 212 1538
is_linear=0
shrinkage=0.04


Tree=3
num_leaves=16
num_cat=0
split_feature=5 19 16 16 22 17 20 21 1 13 1 19 10 19 16
split_gain=3.43346 6.8364 5.34274 10.9829 5.80995 3.83678 3.46816 3.38717 5.43166 5.90489 5.33442 3.89238 4.29428 2.9732 1.88496
threshold=0.65051378387379166 -0.45855651913325418 7.6632009479718244 -9.35488916461812 1.5000000000000002 -0.28701769276698136 2.5000000000000004 1.0000000180025095e-35 -0.030842534014343458 83.416362545229092 -0.39187993660472326 -0.69044057260799729 -0.023767812273630225 -4.2527593830936867 -12.170372994414018
decision_type=2 2 2 2 2 2 2 2 2 2 2 2 2 2 2
left_child=7 5 3 -3 -4 14 -7 11 10 -10 -9 13 -13 -1 -2
right_child=1 2 4 -5 -6 6 -8 8 9 -11 -12 12 -14 -15 -16
leaf_value=0 0.0083498899241616579 0.0015889669005703208 0.0057473808501868652 -0.013115989595596693 -0.0065401861932514651 0.0096017905796172854 0 0 -0.0047406105107892912 0.017261108517055587 0.019636658564843226 0.007276325373013255 -0.004363709474123431 -0.013983352623872436 -0.0054802315861941734
leaf_weight=14.729741156101225 13.921349555253981 159.33735854923725 234.53882077336311 139.71847698092461 73.0146394520998 258.14348411560059 62.868438467383385 38.257944211363792 191.41725216805935 17.279053166508675 39.640351220965385 56.21995697915554 236.61232194304466 92.561408907175064 61.901866748929024
leaf_count=68 64 735 1078 652 339 1184 289 177 885 80 183 260 1094 428 285
internal_value=0 0.00148029 -0.00102667 -0.00494592 0.00240885 0.00559156 0.00756173 -0.00218343 0.000787898 -0.00213333 0.00988634 -0.00459939 -0.00167221 -0.0112378 -0.00119744
internal_weight=1690.16 1003.44 606.609 299.056 307.553 396.835 321.012 686.718 286.595 208.696 77.8983 400.123 292.832 107.291 75.8232
internal_count=7801 4626 2804 1387 1417 1822 1473 3175 1325 965 360 1850 1354 496 349
is_linear=0
shrinkage=0.04


Tree=4
num_leaves=16
num_cat=0
split_feature=5 10 6 10 1 6 6 16 1 16 16 7 4 12 6
split_gain=3.21135 4.18577 5.10449 5.73197 4.12697 4.52346 5.19643 4.09387 3.14611 3.12502 2.98089 2.94748 2.77691 5.50231 4.63428
threshold=0.93969924000008109 0.13328803567807371 -6492.6490000000003 1.5067737417870168 0.16403297247783566 1954.6259999999954 109514.1205 -11.131679470599208 0.72766289526590533 -24.155239773637941 22.950072825141685 0.0024908368210416732 42.592546314112106 0.82694327933366918 -578852.82150000008
decision_type=2 2 2 2 2 2 2 2 2 2 2 2 2 2 2
left_child=1 12 8 -4 7 10 -7 9 -3 -2 -6 -9 14 -14 -1
right_child=4 2 3 -5 5 6 -8 11 -10 -11 -12 -13 13 -15 -16
leaf_value=-0.017560576118308621 0 -0.002002818465606316 -0.01154031561290784 0.005536255597831951 0.005651128226870087 -0.0025527073215869506 0.014819425855280859 -0.0082626991570372427 0.015166959853543546 0.015838077422563681 0.023318283654967562 0.00019516579577105844 0.016226616812564525 0 -9.7790545889551943e-05
leaf_weight=22.736205950379372 16.781891614198685 22.732581287622452 175.5634750276804 25.961657509207726 85.510502845048904 117.65590432286263 31.484778806567192 103.98664289712906 22.718834161758423 33.097703367471695 32.23824018239975 105.82560767233372 45.301291421055794 82.259946331381798 766.16045898199081
leaf_count=105 77 105 813 120 394 542 145 481 105 152 148 487 209 379 3539
internal_value=0 -0.00117803 -0.00576774 -0.00870475 0.00257793 0.00609481 0.000545846 -0.000607949 0.00451047 0.0087568 0.0119412 -0.00349021 0 0.00547537 -0.000817227
internal_weight=1690.02 1163.43 246.977 201.525 526.581 266.889 149.141 259.692 45.4514 49.8796 117.749 209.812 916.458 127.561 788.897
internal_count=7801 5375 1143 933 2426 1229 687 1197 210 229 542 968 4232 588 3644
is_linear=0
shrinkage=0.04


Tree=5
num_leaves=13
num_cat=0
split_feature=22 8 6 5 12 7 17 10 17 6 18 19
split_gain=3.25327 5.85485 7.12554 3.61421 4.48928 6.07896 3.5259 3.04999 4.59822 4.17797 2.58041 1.94384
threshold=4.5000000000000009 2.6507342437563088 71578.771499999988 0.93969924000008109 1.0638730223579678 0.002128498199029064 0.31477363525992952 0.13328803567807371 0.86618662502773647 -6492.6490000000003 21.822990021212814 -1.514920144116195
decision_type=2 2 2 2 2 2 2 2 2 2 2 2
left_child=3 2 11 7 5 -5 -6 8 -1 -9 -4 -2
right_child=1 -3 10 4 6 -7 -8 9 -10 -11 -12 -13
leaf_value=0.00090109894862649628 0 0.01162943689370682 0.019449826475631898 -0.0061052934919007184 0.00012726812894614477 0.0060865218492296052 0.011621041571405106 0.0045835315459315795 -0.017249515947615798 -0.0075426955672206397 0 -0.018797814778881223
leaf_weight=832.86857461929321 14.985562115907667 16.024304702877998 10.561304003000261 133.06032167375088 94.357551515102386 122.648576810956 133.53679540753365 44.041831508278847 19.675258204340935 191.17768453061581 8.8221654146909696 68.13652591407299
leaf_count=3845 69 74 49 615 434 562 614 203 91 888 41 316
internal_value=0 -0.00630575 -0.0104978 0.000486686 0.00339736 0 0.00744535 -0.000703124 0.000282935 -0.00473935 0.00668912 -0.0159925
internal_weight=1689.9 118.53 102.506 1571.37 483.603 255.709 227.894 1087.76 852.544 235.22 19.3835 83.1221
internal_count=7801 549 475 7252 2225 1177 1048 5027 3936 1091 90 385
is_linear=0
shrinkage=0.04


Tree=6
num_leaves=16
num_cat=0
split_feature=5 19 3 9 8 7 10 17 5 16 16 9 7 3 6
split_gain=2.87024 6.00959 4.65341 3.69445 6.94144 4.94385 3.58764 3.30552 3.10034 4.30181 3.76342 2.71552 2.4678 2.42694 2.37716
threshold=0.65051378387379166 -0.36103679001761896 -0.1307185151637329 0.47468962945210647 -0.0036705590331195617 3.4389952071001947e-12 -0.48789078279848613 -0.30935807198021037 0.40403092222347708 -35.557503078899934 -25.393655078619425 0.55910487490940641 97.935514214620795 0.00062383015795057517 -7160.2919999999976
decision_type=2 2 2 2 2 2 2 2 2 2 2 2 2 2 2
left_child=8 2 6 5 -5 -3 -2 -4 11 14 -11 13 -13 -1 -10
right_child=1 3 7 4 -6 -7 -8 -9 9 10 -12 12 -14 -15 -16
leaf_value=0.0046125220561634636 0 0.0029711436822457077 -0.011755668796059087 0.018222350412506149 -0.0001313347926836694 -0.0060568112361879698 0.010971700471914416 0.002455195504264796 -0.0015830544845530149 0.0057114832800187164 -0.0051736158951990949 -0.017119278387429566 0 -0.0019154876477974617 -0.026607894992755163
leaf_weight=203.39033727347851 59.740267798304558 119.75422053039074 28.981847107410431 37.191237553954124 118.50833676755428 303.09229180216789 195.92048379778862 141.17446036636829 24.664437144994736 55.598323196172714 205.95614393055439 21.931610390543938 23.548689663410187 129.58789317309856 20.731817200779915
leaf_count=938 273 555 134 171 548 1402 896 647 114 256 957 103 109 600 98
internal_value=0 0.00136519 0.00500922 -0.00112253 0.00375817 -0.0032153 0.00838949 0 -0.00198589 -0.00497377 -0.00236766 0.000142912 -0.00832285 0.00172038 -0.016432
internal_weight=1689.77 1004.36 425.817 578.546 155.7 422.847 255.661 170.156 685.409 306.951 261.554 378.459 45.4803 332.978 45.3963
internal_count=7801 4626 1950 2676 719 1957 1169 781 3175 1425 1213 1750 212 1538 212
is_linear=0
shrinkage=0.04


Tree=7
num_leaves=13
num_cat=0
split_feature=22 8 6 5 9 0 19 16 16 16 9 2
split_gain=2.99235 5.46829 6.69681 3.25333 4.12507 6.81003 4.58462 2.74731 6.45086 5.88958 2.55192 1.37883
threshold=4.5000000000000009 2.6507342437563088 71578.771499999988 0.93969924000008109 0.46610726679176734 0.31923130292991803 -0.77120372855269259 -25.393655078619425 -36.60626271242851 -20.930579978512899 -0.20140239991317135 1.3984971500017755
decision_type=2 2 2 2 2 2 2 2 2 2 2 2
left_child=3 2 10 7 6 -6 -5 8 -1 -9 -2 -4
right_child=1 -3 11 4 5 -7 -8 9 -10 -11 -12 -13
leaf_value=-0.0052159953343854761 0 0.011131869432361724 0.015364284949515758 0.0072635838182884306 -0.0065023779353557002 0.014854196000178463 -0.0019737664049558922 -0.011770912791757746 0.0079629021679575637 -0.00052828135554594297 -0.018118021256958189 0
leaf_weight=81.615336552262306 10.358944639563559 16.101502776145935 10.187806412577631 121.8276234716177 20.946553826332092 93.63041564822197 247.90330666303635 83.72129875421524 156.06358264386654 765.87602226436138 72.314948990941048 9.2594319283962232
leaf_count=379 48 74 47 556 96 429 1144 387 718 3543 337 43
internal_value=0 -0.00605874 -0.0101511 0.000463241 0.0032241 0.00986297 0.000781989 -0.000661958 0.00293027 -0.00181442 -0.0155214 0.00635655
internal_weight=1689.81 118.223 102.121 1571.58 484.308 114.577 369.731 1087.28 237.679 849.597 82.6739 19.4472
internal_count=7801 549 475 7252 2225 525 1700 5027 1097 3930 385 90
is_linear=0
shrinkage=0.04


Tree=8
num_leaves=13
num_cat=0
split_feature=22 6 19 6 5 9 19 22 4 6 3 9
split_gain=2.6898 4.2274 4.01774 3.87585 2.99468 3.74289 4.22794 3.8229 2.83553 4.29505 3.69426 0.554598
threshold=4.5000000000000009 101650.273 -0.31036159833793503 -64399.522999999943 0.93969924000008109 0.46610726679176734 -0.77120372855269259 -1.0000000180025095e-35 42.592546314112106 -6492.6490000000003 2.7844454749741891 -0.20140239991317135
decision_type=2 2 2 2 2 2 2 2 2 2 2 2
left_child=4 2 11 -4 8 6 -6 -7 10 -10 -1 -2
right_child=1 -3 3 -5 5 7 -8 -9 9 -11 -12 -13
leaf_value=-0.0024263512228261935 0.0043689715769565183 0.0084997417788796777 0 -0.022678387842186978 0.0069623836724491631 0 -0.0018971375626407419 0.01410311549544839 0.011278504646429472 -0.00030317829632874055 0.0074174598554291515 -0.0037363454568232275
leaf_weight=849.79335291683674 14.353351056575773 16.901262149214745 10.057653367519377 39.699451416730881 122.13741098344326 34.843766644597054 247.7247799038887 80.176384434103966 70.780586838722229 108.5562302172184 57.922932475805283 36.835704982280731
leaf_count=3932 66 78 47 187 556 159 1144 366 325 502 268 171
internal_value=0 -0.00575676 -0.00947457 -0.0172834 0.000435539 0.00308459 0.000739134 0.00939942 -0.000641225 0.00372011 -0.00164407 0
internal_weight=1689.78 117.847 100.946 49.7571 1571.94 484.882 369.862 115.02 1087.05 179.337 907.716 51.1891
internal_count=7801 549 471 234 7252 2225 1700 525 5027 827 4200 237
is_linear=0
shrinkage=0.04


Tree=9
num_leaves=16
num_cat=0
split_feature=10 12 9 15 7 17 12 12 9 7 4 11 12 5 17
split_gain=2.4997 5.65672 5.35644 5.25935 4.51229 4.70565 4.23384 3.91775 5.28915 7.16197 3.84416 3.42181 3.31799 5.40625 4.2428
threshold=-0.015618357551209548 0.73677342083306308 0.40396445088916616 -0.19684626543226841 170.11809265493659 0.70497410097105406 0.84061185966167129 1.1085003685783719 0.62716327595534704 1.3970639547142873e-12 41.663698918151781 0.027288064651736523 1.0093282043572636 0.28790936908705872 -0.066599943755294086
decision_type=2 2 2 2 2 2 2 2 2 2 2 2 2 2 2
left_child=1 4 6 -4 10 -6 -3 12 9 -9 -1 -10 14 -14 -2
right_child=7 2 3 -5 5 -7 -8 8 11 -11 -12 -13 13 -15 -16
leaf_value=-0.011034894407557077 0.0065929284809412361 0.0086717517028241913 0 0.017904220918400181 0.021477058510099758 -0.0033657332934144669 0 0.014982213926181742 0 0 0.0032921049770977973 -0.021938470823452964 0.0018926526092553925 -0.014625378353395134 -0.0033309051204954867
leaf_weight=118.42825405299664 73.737511783838272 105.07225377857685 28.374937653541565 70.036528363823891 16.591223835945133 14.591285511851309 410.38471706211567 70.596576601266861 14.760638460516928 190.1753673106432 22.935705736279488 18.168717414140701 29.765431597828865 87.905764147639275 418.11875241994858
leaf_count=547 343 483 130 321 76 67 1887 326 68 878 105 84 138 408 1940
internal_value=0 0.00164392 0.0035514 0.012161 -0.00440345 0.0070666 0.00161534 -0.00143501 0.00210264 0.00438023 -0.00785906 -0.0114538 -0.00333748 -0.00950946 -0.00156971
internal_weight=1689.64 786.415 613.868 98.4115 172.546 31.1825 515.457 903.229 293.701 260.772 141.364 32.9294 609.527 117.671 491.856
internal_count=7801 3616 2821 451 795 143 2370 4185 1356 1204 652 152 2829 546 2283
is_linear=0
shrinkage=0.04


Tree=10
num_leaves=14
num_cat=0
split_feature=5 4 12 8 6 21 12 16 9 13 13 15 3
split_gain=2.38863 6.10599 5.67241 4.41362 3.6776 2.98706 5.01101 4.15824 3.44081 3.03628 3.29904 2.86693 1.93794
threshold=0.65051378387379166 11.876952986963376 0.86354956625257617 -1.7793040263163362 -47064.337499999943 1.0000000180025095e-35 0.92077287277195896 -24.391647433769929 0.61534052308751874 86.491708913432049 26.174556871901654 -0.096251942645621466 0.38283508236927377
decision_type=2 2 2 2 2 2 2 2 2 2 2 2 2
left_child=5 2 -2 11 -5 6 7 -1 -8 10 -7 -3 -11
right_child=1 3 -4 4 -6 9 8 -9 -10 12 -12 -13 -14
leaf_value=-0.00067967087721818335 0.038867974382385276 0 0 -0.0059026592204299766 0.00072010590817616499 0.0030298730421893989 0.0021445496562481495 -0.013872661981596405 -0.014689465181164863 0.024566688532012618 -0.006167487927773301 0.011354200393652911 0
leaf_weight=90.224250420928001 10.253703221678736 75.458665549755096 11.49465700984001 160.84811490774155 658.2248177677393 173.39303988218307 181.15118700265884 108.18893346190453 18.58843906223774 10.638884395360948 93.197668373584747 89.01284122467041 8.8347657173871976
leaf_count=419 47 345 53 741 3034 802 841 503 87 49 433 406 41
internal_value=0 0.00124299 0.0210315 0.000621163 -0.000451283 -0.00181505 -0.00410828 -0.0085687 0 0.000971119 0 0.00659093 0.0151095
internal_weight=1689.51 1005.29 21.7484 983.544 819.073 684.217 398.153 198.413 199.74 286.064 266.591 164.472 19.4737
internal_count=7801 4626 100 4526 3775 3175 1850 922 928 1325 1235 751 90
is_linear=0
shrinkage=0.04


Tree=11
num_leaves=15
num_cat=0
split_feature=22 2 6 5 12 3 9 17 16 16 16 2 12 18
split_gain=2.41816 4.11659 2.90689 2.62968 3.98159 5.88374 5.52368 2.54043 2.48654 5.89619 5.39986 2.35105 0.784267 0.438588
threshold=4.5000000000000009 1.1272551061026859 11947.874999999991 0.93969924000008109 1.0638730223579678 -0.56731098366896759 0.46610726679176734 0.013536149746085529 -25.393655078619425 -36.60626271242851 -20.930579978512899 2.4260903424406899 0.90532413142258994 34.545846191022278
decision_type=2 2 2 2 2 2 2 2 2 2 2 2 2 2
left_child=3 2 12 8 5 -5 -6 13 9 -1 -10 -9 -2 -3
right_child=1 7 -4 4 6 -7 -8 11 10 -11 -12 -13 -14 -15
leaf_value=-0.0049312595148877274 -0.010229962258079593 0.0068370109311806336 0.019453732116513831 0.0058838690853625546 0.0017679724395948252 -0.0060824162157604098 0.016366885442016726 -0.019947558027901192 -0.011237670218457799 0.0076443403218151955 -0.00044399522129101858 0 0 -0.0027385327950368915
leaf_weight=81.371802851557732 8.9988633841276222 10.11868864297867 11.03779876232147 118.58523024618626 161.98137131333351 137.72804716229439 67.279750764369965 40.555405274033546 83.238606914877892 156.48084871470928 765.23170547187328 27.620351955294609 10.323494568467138 8.8021298646926862
leaf_count=379 42 47 51 543 743 634 305 190 387 718 3543 130 48 41
internal_value=0 -0.00545195 0.00445609 0.000428106 0.00290922 -7.93441e-05 0.00672494 -0.010271 -0.000575721 0.00283604 -0.0016797 -0.0138074 -0.000198534 0
internal_weight=1689.35 117.457 30.3602 1571.9 485.574 256.313 229.261 87.0966 1086.32 237.853 848.47 68.1758 19.3224 18.9208
internal_count=7801 549 141 7252 2225 1177 1048 408 5027 1097 3930 320 90 88
is_linear=0
shrinkage=0.04


Tree=12
num_leaves=15
num_cat=0
split_feature=10 12 9 5 7 17 12 10 4 22 0 20 9 22
split_gain=2.27443 5.12257 4.71201 4.24016 4.08546 4.37496 3.99961 3.65372 3.62138 3.17603 3.22667 2.72584 1.80625 0.393069
threshold=-0.015618357551209548 0.73677342083306308 0.40396445088916616 1.2500641050631176 170.11809265493659 0.70497410097105406 0.84061185966167129 -0.010618183145868485 41.663698918151781 -2.4999999999999996 2.6062507986984134 5.5000000000000009 -0.075723695045269004 -1.0000000180025095e-35
decision_type=2 2 2 2 2 2 2 2 2 2 2 2 2 2
left_child=1 4 6 -4 8 -6 -3 12 -1 10 -9 -11 -2 -14
right_child=7 2 3 -5 5 -7 -8 9 -10 11 -12 -13 13 -15
leaf_value=-0.010607308949306244 0 0.0084068442259603287 0.014927506626803278 -0.0033819746400627769 0.02053193742562966 -0.0032858490674650908 0 -0.018662215344086325 0.003245709153055637 0.00036620514006118231 0 -0.011736698079067296 0 -0.021060388878671659
leaf_weight=117.88309432566166 9.1012505739927274 105.29995554685593 86.767298012971878 12.200930744409559 16.726504996418956 14.576464116573332 410.40447819232941 27.474133297801018 22.944235980510712 793.87017048895359 14.472089096903799 27.885534286499023 8.6517656892538088 21.064572378993034
leaf_count=547 42 483 396 55 76 67 1887 127 105 3679 67 132 40 98
internal_value=0 0.00157579 0.0033923 0.0114604 -0.00417271 0.00662537 0.0015553 -0.00136124 -0.00749535 -0.00065264 -0.0110125 0 -0.0130802 -0.0175221
internal_weight=1689.32 786.803 614.673 98.9682 172.13 31.303 515.704 902.52 140.827 863.702 41.9462 821.756 38.8176 29.7163
internal_count=7801 3616 2821 451 795 143 2370 4185 652 4005 194 3811 180 138
is_linear=0
shrinkage=0.04


Tree=13
num_leaves=15
num_cat=0
split_feature=22 18 10 6 12 10 15 3 15 1 12 6 12 9
split_gain=2.14937 3.91718 2.82721 2.80927 2.11646 4.37216 4.83956 4.29095 5.13502 3.34971 2.91318 1.8679 1.197 0.634534
threshold=4.5000000000000009 17.779780493053867 -0.037754524251856651 71578.771499999988 1.1622081136853242 0.13328803567807371 0.076169521732683834 -2.52706819194773 -0.1583308782696112 0.58413621883985845 1.6386170464051568 22526.226999999981 1.0285345769276311 -0.16298411990705461
decision_type=2 2 2 2 2 2 2 2 2 2 2 2 2 2
left_child=4 3 13 12 5 6 -1 10 -9 -7 -6 -4 -2 -3
right_child=1 2 11 -5 7 9 -8 8 -10 -11 -12 -13 -14 -15
leaf_value=-0.00077981543608678344 -0.0087241925481219701 0.0061507141023324644 -0.022206994905934453 0.020415077132509056 -0.0095286840672455866 -0.0094833859362197168 0.0055529184605590375 -0.0050052251525984368 0.0079913646277580096 0 0.004576793680732447 0 0.0050349329030642499 -0.004523806825158066
leaf_weight=685.62276495993137 17.661399260163311 9.5664831697940809 30.587732911109924 8.7701878845691663 58.739018648862839 128.78173078596592 255.30008582770824 46.338613793253899 245.403435125947 129.73587331175804 22.35230128467083 16.602957040071487 10.515808314085005 23.379295274615288
leaf_count=3160 83 44 146 40 269 600 1179 213 1127 602 102 78 49 109
internal_value=0 -0.005158 -0.0104344 0.00320638 0.000393701 -0.000337386 0.0008235 0.00304888 0.00548999 -0.00498248 -0.00418901 -0.016446 0 0
internal_weight=1689.36 117.084 80.1365 36.9474 1572.27 1199.44 940.923 372.833 291.742 258.518 81.0913 47.1907 28.1772 32.9458
internal_count=7801 549 377 172 7252 5541 4339 1711 1340 1202 371 224 132 153
is_linear=0
shrinkage=0.04


Tree=14
num_leaves=11
num_cat=0
split_feature=6 16 5 5 7 18 16 2 16 5
split_gain=2.12023 4.60766 2.34269 4.49341 4.55662 3.09525 3.08532 7.25758 4.56637 0.131339
threshold=-744621.97799999989 -18.430707135273575 0.9834660077964682 1.1042752008026262 0.48083145231566699 21.822990021212814 -25.393655078619425 2.652730389995086 -21.7067838665788 1.0099913941146113
decision_type=2 2 2 2 2 2 2 2 2 2
left_child=1 -1 6 4 -4 -5 7 -2 -8 -3
right_child=2 9 3 5 -6 -7 8 -9 -10 -11
leaf_value=-0.028996140490854319 0.0095995401852650864 0.0033117910109040833 0.0020146881276357051 -0.0058492433002283488 0.020157540809218003 0.0026263243606402453 -0.011150744560044197 -0.0031810275453437098 -0.00080416081709661969 -0.0018036620395637363
leaf_weight=9.7240480333566648 134.86260317265987 12.116223126649858 86.248027071356773 93.225415661931038 39.885126784443855 237.68927775323391 75.783193662762642 125.64043694734573 863.59509386122227 10.632027447223662
leaf_count=45 622 56 398 429 181 1088 354 580 3999 49
internal_value=0 -0.00968288 0.00020024 0.00268135 0.00901601 0 -0.000649411 0.00301404 -0.00179904 0
internal_weight=1689.4 32.4723 1656.93 457.048 126.133 330.915 1199.88 260.503 939.378 22.7483
internal_count=7801 150 7651 2096 579 1517 5555 1202 4353 105
is_linear=0
shrinkage=0.04


Tree=15
num_leaves=14
num_cat=0
split_feature=10 12 18 9 7 10 15 22 15 4 20 21 12
split_gain=2.03158 4.68519 4.9277 4.56848 3.76289 3.4391 3.02929 2.93526 3.30685 2.65462 2.39433 1.99902 1.48554
threshold=-0.015618357551209548 0.73677342083306308 51.36214078038747 0.40396445088916616 29.477435889624008 -0.010618183145868485 -0.36056200164842966 -2.4999999999999996 0.39753493421344205 41.663698918151781 5.5000000000000009 1.0000000180025095e-35 0.68539669374496481
decision_type=2 2 2 2 2 2 2 2 2 2 2 2 2
left_child=1 4 3 -3 9 11 -4 8 -7 -1 -9 -2 -6
right_child=5 2 6 -5 12 7 -8 10 -10 -11 -12 -13 -14
leaf_value=-0.0103955807042003 -0.019418207091519139 0 0 0.010315491627530369 0.0095149387058134968 -0.017934625362727278 0.015671112387249338 0.00035218015901198718 0 0.0022265097234752187 -0.011037180710227393 0 -0.00078143310114471456
leaf_weight=110.31001427769661 23.293847143650055 444.62668636441231 25.180220186710358 75.025537699460983 31.56607910990715 29.064408808946609 70.766407251358032 793.92647480964661 12.685680523514746 14.876553416252134 27.636249080300331 15.349232926964758 15.102666467428206
leaf_count=514 109 2044 115 340 144 135 322 3679 59 68 132 71 69
internal_value=0 0.00147117 0.00321091 0.00137843 -0.0040226 -0.00130439 0.0115803 -0.000613596 -0.0105942 -0.00794249 0 -0.0126995 0.00392094
internal_weight=1689.41 787.454 615.599 519.652 171.855 901.956 95.9466 863.313 41.7501 125.187 821.563 38.6431 46.6687
internal_count=7801 3616 2821 2384 795 4185 437 4005 194 582 3811 180 213
is_linear=0
shrinkage=0.04


Tree=16
num_leaves=11
num_cat=0
split_feature=6 16 5 5 14 16 16 16 18 14
split_gain=1.99345 4.36618 2.11589 4.18706 4.02319 2.88849 6.10197 4.18682 2.81048 0.166225
threshold=-744621.97799999989 -18.430707135273575 0.9834660077964682 1.1042752008026262 0.74821428571428605 -25.393655078619425 -36.60626271242851 -21.7067838665788 21.822990021212814 0.1142857142857145
decision_type=2 2 2 2 2 2 2 2 2 2
left_child=1 -1 5 4 -4 6 -2 -7 -5 -3
right_child=2 9 3 8 -6 7 -8 -9 -10 -11
leaf_value=-0.028320125951245993 -0.0047505496388094304 -0.0024888253787887218 0.013703384118984118 -0.0056245073245184875 0 -0.010716178924451663 0.0075298380307376438 -0.00077448674825400608 0.0024606110615982158 0.003403519461629069
leaf_weight=9.6137608140706998 88.002490505576134 9.4599466025829333 82.867548406124115 93.016631305217743 43.637491926550865 75.415241852402687 172.69362981617451 863.32400174438953 238.01961986720562 13.296630337834356
leaf_count=45 411 44 379 429 200 354 791 3999 1088 61
internal_value=0 -0.00940811 0.000188222 0.00254718 0.00864886 -0.000615946 0.00292243 -0.00173219 0 0
internal_weight=1689.35 32.3703 1656.98 457.541 126.505 1199.44 260.696 938.739 331.036 22.7566
internal_count=7801 150 7651 2096 579 5555 1202 4353 1517 105
is_linear=0
shrinkage=0.04


Tree=17
num_leaves=16
num_cat=0
split_feature=19 10 14 14 9 7 5 4 4 19 4 22 8 4 9
split_gain=2.0484 3.0836 3.63767 2.89682 3.10668 2.9446 2.73982 4.84008 6.96016 3.99039 4.78811 4.16124 2.93916 1.55533 0.560393
threshold=-0.057386032995786963 1.4402599870389772 2.9292857142857147 0.56964285714285723 0.4627315463913963 3.7766815885777798 0.65051378387379166 12.911341326486285 17.773162114179335 -0.69044057260799729 17.33530612570193 -1.0000000180025095e-35 -3.5195467078723351e-09 64.529515939250771 0.23726302396460988
decision_type=2 2 2 2 2 2 2 2 2 2 2 2 2 2 2
left_child=6 3 13 5 -5 -2 9 12 -9 11 -11 -1 -8 -3 -4
right_child=1 2 14 4 -6 -7 7 8 -10 10 -12 -13 -14 -15 -16
leaf_value=0.0017381015719725047 0.0010744660775224406 0.020338210259971769 -0.0071523262685368374 -0.0082478156935185797 0 -0.0065687625429910355 0 -0.0096137726683121899 0.004101139712764974 -0.0059794317041322589 0.011169671090002062 -0.0091835297386752227 0.033245130567682288 0 0
leaf_weight=67.625494465231895 434.21023894846439 23.959173679351807 14.561629429459574 192.42754542827606 103.34842449426651 94.606269299983978 14.65670219063759 62.250918418169022 420.08748868107796 29.435212954878807 66.287967577576637 130.09052078425884 11.435485959053038 9.3263632506132108 15.097760647535322
leaf_count=313 2013 110 68 895 479 439 67 286 1916 137 308 605 52 43 70
internal_value=0 -0.00134219 0.00656761 -0.0021126 -0.00527815 -9.66214e-05 0.00144181 0.00328485 0.00203535 -0.00134769 0.00465929 -0.00487996 0.0196665 0.0154513 -0.000231472
internal_weight=1689.41 887.537 62.9449 824.592 295.776 528.817 801.87 508.431 482.338 293.439 95.7232 197.716 26.0922 33.2855 29.6594
internal_count=7801 4117 291 3826 1374 2452 3684 2321 2202 1363 445 918 119 153 138
is_linear=0
shrinkage=0.04


Tree=18
num_leaves=12
num_cat=0
split_feature=22 8 6 1 3 16 1 13 3 0 3
split_gain=1.9354 4.78206 5.55315 2.08001 1.88493 5.21608 7.72656 5.26316 4.35217 3.60147 2.71335
threshold=4.5000000000000009 2.9309101866758671 219225.57250000004 -0.79634167218624141 1.1167496235006495 31.30699501514755 0.15866583397895198 64.238780566289975 1.0000000180025095e-35 1.9779029035888973 -0.97710343191480364
decision_type=2 2 2 2 2 2 2 2 2 2 2
left_child=4 2 3 -2 8 6 -6 -7 10 -10 -1
right_child=1 -3 -4 -5 5 7 -8 -9 9 -11 -12
leaf_value=-0.00066716227705617337 0 0.011474855353147271 0.013028846737648675 -0.014517733523681091 0.010363533823358506 0.021739994916079336 -0.0060795167248903215 -0.00099668151837998577 -0.0067634910599169689 0.00064912597197056454 0.0034273262965495827
leaf_weight=492.91688540577888 8.532263979315756 15.438015341758726 8.9154388606548292 83.854828491806984 72.667372047901154 39.207347765564919 111.598050147295 11.000402137637137 244.01036131381989 134.64679607748985 466.41932964324951
leaf_count=2267 40 71 41 397 336 179 516 50 1130 624 2150
internal_value=0 -0.00491449 -0.00882085 -0.0125309 0.000360406 0.00366826 0 0.0147278 -0.000136694 -0.00382883 0.00120332
internal_weight=1689.21 116.741 101.303 92.3871 1572.47 234.473 184.265 50.2077 1337.99 378.657 959.336
internal_count=7801 549 478 437 7252 1081 852 229 6171 1754 4417
is_linear=0
shrinkage=0.04


Tree=19
num_leaves=14
num_cat=0
split_feature=5 4 12 8 17 22 5 16 4 16 9 7 17
split_gain=1.71475 5.34044 5.32852 3.66379 3.13575 2.65656 2.64276 3.9243 2.9535 2.76436 2.43257 2.37728 2.36611
threshold=0.65051378387379166 11.876952986963376 0.86354956625257617 -1.7793040263163362 0.099184761020769008 2.5000000000000004 0.40403092222347708 -35.557503078899934 42.365358301611103 -25.393655078619425 0.55910487490940641 97.935514214620795 0.32998972508891711
decision_type=2 2 2 2 2 2 2 2 2 2 2 2 2
left_child=6 2 -2 5 -5 -3 10 8 -8 -9 12 -12 -1
right_child=1 3 -4 4 -6 -7 7 9 -10 -11 11 -13 -14
leaf_value=-0.0021193981870081175 0.036547119914912579 0.0084013307590283821 0 0.0030973557168032639 -0.0022330986067473765 -0.0022942651926599507 -0.021095963191145543 0.0049331520923705779 0 -0.0043319551315425678 -0.016281448213565596 0 0.0044790293997999733
leaf_weight=111.71064203977585 10.450828298926355 137.73330424726009 11.584958314895628 240.45195855200291 578.86080923676491 27.655959263443947 32.761921063065529 55.966386884450912 11.992211222648619 204.16021408140659 21.68488547205925 23.396968230605125 220.62277612090111
leaf_count=518 47 624 53 1108 2667 127 156 256 56 957 103 109 1020
internal_value=0 0.00104272 0.0194186 0.000452281 -0.000517194 0.0058912 -0.00154968 -0.00434428 -0.0153076 -0.00184899 0.000408848 -0.00754886 0.00190406
internal_weight=1689.03 1006.74 22.0358 984.702 819.313 165.389 682.296 304.881 44.7541 260.127 377.415 45.0819 332.333
internal_count=7801 4626 100 4526 3775 751 3175 1425 212 1213 1750 212 1538
is_linear=0
shrinkage=0.04


Tree=20
num_leaves=11
num_cat=0
split_feature=6 16 19 17 17 12 6 16 18 5
split_gain=1.90855 4.11841 2.03521 2.97093 6.73769 4.66297 2.7086 5.65667 5.62618 0.125948
threshold=-744621.97799999989 -18.430707135273575 -0.057386032995786963 0.35408584323702241 0.15515354893269942 1.0363725484976951 -6492.6490000000003 13.750101023573983 16.590820837127207 1.0099913941146113
decision_type=2 2 2 2 2 2 2 2 2 2
left_child=1 -1 3 4 -2 -5 8 -8 -4 -3
right_child=2 9 6 5 -6 -7 7 -9 -10 -11
leaf_value=-0.027682440983767688 0.0023517432634579129 0.0031482145037725938 0.014386509462344758 0.0017576688882195307 -0.0092130186453116374 0.01413635647409708 -0.0053922393997445049 0.0018040679379714914 -0.00033486046143849888 -0.0019425283288247389
leaf_weight=9.5060020387172681 306.36260879039764 12.136107414960863 47.809956356883049 303.16188178956509 104.42447175085545 64.911790937185287 407.2727102637291 269.7169431000948 152.99373063445091 10.647653684020041
leaf_count=45 1402 56 222 1397 480 297 1902 1241 710 49
internal_value=0 -0.00921105 0.000189466 0.00173432 -0.000343564 0.00436074 -0.00104627 -0.0023534 0.00274157 0
internal_weight=1688.94 32.2898 1656.65 778.861 410.787 368.074 877.793 676.99 200.804 22.7838
internal_count=7801 150 7651 3576 1882 1694 4075 3143 932 105
is_linear=0
shrinkage=0.04


Tree=21
num_leaves=11
num_cat=0
split_feature=6 16 19 17 17 17 10 14 14 14
split_gain=1.80133 3.91488 1.87815 2.75424 6.24097 4.29458 2.65391 3.3554 3.03545 0.145675
threshold=-744621.97799999989 -18.430707135273575 -0.057386032995786963 0.35408584323702241 0.15515354893269942 0.72000603956950027 1.4402599870389772 2.9292857142857147 0.56964285714285723 0.1142857142857145
decision_type=2 2 2 2 2 2 2 2 2 2
left_child=1 -1 3 4 -2 -5 8 -8 -4 -3
right_child=2 9 6 5 -6 -7 7 -9 -10 -11
leaf_value=-0.027071111212996379 0.002256690715413243 -0.0024457557832391944 0 0.0069742113123679433 -0.0088840491458866602 -0.0018274026770040434 0.014842646075920146 -5.2273106937014459e-05 -0.0049570604618121693 0.0031156922265324024
leaf_weight=9.4017168730497342 306.61709374189377 9.4540714919567126 519.52290046215057 265.65101839601994 104.07784946262836 102.93691520392895 33.455206453800201 29.600582763552666 294.79345974326134 13.336102709174154
leaf_count=45 1402 44 2410 1218 480 476 153 138 1374 61
internal_value=0 -0.00895915 0.000185982 0.00167135 -0.000320465 0.00419831 -0.000998213 0.00634899 -0.00173517 0
internal_weight=1688.85 32.1919 1656.66 779.283 410.695 368.588 877.372 63.0558 814.316 22.7902
internal_count=7801 150 7651 3576 1882 1694 4075 291 3784 105
is_linear=0
shrinkage=0.04


Tree=22
num_leaves=11
num_cat=0
split_feature=6 16 19 17 17 17 6 18 16 6
split_gain=1.69815 3.72144 1.71743 2.52047 5.78055 3.97382 2.48663 5.17827 5.17681 0.00698042
threshold=-744621.97799999989 -18.430707135273575 -0.057386032995786963 0.35408584323702241 0.15515354893269942 0.72000603956950027 -6492.6490000000003 16.590820837127207 13.750101023573983 -1034903.5214999997
decision_type=2 2 2 2 2 2 2 2 2 2
left_child=1 -1 3 4 -2 -5 7 -4 -8 -3
right_child=2 9 6 5 -6 -7 8 -9 -10 -11
leaf_value=-0.02647622843353542 0.0021655576660166405 0.00095190672495768858 0.013801236638082501 0.0066816900250412691 -0.0085661426028322014 -0.0017575416096961096 -0.0051330741367346614 -0.00026201172178742441 0.0017463164549048882 0
leaf_weight=9.2979632467031461 306.86079433560371 9.3257326781749708 48.053153529763222 266.30747362971306 103.74108046293259 102.86811414361 406.20647159218788 152.88734972476959 269.84945268929005 13.470411509275438
leaf_count=45 1402 43 222 1218 480 476 1902 710 1241 62
internal_value=0 -0.00871666 0.000174584 0.00159691 -0.000298204 0.00401252 -0.000954837 0.00266623 -0.00221485 0
internal_weight=1688.87 32.0941 1656.77 779.777 410.602 369.176 876.996 200.941 676.056 22.7961
internal_count=7801 150 7651 3576 1882 1694 4075 932 3143 105
is_linear=0
shrinkage=0.04


Tree=23
num_leaves=13
num_cat=0
split_feature=22 8 6 18 15 15 14 19 11 22 18 15
split_gain=1.69992 4.35866 5.3198 2.15167 1.90572 4.52902 4.45444 3.80449 3.29851 4.11583 2.51968 1.69492
threshold=4.5000000000000009 2.6507342437563088 71578.771499999988 21.822990021212814 0.076169521732683834 0.092834956828589305 0.21071428571428577 -1.5718781755772422 0.022151504001534223 1.5000000000000002 13.579451611089969 -0.17133431771052862
decision_type=2 2 2 2 2 2 2 2 2 2 2 2
left_child=4 2 11 -4 8 6 -6 -7 9 -1 -10 -2
right_child=1 -3 3 -5 5 7 -8 -9 10 -11 -12 -13
leaf_value=-0.001055136979270906 0 0.01053341473339482 0.017497599376904413 0 0 0.0096178244816364483 0.029761703976998038 0 0.0025719989810556038 0.0063741027663473671 -0.008975336271039653 -0.015655275871554793
leaf_weight=659.70719163119793 10.829174995422362 16.18733574450016 10.762026637792589 8.7710158824920637 21.565848633646965 69.014828354120255 15.675030916929243 529.06832000613213 19.67861133813858 141.2312098890543 116.55124627053738 69.791656851768494
leaf_count=3032 51 74 49 41 100 314 72 2451 92 649 542 334
internal_value=0 -0.00461575 -0.00846268 0.00584868 0.000335449 0.00207275 0.0152955 0.000977532 -0.000717516 0.000124509 -0.00642594 -0.0134506
internal_weight=1688.83 116.341 100.154 19.533 1572.49 635.324 37.2409 598.083 937.168 800.938 136.23 80.6208
internal_count=7801 549 475 90 7252 2937 172 2765 4315 3681 634 385
is_linear=0
shrinkage=0.04


Tree=24
num_leaves=13
num_cat=0
split_feature=10 10 9 17 9 14 11 14 6 7 18 6
split_gain=1.60074 3.60873 5.3335 4.29292 7.29584 3.35497 3.27957 3.11194 2.67235 1.31471 0.45953 0.645016
threshold=1.4402599870389772 0.13328803567807371 0.50327902468096697 0.44251255706590198 0.61534052308751874 0.95714285714285696 0.77435365862509598 2.9292857142857147 499978.41450000013 5.5848037595687905e-32 51.862823976364318 3959.2060000000179
decision_type=2 2 2 2 2 2 2 2 2 2 2 2
left_child=1 2 8 6 -5 -4 -3 9 -1 -2 -9 -12
right_child=7 3 5 4 -6 -7 -8 10 -10 -11 11 -13
leaf_value=-0.00078018421261216351 0 -0.015155930743670607 0.0036054508062940715 0.0022469831804733864 -0.018868370400623759 0.021511370005063597 0 0.0007916127852683945 0.0076709889618872444 0.018661432454630106 0 -0.011891928712596641
leaf_weight=1079.1169001013041 9.2343948334455472 73.132761865854263 126.41868048906326 190.00707466900349 27.053979262709618 24.388919040560722 43.982699081301689 12.857250913977625 59.368725210428238 24.38682621717453 9.2326468527317065 9.4265478700399381
leaf_count=4975 42 343 581 883 127 111 207 60 274 111 43 44
internal_value=0 -0.000255751 0.000626766 -0.00399179 -6.08284e-05 0.00764452 -0.0100949 0.00600225 -0.000215352 0.0142476 0 -0.00578684
internal_weight=1688.61 1623.47 1289.29 334.177 217.061 150.808 117.115 65.1377 1138.49 33.6212 31.5164 18.6592
internal_count=7801 7501 5941 1560 1010 692 550 300 5249 153 147 87
is_linear=0
shrinkage=0.04


Tree=25
num_leaves=15
num_cat=0
split_feature=12 2 17 4 13 17 5 9 10 18 4 8 18 5
split_gain=1.58368 6.35175 5.45888 5.34841 5.93294 4.04277 6.81819 3.9816 3.79058 4.09756 3.58637 3.26132 3.01458 2.01524
threshold=0.7611873199013407 2.652730389995086 0.56566121230114752 52.794897936307642 20.40152416780408 0.49677727188195969 0.39538564326024894 0.30073902874993702 -0.02877445549927082 49.525563971933416 45.232182701048565 10.669634891527471 74.611001008659699 1.6441287996300156
decision_type=2 2 2 2 2 2 2 2 2 2 2 2 2 2
left_child=1 5 8 4 -4 7 -7 -1 9 -2 -10 12 -3 -5
right_child=2 11 3 13 -6 6 -8 -9 10 -11 -12 -13 -14 -15
leaf_value=0.016724009364043353 0 -0.011997360362441136 0 -0.012678893629627586 0.010754857362699941 0.013820116818009091 -0.0087331959770669803 0 -0.0050223537456576929 0.0097722200677365454 0.0035369224436988624 0.0080638783895484872 0 0
leaf_weight=46.46468161046505 363.55987872183323 136.64756786823273 144.98958283662796 31.111458376049995 206.78199055790901 24.858454570174217 73.818217650055885 27.374317601323128 413.38423720002174 77.199565604329109 77.237537637352943 9.6931925565004331 41.55706025660038 13.786409035325049
leaf_count=214 1665 637 671 143 951 115 343 128 1927 349 358 44 193 63
internal_value=0 -0.0023389 0.000640387 0.00460459 0.00645279 0.00268621 -0.00163126 0.0098561 -0.000928876 0.00157633 -0.00341848 -0.00755094 -0.00918196 -0.00686781
internal_weight=1688.46 360.413 1328.05 396.669 351.772 172.516 98.6767 73.839 931.381 440.759 490.622 187.898 178.205 44.8979
internal_count=7801 1674 6127 1828 1622 800 458 342 4299 2014 2285 874 830 206
is_linear=0
shrinkage=0.04


Tree=26
num_leaves=15
num_cat=0
split_feature=3 3 3 3 8 0 2 13 16 1 12 11 16 0
split_gain=1.58929 3.73425 3.60353 5.84175 4.72849 3.56613 4.61939 3.25161 4.65962 4.77768 3.64978 2.74444 1.95215 2.25426
threshold=1.1167496235006495 1.0000000180025095e-35 -0.97710343191480364 -0.61023633071157424 10.669634891527471 1.6715884616093823 1.213286564619996 63.743564824242647 21.922968287847493 0.18213430584695095 1.6697293761312937 0.011355508089927618 -24.155239773637941 8.9330857480263735
decision_type=2 2 2 2 2 2 2 2 2 2 2 2 2 2
left_child=1 2 4 -4 -1 6 -3 8 9 -2 -10 -7 -9 -14
right_child=7 5 3 -5 -6 11 -8 12 10 -11 -12 -13 13 -15
leaf_value=-0.0026108463911210999 0.0093417607590383037 -0.00043917412513017079 0.0099068928166302344 7.7382959648471093e-05 0.013048952637253849 -0.0040069420172135104 -0.012442217717309577 0.0030353973971453119 0.02181428452878444 -0.0047208056453328859 0 0.006214944594824176 -0.015593816841647803 0
leaf_weight=500.21314503252506 66.13110788166523 127.15813931822777 143.82142648100853 360.24671417474747 28.140405163168907 81.051038429141045 119.3686650544405 16.689036533236504 38.041939437389374 76.352794677019119 10.967876777052878 75.930565640330315 27.969397559762001 16.180399939417839
leaf_count=2307 306 591 662 1664 128 376 555 77 173 355 50 353 129 75
internal_value=0 -0.000507841 0.000671408 0.00316063 -0.00148199 -0.00380297 -0.00681169 0.00291644 0.00573298 0.00103927 0.0162245 0.000211033 -0.00392185 -0.00912264
internal_weight=1688.26 1435.93 1032.42 504.068 528.354 403.508 246.527 252.333 191.494 142.484 49.0098 156.982 60.8388 44.1498
internal_count=7801 6636 4761 2326 2435 1875 1146 1165 884 661 223 729 281 204
is_linear=0
shrinkage=0.04


Tree=27
num_leaves=12
num_cat=0
split_feature=22 8 1 9 17 4 10 12 19 17 8
split_gain=1.53905 4.02116 3.40393 2.15515 1.67324 5.77008 4.63532 3.64132 4.6705 4.44981 1.9214
threshold=4.5000000000000009 2.9309101866758671 -0.42696461329616647 -0.19509099016780682 0.37515396294298425 57.714424820247388 0.13328803567807371 0.7611873199013407 -0.43225127667251323 0.72423899064991493 -1.2372841571842344e-25
decision_type=2 2 2 2 2 2 2 2 2 2 2
left_child=4 2 -2 -4 5 6 -1 9 -9 -6 -7
right_child=1 -3 3 -5 7 10 -8 8 -10 -11 -12
leaf_value=-0.00053722595069869772 0.0032284257862232315 0.010359518791905185 0 -0.014091777112241076 0.0012958250950986631 0.015138454811341356 -0.01011308827738884 0.0096694757244158245 0.0010599935498024037 -0.0094404295371395674 0
leaf_weight=571.25522933900356 16.832978442311287 15.601542368531225 9.0018333345651609 74.561571896076202 145.49433672428131 39.865286722779274 98.763361319899559 143.2785747051239 467.93633340299129 88.470756784081459 17.086440607905388
leaf_count=2631 79 71 42 357 673 183 464 650 2160 413 78
internal_value=0 -0.00437403 -0.00805834 -0.0117513 0.000343451 -0.000961051 -0.00216583 0.00160641 0.00331094 -0.00232566 0.0106103
internal_weight=1688.15 115.998 100.396 83.5634 1572.15 726.97 670.019 845.18 611.215 233.965 56.9517
internal_count=7801 549 478 399 7252 3356 3095 3896 2810 1086 261
is_linear=0
shrinkage=0.04


Tree=28
num_leaves=14
num_cat=0
split_feature=10 10 9 3 12 9 3 14 4 3 4 7 7
split_gain=1.52403 3.23347 4.87594 4.81017 3.85841 7.38032 3.3696 2.83084 2.83038 1.49794 1.46257 2.10783 0.813109
threshold=1.4402599870389772 0.13328803567807371 0.50327902468096697 -0.73976662516764768 1.1085003685783719 0.2734439351293631 2.7844454749741891 2.9292857142857147 11.876952986963376 -1.0388545389539756 64.529515939250771 5.5848037595687905e-32 3.9640889052777491e-09
decision_type=2 2 2 2 2 2 2 2 2 2 2 2 2
left_child=1 2 8 -4 6 -6 -3 10 -1 -9 11 -2 -11
right_child=7 4 3 -5 5 -7 -8 9 -10 12 -12 -13 -14
leaf_value=0.0055985102409655671 0 -0.0089038713030086866 0.016543716614206026 0.00045512841320834781 0.014576031664224852 -0.0050582149669855924 0.0058408030846329754 -0.011204472733040515 -0.00096441510278692084 0.011524427372367054 0 0.026222294291142131 0
leaf_weight=112.38615463674068 9.0315177440643328 193.38880389928818 55.106691509485245 96.101746946573257 43.100394204258919 80.778215259313583 16.107754826545715 13.501597315073015 1025.7624005079269 9.2433362603187579 9.4241824597120267 15.319814458489416 8.6695349663496
leaf_count=519 41 912 251 441 199 373 76 63 4730 43 43 69 41
internal_value=0 -0.000226718 0.000603735 0.00730443 -0.00377205 0.00101036 -0.00713901 0.00587657 -0.000198189 0 0.013682 0.0183645 0.00394273
internal_weight=1687.92 1622.73 1289.36 151.208 333.375 123.879 209.497 65.19 1138.15 31.4145 33.7755 24.3513 17.9129
internal_count=7801 7501 5941 692 1560 572 988 300 5249 147 153 110 84
is_linear=0
shrinkage=0.04


Tree=29
num_leaves=11
num_cat=0
split_feature=6 16 16 16 20 17 3 3 7 14
split_gain=1.60633 3.56011 1.9205 4.9704 7.08694 4.2951 4.10868 2.70968 2.62069 0.131094
threshold=-744621.97799999989 -18.430707135273575 -10.944635464079568 2.5934457877735686 2.5000000000000004 0.83841045741268638 -2.52706819194773 -0.97710343191480364 4.1555393342305542e-10 0.1142857142857145
decision_type=2 2 2 2 2 2 2 2 2 2
left_child=1 -1 5 4 -4 7 -5 -2 -7 -3
right_child=2 9 3 6 -6 8 -8 -9 -10 -11
leaf_value=-0.02591988591289596 -0.00086533555185418134 -0.0022724881509594516 -0.0071832318084720514 -0.0050570469661218873 0.0076601415919843752 0 0.0028052036169170492 0.0044865755082223778 -0.022397805694146747 0.0029835395497591712
leaf_weight=9.1968336254358309 176.39540767669678 9.432479530572893 304.72106024622917 122.61474767327309 51.858640670776367 8.9249686747789401 530.81099367141724 445.97331959009171 14.400544002652166 13.350770741701124
leaf_count=45 815 44 1417 563 242 42 2438 2066 68 61
internal_value=0 -0.00845081 0.000208328 -0.000797624 -0.00464489 0.00196325 0.00113068 0.00278094 -0.0131266 0
internal_weight=1687.68 31.9801 1655.7 1010.01 356.58 645.694 653.426 622.369 23.3255 22.7833
internal_count=7801 150 7651 4660 1659 2991 3001 2881 110 105
is_linear=0
shrinkage=0.04


Tree=30
num_leaves=10
num_cat=0
split_feature=6 16 16 12 4 16 20 3 14
split_gain=1.51324 3.38517 1.74332 7.15416 4.62793 4.55966 6.58535 3.79943 0.1228
threshold=-744621.97799999989 -18.430707135273575 -10.944635464079568 1.2490169307639676 12.712115795211767 2.5934457877735686 2.5000000000000004 -2.52706819194773 0.1142857142857145
decision_type=2 2 2 2 2 2 2 2 2
left_child=1 -1 3 4 -2 6 -4 -7 -3
right_child=2 8 5 -5 -6 7 -8 -9 -10
leaf_value=-0.025354912961247339 0.01043499051204763 -0.0022049853483677808 -0.0069174573924695561 0.024442465215859049 -0.00014877341476229013 -0.004868361259222442 0.007350185337876727 0.0026908917038718826 0.0028835831965506602
leaf_weight=9.0946253091096896 69.316194593906403 9.4243990927934664 303.90377315878868 19.142236217856407 557.78756287693977 122.39318330585957 52.007104143500328 531.34234112501144 13.364720493555067
leaf_count=45 319 44 1417 87 2585 563 242 2438 61
internal_value=0 -0.00822345 0.000193573 0.0018674 0.000874758 -0.000761651 -0.00445426 0.00107714 0
internal_weight=1687.78 31.8837 1655.89 646.246 627.104 1009.65 355.911 653.736 22.7891
internal_count=7801 150 7651 2991 2904 4660 1659 3001 105
is_linear=0
shrinkage=0.04


Tree=31
num_leaves=15
num_cat=0
split_feature=22 2 6 10 6 5 5 1 0 7 23 6 1 12
split_gain=1.46388 3.34556 2.59987 2.07312 3.26724 1.59652 3.2915 3.87625 3.04549 1.95951 5.1236 3.23025 0.787072 0.653976
threshold=4.5000000000000009 1.1272551061026859 11947.874999999991 -0.049765333446352138 119778.50900000012 0.93969924000008109 1.2248580964433431 1.2971456286565934 1.2026266028554169 0.006314318331650603 1.0000000180025095e-35 -112551.12699999999 0.02426132047733991 0.90532413142258994
decision_type=2 2 2 2 2 2 2 2 2 2 2 2 2 2
left_child=5 2 13 12 -5 9 8 -8 -7 10 -1 -11 -3 -2
right_child=1 3 -4 4 -6 6 7 -9 -10 11 -12 -13 -14 -15
leaf_value=0.0022740669259096002 -0.0093856852946063163 -0.0079723364853816897 0.018519829545493083 -0.017890127171772709 0 0.0010236213340277802 -0.0041437105352242713 0.009535548832653902 0.010486981691066675 0.0045606496212730373 -0.012931160201791704 -0.0037017574807758609 0.0040443125323937736 6.7906898991779561e-05
leaf_weight=525.6611857265234 8.8774817138910347 10.777770057320597 11.126256003975866 45.02080725133419 9.2835471183061582 174.20474249124527 169.96723331511021 35.361410930752754 108.33136665821075 76.611511439085007 33.616615146398544 448.13232710957527 20.454059839248657 10.285991370677946
leaf_count=2450 42 50 51 219 43 795 776 160 494 352 157 2068 96 48
internal_value=0 -0.00426077 0.00453713 -0.0087798 -0.0133034 0.000342758 0.0022776 -0.00110848 0.00514443 -0.000421506 0.00108259 -0.00224901 0 0
internal_weight=1687.71 115.826 30.2897 85.5362 54.3044 1571.89 487.865 205.329 282.536 1084.02 559.278 524.744 31.2318 19.1635
internal_count=7801 549 141 408 262 7252 2225 936 1289 5027 2607 2420 146 90
is_linear=0
shrinkage=0.04


Tree=32
num_leaves=13
num_cat=0
split_feature=10 10 17 17 17 3 15 12 17 17 1 12
split_gain=1.4291 2.99629 3.70851 3.62927 7.17334 4.11929 2.92208 2.6451 1.95253 1.56755 2.09506 0.326217
threshold=1.4402599870389772 0.13328803567807371 0.86618662502773647 0.44251255706590198 0.48052628094039118 2.7844454749741891 0.076169521732683834 1.4685941192410705 0.90990865201216631 0.34639469781415888 -0.13422819870156227 1.0706698966634964
decision_type=2 2 2 2 2 2 2 2 2 2 2 2
left_child=1 2 6 5 -5 -3 -1 9 -4 10 -2 -11
right_child=7 3 8 4 -6 -7 -8 -9 -10 11 -12 -13
leaf_value=0 0 -0.012269392459450414 -0.020968589145394678 0.023365786753732288 -0.002664055538497051 0.0066175707479934941 0.0043139351684570908 0.022427142777512166 0 -0.010633905571011695 0.013719159404236611 0
leaf_weight=941.48973639309406 9.7244149893522245 104.54258351027966 15.641359716653826 15.364621758460997 201.44707514345646 11.485563710331915 318.21225342154503 9.8153526932001096 14.084294751286505 9.0427775681018847 23.673320040106773 13.015828490257261
leaf_count=4337 46 496 73 72 938 54 1465 44 66 42 109 59
internal_value=0 -0.000211768 0.000584171 -0.00363023 0 -0.00927195 0.00101562 0.00569424 -0.0124496 0 0.00677004 -0.00578925
internal_weight=1687.54 1622.27 1289.43 332.84 216.812 116.028 1259.7 65.2717 29.7257 55.4563 33.3977 22.0586
internal_count=7801 7501 5941 1560 1010 550 5802 300 139 256 155 101
is_linear=0
shrinkage=0.04


Tree=33
num_leaves=10
num_cat=0
split_feature=6 16 16 12 16 20 22 17 12
split_gain=1.46188 3.22107 1.63536 6.62201 4.14004 6.17669 3.53112 3.27745 0.0154086
threshold=-744621.97799999989 -18.430707135273575 -10.944635464079568 1.2490169307639676 2.5934457877735686 2.5000000000000004 2.5000000000000004 0.83841045741268638 1.1452046307546508
decision_type=2 2 2 2 2 2 2 2 2
left_child=1 -1 3 7 5 -4 -6 -2 -3
right_child=2 8 4 -5 6 -7 -8 -9 -10
leaf_value=-0.024877498103567947 0.001620376912157643 0.0011890319051347902 -0.0066564818313996146 0.023469859125188723 0.0023473192641148138 0.0071369778460529422 -0.0058717927039045612 -0.012531078690326349 -0.00025011850496926965
leaf_weight=9.0060793012380618 604.04323832690716 13.911466330289842 303.08400900661945 19.294148191809654 564.20582890510559 52.09907129406929 89.823957592248917 23.14762832224369 8.8998386710882169
leaf_count=45 2794 64 1417 87 2581 242 420 110 41
internal_value=0 -0.00808646 0.00019376 0.00181563 -0.000728929 -0.00425537 0.00101422 0.000850506 0
internal_weight=1687.52 31.8174 1655.7 646.485 1009.21 355.183 654.03 627.191 22.8113
internal_count=7801 150 7651 2991 4660 1659 3001 2904 105
is_linear=0
shrinkage=0.04


Tree=34
num_leaves=10
num_cat=0
split_feature=6 16 16 12 4 16 17 3 5
split_gain=1.37966 3.06426 1.50563 6.12402 4.26748 3.79491 3.94947 3.4745 0.112828
threshold=-744621.97799999989 -18.430707135273575 -10.944635464079568 1.2490169307639676 12.712115795211767 2.5934457877735686 0.35735624573323899 -2.52706819194773 0.90479031807112287
decision_type=2 2 2 2 2 2 2 2 2
left_child=1 -1 3 4 -2 6 -4 -7 -3
right_child=2 8 5 -5 -6 7 -8 -9 -10
leaf_value=-0.02433851391897205 0.009975036480773046 0.0032275030167363493 -0.0079888738747984096 0.022503015140775417 -0.00017042063018289169 -0.0047200000164826549 0 0.0025141985006608396 -0.0016623550008781668
leaf_weight=8.9057835191488284 69.578493028879166 10.182851582765581 189.22956635057926 19.443955838680267 557.85443088412285 122.19298778474331 165.3250548094511 532.10415261983871 12.633573442697523
leaf_count=45 319 47 886 87 2585 563 773 2438 58
internal_value=0 -0.00786845 0.000186527 0.0017441 0.000806417 -0.000695804 -0.00407909 0.000965236 0
internal_weight=1687.45 31.7222 1655.73 646.877 627.433 1008.85 354.555 654.297 22.8164
internal_count=7801 150 7651 2991 2904 4660 1659 3001 105
is_linear=0
shrinkage=0.04


Tree=35
num_leaves=13
num_cat=0
split_feature=10 10 9 9 12 14 16 4 14 4 7 9
split_gain=1.30384 2.74584 4.46578 3.79116 5.82468 3.02057 2.7502 2.67778 2.51171 1.31739 1.91453 0.394464
threshold=1.4402599870389772 0.13328803567807371 0.50327902468096697 0.63252830816940009 1.1085003685783719 0.95714285714285696 -2.9997192901829783 11.876952986963376 2.9292857142857147 64.529515939250771 5.5848037595687905e-32 0.23726302396460988
decision_type=2 2 2 2 2 2 2 2 2 2 2 2
left_child=1 2 7 4 -3 -4 -5 -1 9 10 -2 -10
right_child=8 3 5 6 -6 -7 -8 -9 11 -11 -12 -13
leaf_value=0.0054116813788651456 0 -0.0060438578249805818 0.0030940631887790928 0 0.0051898495869145897 0.020000748073142033 -0.021736350949709556 -0.00096314391712279846 -0.005682709099266001 0 0.024598908280741467 0.00049928292529912105
leaf_weight=112.5194016546011 9.0593983829021472 187.03482536971569 126.93182599544525 9.2155535817146284 109.67730636894703 24.676798224449158 26.383904606103897 1025.5452406257391 16.405284687876705 9.4394760429859144 15.517993465065954 14.987745031714438
leaf_count=519 41 886 581 44 505 111 125 4730 77 43 69 70
internal_value=0 -0.000208417 0.00054932 -0.00348561 -0.00148064 0.00695675 -0.0156738 -0.000215135 0.00542798 0.0127677 0.0171827 0
internal_weight=1687.39 1621.98 1289.67 332.312 296.712 151.609 35.5995 1138.06 65.4099 34.0169 24.5774 31.393
internal_count=7801 7501 5941 1560 1391 692 169 5249 300 153 110 147
is_linear=0
shrinkage=0.04


Tree=36
num_leaves=12
num_cat=0
split_feature=22 8 1 9 15 15 14 19 17 1 2
split_gain=1.29991 3.69162 3.12122 2.00187 1.85542 4.14936 4.07919 3.43068 3.02943 3.433 2.23913
threshold=4.5000000000000009 2.9309101866758671 -0.42696461329616647 -0.19509099016780682 0.076169521732683834 0.092834956828589305 0.21071428571428577 -1.5718781755772422 0.35408584323702241 0.59414237787933954 2.8083628695865586
decision_type=2 2 2 2 2 2 2 2 2 2 2
left_child=4 2 -2 -4 8 6 -6 -7 9 -1 -10
right_child=1 -3 3 -5 5 7 -8 -9 10 -11 -12
leaf_value=-0.0011840907514411919 0.0030097536736358962 0.010005715447934353 0 -0.013470622909041878 0 0.009168246454975635 0.028455904973227128 0 0 -0.010958936773369551 0.0061044735720217867
leaf_weight=408.19252991676331 16.865770250558853 15.649629473686216 9.0062930732965452 73.954552009701729 21.570479422807693 69.234749779105186 15.838227644562719 528.38271287083626 335.11197607219219 74.100762605667114 119.26746265590191
leaf_count=1884 79 71 42 357 100 314 72 2451 1540 341 550
internal_value=0 -0.00401252 -0.00760495 -0.0111886 0.000330826 0.00204609 0.0146961 0.000985 -0.000707171 -0.00299166 0.00145901
internal_weight=1687.18 115.476 99.8266 82.9608 1571.7 635.026 37.4087 597.617 936.673 482.293 454.379
internal_count=7801 549 478 399 7252 2937 172 2765 4315 2225 2090
is_linear=0
shrinkage=0.04


Tree=37
num_leaves=11
num_cat=0
split_feature=6 6 5 6 6 1 10 10 20 17
split_gain=1.2926 1.91277 1.44721 4.10179 8.35948 5.63452 2.16749 3.28471 1.26796 0.130229
threshold=-744621.97799999989 -878245.13249999995 0.9834660077964682 1954.6259999999954 12454.920499999987 0.075648484994814122 1.4402599870389772 0.13328803567807371 1.0000000180025095e-35 0.16074311494213625
decision_type=2 2 2 2 2 2 2 2 2 2
left_child=1 9 6 5 -5 -4 7 -2 -8 -1
right_child=2 -3 3 4 -6 -7 8 -9 -10 -11
leaf_value=0.0032135414458039045 3.5206421334120697e-05 -0.018048152676819126 0 -0.01358707247268366 0.0028014057867704768 0.012370242991348269 0 -0.0052825795254871043 0.014725876304048915 -0.0024177360321226546
leaf_weight=10.814768821001058 943.80393083393574 12.555584177374838 92.129940435290337 62.096467897295952 192.95277941226959 111.50813534855843 16.927007079124451 216.46758037805557 19.501706272363663 8.2401359081268293
leaf_count=50 4361 60 422 284 881 509 78 1026 90 40
internal_value=0 -0.00761419 0.000192702 0.00214502 -0.000835217 0.00641633 -0.000459078 -0.000864821 0.00850309 0
internal_weight=1687 31.6105 1655.39 458.687 255.049 203.638 1196.7 1160.27 36.4287 19.0549
internal_count=7801 150 7651 2096 1165 931 5555 5387 168 90
is_linear=0
shrinkage=0.04


Tree=38
num_leaves=15
num_cat=0
split_feature=12 2 2 16 16 5 22 5 11 4 11 10 1 6
split_gain=1.24135 5.82366 3.92723 4.04241 5.69785 4.06621 3.67545 4.64746 3.42904 3.00316 2.43718 3.83029 2.19808 2.18588
threshold=0.7611873199013407 2.652730389995086 3.0831113739696812 26.259854397243195 53.741106157696386 1.4474393252898192 -1.0000000180025095e-35 0.91690032097998209 -0.10188190044519271 12.102388145201042 -0.023656603906158976 -0.063206801378459229 1.3804246751086091 1797.9745000000114
decision_type=2 2 2 2 2 2 2 2 2 2 2 2 2 2
left_child=1 9 10 5 -5 -4 8 -8 -3 -1 11 -2 -12 -11
right_child=2 6 3 4 -6 -7 7 -9 -10 13 12 -13 -14 -15
leaf_value=0.018956622581118174 -0.00084758335354585422 -0.011105499754940769 0.0084928310039690518 -0.011612251669510217 0.0057929205730129539 -0.0093911088298524494 -0.014661556919226978 0.0014574471502033246 0.0074335710675415279 -0.0023191229896334892 -0.0032466324860669022 0.0070761169800896331 0.0054987809078607666 0.0071711309850970564
leaf_weight=14.046733215451239 264.69694900512695 21.679175466299057 241.95133888721466 51.112646624445915 57.748878955841064 13.477919995784758 102.90275755524635 21.093969136476517 41.205907940864563 104.27988013625145 525.06835259497166 135.35135737061501 38.348984345793724 53.981032341718674
leaf_count=64 1208 100 1119 234 262 62 484 97 193 485 2443 622 177 251
internal_value=0 -0.00204335 0.000596764 0.00416326 -0.00139866 0.00698676 -0.00707309 -0.0110049 0 0.002755 -0.000636318 0.00156829 -0.00241355 0.000246949
internal_weight=1686.95 359.189 1327.76 364.291 108.862 255.429 186.882 123.997 62.8851 172.308 963.466 400.048 563.417 158.261
internal_count=7801 1674 6127 1677 496 1181 874 581 293 800 4450 1830 2620 736
is_linear=0
shrinkage=0.04


Tree=39
num_leaves=16
num_cat=0
split_feature=5 8 17 9 17 15 10 10 21 1 13 1 12 1 11
split_gain=1.18075 2.74908 2.58658 7.6567 6.9954 2.54003 3.06807 2.53942 2.38425 4.57202 5.26698 4.77113 4.3337 5.19538 3.20372
threshold=0.65051378387379166 -1.0935136935579628 0.099184761020769008 0.20304585937830846 0.309254383949149 -0.096251942645621466 -0.014849380168241553 -0.084916416525713675 1.0000000180025095e-35 -0.030842534014343458 83.416362545229092 -0.39187993660472326 0.92077287277195896 1.0362149415358777 -0.23673913111539055
decision_type=2 2 2 2 2 2 2 2 2 2 2 2 2 2 2
left_child=8 5 3 -3 -4 7 -7 -2 12 11 -11 -10 13 -1 -14
right_child=1 2 4 -5 -6 6 -8 -9 9 10 -12 -13 14 -15 -16
leaf_value=-0.011403931978481045 -0.0042484440064011128 -0.00034701121719301779 -0.010493621362804309 0.015016326893857847 0.00035931121640689979 0.012562625168401816 -0.00030810200614506323 0.010185736644920285 0 -0.0039456591345215959 0.016964569359739796 0.018674977007440138 -0.015108022188672241 0.0017000226046273385 0.0023810934747912171
leaf_weight=147.13701802492142 62.135656833648682 177.60239863395691 111.14514343440533 63.214808508753777 462.78790163993835 86.919386580586433 18.441951334476471 24.830782294273376 38.160050064325333 189.68286919593811 17.306164175271988 39.927967399358749 14.882785797119139 48.911148712038994 183.77012999355793
leaf_count=692 281 817 518 291 2130 391 85 113 177 885 80 183 69 230 859
internal_value=0 0.000901879 0 0.00332886 -0.00157806 0.00516961 0.00925623 0 -0.00125045 0.00123431 -0.00140853 0.00951254 -0.00334261 -0.00755547 0.000270483
internal_weight=1686.86 1007.08 814.75 240.817 573.933 192.328 105.361 86.9664 679.778 285.077 206.989 78.088 394.701 196.048 198.653
internal_count=7801 4626 3756 1108 2648 870 476 394 3175 1325 965 360 1850 922 928
is_linear=0
shrinkage=0.04


Tree=40
num_leaves=16
num_cat=0
split_feature=3 3 0 2 3 9 2 3 6 10 7 9 3 15 7
split_gain=1.31372 3.44453 3.1916 4.29527 3.18726 5.36874 4.38522 2.95737 3.86281 5.54398 3.71072 3.90146 2.70714 1.69248 1.56196
threshold=1.1167496235006495 1.0000000180025095e-35 1.6715884616093823 1.213286564619996 -0.97710343191480364 0.14828795552826549 1.0489953131517653 1.6012969107076651 -4578.9689999999991 0.045818522513928268 4.8304043473324967 0.30073902874993702 0.18031237178390017 0.055984975628881335 45.138775445162672
decision_type=2 2 2 2 2 2 2 2 2 2 2 2 2 2 2
left_child=1 4 3 -3 6 -6 -1 8 13 -10 11 -9 -4 -2 -12
right_child=7 2 12 -5 5 -7 -8 10 9 -11 14 -13 -14 -15 -16
leaf_value=-0.015538271273758363 -0.013293665621701348 -0.00029455208279163976 -0.0066260205678988424 -0.011907906739553038 0.0074326693843699285 -0.00043413845168421448 -0.00013901335136442053 0.0091505327920950123 0.02937619260049016 0 -0.018612419134209988 -0.0028420642019553349 0.0043190820457804707 0.0051436722116198009 0
leaf_weight=29.848290517926216 10.588774755597116 126.92365294694901 48.246232151985168 118.6073405444622 236.22961212694645 268.0978356897831 497.3061406314373 81.593603372573853 22.047147393226624 23.877416238188744 17.320118725299835 65.842708423733711 108.76180221140385 8.5879413783550245 22.824194192886353
leaf_count=138 49 591 224 555 1088 1238 2297 374 101 112 80 304 505 40 105
internal_value=0 -0.000433357 -0.00360806 -0.00646341 0.000696451 0.00303634 -0.00132028 0.00267684 0.00981754 0.0161397 0 0.00304728 0.000144679 -4.68985e-05 -0.0102583
internal_weight=1686.7 1434.02 402.539 245.531 1031.48 504.327 527.154 252.682 65.1013 45.9246 187.581 147.436 157.008 19.1767 40.1443
internal_count=7801 6636 1875 1146 4761 2326 2435 1165 302 213 863 678 729 89 185
is_linear=0
shrinkage=0.04


Tree=41
num_leaves=12
num_cat=0
split_feature=22 0 14 1 8 13 16 5 3 3 6
split_gain=1.2579 5.85125 5.51331 2.38216 2.37055 8.2843 2.68452 2.65759 2.23024 1.87438 1.15079
threshold=-2.4999999999999996 3.1794232846549373 0.11642857142857148 0.62779610759499149 10.669634891527471 39.897930944341375 -48.350632651357706 0.59460925102819029 1.1167496235006495 1.0000000180025095e-35 -9442.9154999999937
decision_type=2 2 2 2 2 2 2 2 2 2 2
left_child=1 2 -1 -4 6 10 7 -2 -8 -3 -6
right_child=4 9 3 -5 5 -7 8 -9 -10 -11 -12
leaf_value=0.0048868546476140669 -0.0232891123309075 0.01942011550155642 -0.021950419174355206 0 0.0037032633441626116 0.031578941007146748 -0.00046900234947646886 0 0.0038093646055443573 0 -0.0064782000465976666
leaf_weight=12.349930778145788 12.732750102877619 11.031208753585817 41.053488522768021 8.7885982990264875 57.717220604419708 14.215998992323874 1263.6143109053373 8.7267866134643537 224.79665447771549 10.808380827307699 21.032747358083725
leaf_count=57 61 51 190 41 264 64 5851 40 1035 50 97
internal_value=0 -0.00466063 -0.0117233 -0.0181537 0.000275837 0.00638587 -3.29683e-05 -0.0132297 0.000103067 0.00960738 0
internal_weight=1686.87 84.0316 62.192 49.8421 1602.84 92.966 1509.87 21.4595 1488.41 21.8396 78.75
internal_count=7801 389 288 231 7412 425 6987 101 6886 101 361
is_linear=0
shrinkage=0.04


Tree=42
num_leaves=13
num_cat=0
split_feature=10 4 4 4 14 12 12 9 17 5 0 10
split_gain=1.14786 2.55634 7.27788 5.49799 4.88784 2.58465 2.41092 1.9028 4.53831 1.85582 1.58072 1.41698
threshold=1.4402599870389772 53.20880536493673 58.473150356624842 43.086891074532964 1.5271428571428585 1.6697293761312937 1.4685941192410705 0.23726302396460988 0.3364024643104076 1.2248580964433431 0.60018849640177341 0.4786130322223921
decision_type=2 2 2 2 2 2 2 2 2 2 2 2
left_child=1 3 9 5 -5 -1 7 10 -9 -3 -2 -4
right_child=6 2 11 4 -6 -7 -8 8 -10 -11 -12 -13
leaf_value=-0.00018104533150738609 0 -0.020865151352357173 0.004895003842022543 0.0096241787997165314 -0.0084392594921803513 -0.010813450194110901 0.020864897948757868 0.019986701401492748 -0.0030563459866289767 0 -0.01676940464892283 -0.0057603716895463465
leaf_weight=1273.3244370371103 8.6069877147674578 39.77645018696785 63.281058177351952 155.53028634190559 18.806521415710449 35.888959869742393 9.9461581707000715 18.873220950365067 17.25231721997261 15.144013717770575 10.897240802645682 19.447795063257217
leaf_count=5905 40 184 289 713 87 163 44 86 79 69 51 91
internal_value=0 -0.000188988 -0.00538254 0.000222055 0.00688911 -0.000588011 0.00509271 0 0.00652452 -0.0164396 -0.0078278 0.000876466
internal_weight=1686.78 1621.2 137.649 1483.55 174.337 1309.21 65.5759 55.6298 36.1255 54.9205 19.5042 82.7289
internal_count=7801 7501 633 6868 800 6068 300 256 165 253 91 380
is_linear=0
shrinkage=0.04


Tree=43
num_leaves=11
num_cat=0
split_feature=6 16 16 4 10 16 16 20 22 0
split_gain=1.21768 2.89566 1.53075 3.57317 5.21597 3.65687 3.44836 5.70953 3.1435 0.0516049
threshold=-744621.97799999989 -18.430707135273575 -10.944635464079568 12.712115795211767 0.10431999168906715 -16.34123732364165 2.5934457877735686 2.5000000000000004 2.5000000000000004 0.1488616610602522
decision_type=2 2 2 2 2 2 2 2 2 2
left_child=1 -1 3 4 -2 -5 7 -4 -8 -3
right_child=2 9 6 5 -6 -7 8 -9 -10 -11
leaf_value=-0.023571393768754778 0.015445079536387194 -0.00068473990720870276 -0.0062803068405000526 -0.0010212338400015075 -0.0081573178027434176 0.0064895457494466924 0.0021171932630707374 0.0069713428500376429 -0.0056532930606749557 0.0023821275774597406
leaf_weight=8.759758412837984 59.985543072223663 12.502380341291429 301.83754423260689 448.6981161236763 10.28524401783943 127.65930895507336 565.15872152149677 52.15531462430954 89.579237192869186 10.269681915640829
leaf_count=45 272 58 1417 2082 49 588 2581 242 420 47
internal_value=0 -0.00741921 0.000169223 0.00174111 0.0101602 0.000460217 -0.000721973 -0.00394957 0.00085068 0
internal_weight=1686.89 31.5318 1655.36 646.628 70.2708 576.357 1008.73 353.993 654.738 22.7721
internal_count=7801 150 7651 2991 321 2670 4660 1659 3001 105
is_linear=0
shrinkage=0.04


Tree=44
num_leaves=11
num_cat=0
split_feature=6 16 16 17 16 16 17 17 16 5
split_gain=1.14832 2.75555 1.5153 5.09144 4.12812 2.75907 4.85046 2.61809 0.55908 0.116462
threshold=-744621.97799999989 -18.430707135273575 -25.393655078619425 0.80933914710001753 -36.60626271242851 -21.7067838665788 0.58519172556659182 -0.40111723202127941 -39.441747563207969 0.90479031807112287
decision_type=2 2 2 2 2 2 2 2 2 2
left_child=1 -1 3 4 -2 6 -4 -7 -5 -3
right_child=2 9 5 8 -6 7 -8 -9 -10 -11
leaf_value=-0.023063659799613782 -0.0012757042452935141 0.0033690286888887373 -0.014099385847630683 0 0.0084867413384334799 -0.0063880070368195398 0.0028857910346114439 0.00065436115857792911 -0.01727459500696138 -0.0015373367988226806
leaf_weight=8.6625241488218325 81.521316424012184 10.166386544704439 57.518747910857201 10.728406205773355 174.04820977151394 87.181328102946281 29.523030325770378 1200.8184980601072 14.059057012200354 12.611104428768156
leaf_count=45 381 47 270 52 794 401 139 5548 66 58
internal_value=0 -0.00721899 0.000160096 0.00287013 0.00492996 -0.000310418 -0.0071014 7.09939e-05 -0.0122885 0
internal_weight=1686.84 31.44 1655.4 280.357 255.57 1375.04 87.0418 1288 24.7875 22.7775
internal_count=7801 150 7651 1293 1175 6358 409 5949 118 105
is_linear=0
shrinkage=0.04


Tree=45
num_leaves=12
num_cat=0
split_feature=22 8 6 9 15 15 0 17 17 1 16
split_gain=1.13938 3.3893 4.67483 3.39306 1.78004 3.89725 4.02058 3.05357 2.82949 3.26752 2.2283
threshold=4.5000000000000009 2.9309101866758671 219225.57250000004 -0.20140239991317135 0.076169521732683834 0.092834956828589305 0.85981558529321411 0.10795090116420927 0.35408584323702241 0.59414237787933954 -27.458752723586375
decision_type=2 2 2 2 2 2 2 2 2 2 2
left_child=4 2 3 -2 8 6 -6 -7 9 -1 -10
right_child=1 -3 -4 -5 5 7 -8 -9 10 -11 -12
leaf_value=-0.0011710506491615052 0.0010805781755542153 0.0095052380192849548 0.012528502526490017 -0.014268247248933091 0.029480063387358899 0.0070201838213505251 0 -0.00017918853683824659 0.0070927947261900182 -0.010736102230199997 0
leaf_weight=408.01748861372471 12.697920069098471 15.718847721815107 8.9549365639686567 77.762917071580887 13.819092974066733 106.38198804855347 23.724529534578323 491.26288098096848 84.446907624602318 73.89162078499794 370.25559689104557
leaf_count=1884 59 71 41 378 63 490 109 2275 389 341 1701
internal_value=0 -0.00378956 -0.00728018 -0.0108643 0.000283426 0.00196705 0.0142077 0.000931192 -0.000733291 -0.00294249 0.00134985
internal_weight=1686.93 115.135 99.4158 90.4608 1571.8 635.188 37.5436 597.645 936.612 481.909 454.703
internal_count=7801 549 478 437 7252 2937 172 2765 4315 2225 2090
is_linear=0
shrinkage=0.04


Tree=46
num_leaves=16
num_cat=0
split_feature=12 18 6 12 7 4 7 16 18 22 4 0 16 12 19
split_gain=1.12734 3.92271 4.20046 4.87915 3.3239 2.93596 4.14111 2.80792 7.97642 4.51281 2.76351 2.72101 2.12268 2.49159 2.16463
threshold=0.7611873199013407 40.431264873596106 15998.432000000013 0.67132312255307292 45.138775445162672 26.169033735532889 1.50479160205712e-21 -8.8908437685784154 50.487789230644488 -1.4999999999999998 24.142819442803319 3.3062044231310295 -6.6917627749102229 0.93598097143751546 0.080840862605332006
decision_type=2 2 2 2 2 2 2 2 2 2 2 2 2 2 2
left_child=1 2 4 -4 -1 10 -7 8 11 -10 -3 -2 13 -9 -14
right_child=7 5 3 -5 -6 6 -8 12 9 -11 -12 -13 14 -15 -16
leaf_value=-0.0043578000520820446 -0.0011471005707606242 -0.003316208627098742 0.028693195186001438 0 0.0099715474451847318 0.0011284157767394683 -0.014247329753037859 0 -0.00044818406678898506 0.019490035303624049 0.017693784774188492 0.00703247336172218 0.0017572830527102078 -0.016960190338680636 -0.0022193078924280466
leaf_weight=125.29150097072124 271.34116019308567 49.682099193334579 14.993094980716704 23.515176981687546 27.212269350886345 20.330269232392311 88.465199068188667 17.158616617321968 9.5759180039167386 61.47400213778019 9.2728522270917875 78.870524257421494 448.57009547948837 23.792677089571953 417.14338876307011
leaf_count=587 1253 232 69 109 124 96 414 81 44 280 43 365 2060 112 1932
internal_value=0 -0.00197052 0.00145094 0.0129927 -0.000886188 -0.00652625 -0.0103475 0.000547559 0.00328104 0.015273 0 0.000399351 -0.000597207 -0.00920035 -2.1746e-05
internal_weight=1686.69 358.762 191.012 38.5083 152.504 167.75 108.795 1327.93 421.262 71.0499 58.955 350.212 906.665 40.9513 865.713
internal_count=7801 1674 889 178 711 785 510 6127 1942 324 275 1618 4185 193 3992
is_linear=0
shrinkage=0.04


Tree=47
num_leaves=11
num_cat=0
split_feature=6 16 16 16 4 4 4 22 20 15
split_gain=1.09602 2.62882 1.35225 5.49741 4.47678 4.30963 3.52264 5.14002 3.3952 0.297526
threshold=-744621.97799999989 -18.430707135273575 -13.593741518933985 -15.77948501799645 41.223694581771113 12.712115795211767 43.086891074532964 2.5000000000000004 1.5000000000000002 0.016333492815528153
decision_type=2 2 2 2 2 2 2 2 2 2
left_child=1 -1 3 5 -5 -2 8 -8 -4 -3
right_child=2 9 6 4 -6 -7 7 -9 -10 -11
leaf_value=-0.022611110984365874 0.010328042854230867 -0.0032556304086391835 -0.0034856146074191026 0.019074615130961342 -0.00042823759568727917 -0.00088742135370799985 0.0061758909238325511 -0.0094075682769059251 0.0020398526901471699 0.0047692272944726338
leaf_weight=8.5738993287086505 58.418482109904289 11.712455153465273 621.72480016946793 45.811105147004128 12.253897443413733 459.9146005064249 207.45237921178341 32.496730983257294 217.10625815391541 11.073217228054999
leaf_count=45 266 54 2877 210 56 2134 948 152 1008 51
internal_value=0 -0.00705709 0.000159983 0.00177435 0.0131748 0.000198592 -0.00059418 0.00348136 -0.00191079 0
internal_weight=1686.54 31.3596 1655.18 576.398 58.065 518.333 1078.78 239.949 838.831 22.7857
internal_count=7801 150 7651 2666 266 2400 4985 1100 3885 105
is_linear=0
shrinkage=0.04


Tree=48
num_leaves=14
num_cat=0
split_feature=5 4 12 4 17 7 17 1 11 5 16 19 13
split_gain=1.06837 3.82008 4.49611 3.06383 3.24522 2.76181 4.27474 3.7917 3.11236 4.03642 3.17894 2.61233 2.50035
threshold=0.65051378387379166 11.876952986963376 0.86354956625257617 19.793688685400912 0.76408190642507867 0.0035668173695685298 0.12398834574223601 -0.10065013355558979 -0.020403461679832934 0.51740884482514338 -37.320138870845362 -0.24100867673424836 30.488726840103691
decision_type=2 2 2 2 2 2 2 2 2 2 2 2 2
left_child=5 2 -2 4 -3 8 7 -7 9 -1 -10 -5 -8
right_child=1 3 -4 11 -6 6 12 -9 10 -11 -12 -13 -14
leaf_value=0.016847137139066218 0.031712758699144132 -0.006506194091588236 0 0.0039920511457450444 0.010500607366000277 0 0.00088130230424722988 -0.017021591878653049 -0.01436202836564825 0 0.0004525313079271136 -0.00034812861356559569 -0.0074492795332498406
leaf_weight=38.68399341404438 10.835632100701334 156.48545083403587 11.726855754852293 363.04302656650543 12.705608874559401 21.448733553290367 206.94912786781788 57.977411881089211 21.756396263837814 34.149000659584999 228.496197655797 452.4782909154892 69.77576644718647
leaf_count=180 47 723 53 1645 58 99 962 272 105 160 1071 2100 326
internal_value=0 0.000835869 0.0162146 0.000313829 -0.00437145 -0.00121283 -0.00371695 -0.0118633 0.00118837 0.00841722 -0.000516452 0.00144492 -0.000847613
internal_weight=1686.51 1007.27 22.5625 984.712 169.191 679.237 356.151 79.4261 323.086 72.833 250.253 815.521 276.725
internal_count=7801 4626 100 4526 781 3175 1659 371 1516 340 1176 3745 1288
is_linear=0
shrinkage=0.04


Tree=49
num_leaves=12
num_cat=0
split_feature=22 0 1 1 8 19 4 4 4 19 16
split_gain=1.09074 5.39695 3.68933 4.19266 2.17609 7.93536 3.01812 5.6749 5.63747 1.89396 1.12963
threshold=-2.4999999999999996 3.1794232846549373 0.70056422831031084 -0.015605936388374271 10.669634891527471 -1.9996458923512661 53.20880536493673 43.383947354864482 57.714424820247388 0.25511811485454006 -14.092314238257037
decision_type=2 2 2 2 2 2 2 2 2 2 2
left_child=1 2 3 -1 6 -6 7 -2 -8 -3 -7
right_child=4 9 -4 -5 5 10 8 -9 -10 -11 -12
leaf_value=0 -0.00037927527842560564 0.018790577354581072 0.0029533043433824513 -0.023505200352865102 0.02644838400100705 0.0061119013904851142 -0.016038718301803565 0.0075451586736451906 0 0 -0.0038818500989567625
leaf_weight=18.428394064307213 1201.1439426392317 11.579734042286875 8.9980714023113233 34.411753877997398 20.26584155857563 24.76124195754528 49.664817601442337 158.79662892222404 99.849490851163864 10.332547321915625 48.124091818928719
leaf_count=85 5574 53 42 161 91 113 229 726 458 48 221
internal_value=0 -0.0043555 -0.0112206 -0.0158122 0.000248919 0.00610041 -4.42301e-05 0.000472566 -0.00544851 0.0092196 0
internal_weight=1686.36 83.7505 61.8382 52.8401 1602.61 93.1512 1509.45 1359.94 149.514 21.9123 72.8853
internal_count=7801 389 288 246 7412 425 6987 6300 687 101 334
is_linear=0
shrinkage=0.04


Tree=50
num_leaves=13
num_cat=0
split_feature=10 12 10 9 3 9 12 16 16 9 18 0
split_gain=1.07117 2.27397 2.24195 4.28513 4.41337 3.52821 5.22774 2.60369 1.75191 1.73706 1.92161 1.493
threshold=1.4402599870389772 1.4685941192410705 0.13328803567807371 0.50327902468096697 -0.73976662516764768 0.63252830816940009 1.1085003685783719 -2.9997192901829783 60.996613962981307 0.23726302396460988 72.048417614811569 0.60018849640177341
decision_type=2 2 2 2 2 2 2 2 2 2 2 2
left_child=2 9 3 8 -5 6 -4 -7 -1 11 -11 -2
right_child=1 -3 5 4 -6 7 -8 -9 -10 10 -12 -13
leaf_value=0 0 0.02017462007237119 -0.0055915704709532743 0.015547054065029892 0.00017494111174160633 0 0.0050717069261140956 -0.020909238097432531 -0.0090248314596018172 0.015344529194404568 0 -0.016271004856728694
leaf_weight=1105.4064069837332 8.6121772974729556 10.003683820366858 186.04102277755737 55.492882177233696 96.267119690775871 9.1862806975841504 109.75230826437473 26.067572936415672 32.389303356409073 16.472176522016525 19.746278390288353 10.81647679209709
leaf_count=5101 40 44 886 251 441 44 505 125 148 75 90 51
internal_value=0 0.00490897 -0.000191481 0.000484269 0.00676375 -0.00316373 -0.00122221 -0.0149434 -0.000263687 0 0.00620551 -0.00752209
internal_weight=1686.25 65.6508 1620.6 1289.56 151.76 331.047 295.793 35.2539 1137.8 55.6471 36.2185 19.4287
internal_count=7801 300 7501 5941 692 1560 1391 169 5249 256 165 91
is_linear=0
shrinkage=0.04


Tree=51
num_leaves=16
num_cat=0
split_feature=3 17 13 17 4 8 3 3 3 2 0 17 1 8 3
split_gain=1.06171 4.32593 6.07351 5.51625 4.06752 3.45494 3.04415 2.94079 5.15121 4.04957 2.8898 4.77443 2.8374 2.71564 2.51413
threshold=1.1167496235006495 0.46070879270729509 71.96896681481121 0.18272205954693818 24.902860512641755 -0.081511212073883108 1.0000000180025095e-35 -0.97710343191480364 -0.61023633071157424 1.0489953131517653 1.6715884616093823 0.25083994333302223 -0.038900526953870994 -3.3379171202437377e-18 0.18031237178390017
decision_type=2 2 2 2 2 2 2 2 2 2 2 2 2 2 2
left_child=6 3 12 5 -4 -2 7 9 -9 -1 11 -8 -3 -5 -12
right_child=1 2 4 13 -6 -7 10 8 -10 -11 14 -13 -14 -15 -16
leaf_value=-0.014995641604448204 -0.0028199172195965171 0 0.001980041151108045 -0.017130122990339135 -0.022985782753385382 0.013101824922972348 0 0.009211429044985224 0 -0.00013934684321264881 -0.0063654213152907913 -0.011619180886879528 0.014703668727303261 0 0.004181069495837823
leaf_weight=29.643556252121925 28.912033021450043 18.917251825332642 11.073421970009806 40.082445815205574 12.062766745686529 34.867290884256363 122.21806755661964 144.49616074562073 360.20898175239563 497.0147555321455 48.097090005874634 122.37156407535076 91.545547589659691 15.718672171235083 108.85465380549431
leaf_count=138 131 86 51 187 56 160 572 662 1664 2297 224 574 421 73 505
internal_value=0 0.00239081 0.00750239 -0.00238491 -0.00758961 0.00428488 -0.000404056 0.000651358 0.00290115 -0.00128231 -0.00339626 -0.00612443 0.0118381 -0.0118788 0.000140152
internal_weight=1686.08 253.179 133.599 119.58 23.1362 63.7793 1432.9 1031.36 504.705 526.658 401.541 244.59 110.463 55.8011 156.952
internal_count=7801 1165 614 551 107 291 6636 4761 2326 2435 1875 1146 507 260 729
is_linear=0
shrinkage=0.04


Tree=52
num_leaves=16
num_cat=0
split_feature=12 2 3 2 6 18 15 13 31 21 15 15 9 18 11
split_gain=1.05424 5.03322 3.41513 3.25165 3.34304 3.21973 3.01194 2.82968 2.68685 2.66226 2.58192 2.8275 2.74951 2.3259 2.07558
threshold=0.7611873199013407 2.652730389995086 0.36459179205668046 3.0831113739696812 4869.0570000000107 16.590820837127207 -0.041051112619133003 62.506376545240961 -1.0000000180025095e-35 1.0000000180025095e-35 0.43271670131514245 0.29971174415130281 0.0052839184951276831 71.55268579306447 -0.31251556160769906
decision_type=2 2 2 2 2 2 2 2 2 2 2 2 2 2 2
left_child=1 2 5 10 8 -1 -4 -6 -5 13 11 -2 -12 -3 -11
right_child=3 9 6 4 7 -7 -8 -9 -10 14 12 -13 -14 -15 -16
leaf_value=-0.0026263907655887458 -0.00055796302855479934 -0.014956501512021459 -0.018760327707947805 -0.006580772082588459 0.0049196988747963848 0.0094722650492828544 0 -0.0050890345164627598 0.0088207637616343516 -0.012198125336678299 0 0.010683179297008042 -0.015294230384219207 0 0.0015783514827137158
leaf_weight=30.74032136797905 882.33951887488365 69.582028344273567 15.623324245214461 8.8388660997152311 84.559527188539505 105.69962494075298 20.487911239266396 89.988508149981499 181.87989866733551 18.083852216601372 11.034499213099478 34.223819047212601 34.872969835996628 25.937696143984795 72.231485620141029
leaf_count=142 4076 330 73 41 391 489 96 414 831 84 51 159 164 122 338
internal_value=0 -0.00190472 0.0025092 0.000531337 0.00377557 0.00588796 -0.0066611 0 0.00739667 -0.00661335 -0.000583495 0 -0.00954925 -0.0112707 -0.000197628
internal_weight=1686.12 358.386 172.551 1327.74 365.267 136.44 36.1112 174.548 190.719 185.835 962.471 916.563 45.9075 95.5197 90.3153
internal_count=7801 1674 800 6127 1677 631 169 805 872 874 4450 4235 215 452 422
is_linear=0
shrinkage=0.04


Tree=53
num_leaves=11
num_cat=0
split_feature=6 16 17 6 17 6 17 15 7 15
split_gain=1.05371 2.48769 1.38503 2.94577 2.35595 4.62149 4.13094 1.64679 1.18264 0.274721
threshold=-744621.97799999989 -18.430707135273575 -0.50004519560214 -17054.717499999959 -1.0000000180025095e-35 178083.37699999998 0.35119996182163055 -0.12090202080902018 0.072141629022252532 0.016333492815528153
decision_type=2 2 2 2 2 2 2 2 2 2
left_child=1 -1 3 7 5 -4 -6 -2 -5 -3
right_child=2 9 4 8 6 -7 -8 -9 -10 -11
leaf_value=-0.022144796988335151 -0.0074388255218531584 -0.0032157126731662744 0.00090076571391002917 0 -0.0038169160740052243 0.014983929235641586 0.0011175713327849616 0.0094188799340445255 -0.022993824252274031 0.00451511722792107
leaf_weight=8.4817654490470904 10.488581627607347 11.705750808119776 248.44413384795189 12.0120095461607 374.65871036052704 46.89919525384903 930.91068178415298 18.2866440564394 13.180322930216787 11.101822182536123
leaf_count=45 48 54 1140 56 1748 215 4299 84 61 51
internal_value=0 -0.00693742 0.000146668 -0.00584965 0.000434187 0.00366751 -0.000212277 0 -0.0153729 0
internal_weight=1686.17 31.2893 1654.88 53.9676 1600.91 295.343 1305.57 28.7752 25.1923 22.8076
internal_count=7801 150 7651 249 7402 1355 6047 132 117 105
is_linear=0
shrinkage=0.04


Tree=54
num_leaves=11
num_cat=0
split_feature=6 6 17 6 17 6 17 4 15 7
split_gain=0.994306 1.74557 1.3176 2.79098 2.19358 4.23158 3.81487 1.77022 1.53615 0.175426
threshold=-744621.97799999989 -878245.13249999995 -0.50004519560214 -17054.717499999959 -1.0000000180025095e-35 178083.37699999998 0.35119996182163055 42.112343650895575 -0.12090202080902018 4.500270591074342e-06
decision_type=2 2 2 2 2 2 2 2 2 2
left_child=1 9 3 8 5 -4 -6 -5 -2 -1
right_child=2 -3 4 7 6 -7 -8 -9 -10 -11
leaf_value=-0.0024208645917028655 -0.0072225613022436318 -0.016871603484192629 0.00086488700818272842 -0.021768852503749637 -0.0036707616164087381 0.014347996171265913 0.0010725713591738623 0 0.0090686455803060829 0.0039628906098822516
leaf_weight=8.2296645492315346 10.460932537913324 12.288656234741209 248.52333277463913 16.317193239927295 374.12360043823719 47.146539866924286 931.28661686182022 8.7630739957094175 18.347755327820778 10.681993231177328
leaf_count=40 48 60 1140 77 1748 215 4299 40 84 50
internal_value=0 -0.00675167 0.000138631 -0.00571207 0.000420677 0.00353916 -0.000200428 -0.0150044 0 0
internal_weight=1686.17 31.2003 1654.97 53.889 1601.08 295.67 1305.41 25.0803 28.8087 18.9117
internal_count=7801 150 7651 249 7402 1355 6047 117 132 90
is_linear=0
shrinkage=0.04


Tree=55
num_leaves=14
num_cat=0
split_feature=8 8 11 13 19 8 4 22 1 8 16 11 5
split_gain=1.00498 3.26182 5.3394 5.42192 3.20696 4.52261 2.98188 2.42329 2.4762 2.29463 2.25195 1.94487 0.456887
threshold=5.9905241288090769 1.0000000180025095e-35 -0.12916665680570116 57.938791218704573 -1.9996458923512661 10.669634891527471 38.052228678472261 4.5000000000000009 -0.42696461329616647 7.9282565385480703 11.782464497057886 0.022151504001534223 0.82556582146403878
decision_type=2 2 2 2 2 2 2 2 2 2 2 2 2
left_child=1 7 3 -3 5 -2 9 11 -9 -6 -4 -1 -8
right_child=4 2 10 -5 6 -7 12 8 -10 -11 -12 -13 -14
leaf_value=0.0020578597624625822 0 -0.024219403757170542 0.0067428359982595835 0 0.018964157146856921 0.023853894231489411 0 0.0033779515695435158 -0.0093235121573223886 0 -0.0096108085483978256 -0.00090181165676605439 -0.017729701432004977
leaf_weight=742.81946705281734 12.366321504116057 35.446810781955719 37.552467614412308 11.716026216745375 9.5330570489168149 21.324703618884087 8.8871474564075488 16.691911518573761 78.534468084573746 72.149389237165451 16.047447085380554 611.22413386404514 11.843894124031065
leaf_count=3410 57 163 174 53 44 95 41 78 382 332 74 2844 54
internal_value=0 -0.0002941 -0.00716977 -0.0166325 0.00325481 0.0134168 0 0.000115136 -0.00584028 0.00314195 0 0.000634377 -0.0128771
internal_weight=1686.14 1550.03 100.763 47.1628 136.105 33.691 102.413 1449.27 95.2264 81.6824 53.5999 1354.04 20.731
internal_count=7801 7178 464 216 623 152 471 6714 460 376 248 6254 95
is_linear=0
shrinkage=0.04


Tree=56
num_leaves=16
num_cat=0
split_feature=12 2 8 22 5 11 2 16 16 5 4 3 15 15 9
split_gain=1.00711 4.63092 3.22518 3.1308 4.19837 3.09716 2.96644 3.60656 5.23082 3.57519 2.96636 2.9502 2.34276 2.70537 2.62281
threshold=0.7611873199013407 2.652730389995086 -12.696946521492578 -1.0000000180025095e-35 0.91690032097998209 -0.10188190044519271 3.0831113739696812 26.259854397243195 53.741106157696386 1.4474393252898192 37.209391907655977 0.36459179205668046 0.43271670131514245 0.11989352120269685 0.0052839184951276831
decision_type=2 2 2 2 2 2 2 2 2 2 2 2 2 2 2
left_child=1 2 10 5 -5 -3 12 9 -9 -8 -1 -4 13 -2 -14
right_child=6 3 11 4 -6 -7 7 8 -10 -11 -12 -13 14 -15 -16
leaf_value=0.023264315360345626 -0.0011605096070303499 -0.010505454764573976 0.0028144522944996775 -0.013618682816111279 0.0016251421021914018 0.0071276640869552274 0.0077118581214764672 -0.011435688287393475 0.0051393225603746529 -0.0089935207852349115 0 -0.010657269341559994 0 0.0043161865933996051 -0.014794774177597321
leaf_weight=17.062001779675487 740.84237805008888 21.513361573219299 114.80584694445133 101.5597630739212 21.039732396602631 41.289254382252693 243.35466383397579 50.972101986408234 58.029178857803345 13.402355089783667 10.589850351214407 30.344371125102043 11.023496344685553 175.5772917419672 34.65865033864975
leaf_count=78 3422 100 531 484 97 193 1119 234 262 62 48 143 51 813 164
internal_value=0 -0.00187626 0.00232665 -0.00640515 -0.0100709 0 0.000505297 0.00360338 -0.00163891 0.00628409 0.0141209 0 -0.000555691 0 -0.00911699
internal_weight=1686.06 358.204 172.802 185.402 122.599 62.8026 1327.86 365.758 109.001 256.757 27.6519 145.15 962.102 916.42 45.6821
internal_count=7801 1674 800 874 581 293 6127 1677 496 1181 126 674 4450 4235 215
is_linear=0
shrinkage=0.04


Tree=57
num_leaves=14
num_cat=0
split_feature=14 6 5 1 1 6 7 11 7 7 7 11 12
split_gain=1.00056 3.45258 1.53706 3.54845 4.15137 3.99938 2.31263 6.00262 5.87099 0.987337 0.805048 1.0318 0.0518774
threshold=0.028214285714285688 760.57799999999997 0.9366611225867848 0.075648484994814122 -0.0050720525018055343 1954.6259999999954 3.1678800713544315 -0.057389931058871725 45.138775445162672 2.5422624388853099 4.7538448249225375e-07 0.01043322184813006 0.99998019104544833
decision_type=2 2 2 2 2 2 2 2 2 2 2 2 2
left_child=1 10 6 4 -4 -5 7 -2 -8 -3 12 -12 -1
right_child=2 9 3 5 -6 -7 8 -9 -10 -11 11 -13 -14
leaf_value=0 0.0059423121011776981 0 0 0.0092786189812536397 -0.014283770003496541 0 -0.010025144614303405 -0.0021598957552344438 0.00017801710096363062 0.027033643573125623 -0.0071324030881764816 0.00083136476168474264 0.00753106590508806
leaf_weight=12.000355124473574 198.29861044883728 10.237410187721254 197.31748977303505 138.72404102981091 34.071309059858322 165.6455155313015 142.24480311572552 532.0581910610199 180.82747812569141 8.7788561135530454 38.161993414163589 14.441987454891203 13.149347066879271
leaf_count=57 914 47 903 631 157 756 660 2492 834 40 179 69 62
internal_value=0 0.00388305 -0.000246264 0.00139352 -0.00198261 0.00434484 -0.00119541 0 -0.0039972 0.0178673 0 -0.00286101 0.00543963
internal_weight=1685.96 96.7699 1589.19 535.758 231.389 304.37 1053.43 730.357 323.072 19.0163 77.7537 52.604 25.1497
internal_count=7801 454 7347 2447 1060 1387 4900 3406 1494 87 367 248 119
is_linear=0
shrinkage=0.04


Tree=58
num_leaves=13
num_cat=0
split_feature=10 4 4 4 14 1 12 9 20 22 0 10
split_gain=0.991968 2.3328 6.44221 4.37324 4.41911 3.56538 2.45768 2.10385 1.56997 1.99495 1.29161 1.23989
threshold=1.4402599870389772 53.20880536493673 58.473150356624842 43.086891074532964 1.5271428571428585 -0.68825434005935915 1.6697293761312937 0.20304585937830846 1.5000000000000002 -1.0000000180025095e-35 0.60018849640177341 0.4786130322223921
decision_type=2 2 2 2 2 2 2 2 2 2 2 2
left_child=1 3 5 6 -5 -3 -1 10 9 -9 -2 -4
right_child=7 2 11 4 -6 -7 -8 8 -10 -11 -12 -13
leaf_value=-0.00011985811136306523 0.0014136150280790209 0 0.0044690666718545961 0.0087544590244398417 -0.0084217233390095798 -0.020310096356170801 -0.010492489268649253 0 0 0.022736069370105531 -0.012092492540500077 -0.0055459017926679441
leaf_weight=1271.6441939473152 10.465003177523615 9.5897189974784833 63.480537593364716 156.55759064853191 18.785367861390114 44.78877866268158 35.751021474599838 12.835806205868719 13.754432082176207 17.414988532662395 11.256398215889929 19.390589937567711
leaf_count=5905 48 44 289 713 87 209 163 58 63 78 53 91
internal_value=0 -0.000190763 -0.0051594 0.000197881 0.00613072 -0.0156249 -0.000518447 0.00471532 0.0101569 0.014879 -0.00134948 0.000616388
internal_weight=1685.71 1619.99 137.25 1482.74 175.343 54.3785 1307.4 65.7266 44.0052 30.2508 21.7214 82.8711
internal_count=7801 7501 633 6868 800 253 6068 300 199 136 101 380
is_linear=0
shrinkage=0.04


Tree=59
num_leaves=13
num_cat=0
split_feature=22 1 1 1 9 19 17 1 6 1 6 18
split_gain=0.979173 4.53516 7.84104 1.73114 4.76734 6.80161 4.21914 3.30607 6.43791 2.73049 1.30903 0.825906
threshold=-2.4999999999999996 0.70056422831031084 0.066526286405085053 -0.18118628820039206 -0.043377155997043677 0.15029663785334602 0.34290361221415405 -0.0050720525018055343 20508.833500000041 0.075648484994814122 -5810.1065000000171 36.789054663260842
decision_type=2 2 2 2 2 2 2 2 2 2 2 2
left_child=1 2 11 4 6 -6 -2 8 -5 -9 -3 -1
right_child=3 10 -4 7 5 -7 -8 9 -10 -11 -12 -13
leaf_value=0.006969385039409616 -0.00025877339768180492 0.017546159176683718 -0.024805166649205679 0.013901184463475389 -0.012065595640045173 0.00084419281789640101 0.013272642209285201 -0.0047991301629465881 -0.0016864558578181049 0.0010523173904208904 0 -0.0034692524182546032
leaf_weight=20.898880079388622 117.85739026963711 8.7052694261074084 29.142354011535645 83.375048413872719 125.75906346738338 99.8115044683218 42.330209851264954 142.83556705713272 58.824208155274391 931.40786716341972 14.439783230423926 10.345847696065901
leaf_count=96 542 40 138 384 581 464 193 669 271 4308 67 48
internal_value=0 -0.00414174 -0.010681 0.000226437 -0.00199709 -0.00589211 0.00275987 0.00103315 0.00672491 0.000151693 0.00759771 7.60359e-06
internal_weight=1685.73 83.5321 60.3871 1602.2 385.758 225.571 160.188 1216.44 142.199 1074.24 23.1451 31.2447
internal_count=7801 389 282 7412 1780 1045 735 5632 655 4977 107 144
is_linear=0
shrinkage=0.04


Tree=60
num_leaves=14
num_cat=0
split_feature=14 6 5 5 0 12 7 7 10 7 7 0 12
split_gain=1.02541 3.18248 1.39407 2.87557 3.4532 3.24503 2.1259 5.46513 3.00844 0.873079 0.753634 0.738401 0.0339611
threshold=0.028214285714285688 760.57799999999997 0.9366611225867848 1.1203240197846709 0.83557437095312892 1.4685941192410705 3.1678800713544315 45.138775445162672 0.043399383045362068 2.5422624388853099 4.7538448249225375e-07 0.21322100600773533 0.99998019104544833
decision_type=2 2 2 2 2 2 2 2 2 2 2 2 2
left_child=1 10 6 4 -4 -5 8 -8 -2 -3 12 -12 -1
right_child=2 9 3 5 -6 -7 7 -9 -10 -11 11 -13 -14
leaf_value=0 0.002033970851372129 0 0 -0.0030492326680752252 0.0099135871606640859 0.0067147526015262013 -0.0096720743334480653 0.00016213794804578581 -0.0032423128208139422 0.026027915772551813 -0.0062113638685996498 0 0.0074123961822054572
leaf_weight=11.981701985001566 456.14573237299919 10.24159497022629 105.86436103284359 260.70685513317585 107.54869975149632 61.959321230649948 141.72004872560501 180.83293974399567 274.19200344383717 8.8607686609029752 37.262390539050102 15.19033871591091 13.166206941008566
leaf_count=57 2114 47 483 1195 489 280 660 834 1292 40 178 70 62
internal_value=0 0.00393805 -0.000243564 0.00131158 0.00496718 -0.000761264 -0.00115049 -0.00383943 0 0.0173303 0 -0.00258979 0.00544292
internal_weight=1685.67 96.703 1588.97 536.079 213.413 322.666 1052.89 322.553 730.338 19.1024 77.6006 52.4527 25.1479
internal_count=7801 454 7347 2447 972 1475 4900 1494 3406 87 367 248 119
is_linear=0
shrinkage=0.04


Tree=61
num_leaves=14
num_cat=0
split_feature=14 6 17 17 11 15 15 5 19 7 7 11 17
split_gain=0.998797 2.99005 1.35958 4.51746 5.9258 4.34709 10.3244 2.89086 2.38367 0.757841 0.698088 0.952498 0.611365
threshold=0.028214285714285688 760.57799999999997 0.099184761020769008 0.35119996182163055 0.80625514419285416 0.12249063940235044 0.19436793520301712 0.75138859223816201 -0.45855651913325418 2.5422624388853099 4.7538448249225375e-07 0.01043322184813006 0.32998972508891711
decision_type=2 2 2 2 2 2 2 2 2 2 2 2 2
left_child=1 10 5 4 -4 7 -7 -2 -5 -3 12 -12 -1
right_child=2 9 3 8 -6 6 -8 -9 -10 -11 11 -13 -14
leaf_value=0 -0.005320556287327971 0 -0.0082146068536393495 0.0033564191310273346 0.008846383229226578 0.028551306695471117 0 0.0021284450260204684 -0.0010516201720620489 0.025085457654834067 -0.0066810686457068023 0.0011117408806441196 0.010963527536506954
leaf_weight=13.46817906200886 123.94072318077087 10.24159497022629 224.7297455072403 278.1182676255703 28.998684912919998 27.084497302770615 65.262340664863586 227.40727651119232 613.14542911946774 8.9370399713516218 37.96668541431427 14.393179580569265 11.717322826385496
leaf_count=64 577 47 1056 1271 137 123 300 1038 2845 40 179 69 55
internal_value=0 0.00389784 -0.000228295 -0.00102095 -0.00571669 0.00154169 0.00916285 -0.000183396 0.000196362 0.0168529 0 -0.00242711 0.00529696
internal_weight=1685.41 96.724 1588.69 1144.99 253.728 443.695 92.3468 351.348 891.264 19.1786 77.5454 52.3599 25.1855
internal_count=7801 454 7347 5309 1193 2038 423 1615 4116 87 367 248 119
is_linear=0
shrinkage=0.04


Tree=62
num_leaves=13
num_cat=0
split_feature=4 13 4 21 18 12 3 12 6 17 12 15
split_gain=0.978602 4.75442 3.82776 4.04 2.43174 2.10518 2.98836 1.84978 3.07269 2.42285 1.6624 0.816519
threshold=11.876952986963376 19.625799596331778 14.495224602448348 1.5000000000000002 21.497122846022638 0.92077287277195896 0.57465621951158097 0.62531413369978595 45673.786999999989 -0.40111723202127941 0.99529098464885968 1.0000000180025095e-35
decision_type=2 2 2 2 2 2 2 2 2 2 2 2
left_child=1 5 3 4 -2 6 -1 8 -4 -9 -7 -3
right_child=2 11 7 -5 -6 10 -8 9 -10 -11 -12 -13
leaf_value=-0.01278961175321177 -0.0003833765189703451 0 -0.0075246000301103615 0.0042059744838825854 -0.020818866430752096 0.013286069681567911 0.0058066790530458753 -0.0053228273487987169 0.011420409182237612 0.0011560380896161141 0 0.02427552759644485
leaf_weight=37.670484632253647 29.927532225847244 8.8835380077362078 101.25362968444824 15.089597076177595 34.57397335767746 18.350753605365753 8.5086472034454328 92.649657219648361 8.6321212053298932 1220.5034432560205 94.518822208046913 14.538705825805662
leaf_count=176 141 40 477 70 161 85 40 426 40 5637 443 65
internal_value=0 0.00276901 -0.000308921 -0.00870296 -0.0135533 0 -0.00677793 9.37329e-05 -0.00470939 0.000596655 0.0030937 0.0184858
internal_weight=1685.1 182.471 1502.63 79.5911 64.5015 159.049 46.1791 1423.04 109.886 1313.15 112.87 23.4222
internal_count=7801 849 6952 372 302 744 216 6580 517 6063 528 105
is_linear=0
shrinkage=0.04


Tree=63
num_leaves=11
num_cat=0
split_feature=6 16 16 17 16 16 17 17 15 15
split_gain=0.959249 2.33274 1.34809 4.71033 3.69202 2.557 4.511 2.36399 1.56819 0.233394
threshold=-744621.97799999989 -18.430707135273575 -25.393655078619425 0.80933914710001753 -36.60626271242851 -21.7067838665788 0.58519172556659182 -0.40111723202127941 0.044934415691996653 0.016333492815528153
decision_type=2 2 2 2 2 2 2 2 2 2
left_child=1 -1 3 4 -2 6 -4 -7 -5 -3
right_child=2 9 5 8 -6 7 -8 -9 -10 -11
leaf_value=-0.021448266327675131 -0.0010940043056864041 -0.0028529937894755954 -0.013624168748235285 0 0.0080708893371916231 -0.0060444756267292021 0.0026753335906464885 0.00065317356257673992 -0.01923031666677066 0.0042418944572611373
leaf_weight=8.3443894684314746 81.262409806251526 11.653457134962084 57.140125334262848 10.336388200521471 174.4936151355505 86.799620419740677 29.56437012553215 1199.9452909380198 14.297010168433188 11.124818578362463
leaf_count=45 381 54 270 49 794 401 139 5548 69 51
internal_value=0 -0.00659995 0.000170986 0.00272626 0.00471621 -0.000268298 -0.00682506 9.53215e-05 -0.0118608 0
internal_weight=1684.96 31.1227 1653.84 280.389 255.756 1373.45 86.7045 1286.74 24.6334 22.7783
internal_count=7801 150 7651 1293 1175 6358 409 5949 118 105
is_linear=0
shrinkage=0.04


Tree=64
num_leaves=15
num_cat=0
split_feature=8 2 12 5 8 11 13 7 3 13 13 5 18 11
split_gain=0.973809 3.052 3.47945 2.86332 2.69383 4.96613 5.0843 2.55333 2.18722 6.57163 3.63719 2.16995 1.67858 0.187449
threshold=5.9905241288090769 2.2724709345469827 0.93073934323011531 0.58803764283340854 1.0000000180025095e-35 -0.12916665680570116 57.938791218704573 170.11809265493659 -2.2913326846450439 70.877315381107437 63.743564824242647 0.65369743105500822 18.143201012143347 -0.36661439229361309
decision_type=2 2 2 2 2 2 2 2 2 2 2 2 2 2
left_child=4 3 13 7 8 6 -6 -2 9 -1 -10 -7 -5 -3
right_child=1 2 -4 12 5 11 -8 -9 10 -11 -12 -13 -14 -15
