tree
version=v4
num_class=1
num_tree_per_iteration=1
label_index=0
max_feature_idx=19
objective=binary sigmoid:1
feature_names=Column_0 Column_1 Column_2 Column_3 Column_4 Column_5 Column_6 Column_7 Column_8 Column_9 Column_10 Column_11 Column_12 Column_13 Column_14 Column_15 Column_16 Column_17 Column_18 Column_19
feature_infos=[-1.7467675854898135:26.818386160056079] [-4.323841895108397:4.3083090420457637] [0:14.782955671429068] [-49.960466475171152:50.012172040171507] [0:96.054763821074275] [0:2.3289699240877719] [-3500867.7540000021:5264674.4559999974] [0:16225000000.000023] [-3915625000.0000033:1426764745.2309084] [-0.89131057420714577:0.96925424614943145] [-3.6725685843862834:6.8860877173365225] [-3.039722719082651:6.0327413336117193] [0.018060412057168337:3.0415491586506804] [0:157.45758477589231] [0:7.7757142857142858] [-2.3241036623274178:10.360474210105604] [-77.387585034327472:1061.7664287512209] [-0.95675906248865994:0.97533562428083509] [0:205.31713023294373] [-16.195012608573837:32.66375545851529]
tree_sizes=868 839 844 989 841 879 837 947 961 951 968 936 963 967 996 961 988 835 977 842 989 979 842 934 931 944 938 960 993 956 967 946 925 974 960 990 979 964 1001 974 925 969 978 966 949 915 967 979 967 958 955 951 945 999 951 989 985 959 949 950 956 972 954 986 988 975 971 963 966 968 946 972 974 1007 953 969 942 974 957 992 971 980 941 947 929 970 945 1001 982 977 960 957 973 963 960 976 970 988 975 982 936 982 976 980 999 949 962 958 985 983 1001 953 985 973 998 951 931 954 947 1002 960 960 963 928 996 960 972 1002 970 941 853 960 1007 945 939 996 960 964 948 980 949 944 889 947 971 959 983 999 989 991 938 950 961 941 940 968 936 965 952 762 948 1001 979 980 997 982 952 1003 952 945 973 981 974 1004 947 1001 945 973 873 963 966 984 867 948 1001 978 976 952 953 947 840 942 1003 969 966 969 871 971 939 940

Tree=0
num_leaves=7
num_cat=0
split_feature=4 4 17 7 4 14
split_gain=4.0402 7.0673 3.77503 2.84803 2.61686 1.82107
threshold=65.503613343247551 39.571219077306289 0.87971008826742048 319.65185511744824 75.955892277897718 1.6439285714285721
decision_type=2 2 2 2 2 2
left_child=1 2 -1 -3 5 -2
right_child=4 3 -4 -5 -6 -7
leaf_value=-0.76620925582497978 -0.7893845216255162 -0.75749380900750518 -0.7834616567562851 -0.77141572830202676 -0.76558054571051548 -0.76558054571051548
leaf_weight=1240.6544197499752 33.800574481487274 337.78907446563244 30.767189592123032 26.217112258076668 12.133539557456968 8.6668139696121198
leaf_count=5726 156 1559 142 121 56 40
internal_value=-0.765581 -0.765123 -0.766786 -0.758945 -0.778596 -0.784514
internal_weight=1690.03 1635.43 1271.42 364.006 54.6009 42.4674
internal_count=7800 7548 5868 1680 252 196
is_linear=0
shrinkage=1


Tree=1
num_leaves=7
num_cat=0
split_feature=8 12 4 1 16 16
split_gain=4.07354 4.83735 5.54485 5.21317 3.16132 4.12005
threshold=3712.2116721809657 1.1997260637614233 22.933693565727385 0.59340030941498767 4.4862594525613959 -10.325460976644896
decision_type=2 2 2 2 2 2
left_child=1 2 -1 -3 5 -2
right_child=4 3 -4 -5 -6 -7
leaf_value=-0.0060208033502212113 0 0.0096384202831993771 0.00052343788018212572 -0.0024764439028546578 0 0.043778818183203547
leaf_weight=492.75272098183632 9.9633083790540713 214.96657103300095 830.58697840571404 120.90364541113377 9.3130336105823499 11.696686118841173
leaf_count=2275 46 992 3832 558 43 54
internal_value=0 -0.000363664 -0.00180836 0.00485145 0.0171258 0.0269174
internal_weight=1690.18 1659.21 1323.34 335.87 30.973 21.66
internal_count=7800 7657 6107 1550 143 100
is_linear=0
shrinkage=0.05


Tree=2
num_leaves=7
num_cat=0
split_feature=8 4 4 11 8 0
split_gain=3.69766 3.53995 7.14159 3.30865 2.68619 2.20374
threshold=3712.2116721809657 38.375407848553714 65.503613343247551 0.018472733924137796 -0.21689996204891834 -1.0000000180025095e-35
decision_type=2 2 2 2 2 2
left_child=1 4 -3 5 -1 -2
right_child=3 2 -4 -5 -6 -7
leaf_value=-0.0052602938397002998 0 0.0058850691161756227 -0.0124421016049516 0 -2.252151298018443e-05 0.033591612630427321
leaf_weight=387.31751264631748 6.7454366832971635 399.39653186500072 54.331783398985863 7.1774696409702292 817.87919919192791 17.233819991350174
leaf_count=1789 31 1838 252 33 3778 79
internal_value=0 -0.000341092 0.00329475 0.0162782 -0.00183883 0.025339
internal_weight=1690.08 1658.93 453.728 31.1567 1205.2 23.9793
internal_count=7800 7657 2090 143 5567 110
is_linear=0
shrinkage=0.05


Tree=3
num_leaves=8
num_cat=0
split_feature=12 9 4 12 1 4 6
split_gain=3.53318 5.29088 5.7074 5.37886 4.93945 4.5455 3.22584
threshold=1.1997260637614233 0.28799045865451361 22.773642256467131 0.9014650151929906 0.59340030941498767 39.005315377192254 555063.70199999993
decision_type=2 2 2 2 2 2 2
left_child=1 3 -3 -1 6 -6 -2
right_child=4 2 -4 -5 5 -7 -8
leaf_value=1.3923123604720719e-05 0.011013337770232204 -0.003554351318195462 0.0068685184714975117 -0.0076656909458519872 -0.010158620147290853 0.009028146700059787 -0.0092450631890421148
leaf_weight=411.46993038058281 206.12719921767712 197.23522832989693 322.18845683336258 420.56953632831573 81.498901635408401 39.720275402069092 11.317518711090086
leaf_count=1899 948 913 1486 1942 377 183 52
internal_value=0 -0.00115863 0.00262595 -0.00370184 0.0045311 -0.00259789 0.00916702
internal_weight=1690.13 1351.46 519.424 832.039 338.664 121.219 217.445
internal_count=7800 6240 2399 3841 1560 560 1000
is_linear=0
shrinkage=0.05


Tree=4
num_leaves=7
num_cat=0
split_feature=8 12 9 1 11 0
split_gain=3.34405 3.91032 4.55653 4.19263 3.08612 1.97582
threshold=3712.2116721809657 1.1997260637614233 0.28799045865451361 0.59340030941498767 0.018472733924137796 -1.0000000180025095e-35
decision_type=2 2 2 2 2 2
left_child=1 2 -1 -3 5 -2
right_child=4 3 -4 -5 -6 -7
leaf_value=-0.0040355321865106902 0 0.008615580572112402 0.001839862636268547 -0.0021609657875863377 0 0.031936060108609665
leaf_weight=808.50014616549015 6.739650607109076 216.47724735736847 513.170593932271 120.60617466270924 7.1741098761558524 17.425341129302979
leaf_count=3739 31 992 2368 558 33 79
internal_value=0 -0.00033178 -0.00164203 0.00433369 0.0154315 0.0241875
internal_weight=1690.09 1658.75 1321.67 337.083 31.3391 24.165
internal_count=7800 7657 6107 1550 143 110
is_linear=0
shrinkage=0.05


Tree=5
num_leaves=7
num_cat=0
split_feature=8 6 17 12 14 18
split_gain=3.04663 5.12456 3.32305 4.31985 3.30014 1.01433
threshold=40.899276755240528 -8575.0575000000154 0.81721415987972135 1.2455952487489899 0.92964285714285755 14.721348784739176
decision_type=2 2 2 2 2 2
left_child=2 5 3 -1 -4 -2
right_child=1 -3 4 -5 -6 -7
leaf_value=-0.00091956983867462353 0.0095194015928326201 0.028372221569117308 -0.00073658617432626871 0.0064833742752959866 -0.02176288816837146 -0.0068879284488631417
leaf_weight=1296.2360536158085 11.093865409493445 22.030411079525948 76.518798127770424 228.15713380277157 32.425319120287895 23.52924682199955
leaf_count=5991 51 100 353 1047 150 108
internal_value=0 0.0110907 -0.000412867 0.000100786 -0.00875017 0
internal_weight=1689.99 56.6535 1633.34 1524.39 108.944 34.6231
internal_count=7800 259 7541 7038 503 159
is_linear=0
shrinkage=0.05


Tree=6
num_leaves=7
num_cat=0
split_feature=4 4 8 7 4 14
split_gain=3.4185 5.33613 5.48499 2.53171 2.41659 1.71306
threshold=65.503613343247551 39.571219077306289 40.899276755240528 319.65185511744824 75.955892277897718 1.6439285714285721
decision_type=2 2 2 2 2 2
left_child=1 2 -1 -3 5 -2
right_child=4 3 -4 -5 -6 -7
leaf_value=-0.0018164533539162125 -0.022602706607017822 0.0071527927988491212 0.014469324826765601 -0.0059861684937007982 0 0
leaf_weight=1219.9870903044939 33.403160527348518 339.95887883007526 49.659083262085915 26.248679459095001 12.102640256285666 8.6315198242664319
leaf_count=5642 156 1559 226 121 56 40
internal_value=0 0.000407888 -0.001029 0.00576377 -0.0120334 -0.0178289
internal_weight=1689.99 1635.85 1269.65 366.208 54.1373 42.0347
internal_count=7800 7548 5868 1680 252 196
is_linear=0
shrinkage=0.05


Tree=7
num_leaves=8
num_cat=0
split_feature=4 4 8 16 9 3 14
split_gain=3.06914 4.76827 4.9628 3.53263 2.55974 2.47849 0.578814
threshold=65.503613343247551 39.571219077306289 40.899276755240528 12.3003485807053 0.33093895949397623 -3.6600462517438559 0.70607142857142857
decision_type=2 2 2 2 2 2 2
left_child=1 2 -1 6 -3 -5 -2
right_child=3 4 -4 5 -6 -7 -8
leaf_value=-0.0017270343731938859 -0.0056763554788772114 0.001555366066806774 0.013720866909166594 0 0.011264860037679099 -0.033643167064673775 0.0070678584043107028
leaf_weight=1219.1723092496395 15.306808397173883 237.77901928126812 49.906643018126488 7.5406601876020458 129.23746640980244 16.8425322920084 14.15898849070072
leaf_count=5642 72 1090 226 35 590 79 66
internal_value=0 0.000383948 -0.000970701 -0.0114332 0.00544337 -0.02437 0
internal_weight=1689.94 1636.1 1269.08 53.849 367.016 24.3832 29.4658
internal_count=7800 7548 5868 252 1680 114 138
is_linear=0
shrinkage=0.05


Tree=8
num_leaves=8
num_cat=0
split_feature=6 6 2 12 16 7 8
split_gain=2.89907 5.73548 3.53657 3.01174 6.31522 3.80654 2.70135
threshold=84240.28200000005 188563.27999999994 2.1480372040282956 0.80621271187409216 -26.972696178586222 8.6686766430809925 -2.6911513749202062e-06
decision_type=2 2 2 2 2 2 2
left_child=3 6 -3 4 -1 -5 -2
right_child=1 2 -4 5 -6 -7 -8
leaf_value=-0.0048570873117624565 0.019828146769693675 0.0019756649187367822 -0.018719420120059185 -0.0048137863871061679 0.0072499016464360527 0.0015111517175945544 0
leaf_weight=161.90045560896397 65.92084027826786 167.97359764575958 20.326716139912605 649.94847017526627 269.16211943328381 325.90896898508072 28.68462085723877
leaf_count=748 304 775 94 3002 1242 1503 132
internal_value=0 0.00458277 0 -0.000938997 0.00235499 -0.00255004 0.0144369
internal_weight=1689.83 282.906 188.3 1406.92 431.063 975.857 94.6055
internal_count=7800 1305 869 6495 1990 4505 436
is_linear=0
shrinkage=0.05


Tree=9
num_leaves=8
num_cat=0
split_feature=4 4 16 6 3 13 14
split_gain=2.8017 4.31624 3.26426 3.13297 2.32403 2.08687 0.533505
threshold=65.503613343247551 38.375407848553714 12.3003485807053 79639.057499999952 -3.6600462517438559 75.623071089571553 0.70607142857142857
decision_type=2 2 2 2 2 2 2
left_child=1 3 6 -1 -4 -3 -2
right_child=2 5 4 -5 -6 -7 -8
leaf_value=-0.0021963362476810407 -0.0054367086680456112 0.0031004346554385394 0 0.0045047051246973639 -0.032524269711824663 0.016140082122597297 0.0067945868800472625
leaf_weight=1035.3654112815857 15.271162584424021 363.00411486625671 7.5339602082967785 196.6351602524519 16.60982021689415 41.118783578276634 14.192330494523047
leaf_count=4792 72 1660 35 908 79 188 66
internal_value=0 0.000375536 -0.0109385 -0.000997005 -0.0234557 0.00490479 0
internal_weight=1689.73 1636.12 53.6073 1232 24.1438 404.123 29.4635
internal_count=7800 7548 252 5700 114 1848 138
is_linear=0
shrinkage=0.05


Tree=10
num_leaves=8
num_cat=0
split_feature=17 12 4 4 14 4 0
split_gain=2.7447 4.10104 3.59374 2.98582 2.62214 4.33078 2.22205
threshold=0.81721415987972135 1.2455952487489899 22.933693565727385 22.933693565727385 0.92964285714285755 46.200857878524907 2.542067502429421
decision_type=2 2 2 2 2 2 2
left_child=1 2 -1 -3 6 -6 -2
right_child=4 3 -4 -5 5 -7 -8
leaf_value=-0.0038293000315669187 0.004561935187845814 0.015518950761911138 0.0014516103195444051 0.0018445835880824147 -0.02911849645130242 0 -0.011510041785182563
leaf_weight=505.84285043179989 46.104279831051826 69.042130082845688 837.59785102307796 167.00572870671749 25.044802710413933 7.7386640161275855 31.256312921643257
leaf_count=2347 213 317 3862 764 117 36 144
internal_value=0 0.000539225 -0.000429496 0.00661628 -0.00752193 -0.019025 -0.000252376
internal_weight=1689.63 1579.49 1343.44 236.048 110.144 32.7835 77.3606
internal_count=7800 7290 6209 1081 510 153 357
is_linear=0
shrinkage=0.05


Tree=11
num_leaves=8
num_cat=0
split_feature=4 4 19 16 3 3 14
split_gain=2.60929 3.8451 3.70956 3.01981 2.49104 2.18158 0.48932
threshold=65.503613343247551 39.571219077306289 3.5663188910995465 12.3003485807053 -1.1199635922347195 -3.6600462517438559 0.70607142857142857
decision_type=2 2 2 2 2 2 2
left_child=1 2 -1 6 -3 -5 -2
right_child=3 4 -4 5 -6 -7 -8
leaf_value=-0.00021272714233302212 -0.0052795797240281312 0 -0.015503956682763088 0 0.007828255320502962 -0.031541548005979102 0.0064392605553055433
leaf_weight=1228.6834802925587 15.247796237468721 123.71992106735706 39.056114926934242 7.5330045521259335 244.63581769168377 16.400086626410484 14.235691159963606
leaf_count=5687 72 564 181 35 1116 79 66
internal_value=0 0.000371438 -0.000837346 -0.0105649 0.00490869 -0.022674 0
internal_weight=1689.51 1636.1 1267.74 53.4166 368.356 23.9331 29.4835
internal_count=7800 7548 5868 252 1680 114 138
is_linear=0
shrinkage=0.05


Tree=12
num_leaves=8
num_cat=0
split_feature=17 9 16 3 15 16 18
split_gain=2.45172 3.44772 3.82669 3.66978 2.79661 2.50623 1.56594
threshold=0.81721415987972135 0.25672339744305622 44.906913032670765 -1.5347034675463374 0.27353475828118107 104.38492466958631 22.884315788625962
decision_type=2 2 2 2 2 2 2
left_child=1 2 -1 -3 6 -6 -2
right_child=4 3 -4 -5 5 -7 -8
leaf_value=-0.0024215473995767641 -0.014551147130597068 -0.0025033008751668409 0.009830046446485283 0.0055182040940418399 -0.022316763588251767 0 0.0032618176108580514
leaf_weight=848.57521641254425 12.609958127140997 167.28805990517139 62.528783842921257 501.47700296342373 35.134766697883606 7.73144207894802 54.302180454134941
leaf_count=3922 58 771 287 2310 164 36 252
internal_value=0 0.000498807 -0.00138713 0.00328616 -0.00713135 -0.0166578 0
internal_weight=1689.65 1579.87 911.104 668.765 109.778 42.8662 66.9121
internal_count=7800 7290 4209 3081 510 200 310
is_linear=0
shrinkage=0.05


Tree=13
num_leaves=8
num_cat=0
split_feature=4 6 8 1 16 3 8
split_gain=2.41307 3.48454 4.98258 3.89565 2.81191 2.04615 0.51694
threshold=65.503613343247551 40753.649500000007 -1.2761027645473108e-06 -0.68372565495960591 12.3003485807053 -3.6600462517438559 -1.0212388940183573e-24
decision_type=2 2 2 2 2 2 2
left_child=1 2 -1 -3 6 -6 -2
right_child=4 3 -4 -5 5 -7 -8
leaf_value=-0.0039575538597168142 0.0052571366081292648 -0.0048597247135676079 0.0022381280925338003 0.0072534144531236321 0 -0.030613424738549569 -0.0070553805656650079
leaf_weight=647.31427699327469 18.422361180186275 66.989146858453751 618.3165045529604 303.81868040561676 7.5346198827028301 16.197773486375809 11.06815694272518
leaf_count=2992 86 307 2851 1398 35 79 52
internal_value=0 0.000336876 -0.000814317 0.00464237 -0.0101976 -0.0219472 0
internal_weight=1689.66 1636.44 1265.63 370.808 53.2229 23.7324 29.4905
internal_count=7800 7548 5843 1705 252 114 138
is_linear=0
shrinkage=0.05


Tree=14
num_leaves=8
num_cat=0
split_feature=12 12 9 18 1 4 4
split_gain=2.3953 4.01642 4.16906 3.80005 3.66185 3.85587 2.97646
threshold=1.1997260637614233 0.9014650151929906 0.28799045865451361 23.113743280157991 0.59340030941498767 39.005315377192254 26.262485457859935
decision_type=2 2 2 2 2 2 2
left_child=1 3 -3 -1 6 -6 -2
right_child=4 2 -4 -5 5 -7 -8
leaf_value=0.0066563774444872914 0.015161065480469247 -0.0068739990177202103 0.0008952710044007068 -0.00088489682911208154 -0.0094192260010205094 0.0081718883074334957 0.0016550546759259309
leaf_weight=240.52117423713207 85.167169287800789 417.86559979617596 239.65149030089378 451.15986827015877 80.979043066501617 39.945382878184319 134.40529491007328
leaf_count=1110 388 1942 1105 2083 377 183 612
internal_value=0 -0.000966357 -0.00382396 0.00153896 0.00370905 -0.00234072 0.00770141
internal_weight=1689.7 1349.2 657.517 691.681 340.497 120.924 219.572
internal_count=7800 6240 3047 3193 1560 560 1000
is_linear=0
shrinkage=0.05


Tree=15
num_leaves=8
num_cat=0
split_feature=17 12 2 12 15 4 18
split_gain=2.23345 3.44863 3.40216 2.78136 2.54374 3.04113 1.45267
threshold=0.81721415987972135 1.2455952487489899 4.942927989324386 1.5098688754760363 0.27353475828118107 42.579031449836215 22.884315788625962
decision_type=2 2 2 2 2 2 2
left_child=1 2 -1 -3 6 -6 -2
right_child=4 3 -4 -5 5 -7 -8
leaf_value=-0.0012894491030838362 -0.014064358935960104 0.009688454357854287 0.007510161083312753 -0.00028276217505127224 -0.022799300890420936 0 0.0031142616352416472
leaf_weight=1227.6057734191418 12.547673448920248 164.30405110120773 115.46412174403667 72.63872104883194 33.913944095373154 8.6602309793233854 54.354473575949669
leaf_count=5676 58 749 533 332 160 40 252
internal_value=0 0.000475303 -0.000406457 0.00604115 -0.00681639 -0.0159439 0
internal_weight=1689.49 1580.01 1343.07 236.943 109.476 42.5742 66.9021
internal_count=7800 7290 6209 1081 510 200 310
is_linear=0
shrinkage=0.05


Tree=16
num_leaves=8
num_cat=0
split_feature=19 12 18 12 16 12 16
split_gain=2.4043 3.43555 4.72524 3.29099 2.84492 4.22303 3.72785
threshold=4.3619559507531687 1.1997260637614233 109.10669463778187 1.5098688754760363 87.565414617911145 1.1153019484091451 120.75217654317225
decision_type=2 2 2 2 2 2 2
left_child=1 2 -1 -3 5 -2 -6
right_child=4 3 -4 -5 6 -7 -8
leaf_value=-0.0010575746933650892 -0.00092421653253126057 0.0086431790800465154 0.022321409593257766 -0.0017106406990841996 0.028697054716660682 -0.027606745348599949 -0.005140878850770584
leaf_weight=1265.9030510485172 56.592953488230705 218.3110611140728 18.64415517449379 83.434557676315308 8.4568063765764254 26.887873828411102 11.233675032854078
leaf_count=5860 261 995 86 383 39 124 52
internal_value=0 0.000475772 -0.000550529 0.00529941 -0.00729557 -0.0119123 0.00465407
internal_weight=1689.46 1586.29 1284.55 301.746 103.171 83.4808 19.6905
internal_count=7800 7324 5946 1378 476 385 91
is_linear=0
shrinkage=0.05


Tree=17
num_leaves=7
num_cat=0
split_feature=8 16 16 6 6 4
split_gain=2.24705 2.66729 3.56483 2.44575 5.0292 2.5728
threshold=3712.2116721809657 4.4862594525613959 -10.325460976644896 84240.28200000005 188563.27999999994 34.198054804696191
decision_type=2 2 2 2 2 2
left_child=3 2 -2 5 -5 -1
right_child=1 -3 -4 4 -6 -7
leaf_value=-0.0028670849955687461 0 0 0.037213500419662399 0.013064785967769525 -0.00021712523041248025 0.0015312254065172597
leaf_weight=899.3961134403944 10.176711216568949 9.5588850229978544 12.212085932493212 94.85002812743187 187.69149301946163 475.61555962264538
leaf_count=4175 46 43 54 433 864 2185
internal_value=0 0.0125291 0.0218798 -0.000281468 0.00380675 -0.00123684
internal_weight=1689.5 31.9477 22.3888 1657.55 282.542 1375.01
internal_count=7800 143 100 7657 1297 6360
is_linear=0
shrinkage=0.05


Tree=18
num_leaves=8
num_cat=0
split_feature=19 12 12 6 7 9 8
split_gain=2.27621 3.04711 4.31861 3.35195 2.21377 2.30604 1.26325
threshold=4.3619559507531687 1.1997260637614233 0.89467546095507233 456446.25850000017 2.5035372266597807e-05 0.43982704588824056 -0.00068801512355288021
decision_type=2 2 2 2 2 2 2
left_child=1 2 -1 -3 5 -2 -6
right_child=4 3 -4 -5 6 -7 -8
leaf_value=0.0022184024088723066 -0.017871401159940199 0.0067710534981806061 -0.0035233109219391504 -0.011338162197123157 -0.00053714257080382771 0 0.016786477285558588
leaf_weight=650.3813299536705 49.05096735060215 282.64935785531998 633.62073588371277 19.697981581091881 17.827409282326702 27.846445515751839 8.2833353728055936
leaf_count=3003 228 1288 2943 90 82 128 38
internal_value=0 0.000461348 -0.000500038 0.00500019 -0.00710556 -0.0116583 0.000969407
internal_weight=1689.36 1586.35 1284 302.347 103.008 76.8974 26.1107
internal_count=7800 7324 5946 1378 476 356 120
is_linear=0
shrinkage=0.05


Tree=19
num_leaves=7
num_cat=0
split_feature=4 4 15 7 4 14
split_gain=2.16539 3.321 2.68574 2.63931 2.0051 1.49563
threshold=65.503613343247551 38.375407848553714 -0.43295663342815532 319.65185511744824 75.955892277897718 1.1489285714285711
decision_type=2 2 2 2 2 2
left_child=1 2 -1 -3 5 -2
right_child=4 3 -4 -5 -6 -7
leaf_value=0.011227445343856746 -0.021402229632451336 0.0056646990440029112 -0.0014262501801121919 -0.0077285875136090644 0 0
leaf_weight=38.585901767015457 27.573064625263214 376.59352774918079 1192.0402188301086 29.185943201184273 11.98481625318527 13.393315911293028
leaf_count=178 133 1714 5522 134 56 63
internal_value=0 0.000313533 -0.000881566 0.00428478 -0.00968883 -0.0152799
internal_weight=1689.36 1636.41 1230.63 405.779 52.9512 40.9664
internal_count=7800 7548 5700 1848 252 196
is_linear=0
shrinkage=0.05


Tree=20
num_leaves=8
num_cat=0
split_feature=19 16 16 7 16 12 16
split_gain=2.0914 3.07087 3.8311 3.55476 2.54101 3.89079 3.46715
threshold=4.3619559507531687 24.055851526415481 16.466420251745681 2.1107262772738009 87.565414617911145 1.1153019484091451 120.75217654317225
decision_type=2 2 2 2 2 2 2
left_child=1 2 -1 -3 5 -2 -6
right_child=4 3 -4 -5 6 -7 -8
leaf_value=0.0001964068647554726 -0.00062989340901632425 0.0097076049317837212 -0.0098900198176764941 -0.0010825429820663171 0.027471845690638458 -0.026394072745839076 -0.0050330069603551925
leaf_weight=1222.6530387699604 56.450033590197563 171.84776903688908 97.222712263464928 94.822057381272316 8.5378398448228854 26.547411277890205 11.219077810645102
leaf_count=5652 261 790 448 434 39 124 52
internal_value=0 0.000434702 -0.000453919 0.00534526 -0.00682641 -0.0112483 0.00419218
internal_weight=1689.3 1586.55 1319.88 266.67 102.754 82.9974 19.7569
internal_count=7800 7324 6100 1224 476 385 91
is_linear=0
shrinkage=0.05


Tree=21
num_leaves=8
num_cat=0
split_feature=17 18 2 19 19 0 14
split_gain=2.19186 2.9105 2.7413 2.6526 6.97933 3.65699 2.42897
threshold=0.70382483988589306 44.26524920214468 1.7822625357464292 3.9641559966792514 2.9592660246404496 3.5561293679090675 2.8932142857142868
decision_type=2 2 2 2 2 2 2
left_child=3 2 -2 4 -1 -5 -3
right_child=1 6 -4 5 -6 -7 -8
leaf_value=0.00069194617898475077 -0.0066777773459911014 -0.011530976014245313 0.0059796059652610888 -0.014521370046766739 0.021619426326601156 0.0041053572095389136 0.0060612014048216445
leaf_weight=1258.6912529915571 70.625403761863708 128.20536294579506 96.846535712480545 60.229134023189545 39.198181793093681 26.331213280558586 9.2519346177577955
leaf_count=5810 325 595 447 278 180 122 43
internal_value=0 -0.00384269 0 0.000819896 0.00148769 -0.00723265 -0.00917478
internal_weight=1689.38 304.929 167.472 1384.45 1297.89 86.5603 137.457
internal_count=7800 1410 772 6390 5990 400 638
is_linear=0
shrinkage=0.05


Tree=22
num_leaves=7
num_cat=0
split_feature=8 16 16 6 6 12
split_gain=2.01808 2.45777 3.21677 2.22539 4.53288 2.30342
threshold=3712.2116721809657 4.4862594525613959 -10.325460976644896 84240.28200000005 188563.27999999994 0.80621271187409216
decision_type=2 2 2 2 2 2
left_child=3 2 -2 5 -5 -1
right_child=1 -3 -4 4 -6 -7
leaf_value=0.0016830122734900407 0 0 0.035279109713016489 0.012388488076403066 -0.00016492298635125709 -0.0026036573129052843
leaf_weight=420.20228980481625 10.173101365566252 9.5472491830587369 12.356493920087816 95.262655064463615 187.59900736808777 954.08641017973423
leaf_count=1940 46 43 54 433 864 4420
internal_value=0 0.0118512 0.0208243 -0.000267312 0.00362375 -0.00118325
internal_weight=1689.23 32.0768 22.5296 1657.15 282.862 1374.29
internal_count=7800 143 100 7657 1297 6360
is_linear=0
shrinkage=0.05


Tree=23
num_leaves=8
num_cat=0
split_feature=16 1 12 16 9 9 11
split_gain=2.0417 7.41287 6.82917 5.684 4.10402 3.53753 3.00704
threshold=-26.972696178586222 -0.048261319519996869 0.77473916591711045 -24.528045849296372 -0.047421722419753828 -0.033976033276790975 0.11693081203035484
decision_type=2 2 2 2 2 2 2
left_child=1 5 -3 4 -2 -1 -5
right_child=3 2 -4 6 -6 -7 -8
leaf_value=0 0 -0.0060216058058124291 0.014025625841242922 0.0014612121417478237 0.023191901840744517 -0.028355368465103455 -0.0037463291322410255
leaf_weight=18.996082603931427 14.71673373878002 123.88907711207867 60.400114312767982 1012.6322600394487 43.81193882226944 36.515871405601501 378.1244438290596
leaf_count=88 68 573 280 4670 202 169 1750
internal_value=0 -0.00425495 0 0.000698426 0.0155712 -0.0197952 0
internal_weight=1689.09 239.801 184.289 1449.29 58.5287 55.512 1390.76
internal_count=7800 1110 853 6690 270 257 6420
is_linear=0
shrinkage=0.05


Tree=24
num_leaves=8
num_cat=0
split_feature=9 8 17 12 17 12 12
split_gain=2.00897 4.29543 3.66286 3.62189 3.91302 2.6844 1.684
threshold=0.26290401077969133 25.355556129245688 0.65749014782089621 1.3170360694798837 -0.42170203031186598 0.9014650151929906 0.90886807090453303
decision_type=2 2 2 2 2 2 2
left_child=3 2 -2 5 -5 -1 -3
right_child=1 6 -4 4 -6 -7 -8
leaf_value=0 0.0037749642704316489 0.040854306070369995 -0.0037060009360536505 0.022030277733359697 0 -0.0052665998605011437 0
leaf_weight=390.44380806386471 475.94471488893032 7.1213301569223431 230.95764993131161 27.219133004546165 80.007438346743584 468.51358585059643 8.9128644466400129
leaf_count=1803 2190 32 1068 123 365 2179 40
internal_value=0 0.00197303 0.00111417 -0.00150543 0.00665633 -0.00271793 0.0258136
internal_weight=1689.12 722.937 706.902 966.184 107.227 858.957 16.0342
internal_count=7800 3330 3258 4470 488 3982 72
is_linear=0
shrinkage=0.05


Tree=25
num_leaves=8
num_cat=0
split_feature=16 1 12 16 9 19 9
split_gain=1.87097 6.8199 6.19986 5.1313 3.53691 3.38271 3.27546
threshold=-26.972696178586222 -0.048261319519996869 0.77473916591711045 -25.266470156344475 -0.047421722419753828 -0.21651289564357676 -0.033976033276790975
decision_type=2 2 2 2 2 2 2
left_child=1 6 -3 4 -2 -5 -1
right_child=3 2 -4 5 -6 -7 -8
leaf_value=0 0 -0.0057485951264369846 0.013328577535037141 -0.0028364267073171068 0.026377125850133944 0.0021468939135985119 -0.0273346004473289
leaf_weight=18.985889285802841 10.149401843547819 123.62126910686493 60.693823456764221 560.0305183827877 29.109057232737541 850.10003459453583 36.135576397180557
leaf_count=88 47 573 280 2583 133 3927 169
internal_value=0 -0.0040634 0 0.000681473 0.017872 5.98108e-05 -0.019032
internal_weight=1688.83 239.437 184.315 1449.39 39.2585 1410.13 55.1215
internal_count=7800 1110 853 6690 180 6510 257
is_linear=0
shrinkage=0.05


Tree=26
num_leaves=8
num_cat=0
split_feature=17 16 12 9 14 4 0
split_gain=1.89738 2.74348 3.35138 2.59239 2.24973 3.81553 1.95658
threshold=0.81721415987972135 35.312723581454733 1.3037735845053653 0.26290401077969133 0.92964285714285755 46.200857878524907 2.542067502429421
decision_type=2 2 2 2 2 2 2
left_child=1 3 -3 -1 6 -6 -2
right_child=4 2 -4 -5 5 -7 -8
leaf_value=-0.0020783010657378239 0.0049679095174153679 0 0.012993477045491496 0.0022661020074738708 -0.026759626169614692 0 -0.010418211160519749
leaf_weight=831.17172169685364 45.931234315037727 91.066844090819359 88.748766079545021 568.90835884213448 24.364033237099648 7.6999253779649726 30.9400944262743
leaf_count=3852 213 419 403 2616 117 36 144
internal_value=0 0.000443846 0.00623699 -0.000205018 -0.00629213 -0.0169348 0
internal_weight=1688.83 1579.9 179.816 1400.08 108.935 32.064 76.8713
internal_count=7800 7290 822 6468 510 153 357
is_linear=0
shrinkage=0.05


Tree=27
num_leaves=8
num_cat=0
split_feature=4 4 8 16 13 3 8
split_gain=1.89925 3.05621 3.7316 2.59299 2.27212 1.85485 0.489415
threshold=65.503613343247551 39.571219077306289 40.899276755240528 12.3003485807053 75.623071089571553 -3.6600462517438559 -1.0212388940183573e-24
decision_type=2 2 2 2 2 2 2
left_child=1 2 -1 6 -3 -5 -2
right_child=3 4 -4 5 -6 -7 -8
leaf_value=-0.0014373911478180424 0.0056683014063583087 0.0023998902625015205 0.011881414876758471 0 0.016141038427858027 -0.028902674798669759 -0.0062034072270446316
leaf_weight=1216.0131832808256 18.353473573923115 331.11962214112282 50.461164087057114 7.5105773955583599 38.512558788061142 15.808791160583494 10.966384708881376
leaf_count=5642 86 1506 226 35 174 79 52
internal_value=0 0.000308035 -0.000761736 -0.00908529 0.00435257 -0.0205133 0
internal_weight=1688.75 1636.11 1266.47 52.6392 369.632 23.3194 29.3199
internal_count=7800 7548 5868 252 1680 114 138
is_linear=0
shrinkage=0.05


Tree=28
num_leaves=8
num_cat=0
split_feature=19 3 8 3 16 12 16
split_gain=1.72449 2.72352 8.40377 6.26716 2.3334 3.53028 3.25103
threshold=4.3619559507531687 0.28708271206556729 -0.881452217773248 -0.17188516561624781 87.565414617911145 1.1153019484091451 120.75217654317225
decision_type=2 2 2 2 2 2 2
left_child=1 3 -3 -1 5 -2 -6
right_child=4 2 -4 -5 6 -7 -8
leaf_value=0.0011144790659292885 -0.00031977585498693217 -0.0061218495172971578 0.0082985248904953509 -0.0075733145048373519 0.026715803870325839 -0.025038361689751699 -0.0044068551610401676
leaf_weight=869.28103642165661 56.291073739528656 132.74335205554962 320.74775272607803 263.63957363367081 8.5847382545471209 26.152210369706154 11.141998797655104
leaf_count=4015 261 613 1478 1218 39 124 52
internal_value=0 0.000414255 0.00373639 -0.00078985 -0.00619672 -0.0105202 0.00427575
internal_weight=1688.58 1586.41 453.491 1132.92 102.17 82.4433 19.7267
internal_count=7800 7324 2091 5233 476 385 91
is_linear=0
shrinkage=0.05


Tree=29
num_leaves=8
num_cat=0
split_feature=4 4 8 16 7 3 8
split_gain=1.73919 2.8126 3.48592 2.39707 2.39129 1.73166 0.456211
threshold=65.503613343247551 38.375407848553714 40.899276755240528 12.3003485807053 319.65185511744824 -3.6600462517438559 -1.0212388940183573e-24
decision_type=2 2 2 2 2 2 2
left_child=1 2 -1 6 -3 -5 -2
right_child=3 4 -4 5 -6 -7 -8
leaf_value=-0.0014747481667200955 0.0054573606864014371 0.005268467371059616 0.0115155695457872 0 -0.0074567230197050208 -0.027958880257402202 -0.0060096344940414837
leaf_weight=1180.2761881500483 18.385796070098881 377.50164146721363 49.336314663290977 7.5084191709756878 29.115030661225319 15.592099517583845 10.944015547633169
leaf_count=5480 86 1714 220 35 134 79 52
internal_value=0 0.00028845 -0.00080508 -0.00871665 0.00394317 -0.0197727 0
internal_weight=1688.66 1636.23 1229.61 52.4303 406.617 23.1005 29.3298
internal_count=7800 7548 5700 252 1848 114 138
is_linear=0
shrinkage=0.05


Tree=30
num_leaves=8
num_cat=0
split_feature=17 6 8 17 4 0 0
split_gain=1.78498 2.84392 6.69685 4.2277 2.39798 4.78324 2.28448
threshold=0.70382483988589306 -15205.835000000001 4.142338569639282 0.52011590626912885 42.579031449836215 2.6266793679961937 0.37595892121047081
decision_type=2 2 2 2 2 2 2
left_child=1 3 -3 -1 5 -2 -6
right_child=4 2 -4 -5 6 -7 -8
leaf_value=-0.0051862224093832104 0 0.0010849694344028536 0.018760339872782174 0.0068687748878280179 -0.01167286462774083 -0.014911405340018358 0.00954680020921197
leaf_weight=341.20870800316334 152.41958910226822 906.27230624854565 56.44648389518261 80.786542162299156 8.5563422143459302 89.958230525255203 52.959148868918419
leaf_count=1578 708 4184 255 373 39 420 243
internal_value=0 0.000750974 0.0023317 -0.00249328 -0.00346274 -0.00595827 0.00386473
internal_weight=1688.61 1384.71 962.719 421.995 303.893 242.378 61.5155
internal_count=7800 6390 4439 1951 1410 1128 282
is_linear=0
shrinkage=0.05


Tree=31
num_leaves=8
num_cat=0
split_feature=16 1 16 18 19 3 19
split_gain=1.69727 6.18837 4.6118 3.16841 3.02631 2.44102 2.05832
threshold=-26.972696178586222 -0.048261319519996869 -25.266470156344475 14.567762769958142 -0.21651289564357676 0.32430292987955328 -0.68029073084387559
decision_type=2 2 2 2 2 2 2
left_child=1 5 3 -2 -4 -1 -3
right_child=2 6 4 -5 -6 -7 -8
leaf_value=-0.023756862465846601 0 0.0056971274372954045 -0.0026964308698322862 0.023599306565706944 0.0020189554092248513 0 -0.0046375764279896542
leaf_weight=41.699433833360672 6.5340831726789466 93.050610408186913 559.33597776293755 32.977807179093361 850.61429607868195 12.983779475092886 91.30697375535965
leaf_count=196 30 431 2583 150 3927 61 422
internal_value=0 -0.00388563 0.000636709 0.016882 4.04183e-05 -0.0182087 0
internal_weight=1688.5 239.041 1449.46 39.5119 1409.95 54.6832 184.358
internal_count=7800 1110 6690 180 6510 257 853
is_linear=0
shrinkage=0.05


Tree=32
num_leaves=8
num_cat=0
split_feature=19 19 16 16 4 9 4
split_gain=1.71709 3.07995 8.11872 2.66129 2.60369 2.89006 1.99941
threshold=3.9641559966792514 3.1306059782230062 -4.3442717848611059 24.055851526415481 42.579031449836215 0.11368584989960763 28.139455785105778
decision_type=2 2 2 2 2 2 2
left_child=1 3 -3 -1 6 -6 -2
right_child=4 2 -4 -5 5 -7 -8
leaf_value=-0.00087020920397055414 0 0.037822609982664963 0 0.004774993635536965 -0.017957541044144449 0.0043570943438254982 -0.020949852675329211
leaf_weight=1278.8611984550953 7.383695885539054 16.776923030614853 26.223674893379211 246.22737790644169 15.383759155869482 65.313314944505692 32.327857092022896
leaf_count=5917 35 76 120 1127 71 302 152
internal_value=0 0.00043347 0.0131835 0 -0.00569146 0 -0.0156842
internal_weight=1688.5 1568.09 43.0006 1525.09 120.409 80.6971 39.7116
internal_count=7800 7240 196 7044 560 373 187
is_linear=0
shrinkage=0.05


Tree=33
num_leaves=8
num_cat=0
split_feature=11 10 6 6 8 3 19
split_gain=1.74127 3.78031 6.71746 3.5204 8.2714 3.53874 2.42154
threshold=0.11693081203035484 0.17546891262966116 -12050.957499999997 -8872.0229999999847 4.142338569639282 -2.6694807581677886 4.3619559507531687
decision_type=2 2 2 2 2 2 2
left_child=3 2 -2 5 -5 -1 -3
right_child=1 6 -4 4 -6 -7 -8
leaf_value=-0.013546126126303445 0 0.0019416616370032773 -0.02567125224081265 0.001448742191708186 0.022071769633437436 -0.00023972571063419937 -0.0071841494676463504
leaf_weight=58.429715201258659 36.473846480250359 265.02225737273693 41.755200207233429 723.08730188012123 51.615253388881683 417.30074819922447 94.772315680980682
leaf_count=270 169 1221 194 3337 232 1934 443
internal_value=0 -0.00271575 -0.0125042 0.000937008 0.00309549 -0.00226201 -8.82108e-05
internal_weight=1688.46 438.024 78.229 1250.43 774.703 475.73 359.795
internal_count=7800 2027 363 5773 3569 2204 1664
is_linear=0
shrinkage=0.05


Tree=34
num_leaves=8
num_cat=0
split_feature=17 12 2 12 15 3 18
split_gain=1.68582 2.345 3.67414 2.51709 2.1226 1.63218 1.42544
threshold=0.81721415987972135 1.2658205993581582 4.942927989324386 1.5098688754760363 0.27353475828118107 -4.9742028170844703 22.884315788625962
decision_type=2 2 2 2 2 2 2
left_child=1 2 -1 -3 6 -6 -2
right_child=4 3 -4 -5 5 -7 -8
leaf_value=-0.0011866708622255513 -0.013714105459388748 0.0090128910088725627 0.0079028475614168793 -0.00067558146710318921 0 -0.018700509511409041 0.0033715800534867206
leaf_weight=1241.295616671443 12.491637647151945 148.11417378485203 117.65240652859211 72.805014312267303 6.7107794135808936 35.159100756049156 54.178433954715729
leaf_count=5747 58 669 542 332 32 168 252
internal_value=0 0.000402871 -0.000273925 0.00518385 -0.00595665 -0.0143689 0
internal_weight=1688.41 1579.87 1358.95 220.919 108.54 41.8699 66.6701
internal_count=7800 7290 6289 1001 510 200 310
is_linear=0
shrinkage=0.05


Tree=35
num_leaves=8
num_cat=0
split_feature=14 14 15 17 9 19 9
split_gain=1.66439 4.04518 3.68528 2.9619 2.66266 3.1997 3.10487
threshold=0.66999999999999971 0.42571428571428688 -0.15068403932375432 0.73901548142691931 0.18476403803827646 -1.5758416097150463 0.51090325062161057
decision_type=2 2 2 2 2 2 2
left_child=1 3 -3 -1 5 -2 -6
right_child=4 2 -4 -5 6 -7 -8
leaf_value=0.0010539863161676695 0.00019647654945263466 -0.0020969395964721394 0.014347278318955907 -0.007896586639332728 0.0033372139964553344 -0.010322826662302408 -0.0061214508178601291
leaf_weight=817.10319305956364 82.562919065356255 28.736029416322708 97.68947297334671 101.13901184499264 282.67116199433804 159.03561335802078 119.4325887709856
leaf_count=3770 383 132 452 467 1306 741 549
internal_value=0 0.00121232 0.00948864 0 -0.00201325 -0.00615643 0.000133005
internal_weight=1688.37 1044.67 126.426 918.242 643.702 241.599 402.104
internal_count=7800 4821 584 4237 2979 1124 1855
is_linear=0
shrinkage=0.05


Tree=36
num_leaves=8
num_cat=0
split_feature=17 18 13 6 6 8 17
split_gain=1.54231 2.43515 3.51544 2.75062 2.34505 5.4602 3.73031
threshold=0.70382483988589306 44.26524920214468 28.270376730526667 69815.758500000011 -15205.835000000001 4.142338569639282 0.52011590626912885
decision_type=2 2 2 2 2 2 2
left_child=4 2 -2 -3 6 -6 -1
right_child=1 3 -4 -5 5 -7 -8
leaf_value=-0.0048022455813045949 -0.004857140958573718 -0.011475974346098197 0.0096193008337359647 0.0040408019666108809 0.00098257868692012236 0.016897919755304688 0.0064998635460828584
leaf_weight=340.16596089303493 101.82177856564522 116.94789925217628 65.25457975268364 19.231706336140633 906.84100456535816 57.090583384037018 80.994271337985992
leaf_count=1578 471 549 301 89 4184 255 373
internal_value=0 -0.00323017 0 -0.00816704 0.00068971 0.00212983 -0.00224447
internal_weight=1688.35 303.256 167.076 136.18 1385.09 963.932 421.16
internal_count=7800 1410 772 638 6390 4439 1951
is_linear=0
shrinkage=0.05


Tree=37
num_leaves=8
num_cat=0
split_feature=4 4 8 16 7 3 16
split_gain=1.57176 2.45396 3.15719 2.26162 2.18849 1.64521 0.427476
threshold=65.503613343247551 38.375407848553714 -0.0015282920384238265 12.3003485807053 319.65185511744824 -3.6600462517438559 -6.6512305763663386
decision_type=2 2 2 2 2 2 2
left_child=1 2 -1 6 -3 -5 -2
right_child=3 4 -4 5 -6 -7 -8
leaf_value=-0.0037608712451902889 -0.0035189487573981716 0.0049638123471133456 0.0012758337721460722 0 -0.0071813871775729806 -0.027158102945281995 0.0074469698447000472
leaf_weight=521.56095904111862 17.630241185426716 378.19296909868717 707.12812905013561 7.4997639954090145 29.03872737288475 15.405875757336615 11.663965553045271
leaf_count=2424 83 1714 3276 35 134 79 55
internal_value=0 0.000271695 -0.000744344 -0.00830622 0.00368594 -0.0191119 0
internal_weight=1688.12 1635.92 1228.69 52.1998 407.232 22.9056 29.2942
internal_count=7800 7548 5700 252 1848 114 138
is_linear=0
shrinkage=0.05


Tree=38
num_leaves=8
num_cat=0
split_feature=11 16 1 12 12 7 17
split_gain=1.52616 3.17218 5.56841 4.86593 2.72044 4.3761 3.25215
threshold=0.11693081203035484 -26.972696178586222 0.14757980098465548 0.80621271187409216 0.64719860974874499 1.9123013625662151e-13 0.31697934414543633
decision_type=2 2 2 2 2 2 2
left_child=1 2 -1 -3 5 -2 -6
right_child=4 3 -4 -5 6 -7 -8
leaf_value=-0.015862031015384786 0.021332691067911112 0.0088566382576326982 0.00061175613190285699 0.00017797783691183406 -0.011298871627802501 -0.0028726384071904951 -0.00061596253896770386
leaf_weight=69.778287276625633 26.135894477367401 208.51517283916473 121.43888691067696 851.0172685533762 115.36189810931683 27.84505195915699 268.00441049039364
leaf_count=327 120 957 563 3926 535 129 1243
internal_value=0 0.000874995 -0.00477962 0.00204729 -0.0025465 0.0067205 -0.00428165
internal_weight=1688.1 1250.75 191.217 1059.53 437.347 53.9809 383.366
internal_count=7800 5773 890 4883 2027 249 1778
is_linear=0
shrinkage=0.05


Tree=39
num_leaves=8
num_cat=0
split_feature=14 3 15 8 9 16 14
split_gain=1.44086 3.9503 4.84477 2.72416 2.36431 3.00758 2.90385
threshold=0.66999999999999971 1.6168770024836816 0.51896704641733027 -8.3942416420968105 0.18476403803827646 -13.411524800784193 2.9889285714285707
decision_type=2 2 2 2 2 2 2
left_child=1 2 -1 -3 5 -2 -6
right_child=4 3 -4 -5 6 -7 -8
leaf_value=-0.00045587723067915334 -0.012855066043878441 0 0.017275685802099976 0.018498304484595354 -0.00084057471735206162 -0.00027558271414864654 0.013635487307753217
leaf_weight=935.23195576667786 91.845680877566338 23.289052799344063 36.973250687122345 49.641193553805351 367.37498795986176 149.0051411986351 34.67462457716465
leaf_count=4315 429 108 171 227 1694 695 161
internal_value=0 0.00113071 0.000115716 0.0121466 -0.00187142 -0.00578689 0.000129327
internal_weight=1688.04 1045.14 972.205 72.9302 642.9 240.851 402.05
internal_count=7800 4821 4486 335 2979 1124 1855
is_linear=0
shrinkage=0.05


Tree=40
num_leaves=8
num_cat=0
split_feature=19 19 16 9 4 16 6
split_gain=1.46821 2.69497 7.33937 2.45454 2.67794 2.66129 2.38764
threshold=3.9641559966792514 3.1306059782230062 -4.3442717848611059 0.13927686479074497 42.579031449836215 87.565414617911145 38981.110499999944
decision_type=2 2 2 2 2 2 2
left_child=1 6 -3 5 -5 -2 -1
right_child=3 2 -4 4 -6 -7 -8
leaf_value=-0.0010411744622704244 -0.028527204797099737 0.03557943028464295 0 -0.012644794635837285 0.0043132631549624044 0 0.0036580855813024109
leaf_weight=1177.4022831320763 16.924371004104618 17.010698407888412 26.229724988341331 30.99929815530777 64.655821964144707 7.3653381317853919 347.44356997311115
leaf_count=5452 80 76 120 147 299 34 1592
internal_value=0 0.000395389 0.0122889 -0.00527801 0 -0.018718 0
internal_weight=1688.03 1568.09 43.2404 119.945 95.6551 24.2897 1524.85
internal_count=7800 7240 196 560 446 114 7044
is_linear=0
shrinkage=0.05


Tree=41
num_leaves=8
num_cat=0
split_feature=17 5 5 9 4 0 6
split_gain=1.46282 2.24344 3.22775 2.91798 2.03312 4.35224 2.17371
threshold=0.70382483988589306 1.2014418603099701 0.5956652160260637 -0.55424151431536395 42.579031449836215 2.6266793679961937 17209.640500000005
decision_type=2 2 2 2 2 2 2
left_child=1 2 -1 -3 5 -2 -6
right_child=4 3 -4 -5 6 -7 -8
leaf_value=0.0030990544862037283 0 -0.014486321009432649 -0.002204024575546405 0.0077648110959831276 -0.0012254509384487001 -0.014051346392171024 0.014579147249792932
leaf_weight=466.46708710491657 152.10672105848789 9.0355091989040357 729.98438426852226 179.50812913477421 35.661249250173569 89.230337202548981 25.984304070472717
leaf_count=2154 708 41 3370 825 163 420 119
internal_value=0 0.000671601 -8.84697e-06 0.00570518 -0.00314735 -0.00547695 0.00348344
internal_weight=1687.98 1385 1196.45 188.544 302.983 241.337 61.6456
internal_count=7800 6390 5524 866 1410 1128 282
is_linear=0
shrinkage=0.05


Tree=42
num_leaves=8
num_cat=0
split_feature=11 10 6 6 8 9 0
split_gain=1.47277 3.39541 6.17308 2.88135 6.82947 3.36663 2.45272
threshold=0.11693081203035484 0.17546891262966116 -12050.957499999997 -8872.0229999999847 4.142338569639282 -0.038394962572812358 -0.51088315863324074
decision_type=2 2 2 2 2 2 2
left_child=3 2 -2 5 -5 -1 -3
right_child=1 6 -4 4 -6 -7 -8
leaf_value=0.0025897254022466481 0 -0.014663396261877074 -0.024554967242974176 0.0012843006103122299 0.019958208571390083 -0.0056178827628922791 0.00075018100504139909
leaf_weight=189.52409589290619 36.461305469274521 24.634007439017296 41.279477268457413 723.79384323954582 52.255745872855186 285.28890918195248 334.76208737492561
leaf_count=879 169 114 194 3337 232 1325 1550
internal_value=0 -0.00251182 -0.0118121 0.000849566 0.00280628 -0.00203215 -5.03786e-06
internal_weight=1688 437.137 77.7408 1250.86 776.05 474.813 359.396
internal_count=7800 2027 363 5773 3569 2204 1664
is_linear=0
shrinkage=0.05


Tree=43
num_leaves=8
num_cat=0
split_feature=4 16 6 8 1 4 16
split_gain=1.4595 2.14837 2.10315 3.77722 3.55888 0.479819 0.405432
threshold=65.503613343247551 12.3003485807053 40753.649500000007 -1.2761027645473108e-06 -0.68372565495960591 75.955892277897718 -6.6512305763663386
decision_type=2 2 2 2 2 2 2
left_child=2 6 3 -1 -4 -3 -2
right_child=1 5 4 -5 -6 -7 -8
leaf_value=-0.0033856948391987225 -0.0033722913548525006 -0.022659142618087384 -0.0055461050921603314 0.0020130447751496626 0.0061290331481849824 0 0.0072862284778469552
leaf_weight=644.0592507570982 17.601374998688701 16.699964448809627 67.294195726513863 618.50279209017754 305.92369033396244 6.0469327270984641 11.678998559713362
leaf_count=2992 83 85 307 2851 1398 29 55
internal_value=0 -0.00802547 0.000252573 -0.000623938 0.00359777 -0.0186081 0
internal_weight=1687.81 52.0273 1635.78 1262.56 373.218 22.7469 29.2804
internal_count=7800 252 7548 5843 1705 114 138
is_linear=0
shrinkage=0.05


Tree=44
num_leaves=8
num_cat=0
split_feature=19 19 17 3 11 9 0
split_gain=1.40667 4.77703 6.37988 2.5561 2.44474 2.36815 1.57665
threshold=3.5663188910995465 3.1306059782230062 0.31697934414543633 -0.18903404118863951 0.11693081203035484 0.13927686479074497 0.94066464480653933
decision_type=2 2 2 2 2 2 2
left_child=1 4 -3 5 -1 -2 -5
right_child=3 2 -4 6 -6 -7 -8
leaf_value=0.0010040025095652599 -0.01432971579709607 -0.0030058635520932775 0.036770923557640098 0 -0.0040906970013997179 0.0046555389005973223 -0.019463150509402217
leaf_weight=1237.0687149763107 18.116111755371094 7.0823255479335812 17.756257623434067 17.280362993478775 287.54013413190842 70.10028275847435 32.862283542752266
leaf_count=5708 86 32 80 80 1336 324 154
internal_value=0 0.000411892 0.0209393 -0.00479733 0 0 -0.0134709
internal_weight=1687.81 1549.45 24.8386 138.359 1524.61 88.2164 50.1426
internal_count=7800 7156 112 644 7044 410 234
is_linear=0
shrinkage=0.05


Tree=45
num_leaves=8
num_cat=0
split_feature=17 16 15 17 14 4 0
split_gain=1.38102 2.19967 4.01957 2.39426 2.0312 3.34713 1.66213
threshold=0.81721415987972135 35.312723581454733 0.0238459850617979 -0.57946949308996099 0.92964285714285755 46.200857878524907 2.542067502429421
decision_type=2 2 2 2 2 2 2
left_child=1 3 -3 -1 6 -6 -2
right_child=4 2 -4 -5 5 -7 -8
leaf_value=-0.013612048914825045 0.0050629656158189497 0.01467446859074357 0 0 -0.024963924504713061 0 -0.0092965357806339896
leaf_weight=29.674879878759384 45.860262840986252 69.79024763405323 110.71289673447609 1369.6652175784111 23.8023806065321 7.7046703994274131 30.58790448307991
leaf_count=136 213 315 507 6332 117 36 144
internal_value=0 0.000351161 0.00553691 -0.000221208 -0.00541825 -0.015542 0
internal_weight=1687.8 1579.84 180.503 1399.34 107.955 31.5071 76.4482
internal_count=7800 7290 822 6468 510 153 357
is_linear=0
shrinkage=0.05


Tree=46
num_leaves=8
num_cat=0
split_feature=2 18 17 13 7 10 7
split_gain=1.38281 1.82174 3.36061 3.26744 1.22657 0.100155 0.0069138
threshold=0.64517399050459001 23.113743280157991 0.74699663395414739 55.780220148200378 267.94708793319165 -0.026573038352970087 561694146.94525063
decision_type=2 2 2 2 2 2 2
left_child=4 2 -2 -3 5 -1 -6
right_child=1 3 -4 -5 6 -7 -8
leaf_value=0 0.0032635262028568898 -0.0034083198378527125 -0.0099160287905771232 0.002617536679001132 0.0010913822889061626 -0.020150645629398424 -0.00055724996938013476
leaf_weight=6.2934910058975246 665.15685465931892 609.72491303086281 44.687625139951706 328.31572140753269 7.4514459371566799 13.513323754072188 12.572317302227018
leaf_count=30 3065 2821 207 1520 35 63 59
internal_value=0 0.000203857 0.00218515 -0.00113824 -0.00889448 -0.0168232 0
internal_weight=1687.72 1647.89 709.844 938.041 39.8306 19.8068 20.0238
internal_count=7800 7613 3272 4341 187 93 94
is_linear=0
shrinkage=0.05


Tree=47
num_leaves=8
num_cat=0
split_feature=9 7 9 9 11 15 9
split_gain=1.39627 7.04115 4.13084 3.51213 3.50358 2.93438 1.99313
threshold=-0.21917409546059211 9.8642984731047569 -0.028444312187602832 0.040337209410250395 -0.074822704732657744 -0.14825701903927557 -0.60836300052182202
decision_type=2 2 2 2 2 2 2
left_child=1 6 5 -4 -3 -2 -1
right_child=2 4 3 -5 -6 -7 -8
leaf_value=0 0.019768267573404757 0.013862459298893107 -0.0080998084497725924 0.00037418091468465376 -0.0020367279335990469 0.0029370241655833403 -0.013822263332949558
leaf_weight=8.2547798603773099 39.116668328642845 54.40936341881752 131.73470817506313 1119.9947943985462 54.198641523718834 162.00826369225979 118.06737826764584
leaf_count=38 181 251 614 5170 248 750 548
internal_value=0 -0.0035835 0.000546816 -0.000415326 0.00474282 0.00718779 -0.0118461
internal_weight=1687.78 234.93 1452.85 1251.73 108.608 201.125 126.322
internal_count=7800 1085 6715 5784 499 931 586
is_linear=0
shrinkage=0.05


Tree=48
num_leaves=8
num_cat=0
split_feature=4 4 8 16 3 15 16
split_gain=1.34978 2.05152 2.72098 2.02961 1.89183 1.22822 0.681648
threshold=65.503613343247551 39.571219077306289 -0.00081791406824418395 8.0839213117131106 -1.1199635922347195 -0.0018745000853177549 -6.6512305763663386
decision_type=2 2 2 2 2 2 2
left_child=1 2 -1 6 -3 -5 -2
right_child=3 4 -4 5 -6 -7 -8
leaf_value=-0.003342349719764986 -0.0031864387053687857 -0.00044003162237010333 0.001255426350992613 0 0.006139050257936189 -0.022473300024645496 0.011384472998841801
leaf_weight=549.01102304458618 17.57014845311642 124.22127202153206 715.34779216349125 6.1257598400115993 247.17457781732082 19.627060234546661 8.5369631648063642
leaf_count=2555 83 564 3313 30 1116 99 40
internal_value=0 0.000235955 -0.000625854 -0.00773609 0.003552 -0.0170487 0
internal_weight=1687.61 1635.75 1264.36 51.8599 371.396 25.7528 26.1071
internal_count=7800 7548 5868 252 1680 129 123
is_linear=0
shrinkage=0.05


Tree=49
num_leaves=8
num_cat=0
split_feature=9 16 6 8 8 15 6
split_gain=1.37107 4.14993 3.86915 5.011 3.68629 3.50498 2.43901
threshold=0.26290401077969133 44.906913032670765 11935.540000000005 -1.991319755112126e-07 -1.991319755112126e-07 -0.0018745000853177549 13514.244499999997
decision_type=2 2 2 2 2 2 2
left_child=1 6 4 -4 -2 -3 -1
right_child=2 5 3 -5 -6 -7 -8
leaf_value=-0.0040647164438672063 0 0.022691014373910707 0.001694383010354033 -0.011276506431054387 0.0096801583871203439 0 0.0014182112108887535
leaf_weight=640.6232862919569 222.02323123812675 27.369277656078339 197.02126716077328 104.52058461308479 200.43835152685642 50.845334768295288 244.7221963852644
leaf_count=2981 1030 123 900 481 919 235 1131
internal_value=0 -0.00125977 0.00161395 -0.00237584 0.00481098 0.00920009 -0.00238063
internal_weight=1687.56 963.56 724.003 301.542 422.462 78.2146 885.345
internal_count=7800 4470 3330 1381 1949 358 4112
is_linear=0
shrinkage=0.05


Tree=50
num_leaves=8
num_cat=0
split_feature=12 6 12 12 4 3 9
split_gain=1.29474 3.12808 3.28299 2.82587 3.41765 2.40885 0.129403
threshold=1.1997260637614233 555063.70199999993 1.5098688754760363 0.9014650151929906 23.572602272104653 -2.4133665805670224 0.47673751986023022
decision_type=2 2 2 2 2 2 2
left_child=3 2 -2 5 -5 -1 -3
right_child=1 6 -4 4 -6 -7 -8
leaf_value=-0.0058464097934238859 0.0076781216787834509 -0.019809209742600281 -0.0022233785880186371 -0.0072962940277548575 0 0.0026547458033260333 0
leaf_weight=85.546672984957695 226.60488064587116 9.4010437428951281 99.347141951322556 278.58920277655125 374.73290051519871 606.20986650884151 6.8652407079935065
leaf_count=396 1027 43 458 1308 1739 2797 32
internal_value=0 0.00272158 0.00421149 -0.000710139 -0.00313404 0.00136683 -0.0153553
internal_weight=1687.3 342.218 325.952 1345.08 653.322 691.757 16.2663
internal_count=7800 1560 1485 6240 3047 3193 75
is_linear=0
shrinkage=0.05


Tree=51
num_leaves=8
num_cat=0
split_feature=19 19 15 19 4 11 19
split_gain=1.28854 5.00803 3.43167 3.34132 6.83331 2.83222 2.16971
threshold=1.4322388425486936 1.7655736156358914 0.40692300179384067 1.0607482956978302 23.07208108252647 0.16371251068849144 3.5663188910995465
decision_type=2 2 2 2 2 2 2
left_child=3 2 -2 5 -5 -1 -3
right_child=1 6 -4 4 -6 -7 -8
leaf_value=0.00090064274910350698 -0.023692547482049683 0.0041577146252318427 0 -0.011179170545042097 0.020770151806212472 -0.006545178773943121 -0.0045686022519952412
leaf_weight=1152.5678744763136 39.281336903572083 140.49959602952003 9.4097984284162504 15.080140814185141 52.084903135895729 140.40092910826206 138.03325128555298
leaf_count=5323 180 644 44 70 238 657 644
internal_value=0 -0.00282468 -0.0171225 0.000655966 0.0112877 0 0
internal_weight=1687.36 327.224 48.6911 1360.13 67.165 1292.97 278.533
internal_count=7800 1512 224 6288 308 5980 1288
is_linear=0
shrinkage=0.05


Tree=52
num_leaves=8
num_cat=0
split_feature=16 1 16 10 19 9 9
split_gain=1.27619 5.28281 4.13858 3.12343 3.05375 3.04835 2.6866
threshold=-26.972696178586222 -0.048261319519996869 -25.951665089851758 -0.16102008206993276 -0.21651289564357676 -0.023197348387245839 0.39439362548478391
decision_type=2 2 2 2 2 2 2
left_child=1 5 3 -2 -4 -1 -3
right_child=2 6 4 -5 -6 -7 -8
leaf_value=0 0 0.0045463597902652879 -0.0026821734487175223 0.0307581712912702 0.0020289620126812805 -0.025147777055930499 -0.0083743720970499303
leaf_weight=19.579647704958916 9.9167244881391543 130.69842457771301 567.3130654245615 16.625386670231819 855.51425765454769 34.32351653277874 53.36720709502697
leaf_count=92 45 607 2618 75 3952 165 246
internal_value=0 -0.00339407 0.000534281 0.0190832 4.36338e-05 -0.0167595 0
internal_weight=1687.34 237.969 1449.37 26.5421 1422.83 53.9032 184.066
internal_count=7800 1110 6690 120 6570 257 853
is_linear=0
shrinkage=0.05


Tree=53
num_leaves=8
num_cat=0
split_feature=9 7 9 11 6 15 3
split_gain=1.23669 6.35292 3.77493 3.14677 3.06276 2.60894 2.37658
threshold=-0.21917409546059211 9.8642984731047569 -0.028444312187602832 -0.074822704732657744 -15667.586499999999 -0.14825701903927557 -2.0630657617739847
decision_type=2 2 2 2 2 2 2
left_child=1 6 5 -3 -4 -2 -1
right_child=2 3 4 -5 -6 -7 -8
leaf_value=0.00041903753560680699 0.018734320785014663 0.013104234345951128 -0.0050134044115960567 -0.0018559194903182367 0.00081547613912620511 0.0027835273859429868 -0.013867022375649397
leaf_weight=12.808249980211256 39.38986748456955 54.683805525302887 283.77814850211143 54.11363773047924 967.47061096131802 162.16114118695259 112.88070771098137
leaf_count=59 181 251 1321 248 4463 750 527
internal_value=0 -0.00337027 0.000520358 0.00447151 -0.000395726 0.00686321 -0.0112698
internal_weight=1687.29 234.486 1452.8 108.797 1251.25 201.551 125.689
internal_count=7800 1085 6715 499 5784 931 586
is_linear=0
shrinkage=0.05


Tree=54
num_leaves=8
num_cat=0
split_feature=19 19 0 19 4 16 9
split_gain=1.23526 4.50819 3.35559 2.8945 6.24391 2.74624 2.02838
threshold=1.4322388425486936 1.7655736156358914 1.3242468317049223 1.0607482956978302 23.07208108252647 35.312723581454733 0.040337209410250395
decision_type=2 2 2 2 2 2 2
left_child=3 2 -2 5 -5 -1 -3
right_child=1 6 -4 4 -6 -7 -8
leaf_value=-0.00062077431922957955 0 -0.0086487125451979192 -0.026897377501924325 -0.010823455128417377 0.019599295135331686 0.0073179989702366333 0.0018697925538312785
leaf_weight=1175.8282565325499 20.731191694736481 54.159814164042473 27.645452290773392 15.028134092688559 52.477328389883041 116.71918654441833 224.50252884626389
leaf_count=5451 96 253 128 70 238 529 1035
internal_value=0 -0.00275861 -0.0163785 0.000650384 0.0105267 0 0
internal_weight=1687.09 327.039 48.3766 1360.05 67.5055 1292.55 278.662
internal_count=7800 1512 224 6288 308 5980 1288
is_linear=0
shrinkage=0.05


Tree=55
num_leaves=8
num_cat=0
split_feature=14 14 15 14 6 19 5
split_gain=1.22797 3.63091 3.35841 2.38642 2.83539 2.3609 2.189
threshold=0.66999999999999971 0.42571428571428688 -0.15068403932375432 1.1342857142857155 11935.540000000005 -1.7267363694254951 1.2164439818086528
decision_type=2 2 2 2 2 2 2
left_child=1 6 -3 5 -5 -2 -1
right_child=3 2 -4 4 -6 -7 -8
leaf_value=-0.0010055565909669203 0.00089129804360701763 -0.0020658507249271328 0.013508943833427753 0.0029023826432983684 -0.0063261106224880796 -0.0089756245098783598 0.0062568556961458055
leaf_weight=802.43605251610279 53.833932623267174 28.723874002695084 98.168160811066628 312.13523250818253 108.02036257088184 167.79407332837582 115.98584826290607
leaf_count=3707 249 132 452 1449 502 779 530
internal_value=0 0.00103567 0.00886227 -0.00173703 0.000147265 -0.00593126 0
internal_weight=1687.1 1045.31 126.892 641.784 420.156 221.628 918.422
internal_count=7800 4821 584 2979 1951 1028 4237
is_linear=0
shrinkage=0.05


Tree=56
num_leaves=8
num_cat=0
split_feature=8 19 4 8 19 10 3
split_gain=1.24066 4.60988 5.27998 4.83152 3.98452 4.35599 3.74172
threshold=-0.0057417755894006006 -0.17464121276141525 55.384908446331046 -0.020599182761587224 0.21426741604552432 0.0034539674304689964 -2.7537356176202001
decision_type=2 2 2 2 2 2 2
left_child=1 2 -1 -3 6 -6 -2
right_child=4 3 -4 -5 5 -7 -8
leaf_value=-0.0077661988327848396 -0.0060734418515288428 0.0051976756462940969 0.011361750865192402 -0.015098163411642619 -0.014329308741175628 0 0.0058427237387475477
leaf_weight=330.95442542433739 62.088245823979378 262.05126632750034 31.921592131257057 27.427782312035561 59.25843608379364 442.39757612347603 470.95164553821087
leaf_count=1535 288 1215 147 127 274 2040 2174
internal_value=0 -0.00172203 -0.00559421 0.00262667 0.0010565 -0.00193702 0.00414868
internal_weight=1687.05 652.355 362.876 289.479 1034.7 501.656 533.04
internal_count=7800 3024 1682 1342 4776 2314 2462
is_linear=0
shrinkage=0.05


Tree=57
num_leaves=8
num_cat=0
split_feature=4 16 6 6 1 4 16
split_gain=1.24165 1.86908 1.85175 3.66158 3.05672 1.11411 0.622941
threshold=65.503613343247551 8.0839213117131106 40753.649500000007 21108.790000000001 -0.68372565495960591 75.955892277897718 -6.6512305763663386
decision_type=2 2 2 2 2 2 2
left_child=2 6 3 -1 -4 -3 -2
right_child=1 5 4 -5 -6 -7 -8
leaf_value=4.3460964909537708e-05 -0.0030860861305874077 -0.021987147631023982 -0.0050485709561713943 -0.010037939833106638 0.0057149526703196172 0 0.010843897924244193
leaf_weight=1169.424744784832 17.549721673130993 18.68388764560223 67.013371989130974 92.308933570981026 306.68179807066917 6.875989541411399 8.5795262604951841
leaf_count=5415 83 96 307 428 1398 33 40
internal_value=0 -0.00743696 0.000220088 -0.000597557 0.00336174 -0.0164171 0
internal_weight=1687.12 51.6891 1635.43 1261.73 373.695 25.5599 26.1292
internal_count=7800 252 7548 5843 1705 129 123
is_linear=0
shrinkage=0.05


Tree=58
num_leaves=8
num_cat=0
split_feature=2 13 12 7 8 18 5
split_gain=1.26093 4.90714 3.13187 5.5062 4.5394 3.0225 2.40711
threshold=3.5089222768569894 44.822942176320119 0.68995626633926932 0.037152974864460134 -0.21689996204891834 47.124401218355068 1.3632114553218813
decision_type=2 2 2 2 2 2 2
left_child=1 5 4 -4 -2 -1 -3
right_child=2 6 3 -5 -6 -7 -8
leaf_value=-0.00021323112261453843 -0.023143245381713282 -0.011516577543390253 0 0.013667572402478349 0 0.011534515730262911 0.0016104282698502098
leaf_weight=1064.9919006079435 22.874422088265419 140.13415190577507 214.62327733635902 111.60370990633965 58.338513478636742 53.951780214905739 20.585913568735123
leaf_count=4915 108 650 1000 513 268 251 95
internal_value=0 -0.000803991 0.00237913 0.00481812 -0.00545954 0.000248838 -0.0089203
internal_weight=1687.1 1279.66 407.44 326.227 81.2129 1118.94 160.72
internal_count=7800 5911 1889 1513 376 5166 745
is_linear=0
shrinkage=0.05


Tree=59
num_leaves=8
num_cat=0
split_feature=2 18 8 6 11 9 3
split_gain=1.22853 1.57945 3.37432 3.27937 0.808563 0.954685 1.73203e-05
threshold=0.64517399050459001 27.043350880708989 -0.28737913413079191 188563.27999999994 0.0044729962115534578 -0.38177671498611904 -0.2959403654645843
decision_type=2 2 2 2 2 2 2
left_child=4 2 -2 -3 5 -1 -6
right_child=1 3 -4 -5 6 -7 -8
leaf_value=0 -0.0021879443138742875 -0.00037194163441698036 0.0043055739565361004 -0.016092289790738318 0 -0.017823693909655252 6.8258580907638408e-05
leaf_weight=6.4398919045925131 285.56407655775547 803.25793945789337 525.40618194639683 33.119502037763596 6.5608589947223663 20.357258245348934 6.2935536503791791
leaf_count=30 1324 3724 2412 153 31 96 30
internal_value=0 0.000189417 0.00183512 -0.00122844 -0.00840365 -0.0129972 0
internal_weight=1687 1647.35 810.97 836.377 39.6516 26.7972 12.8544
internal_count=7800 7613 3736 3877 187 126 61
is_linear=0
shrinkage=0.05


Tree=60
num_leaves=8
num_cat=0
split_feature=9 16 3 3 5 11 3
split_gain=1.19502 3.64986 3.03646 6.86048 2.96633 2.2108 1.93062
threshold=0.26290401077969133 55.830047903873556 -1.3924976373977318 -0.84225499670732618 0.99290316567578907 -0.074822704732657744 -1.7768178708959943
decision_type=2 2 2 2 2 2 2
left_child=1 5 4 -4 -2 -1 -3
right_child=2 6 3 -5 -6 -7 -8
leaf_value=0.00091176386870504963 0 0 0.017661973282868317 0.00092610647488525699 -0.011713435773259064 -0.0039505846803699592 0.017887116998191028
leaf_weight=313.08606523275375 133.46257397532463 23.763476893305779 73.002482429146767 450.4410192668438 67.512238249182701 593.60735887289047 32.248569712042809
leaf_count=1452 617 109 334 2068 311 2763 146
internal_value=0 -0.00119265 0.00148954 0.00363247 -0.00332773 -0.00210923 0.0104556
internal_weight=1687.12 962.705 724.418 523.444 200.975 906.693 56.012
internal_count=7800 4470 3330 2402 928 4215 255
is_linear=0
shrinkage=0.05


Tree=61
num_leaves=8
num_cat=0
split_feature=17 10 11 19 18 13 12
split_gain=1.21019 2.15403 7.63305 3.12543 2.00885 3.20507 2.37078
threshold=0.70382483988589306 -0.024820977073269464 -0.069286320240097815 3.9641559966792514 44.26524920214468 28.270376730526667 1.2597370706067983
decision_type=2 2 2 2 2 2 2
left_child=1 2 -1 -3 5 -2 -6
right_child=4 3 -4 -5 6 -7 -8
leaf_value=0.0019816499708269083 -0.0046329731076928853 0.0036994504254964609 -0.0098483803443192783 -0.0058795951691368578 -0.011923996187502455 0.0091833113799875861 0
leaf_weight=426.93438039720058 101.56277516484261 684.34737738966942 189.68958982825279 83.817817658185959 91.73903688788414 65.398700818419456 43.36960680782795
leaf_count=1966 471 3153 879 392 433 301 205
internal_value=0 0.000602868 -0.00144556 0.00244092 -0.00287471 0 -0.00739039
internal_weight=1686.86 1384.79 616.624 768.165 302.07 166.961 135.109
internal_count=7800 6390 2845 3545 1410 772 638
is_linear=0
shrinkage=0.05


Tree=62
num_leaves=8
num_cat=0
split_feature=2 13 17 3 17 1 18
split_gain=1.25069 4.46449 3.94087 3.06828 1.91032 4.02848 2.79652
threshold=3.5089222768569894 51.902709410875097 0.58858812932408999 0.28708271206556729 0.64122604993609533 0.41471850779187008 50.685874188261451
decision_type=2 2 2 2 2 2 2
left_child=1 3 -3 -1 5 -2 -6
right_child=4 2 -4 -5 6 -7 -8
leaf_value=-0.0016406825038266745 0 -0.022442701611963902 0 0.004002508568381258 0.0077291543511509402 0.012173565848468001 -0.0060811804042389542
leaf_weight=897.02642162144184 136.74945549666882 40.326346978545189 17.494644150137901 324.59962986409664 45.261007890105247 111.34467442333698 114.01644244790077
leaf_count=4148 633 189 81 1493 209 509 538
internal_value=0 -0.000794333 -0.0140289 -1.26057e-05 0.00237643 0.0052323 -0.00116209
internal_weight=1686.82 1279.45 57.821 1221.63 407.372 248.094 159.277
internal_count=7800 5911 270 5641 1889 1142 747
is_linear=0
shrinkage=0.05


Tree=63
num_leaves=8
num_cat=0
split_feature=12 9 16 9 6 9 3
split_gain=1.17586 3.5805 3.64834 2.94598 2.77087 4.68547 2.14277
threshold=0.83354967905561772 -0.20338111082803659 -34.536197375977451 -0.32554553622781585 -391.90499999999298 -0.052177186548025938 -0.58925853400690098
decision_type=2 2 2 2 2 2 2
left_child=1 3 -3 -1 5 -2 -6
right_child=4 2 -4 -5 6 -7 -8
leaf_value=0 0.0018792723510853938 -0.0043536975506943522 0.0062321861308368637 -0.019107058417683495 0.0043483410830499987 -0.0079857404264280143 -0.0010734325980442628
leaf_weight=42.362407371401787 169.69197289645672 85.386827439069748 360.33227132260799 28.874415099620819 282.85122527182102 286.08501707017422 431.14626015722752
leaf_count=196 787 401 1656 134 1307 1333 1986
internal_value=0 0.0019548 0.0038544 -0.00758567 -0.000901342 -0.00399763 0.000874413
internal_weight=1686.73 516.956 445.719 71.2368 1169.77 455.777 713.997
internal_count=7800 2387 2057 330 5413 2120 3293
is_linear=0
shrinkage=0.05


Tree=64
num_leaves=8
num_cat=0
split_feature=8 19 4 8 19 10 2
split_gain=1.11127 3.88017 4.74143 4.37676 3.6685 4.00669 3.48257
threshold=-0.0057417755894006006 -0.17464121276141525 55.384908446331046 -0.020599182761587224 0.21426741604552432 0.0034539674304689964 1.0652535672524699
decision_type=2 2 2 2 2 2 2
left_child=1 2 -1 -3 6 -6 -2
right_child=4 3 -4 -5 5 -7 -8
leaf_value=-0.0072961395832598242 -0.0027273260750190725 0.0047714378843240896 0.010745833420263152 -0.014592148757073582 -0.013795913953715598 0 0.0062245642939312198
leaf_weight=329.65325728058815 118.18811129033566 262.80302484333515 32.053856655955315 27.294106125831604 58.977901920676231 442.30267511308193 415.44868703186512
leaf_count=1535 547 1215 147 127 274 2040 1915
internal_value=0 -0.00164048 -0.00521076 0.00230711 0.000989371 -0.00187843 0.00395825
internal_weight=1686.72 651.804 361.707 290.097 1034.92 501.281 533.637
internal_count=7800 3024 1682 1342 4776 2314 2462
is_linear=0
shrinkage=0.05


Tree=65
num_leaves=8
num_cat=0
split_feature=17 2 19 12 19 12 15
split_gain=1.12557 1.96588 2.78644 2.65831 1.88944 2.49685 1.93966
threshold=0.81721415987972135 4.942927989324386 4.6013777718193163 1.2658205993581582 -0.013514723820416323 0.6079369375995537 -0.062536865137306094
decision_type=2 2 2 2 2 2 2
left_child=1 3 -3 -1 5 -2 -6
right_child=4 2 -4 -5 6 -7 -8
leaf_value=-0.001114887889894919 -0.0072701438615236291 0.010111474902357033 -0.0042361723898855187 0.0050045816594393002 0 0.016326354869293916 -0.013532158709036386
leaf_weight=1239.4789488315582 13.580800965428354 108.67068840563297 29.320167273283005 201.89946386218071 13.053452223539351 17.606796056032181 63.145900338888168
leaf_count=5747 65 496 137 910 60 84 301
internal_value=0 0.000304893 0.00597373 -0.000145245 -0.00491516 0.00192728 -0.00957658
internal_weight=1686.76 1579.37 137.991 1441.38 107.387 31.1876 76.1994
internal_count=7800 7290 633 6657 510 149 361
is_linear=0
shrinkage=0.05


Tree=66
num_leaves=8
num_cat=0
split_feature=14 3 3 8 14 6 15
split_gain=1.15345 3.47765 4.4689 2.40505 2.10542 2.48433 2.25828
threshold=0.66999999999999971 1.6168770024836816 0.99983535565331938 -8.3942416420968105 1.1342857142857155 11935.540000000005 -0.37429215897830859
decision_type=2 2 2 2 2 2 2
left_child=1 2 -1 -3 6 -6 -2
right_child=4 3 -4 -5 5 -7 -8
leaf_value=0.0009706566452656524 0.010949725397635335 0 -0.014223210732589753 0.017226900652563475 0.0026444874896101515 -0.0060142004479370598 -0.007242987170498272
leaf_weight=924.11000643670559 9.7115930765867216 23.281680420041084 47.91180194914341 50.010148927569389 312.61710676550865 107.7102002799511 211.30103912949562
leaf_count=4265 45 108 221 227 1449 502 983
internal_value=0 0.000989083 2.64365e-05 0.0112868 -0.00169814 4.44388e-05 -0.00563804
internal_weight=1686.65 1045.31 972.022 73.2918 641.34 420.327 221.013
internal_count=7800 4821 4486 335 2979 1951 1028
is_linear=0
shrinkage=0.05


Tree=67
num_leaves=8
num_cat=0
split_feature=4 4 8 16 14 3 16
split_gain=1.09915 1.82323 2.37113 1.70123 1.7012 1.09734 0.564084
threshold=65.503613343247551 38.375407848553714 -0.010030676025345287 8.0839213117131106 1.9053571428571425 -3.6600462517438559 -6.6512305763663386
decision_type=2 2 2 2 2 2 2
left_child=1 2 -1 6 -3 -5 -2
right_child=3 4 -4 5 -6 -7 -8
leaf_value=-0.0034984582354098247 -0.002876635083746797 0.0014302424312289323 0.00092395623565809252 0 0.012094527631256126 -0.021607095804240632 0.010332426286483728
leaf_weight=472.51100958883762 17.509632289409641 359.34933112561703 754.30502308905125 7.5843323469162014 48.948122322559357 17.726990014314651 8.6195454597473127
leaf_count=2206 83 1627 3494 36 221 93 40
internal_value=0 0.000203097 -0.000661756 -0.00701666 0.00315231 -0.0156492 0
internal_weight=1686.55 1635.11 1226.82 51.4405 408.297 25.3113 26.1292
internal_count=7800 7548 5700 252 1848 129 123
is_linear=0
shrinkage=0.05


Tree=68
num_leaves=8
num_cat=0
split_feature=11 10 16 16 1 16 0
split_gain=1.08975 2.99253 3.23641 2.36028 4.88002 3.71021 2.17817
threshold=0.11693081203035484 0.17546891262966116 -11.170695286530696 -26.972696178586222 0.14757980098465548 -25.951665089851758 -0.51088315863324074
decision_type=2 2 2 2 2 2 2
left_child=3 2 -2 4 -1 -5 -3
right_child=1 6 -4 5 -6 -7 -8
leaf_value=-0.014641032233057301 0 -0.013748724689515941 -0.020163024523091096 0.02132845022946131 0.00083786282821572125 0.0011382113612323278 0.00089002672916091311
leaf_weight=68.944729089736938 36.69923560321331 24.39538086950779 40.376708343625069 21.574021875858307 121.13656178116798 1039.2710395604372 333.98679231107235
leaf_count=327 173 114 190 97 563 4786 1550
internal_value=0 -0.00216878 -0.0109171 0.00072661 -0.00413989 0.0017488 0
internal_weight=1686.38 435.458 77.0759 1250.93 190.081 1060.85 358.382
internal_count=7800 2027 363 5773 890 4883 1664
is_linear=0
shrinkage=0.05


Tree=69
num_leaves=8
num_cat=0
split_feature=2 0 16 9 10 10 3
split_gain=1.06837 1.5009 4.63187 3.14824 0.880835 1.42743 0.0112119
threshold=0.64517399050459001 1.3105059479945615 -36.780740358061855 0.54525123192846792 0.0024703227490959771 -0.031249672460050167 -0.49294480117105949
decision_type=2 2 2 2 2 2 2
left_child=4 2 -2 -3 5 -1 -6
right_child=1 3 -4 -5 6 -7 -8
leaf_value=0 -0.014957547212247169 -0.0026116585630354314 0.0027027744929350454 0.0061969425787769166 -0.00042800254600097688 -0.021983262002314749 0.0013748688324511406
leaf_weight=7.8391144871711758 34.030953660607338 706.43172870576382 797.82395689189434 108.5290854126215 6.3310028910636929 14.355809852480887 10.92423205077648
leaf_count=37 161 3270 3686 496 30 68 52
internal_value=0 0.000181172 0.00174947 -0.0012368 -0.00785133 -0.0138298 0
internal_weight=1686.27 1646.82 831.855 814.961 39.4502 22.1949 17.2552
internal_count=7800 7613 3847 3766 187 105 82
is_linear=0
shrinkage=0.05


Tree=70
num_leaves=8
num_cat=0
split_feature=12 18 15 2 6 17 8
split_gain=1.08744 2.8646 7.56552 2.7661 2.59218 3.50778 2.44781
threshold=0.83354967905561772 20.511571802695606 0.0031243231537634681 1.4541354843006022 -10103.911499999997 -0.38636313864795591 2.8182681078965772
decision_type=2 2 2 2 2 2 2
left_child=1 2 -1 -3 5 -2 -6
right_child=4 3 -4 -5 6 -7 -8
leaf_value=0 0.0050803474761143656 -0.015146640000614969 0.022965287642014855 0.00090942126097798151 0 -0.00707474936421247 0.011799106305254693
leaf_weight=76.257857039570808 57.772531092166901 25.815188929438591 49.91458523273468 365.11076885461807 784.91380320489407 284.14067190885544 42.363403052091599
leaf_count=350 264 120 229 1688 3632 1330 187
internal_value=0 0.00187685 0.00834414 0 -0.00086965 -0.00455971 0.000485751
internal_weight=1686.29 517.098 126.172 390.926 1169.19 341.913 827.277
internal_count=7800 2387 579 1808 5413 1594 3819
is_linear=0
shrinkage=0.05


Tree=71
num_leaves=8
num_cat=0
split_feature=14 14 4 17 3 3 3
split_gain=1.07718 3.23662 3.28736 2.48126 2.05616 4.50258 2.70941
threshold=0.66999999999999971 0.42571428571428688 17.541031753740338 0.73901548142691931 1.4178552148323982 0.53606967810171746 1.6865137714622622
decision_type=2 2 2 2 2 2 2
left_child=1 3 -3 -1 5 -2 -6
right_child=4 2 -4 -5 6 -7 -8
leaf_value=0.00084027971873249462 -0.0019537086160997278 -0.004236732674753255 0.012505353054630153 -0.0073685356224901374 -0.028155671860460092 0.012255239254199565 -0.0028816981432735946
leaf_weight=817.42252381145954 460.47133955359459 22.655270680785179 104.6115637421608 100.57929500937462 13.035979896783827 60.168966546654701 107.2105812728405
leaf_count=3770 2143 105 479 467 61 278 497
internal_value=0 0.00096653 0.00834461 0 -0.0016314 0 -0.00745739
internal_weight=1686.16 1045.27 127.267 918.002 640.887 520.64 120.247
internal_count=7800 4821 584 4237 2979 2421 558
is_linear=0
shrinkage=0.05


Tree=72
num_leaves=8
num_cat=0
split_feature=2 13 18 12 16 8 5
split_gain=1.01867 4.16707 2.79188 2.73115 5.15411 3.91723 2.21823
threshold=3.5089222768569894 44.822942176320119 47.124401218355068 0.68995626633926932 -25.266470156344475 -0.21689996204891834 1.3632114553218813
decision_type=2 2 2 2 2 2 2
left_child=1 2 -1 5 -5 -2 -3
right_child=3 6 -4 4 -6 -7 -8
leaf_value=-0.00020830272282647521 -0.021718740898857739 -0.010772931219197986 0.011065931766665716 0.020122365386175775 0.0013017872927244484 0 0.0017808557229000014
leaf_weight=1064.4936092495918 22.503779470920563 139.20783317089081 54.110617339611053 43.582754582166672 283.35057406127453 58.431848362088203 20.550601899623871
leaf_count=4915 108 650 251 201 1312 268 95
internal_value=0 -0.000726129 0.000231472 0.00213399 0.00442551 -0.00516266 -0.0082334
internal_weight=1686.23 1278.36 1118.6 407.869 326.933 80.9356 159.758
internal_count=7800 5911 5166 1889 1513 376 745
is_linear=0
shrinkage=0.05


Tree=73
num_leaves=8
num_cat=0
split_feature=11 10 17 16 16 4 16
split_gain=1.02547 4.66978 5.46812 4.19022 8.05519 3.69809 2.27393
threshold=-0.074822704732657744 -0.024820977073269464 0.78280083234963538 -6.6512305763663386 2.2392686243939566 23.572602272104653 -8.2191420041826024
decision_type=2 2 2 2 2 2 2
left_child=3 2 -2 6 -5 -3 -1
right_child=1 5 -4 4 -6 -7 -8
leaf_value=-0.00034962521583795217 -0.0097924629683396984 -0.0030569040757607471 0.015275112282145452 0.022544148097171077 0.0005320837716338042 0.0032428620421826996 -0.022593223528189214
leaf_weight=258.58618257939816 217.16602638363838 373.86616331338882 17.166308462619781 58.478340268135071 177.15986277163029 573.47316117584705 10.168252155184744
leaf_count=1199 1011 1742 81 269 810 2641 47
internal_value=0 -0.000827694 -0.00715421 0.00185826 0.00683812 0.000597028 -0.0019833
internal_weight=1686.06 1181.67 234.332 504.393 235.638 947.339 268.754
internal_count=7800 5475 1092 2325 1079 4383 1246
is_linear=0
shrinkage=0.05


Tree=74
num_leaves=8
num_cat=0
split_feature=19 19 5 8 19 5 9
split_gain=1.12656 4.34624 2.57564 5.15356 3.69589 2.10189 1.86871
threshold=1.4322388425486936 1.7655736156358914 0.8834444390974413 -0.00081791406824418395 -0.17464121276141525 0.96532935567691081 0.040337209410250395
decision_type=2 2 2 2 2 2 2
left_child=2 5 3 -1 -4 -2 -3
right_child=1 6 4 -5 -6 -7 -8
leaf_value=-0.0048449120871514951 0 -0.00826764441332359 0 0.0025639126262356547 0.0093659552558116276 -0.026084801046740647 0.0018514566863258031
leaf_weight=431.86223246157169 24.131285086274147 53.948025822639465 266.34636440873146 485.87773907184601 175.45127105712891 24.077827796339989 224.2947945445776
leaf_count=2014 112 253 1230 2240 804 112 1035
internal_value=0 -0.00264444 0.000613313 -0.000763983 0.00379744 -0.0160365 0
internal_weight=1685.99 326.452 1359.54 917.74 441.798 48.2091 278.243
internal_count=7800 1512 6288 4254 2034 224 1288
is_linear=0
shrinkage=0.05


Tree=75
num_leaves=8
num_cat=0
split_feature=19 19 17 11 13 16 16
split_gain=1.09924 4.0606 5.7734 2.11353 2.09854 4.48285 1.96385
threshold=3.5663188910995465 3.1306059782230062 0.31697934414543633 0.11693081203035484 57.934741254948101 87.565414617911145 -3.0445928138397722
decision_type=2 2 2 2 2 2 2
left_child=1 3 -3 -1 5 -2 -6
right_child=4 2 -4 -5 6 -7 -8
leaf_value=0.0009092654289583244 -0.017081246723466264 -0.0030724009087314198 0.034285925509258429 -0.0038343716970395646 0.012237336550563933 0.012333049733494189 -0.0039952069883184404
leaf_weight=1236.6899649947882 56.305834665894508 7.0785955637693432 18.002409696578979 286.67256382107735 24.264845341444016 8.1697647422552091 48.788910806179047
leaf_count=5708 267 32 80 1336 110 37 230
internal_value=0 0.000358129 0.0191988 0 -0.00425903 -0.0107485 0
internal_weight=1685.97 1548.44 25.081 1523.36 137.529 64.4756 73.0538
internal_count=7800 7156 112 7044 644 304 340
is_linear=0
shrinkage=0.05


Tree=76
num_leaves=8
num_cat=0
split_feature=14 3 15 17 3 3 17
split_gain=1.02952 3.13784 4.2249 2.18553 1.912 4.07736 2.63139
threshold=0.66999999999999971 1.6168770024836816 0.51896704641733027 0.32169956273583794 1.4178552148323982 0.53606967810171746 0.64438627808104809
decision_type=2 2 2 2 2 2 2
left_child=1 2 -1 -3 5 -2 -6
right_child=4 3 -4 -5 6 -7 -8
leaf_value=-0.00050553966787584962 -0.0018880143529210133 0 0.016015522112076033 0.016771629462466006 0 0.011604850102023841 -0.017560358967175331
leaf_weight=934.4874369353056 460.14391919970512 25.897096276283264 37.246411383152008 47.637309670448303 80.841554865241051 60.431425511837006 39.146734952926636
leaf_count=4315 2143 118 171 217 373 278 185
internal_value=0 0.000944759 2.1165e-05 0.0107106 -0.00159544 0 -0.00722392
internal_weight=1685.83 1045.27 971.734 73.5344 640.564 520.575 119.988
internal_count=7800 4821 4486 335 2979 2421 558
is_linear=0
shrinkage=0.05


Tree=77
num_leaves=8
num_cat=0
split_feature=0 0 12 12 6 3 6
split_gain=1.02437 3.48253 3.25029 5.01647 4.02117 2.86765 2.48297
threshold=2.6266793679961937 2.9982904580969567 0.81279463700880117 0.68618004652308595 37170.626000000011 0.19769078656291503 456446.25850000017
decision_type=2 2 2 2 2 2 2
left_child=2 5 3 -1 -4 -2 -3
right_child=1 6 4 -5 -6 -7 -8
leaf_value=-0.0013247163441169028 -0.022213787164152059 0.0003504839797911085 -0.002842160723245868 0.010752192989895833 0.0046731505707919459 0 -0.014938807490243186
leaf_weight=126.34214533865452 32.824989080429077 441.64735049009323 633.60237865149975 177.28542228043079 237.01323375105858 12.408628746867178 24.68104450404644
leaf_count=589 153 2038 2951 813 1085 57 114
internal_value=0 -0.00188439 0.000789483 0.0052739 -0.000615498 -0.0147605 -0.000229434
internal_weight=1685.81 511.562 1174.24 303.628 870.616 45.2336 466.328
internal_count=7800 2362 5438 1402 4036 210 2152
is_linear=0
shrinkage=0.05


Tree=78
num_leaves=8
num_cat=0
split_feature=4 4 4 14 16 5 4
split_gain=0.986427 1.6029 2.19922 1.99286 1.57579 0.482295 0.449091
threshold=65.503613343247551 39.571219077306289 26.420207865289004 1.9053571428571425 12.3003485807053 0.81293038835984144 75.955892277897718
decision_type=2 2 2 2 2 2 2
left_child=1 2 -1 -3 5 -2 -6
right_child=4 3 -4 -5 6 -7 -8
leaf_value=0.00097005307223538804 -0.0057999724758521047 0.0012188718487513702 -0.0032205865595498341 0.013162343169369706 -0.019812865807167356 0.0058819617972978161 0
leaf_weight=767.08102536201477 11.596931025385858 327.94630007445812 495.42266431450844 44.112582921981812 16.023242771625522 17.65764357149601 5.9387013316154471
leaf_count=3572 55 1482 2296 198 85 83 29
internal_value=0 0.000192542 -0.000559614 0.00312882 -0.00666077 0 -0.015943
internal_weight=1685.78 1634.56 1262.5 372.059 51.2165 29.2546 21.9619
internal_count=7800 7548 5868 1680 252 138 114
is_linear=0
shrinkage=0.05


Tree=79
num_leaves=8
num_cat=0
split_feature=17 5 17 14 12 12 12
split_gain=1.02478 1.89795 2.8555 2.80603 1.81607 2.68132 2.65639
threshold=0.70382483988589306 1.2014418603099701 0.10483721526829108 0.14142857142857138 1.2597370706067983 1.4188515588065456 1.0769083624854208
decision_type=2 2 2 2 2 2 2
left_child=1 2 -1 -3 6 -6 -2
right_child=4 3 -4 -5 5 -7 -8
leaf_value=-0.0034775705274731486 -0.0019057278611070518 0.014566831164553595 0.0016079070801174177 6.9352640607336474e-05 0.014096898377953663 -0.0021097960054832316 -0.018568858008963521
leaf_weight=421.64755228161812 174.85673865675926 54.3973258882761 773.80161546170712 134.53156790137291 31.221499502658844 62.570189386606216 32.623199239373207
leaf_count=1957 821 247 3567 619 143 292 154
internal_value=0 0.000553503 -6.4848e-05 0.00518752 -0.0026501 0.0020051 -0.00546574
internal_weight=1685.65 1384.38 1195.45 188.929 301.272 93.7917 207.48
internal_count=7800 6390 5524 866 1410 435 975
is_linear=0
shrinkage=0.05


Tree=80
num_leaves=8
num_cat=0
split_feature=17 4 0 6 5 5 9
split_gain=0.947549 1.80529 3.97495 2.20345 1.74402 2.80433 2.75188
threshold=0.70382483988589306 42.579031449836215 2.6266793679961937 17209.640500000005 1.2014418603099701 0.53610235752585911 -0.55424151431536395
decision_type=2 2 2 2 2 2 2
left_child=4 2 -2 -3 5 -1 -6
right_child=1 3 -4 -5 6 -7 -8
leaf_value=0.0032116102091226183 0 -0.0010034954201316969 -0.013043424471943805 0.014847302348141557 -0.014788877072679505 -0.0018921414007680431 0.0070080382361468845
leaf_weight=399.93109261989594 151.34140953421593 35.511593550443649 88.289908796548843 25.87248307466507 9.043756887316702 795.42548002302647 180.15610159933567
leaf_count=1846 708 163 420 119 41 3678 825
internal_value=0 -0.00254914 -0.00480157 0.00372813 0.000532429 -5.56398e-05 0.00497113
internal_weight=1685.57 301.015 239.631 61.3841 1384.56 1195.36 189.2
internal_count=7800 1410 1128 282 6390 5524 866
is_linear=0
shrinkage=0.05


Tree=81
num_leaves=8
num_cat=0
split_feature=11 10 6 14 14 6 0
split_gain=0.959486 2.60064 5.55851 2.38193 5.64563 3.51048 2.01718
threshold=0.11693081203035484 0.17546891262966116 -12050.957499999997 1.2557142857142856 0.89571428571428535 715.47800000002042 -0.71064996790828105
decision_type=2 2 2 2 2 2 2
left_child=3 2 -2 4 -1 -5 -3
right_child=1 6 -4 5 -6 -7 -8
leaf_value=0.0010234201970408397 0.00046051221854856244 -0.015454282114977591 -0.02262111936476139 0.013428922409327807 -0.011260616271807786 -0.00022374570547410231 0.00068882089420574529
leaf_weight=1008.2099181413651 36.172717124223709 17.431940481066704 40.404376596212387 81.871769547462463 99.955688685178757 60.790451511740685 340.70972016453743
leaf_count=4648 169 82 194 379 465 281 1582
internal_value=0 -0.00203972 -0.0102268 0.000678731 0 0.00669675 0
internal_weight=1685.55 434.719 76.5771 1250.83 1108.17 142.662 358.142
internal_count=7800 2027 363 5773 5113 660 1664
is_linear=0
shrinkage=0.05


Tree=82
num_leaves=8
num_cat=0
split_feature=19 19 0 19 16 10 9
split_gain=1.01398 3.23174 5.20499 3.01406 4.51219 2.44604 1.76531
threshold=1.3670150163939583 1.7655736156358914 1.3105059479945615 1.1704194243773636 2.2392686243939566 0.57011793237519737 0.040337209410250395
decision_type=2 2 2 2 2 2 2
left_child=3 2 -2 5 -5 -1 -3
right_child=1 6 -4 4 -6 -7 -8
leaf_value=0.00062494375020528828 0 -0.0080166294223946392 -0.025010238037491819 0.031902091472525582 0 -0.010051199823869247 0.0018330550666174055
leaf_weight=1257.4739573597908 26.20129320025444 53.794711843132973 34.024476021528244 15.942421838641165 21.209568604826927 52.702507495880127 224.1611203700304
leaf_count=5820 121 253 159 72 96 244 1035
internal_value=0 -0.00246163 -0.0126683 0.000588404 0.0141136 5.92824e-05 0
internal_weight=1685.51 338.182 60.2258 1347.33 37.152 1310.18 277.956
internal_count=7800 1568 280 6232 168 6064 1288
is_linear=0
shrinkage=0.05


Tree=83
num_leaves=8
num_cat=0
split_feature=19 19 17 3 9 3 18
split_gain=1.0174 3.56548 5.32006 2.55968 2.07589 1.78024 1.18176
threshold=3.5663188910995465 3.1306059782230062 0.31697934414543633 -0.18903404118863951 0.13927686479074497 0.27204982974906805 53.026577058452155
decision_type=2 2 2 2 2 2 2
left_child=1 5 -3 4 -2 -1 -5
right_child=3 2 -4 6 -6 -7 -8
leaf_value=-0.00107070623582184 -0.012668753016419038 -0.0030190524587827071 0.032444943005399102 0 0.0050509375516251996 0.0026913186440946178 -0.018175486808017702
leaf_weight=1083.4099970459938 17.770579174160957 7.0741703212261227 18.19021138548851 17.270398780703545 69.754367858171463 439.50207869708538 32.455699056386948
leaf_count=5023 86 32 80 79 324 2021 155
internal_value=0 0.000344763 0.0179413 -0.00410131 0 0 -0.0128884
internal_weight=1685.43 1548.18 25.2644 137.251 87.5249 1522.91 49.7261
internal_count=7800 7156 112 644 410 7044 234
is_linear=0
shrinkage=0.05


Tree=84
num_leaves=8
num_cat=0
split_feature=6 18 2 3 6 17 17
split_gain=0.946863 3.6494 7.64851 2.89003 2.24538 3.44159 1.9033
threshold=-184281.34949999998 21.095929504462973 1.0570388935818056 -1.0103017905460641 -142702.10349999994 -0.0051548466678770768 -0.47063574251650547
decision_type=2 2 2 2 2 2 2
left_child=1 2 -1 -3 5 -2 -6
right_child=4 3 -4 -5 6 -7 -8
leaf_value=-0.011608094415798739 0 0 0.012964019720190918 -0.026161645537382528 0.0094538412517860028 0.025992234165100426 -0.00024355301405151134
leaf_weight=59.025839433073997 7.4944553524255779 17.254723146557808 61.042893275618553 24.055575594305992 49.275389343500137 18.33740445971489 1448.902128174901
leaf_count=274 35 81 283 112 226 85 6704
internal_value=0 -0.0036326 0 -0.0159641 0.000360132 0.0141974 0
internal_weight=1685.39 161.379 120.069 41.3103 1524.01 25.8319 1498.18
internal_count=7800 750 557 193 7050 120 6930
is_linear=0
shrinkage=0.05


Tree=85
num_leaves=8
num_cat=0
split_feature=19 19 15 5 8 5 19
split_gain=0.931639 3.70735 3.12725 2.26641 4.84581 3.48771 1.58709
threshold=1.4322388425486936 1.7655736156358914 0.40692300179384067 0.8834444390974413 -0.00081791406824418395 0.91076512545430366 3.5663188910995465
decision_type=2 2 2 2 2 2 2
left_child=3 2 -2 4 -1 -5 -3
right_child=1 6 -4 5 -6 -7 -8
leaf_value=-0.0047048724896211029 -0.021425808555193996 0.0035386104492531028 0 0.018581693777093167 0.0024788186308427949 0.0017645673273074759 -0.0039332165373140672
leaf_weight=431.29910829663277 38.409228399395943 140.84527871012688 9.2650458365678769 34.674475952982903 486.04601986706257 407.81106933951378 137.04505234956741
leaf_count=2014 180 644 44 160 2240 1874 644
internal_value=0 -0.00241927 -0.014861 0.000545845 -0.000740011 0.00353538 0
internal_weight=1685.4 325.565 47.6743 1359.83 917.345 442.486 277.89
internal_count=7800 1512 224 6288 4254 2034 1288
is_linear=0
shrinkage=0.05


Tree=86
num_leaves=8
num_cat=0
split_feature=2 18 19 2 7 10 7
split_gain=0.936042 1.41138 3.789 3.10232 1.15958 0.0908156 0.0174512
threshold=0.64517399050459001 27.043350880708989 -0.21651289564357676 2.3869524842332921 267.94708793319165 -0.026573038352970087 561694146.94525063
decision_type=2 2 2 2 2 2 2
left_child=4 2 -2 -3 5 -1 -6
right_child=1 3 -4 -5 6 -7 -8
leaf_value=0 -0.0017015503243671065 -0.0071960458190075023 0.0049384072511318147 0.00015661938319519645 0.0020511209270790403 -0.018275540800014787 0
leaf_weight=6.2386457026004818 370.24410058557987 168.58464425802231 440.69346885383129 666.41328430175781 7.370080932974818 13.227308988571165 12.434057518839834
leaf_count=30 1713 780 2023 3097 35 63 59
internal_value=0 0.000167476 0.00172746 -0.00116932 -0.00736659 -0.0152033 0
internal_weight=1685.21 1645.94 810.938 834.998 39.2701 19.466 19.8041
internal_count=7800 7613 3736 3877 187 93 94
is_linear=0
shrinkage=0.05


Tree=87
num_leaves=8
num_cat=0
split_feature=9 7 9 10 9 3 8
split_gain=0.92129 5.4996 3.45801 3.18201 2.65251 2.20042 1.86774
threshold=-0.21917409546059211 9.8642984731047569 -0.028444312187602832 -0.081153298341946276 0.040337209410250395 -2.0630657617739847 -3.7997179570145858e-08
decision_type=2 2 2 2 2 2 2
left_child=1 5 6 -3 -4 -1 -2
right_child=2 3 4 -5 -6 -7 -8
leaf_value=0.00079522395990068743 0.00093909644202736517 0.012416838033855826 -0.0071375876823497652 -0.0027561887149636236 0.00023421689616752651 -0.012924736965599096 0.012383545948522218
leaf_weight=12.74725519120693 118.36204445362091 59.457297742366791 130.52680110931396 49.332586884498596 1119.5044671148062 111.85072709619999 83.468252494931221
leaf_count=59 551 272 614 227 5170 527 380
internal_value=0 -0.00292151 0.000443069 0.00430525 -0.000431074 -0.0103598 0.00651639
internal_weight=1685.25 233.388 1451.86 108.79 1250.03 124.598 201.83
internal_count=7800 1085 6715 499 5784 586 931
is_linear=0
shrinkage=0.05


Tree=88
num_leaves=8
num_cat=0
split_feature=3 3 8 5 5 12 8
split_gain=0.899042 5.75124 4.2126 4.02307 3.77097 4.96932 3.01264
threshold=-0.17188516561624781 0.28708271206556729 -0.55090509131688803 0.77181363236304423 0.53610235752585911 1.1997260637614233 -4.3434372939896448e-06
decision_type=2 2 2 2 2 2 2
left_child=4 3 -3 -2 6 -6 -1
right_child=1 2 -4 -5 5 -7 -8
leaf_value=0.00051502571908614047 -0.01266704125941736 -0.005002273658298007 0.0048934148099874395 0 -0.0035331234971581627 0.0066075814156865351 0.011932497116241614
leaf_weight=168.50896061956882 148.55662623047829 141.48797775804996 344.10644286870956 117.14646601676941 494.96640576422215 151.41130313277245 118.84629210829735
leaf_count=788 694 656 1580 543 2307 688 544
internal_value=0 -0.0013015 0.00169009 -0.00728494 0.00101755 -0.000907163 0.00582825
internal_weight=1685.03 751.298 485.594 265.703 933.733 646.378 287.355
internal_count=7800 3473 2236 1237 4327 2995 1332
is_linear=0
shrinkage=0.05


Tree=89
num_leaves=8
num_cat=0
split_feature=14 3 3 8 9 9 19
split_gain=0.944409 2.82169 4.04416 2.0274 1.86505 3.10774 2.37627
threshold=0.66999999999999971 1.6168770024836816 0.99983535565331938 -8.3942416420968105 0.18476403803827646 0.51090325062161057 -1.5758416097150463
decision_type=2 2 2 2 2 2 2
left_child=1 2 -1 -3 6 -6 -2
right_child=4 3 -4 -5 5 -7 -8
leaf_value=0.00093094807704933416 0.0002327249299719256 0 -0.013562756641934785 0.015586632764546585 0.0034278051973312888 -0.0060320709449691893 -0.0086953165540288469
leaf_weight=923.64059087634087 82.335065260529518 23.278783828020096 47.601254627108574 50.489250600337982 281.81876845657825 119.10017751157284 156.5972351282835
leaf_count=4265 383 108 221 227 1306 549 741
internal_value=0 0.000912605 2.70588e-05 0.0101612 -0.00152151 0.000222288 -0.00503401
internal_weight=1684.86 1045.01 971.242 73.768 639.851 400.919 238.932
internal_count=7800 4821 4486 335 2979 1855 1124
is_linear=0
shrinkage=0.05


Tree=90
num_leaves=8
num_cat=0
split_feature=17 1 5 15 5 3 3
split_gain=0.947578 1.77516 2.4791 1.75161 5.20743 2.30441 1.37101
threshold=0.81721415987972135 0.76447040131068078 1.5307134177950881 0.50706830623804844 0.45790279649741411 0.28708271206556729 1.4909238158412743
decision_type=2 2 2 2 2 2 2
left_child=3 6 -3 5 -5 -1 -2
right_child=1 2 -4 4 -6 -7 -8
leaf_value=-0.0016148464364185372 -0.002984324883915152 -0.02189669521618692 0 0.013198642458240428 -0.0014594277199185795 0.0029425875605077101 0.014286766742108867
leaf_weight=992.24330204725266 60.551703244447708 23.822949722409248 11.454854235053061 95.712323173880577 116.96025736629963 372.98979251086712 11.019403159618376
leaf_count=4597 286 116 56 442 541 1710 52
internal_value=0 -0.00450058 -0.0131935 0.000301734 0.0045337 -0.000256376 0
internal_weight=1684.75 106.849 35.2778 1577.91 212.673 1365.23 71.5711
internal_count=7800 510 172 7290 983 6307 338
is_linear=0
shrinkage=0.05


Tree=91
num_leaves=8
num_cat=0
split_feature=3 3 8 5 5 12 6
split_gain=0.914495 4.97441 3.83294 3.67474 3.28836 4.50427 2.82016
threshold=-0.17188516561624781 0.28708271206556729 -0.55090509131688803 0.77181363236304423 0.53610235752585911 1.1997260637614233 2575.4814999999967
decision_type=2 2 2 2 2 2 2
left_child=4 3 -3 -2 6 -6 -1
right_child=1 2 -4 -5 5 -7 -8
leaf_value=0.0095912520027940009 -0.012048515866037829 -0.00493459772376309 0.0045144466034735438 0 -0.0032719591237220362 0.0063872736716332236 0
leaf_weight=169.84541288018227 147.77222530543804 141.39803069829941 344.95024634897709 117.07078889012337 493.95686741173267 151.62266875803471 118.10284592211246
leaf_count=787 694 656 1580 543 2307 688 545
internal_value=0 -0.0013075 0.00144735 -0.00688599 0.00103173 -0.000753038 0.00551523
internal_weight=1684.72 751.191 486.348 264.843 933.528 645.58 287.948
internal_count=7800 3473 2236 1237 4327 2995 1332
is_linear=0
shrinkage=0.05


Tree=92
num_leaves=8
num_cat=0
split_feature=17 6 6 2 19 15 9
split_gain=0.932777 1.68643 5.10717 1.70955 1.60394 4.65516 3.46246
threshold=0.70382483988589306 176088.5449999999 72609.623500000002 1.3267391983934702 3.9641559966792514 0.51896704641733027 0.43287647832912918
decision_type=2 2 2 2 2 2 2
left_child=4 2 -2 -3 5 -1 -6
right_child=1 3 -4 -5 6 -7 -8
leaf_value=2.5879385560532287e-05 -0.0036659456093391749 0 0.017213579627828723 -0.022162649874475044 -0.014858299010988237 0.010786708871954771 0.0025933324997734382
leaf_weight=1188.7430468350649 246.98850576579571 6.5870456993579891 29.288050293922424 17.898373872041702 48.143963202834129 109.93974724411964 37.042361900210381
leaf_count=5488 1164 30 133 83 230 502 170
internal_value=0 -0.00252317 -0.000754275 -0.0147639 0.000535754 0.00107483 -0.00573864
internal_weight=1684.63 300.762 276.277 24.4854 1383.87 1298.68 85.1863
internal_count=7800 1410 1297 113 6390 5990 400
is_linear=0
shrinkage=0.05


Tree=93
num_leaves=8
num_cat=0
split_feature=12 9 9 9 19 15 11
split_gain=0.918411 2.86257 3.7116 2.73383 2.30425 5.13932 4.13594
threshold=0.83354967905561772 -0.20338111082803659 0.47949480371122066 -0.32554553622781585 -0.21651289564357676 -0.044475070740072516 -0.069286320240097815
decision_type=2 2 2 2 2 2 2
left_child=1 3 -3 -1 6 -6 -2
right_child=4 2 -4 -5 5 -7 -8
leaf_value=0 0 0.0059088237586044246 -0.0047231540692765778 -0.017982870641594959 0.0090622434079801108 -0.001157162533296997 -0.00914507782841344
leaf_weight=42.167640596628189 277.63503865897655 358.1612705886364 88.26015742123127 28.539040952920914 150.91266545653343 546.97673337161541 191.825115904212
leaf_count=196 1279 1655 402 134 691 2544 899
internal_value=0 0.00173998 0.00345556 -0.00675639 -0.000785071 0.000868014 -0.0035499
internal_weight=1684.48 517.128 446.421 70.7067 1167.35 697.889 469.46
internal_count=7800 2387 2057 330 5413 3235 2178
is_linear=0
shrinkage=0.05


Tree=94
num_leaves=8
num_cat=0
split_feature=16 19 2 16 9 16 4
split_gain=0.936744 4.26412 3.49162 3.40123 2.9908 2.27513 2.08921
threshold=-26.972696178586222 -0.68029073084387559 4.9898403513170502 -24.528045849296372 -0.047421722419753828 -28.571393294745452 65.503613343247551
decision_type=2 2 2 2 2 2 2
left_child=1 5 -3 4 -2 -1 -5
right_child=3 2 -4 6 -6 -7 -8
leaf_value=0.0063446714965860566 0 -0.013798431044902765 0.0062270738366726128 0.00030567009743819436 0.018413796071463869 -0.010884693194233361 -0.010577912288248731
leaf_weight=105.5002156496048 14.77894353866577 101.26151382923126 14.183896213769911 1345.40265583992 45.054572775959969 15.740423887968062 42.553128108382225
leaf_count=495 68 476 66 6208 202 73 212
internal_value=0 -0.00290891 -0.00997624 0.000464997 0.0118457 0.00269167 0
internal_weight=1684.48 236.686 115.445 1447.79 59.8335 121.241 1387.96
internal_count=7800 1110 542 6690 270 568 6420
is_linear=0
shrinkage=0.05


Tree=95
num_leaves=8
num_cat=0
split_feature=18 9 18 2 5 19 5
split_gain=0.939016 3.25374 4.49833 2.60749 4.25449 2.30279 2.29499
threshold=27.043350880708989 0.50427519348629979 20.26199548498079 2.3869524842332921 1.1537870855926533 -0.21651289564357676 1.0528248782235481
decision_type=2 2 2 2 2 2 2
left_child=1 5 -3 4 -2 -1 -5
right_child=3 2 -4 6 -6 -7 -8
leaf_value=-0.0028695569533369139 -0.012791324146089068 0.00015529130447557193 0.024412412108198878 0.0018459164459957988 0.0018867871915395952 0.0026727760993211303 -0.0049777830608404494
leaf_weight=361.92662188410759 107.87082536518574 73.931705728173256 31.424696251749992 508.78551097214222 60.02770422399044 382.23806565999985 158.17395155131817
leaf_count=1682 503 338 142 2360 277 1761 737
internal_value=0 0.00115518 0.00925037 -0.00120168 -0.00672484 0 0
internal_weight=1684.38 849.521 105.356 834.858 167.899 744.165 666.959
internal_count=7800 3923 480 3877 780 3443 3097
is_linear=0
shrinkage=0.05


Tree=96
num_leaves=8
num_cat=0
split_feature=14 14 4 3 3 3 5
split_gain=0.907767 2.6677 2.90295 1.97369 3.38267 2.42167 1.70643
threshold=0.66999999999999971 0.42571428571428688 17.541031753740338 1.4178552148323982 0.53606967810171746 1.6865137714622622 1.0568339490504057
decision_type=2 2 2 2 2 2 2
left_child=1 6 -3 4 -2 -5 -1
right_child=3 2 -4 5 -6 -7 -8
leaf_value=-0.0011497379293375239 -0.0016221421930909035 -0.004069865358646783 0.011521092373903023 -0.027010021399080993 0.010655217083835544 -0.002774304523023052 0.0041457907132490127
leaf_weight=727.94917570054531 458.8438371270895 22.607522055506706 105.18276016414165 12.837202519178389 60.781965970993042 107.00294637680054 188.98894275724888
leaf_count=3373 2143 105 479 61 278 497 864
internal_value=0 0.000904538 0.00758592 -0.00148259 0 -0.00718775 0
internal_weight=1684.19 1044.73 127.79 639.466 519.626 119.84 916.938
internal_count=7800 4821 584 2979 2421 558 4237
is_linear=0
shrinkage=0.05


Tree=97
num_leaves=8
num_cat=0
split_feature=17 18 13 6 5 17 6
split_gain=0.911641 1.663 2.73908 2.03573 1.58461 2.3681 2.15589
threshold=0.70382483988589306 44.26524920214468 28.270376730526667 69815.758500000011 1.2014418603099701 0.10483721526829108 16580.641499999958
decision_type=2 2 2 2 2 2 2
left_child=4 2 -2 -3 5 -1 -6
right_child=1 3 -4 -5 6 -7 -8
leaf_value=-0.0031512687995480116 -0.0041771939700431457 -0.0096245466901313508 0.0085661239492545241 0.0032507032383719708 0.0087251567907810218 0.0014865734583485836 -0.00070389491953154633
leaf_weight=420.33747725188732 101.05553832650185 114.667869836092 65.577110692858696 19.29947704076767 124.51335024833679 773.96475726366043 64.825851336121559
leaf_count=1957 471 549 301 89 571 3567 295
internal_value=0 -0.00249417 1.63875e-05 -0.006644 0.000530632 -2.42503e-05 0.00475635
internal_weight=1684.24 300.6 166.633 133.967 1383.64 1194.3 189.339
internal_count=7800 1410 772 638 6390 5524 866
is_linear=0
shrinkage=0.05


Tree=98
num_leaves=8
num_cat=0
split_feature=18 9 18 8 2 8 5
split_gain=0.873569 2.9608 3.97663 2.45597 2.42216 4.26487 2.14518
threshold=27.043350880708989 0.50427519348629979 20.26199548498079 -0.00081791406824418395 2.3869524842332921 -0.41308771970350017 1.0787599212189318
decision_type=2 2 2 2 2 2 2
left_child=1 3 -3 -1 5 -2 -6
right_child=4 2 -4 -5 6 -7 -8
leaf_value=-0.0032949860069109676 0.003529646481977964 0.00012652586474957286 0.023030481036091455 0.0024816575563724051 0.0017403862473039022 -0.011918165161930932 -0.004952853761633398
leaf_weight=320.66217285394669 49.55560040473938 73.941203340888023 31.693868935108185 423.38586643338203 515.28285305202007 118.0013140887022 151.62679259479046
leaf_count=1500 231 338 142 1943 2390 549 707
internal_value=0 0.00111464 0.00882543 0 -0.00115878 -0.00648822 0
internal_weight=1684.15 849.683 105.635 744.048 834.467 167.557 666.91
internal_count=7800 3923 480 3443 3877 780 3097
is_linear=0
shrinkage=0.05


Tree=99
num_leaves=8
num_cat=0
split_feature=3 3 8 5 0 5 15
split_gain=0.84344 4.48088 3.47322 3.29205 2.95674 4.91099 2.52836
threshold=-0.17188516561624781 0.28708271206556729 -0.55090509131688803 0.77181363236304423 0.20605178982325392 0.98356723714120298 -0.067220176921329103
decision_type=2 2 2 2 2 2 2
left_child=4 3 -3 -2 5 -1 -6
right_child=1 2 -4 -5 6 -7 -8
leaf_value=0.0093954562097342178 -0.01146330607728893 -0.0047119528274238015 0.0042784645705998573 0 0.0037676757722373191 -0.0051599710698793846 -0.0028145386879481565
leaf_weight=207.72589376568794 146.99289099872112 141.11868469417095 345.3646142333746 117.06118734180927 199.05192330479622 63.192340597510338 463.44305147230625
leaf_count=962 694 656 1580 543 920 293 2152
internal_value=0 -0.00124686 0.00135119 -0.0065565 0.00100037 0.00543343 -0.000603394
internal_weight=1683.95 750.537 486.483 264.054 933.413 270.918 662.495
internal_count=7800 3473 2236 1237 4327 1255 3072
is_linear=0
shrinkage=0.05


Tree=100
num_leaves=8
num_cat=0
split_feature=6 6 18 12 13 16 12
split_gain=0.852706 3.34557 2.01495 1.79334 3.11696 2.77958 1.73997
threshold=84240.28200000005 456446.25850000017 34.299653359385026 0.80621271187409216 62.78988371261287 -6.185050471846318 1.0872230399923561
decision_type=2 2 2 2 2 2 2
left_child=3 2 -2 4 -1 -5 -3
right_child=1 6 -4 5 -6 -7 -8
leaf_value=0.0044520175602420081 0.0094224911086059453 0 0 -0.0055295914948509627 -0.0053860161449544265 0 -0.01222398996402229
leaf_weight=339.40049687027931 147.76580938696861 55.943362891674042 44.548932388424873 326.60075306892395 91.325513735413551 640.39248852431774 37.965942844748497
leaf_count=1570 669 259 202 1528 420 2977 175
internal_value=0 0.00246378 0.00653773 -0.000518186 0.00199742 -0.00179606 -0.00427545
internal_weight=1683.94 286.224 192.315 1397.72 430.726 966.993 93.9093
internal_count=7800 1305 871 6495 1990 4505 434
is_linear=0
shrinkage=0.05


Tree=101
num_leaves=8
num_cat=0
split_feature=17 19 12 5 10 11 12
split_gain=0.838011 1.69249 2.34152 2.00175 1.49327 5.04556 2.5739
threshold=0.81721415987972135 -0.013514723820416323 0.6079369375995537 1.5779243566389274 -0.024820977073269464 -0.069286320240097815 1.0477028450273578
decision_type=2 2 2 2 2 2 2
left_child=4 2 -2 -3 5 -1 -6
right_child=1 3 -4 -5 6 -7 -8
leaf_value=0.0012419967922902132 -0.0065103774852213539 -0.013288729564902142 0.01606304548634379 0 -1.883060928081044e-05 -0.0078385125158178526 0.0053596026927288177
leaf_weight=475.63179950416088 13.448281973600389 59.548406526446342 17.607367217540741 15.909785121679304 579.50802056491375 210.74169208109379 311.5368654280901
leaf_count=2192 65 285 84 76 2681 988 1429
internal_value=0 -0.00424169 0.00217093 -0.00877482 0.000280853 -0.00135044 0.00170553
internal_weight=1683.93 106.514 31.0556 75.4582 1577.42 686.373 891.045
internal_count=7800 510 149 361 7290 3180 4110
is_linear=0
shrinkage=0.05


Tree=102
num_leaves=8
num_cat=0
split_feature=18 6 2 4 5 4 3
split_gain=0.817046 3.40758 3.00319 4.26042 3.18049 1.68677 0.933289
threshold=23.113743280157991 -269169.44099999982 1.1206552833101013 47.422760573813129 0.88684260740234133 39.42062313271925 -1.3924976373977318
decision_type=2 2 2 2 2 2 2
left_child=2 6 4 -4 -1 -3 -2
right_child=1 5 3 -5 -6 -7 -8
leaf_value=-0.0062192710676322715 0 -0.0018724180585433165 0.006447681284710698 -0.0086160261020344943 0.0028536380707730319 0.0027290546818010365 -0.025191462060754018
leaf_weight=199.33886232972145 7.3559174984693554 637.97581204771996 348.70565275847912 43.724860087037086 157.19938485324383 274.13723629713058 15.420498356223105
leaf_count=934 35 2979 1603 200 722 1254 73
