tree
version=v4
num_class=1
num_tree_per_iteration=1
label_index=0
max_feature_idx=100
objective=regression
feature_names=Open High Low Close Volume ma_5 ma_10 ma_20 ma_60 ma_120 ma_250 ma_5_bias ma_20_bias ma_60_bias ema_12 ema_26 ma_bullish ma_5_10_cross ma_10_20_cross return_1d return_5d return_10d return_20d return_60d momentum_10 momentum_20 momentum_60 roc_10 roc_20 momentum_accel volatility_5d volatility_20d volatility_60d atr_14 atr_14_pct volatility_change intraday_range intraday_range_ma rsi_6 rsi_14 rsi_overbought rsi_oversold rsi_divergence macd macd_signal macd_hist macd_cross macd_hist_trend kdj_k kdj_d kdj_j kdj_cross kdj_overbought kdj_oversold bb_middle bb_upper bb_lower bb_width bb_position bb_breakout_upper bb_breakout_lower volume_ma_5 volume_ma_20 volume_ma_60 volume_ratio volume_change volume_surge volume_shrink volume_price_confirm obv obv_ma body_size upper_shadow_pct lower_shadow_pct is_doji is_hammer is_inv_hammer consecutive_up consecutive_down near_high_20 near_low_20 near_high_60 near_low_60 blue_daily blue_weekly blue_monthly is_heima is_juedi blue_daily_level blue_weekly_level blue_dw_resonance blue_dwm_resonance blue_dw_ratio blue_dm_ratio blue_daily_deviation blue_weekly_deviation blue_overbought blue_oversold blue_golden_zone signal_strength signal_type
feature_infos=[18.07:791.14999999999998] [18.984999999999999:796.25] [17.664999999999999:780.82000000000005] [18.129999999999999:790] [1166487:817690876] [0:780.96199999999999] [0:774.62599999999998] [0:764.24750000000006] [0:748.30449999999996] [0:720.91312500000015] [0:671.08629999999994] [-14.947713169386365:23.704810632675887] [-28.540525065500493:39.17996319022032] [-41.354637907017462:50.449735805423714] [19.711380944573119:767.33589234330384] [19.954241289233568:758.70692635165472] [0:1] [-2:2] [-2:2] [-17.396812423375565:24.432635890623278] [-23.905429071803862:43.625388695811253] [-32.789761897558456:47.425249169435226] [-38.568110170897626:61.167002012072437] [-53.04672196057183:112.97435897435899] [0:1.4742524916943522] [0:1.6116700201207244] [0:2.1297435897435899] [-32.789761897558463:47.425249169435226] [-38.568110170897626:61.167002012072437] [-0.29019527253372668:0.30630881141369615] [0:219.81027346489256] [0:120.25417130341285] [0:92.156364681371301] [0:36.945707142857145] [0:10.974687598116168] [0:1.5933086168785697] [0.44288614135449855:19.661296984717051] [0:10.654324680800707] [0:99.999999999239449] [0:99.999999998624077] [0:1] [0:1] [0:1] [-36.108315488508481:28.651313519632481] [-32.736539500751988:25.688071183825134] [-11.757269434459397:13.160409142173169] [-2:2] [-5.6132162137280943:5.2191089823499333] [0:95.747097690993286] [0:94.183406740354513] [-24.459728785035665:121.95885482124382] [-2:2] [0:1] [0:1] [0:764.24750000000006] [0:815.16791410226529] [0:735.67539960374484] [0:68.16118197454756] [-0.42293090375982628:1.5207676948655267] [0:1] [0:1] [0:533956377.19999999] [0:339258067.69999999] [0:317405012.19999999] [0:3.3414088901668069] [-0.81935575445445297:7.3036516873432742] [0:1] [0:1] [0:1] [-2258931376:2545803101] [-1560799522.8:2092824681.8499999] [0:18.194960760016528] [0:9.4997128354780198] [0:7.8274611880635749] [0:1] [0:1] [0:1] [0:20] [0:8] [0:1] [0:1] [0:1] [0:1] none none none none none none none none none none none none none none none none none none
tree_sizes=5355 5490 5471 5500

Tree=0
num_leaves=64
num_cat=0
split_feature=63 24 5 69 30 39 45 31 30 45 57 0 8 6 62 34 55 23 62 43 62 34 25 23 39 50 25 29 64 50 48 55 62 69 29 30 11 23 72 48 61 62 58 73 69 62 45 8 57 64 28 39 10 69 34 69 57 31 69 31 49 9 63
split_gain=3617.34 2221.75 1144.2 1015.66 1580.05 1217.56 1134.01 979.484 897.019 911.524 895.404 851.874 805.329 1638.14 1214.76 843.555 1313.43 776.636 664.466 752.07 1101.89 569.81 730.632 542.419 446.958 405.733 389.852 434.323 374.912 363.68 345.222 340.316 322.886 320.656 331.916 345.152 318.981 306.524 300.944 306.553 275.736 283.174 321.752 272.915 253.979 300.286 343.612 373.984 255.419 254.698 241.669 241.421 231.734 233.859 210.038 208.32 194.696 188.769 186.668 190.594 176.305 174.421 274.985
threshold=16648516.916666668 0.83652204684578269 20.122000000000003 -262543464.99999997 132.16679906782687 41.805247133689214 0.85041528097656394 77.003004521815356 49.128799593083933 1.4277118540866616 23.647003069804242 185.19000000000003 22.14533333333334 37.527000000000008 118237627.95 4.6167878420855137 167.41155780383122 49.667487023572683 61011297.425000004 0.58938392510565063 88155264.200000018 3.909796983232821 0.99994352834876898 -21.111362146861207 36.00756812454329 7.2595527068082371 0.97313440238001547 0.047421751081370873 0.9709565024799417 93.926905792890196 73.356341465170274 237.34463509114389 85520889.900000021 -56483812.499999993 0.043576283546001023 88.04582065684896 -0.059865272358201077 -6.6732451082088735 1.0819004685752673 65.782395773910949 4154550.6000000006 22547736.775000002 0.26062513262443782 1.6210329663451239 190520962.50000003 8547119.5250000022 3.0348034738803933 247.20375000000004 8.5467249080066363 1.0832170054954828 -1.0000000180025095e-35 53.206262284703655 219.64690000000004 1959991976.5000002 3.2608530597894334 1251048547.5000002 6.6710718145925503 29.553883818183362 -169355315.49999997 30.095936332429684 35.782297933949337 221.01283333333336 52917637.225000001
decision_type=2 2 2 2 2 2 2 2 2 2 2 2 2 2 2 2 2 2 2 2 2 2 2 2 2 2 2 2 2 2 2 2 2 2 2 2 2 2 2 2 2 2 2 2 2 2 2 2 2 2 2 2 2 2 2 2 2 2 2 2 2 2 2
left_child=2 -2 11 4 5 10 12 21 9 36 -3 -1 -5 14 -14 16 30 24 23 20 -20 22 -8 -4 -17 31 58 38 -23 -9 -15 -18 -26 37 35 43 -7 57 52 54 -39 60 -43 44 45 46 47 50 -49 -46 -35 -10 53 -28 -40 61 -47 -25 -27 -60 -42 -24 -63
right_child=1 3 18 6 -6 8 7 29 51 -11 -12 -13 13 15 -16 17 25 -19 19 -21 -22 28 55 33 32 26 27 -29 -30 -31 -32 -33 -34 34 -36 -37 -38 40 39 -41 41 42 -44 -45 49 56 -48 48 -50 -51 -52 -53 -54 -55 -56 -57 -58 -59 59 -61 -62 62 -64
leaf_value=0.77195377733085913 0.94589506629586662 0.6017883456871731 0.63483772095300983 0.2672818293630238 0.16946335278637009 0.42021174420356794 0.17784768814229196 0.77689475147327869 0.48286268121970205 0.85196152567307193 0.98360676871292141 0.38779658481072943 1.0678775358234758 0.83147207751464403 0.55350564851123318 0.62105659801521129 0.72652370505403607 0.11073418129567614 0.10026942187387611 -0.028311757674092941 0.51243823977743286 0.3497420603804669 0.48261091117157584 0.54774806537758258 0.28218734096050807 0.55300773382017665 0.49300683281214641 0.73029706206180878 0.10502376509003541 0.47897671837367839 0.59966557081283112 0.52616589224669186 0.48515291234978059 0.49550889285023381 0.17834437383691909 0.55195075533953619 0.63142885109274582 0.22671839396128218 0.57487961593585268 0.45116555254914587 0.51670307648935143 0.40741639865460921 0.16527760617929055 0.21694600772948619 0.33754320089958545 0.54443021882906706 0.47597623917149301 0.08145818306987973 0.27934865047690305 0.1171034313366634 0.3220526552794033 0.26909274350859946 0.3177545588409329 0.31765870135285679 0.77908221427359403 0.28769695311307009 0.39800636944020606 0.40499472614297688 0.44634961978850984 0.3309016787498652 0.3930219135587647 0.35316860375957648 0.56071411136545968
leaf_weight=31 27 28 20 36 21 33 32 21 28 33 34 27 22 36 24 24 31 23 31 21 34 34 134 55 43 21 386 20 29 20 29 67 36 28 27 22 39 26 34 30 50 34 23 36 38 26 35 22 63 20 71 25 22 20 20 23 179 40 78 66 68 79 20
leaf_count=31 27 28 20 36 21 33 32 21 28 33 34 27 22 36 24 24 31 23 31 21 34 34 134 55 43 21 386 20 29 20 29 67 36 28 27 22 39 26 34 30 50 34 23 36 38 26 35 22 63 20 71 25 22 20 20 23 179 40 78 66 68 79 20
internal_value=0.451722 0.495891 0.377405 0.488748 0.583844 0.623398 0.473051 0.400316 0.549715 0.634357 0.811173 0.593122 0.499748 0.507857 0.79951 0.494251 0.511953 0.373427 0.364493 0.231822 0.315865 0.373304 0.403099 0.377415 0.432087 0.494284 0.480891 0.501716 0.237094 0.631569 0.728051 0.589544 0.374678 0.371449 0.349428 0.357982 0.534621 0.413631 0.492787 0.579316 0.378651 0.401224 0.309711 0.349744 0.359662 0.373086 0.332375 0.30506 0.22813 0.261529 0.371111 0.382028 0.475805 0.484369 0.65051 0.431256 0.416577 0.487641 0.413745 0.393436 0.445429 0.445427 0.395097
internal_weight=2755 1728 1027 1701 241 220 1460 392 158 105 62 58 1068 1032 46 986 860 126 969 86 65 351 288 883 103 795 697 532 63 41 65 98 79 863 567 540 72 296 512 84 201 175 57 518 482 424 219 184 85 58 99 53 428 406 54 256 205 95 165 144 118 233 99
internal_count=2755 1728 1027 1701 241 220 1460 392 158 105 62 58 1068 1032 46 986 860 126 969 86 65 351 288 883 103 795 697 532 63 41 65 98 79 863 567 540 72 296 512 84 201 175 57 518 482 424 219 184 85 58 99 53 428 406 54 256 205 95 165 144 118 233 99
is_linear=0
shrinkage=1


Tree=1
num_leaves=64
num_cat=0
split_feature=63 12 37 10 2 30 33 44 39 48 44 22 50 57 26 49 26 50 55 57 12 20 32 24 3 73 8 57 48 61 56 31 55 31 38 30 44 22 37 30 43 33 22 63 35 65 22 72 11 45 37 32 44 33 33 37 37 30 64 4 31 33 15
split_gain=3264.65 3292.36 851.75 825.567 791.868 744.373 935.294 1041.06 735.257 1084.79 732.644 1002.88 726.271 705.184 696.069 809.536 663.849 585.791 582.46 921.357 569.596 559.081 529.078 626.221 924.738 552.431 522.328 504.584 476.819 614.193 539.354 471.422 466.072 403.233 545.864 655.915 648.262 361.064 381.651 355.025 345.111 314.325 310.316 303.535 292.612 288.143 276.6 348.386 275.17 274.551 363.257 380.173 264.292 263.892 259.145 253.307 251.33 242.031 239.404 256.664 227.413 227.378 225.453
threshold=16648516.916666668 -9.6484818424535188 6.0300973748633222 217.91280000000003 19.950000000000006 55.552721378458607 12.518285714285719 5.1230148993745672 67.58220114845642 77.967162982323416 -2.8093571675959748 -8.9661221272600322 45.122075054961719 32.105785017574263 0.85897406408307642 50.490353887410173 0.71108359747287031 70.000484224783307 169.4532819596246 11.482669489200401 -4.6401470179864548 8.7598439779304833 38.431382906131567 0.86691832620986709 446.81500000000005 1.1897015540017224 37.646666666666682 16.329876884505801 67.171913010272803 36920149.400000006 195.46245912906784 52.062397685298066 529.57575391429157 34.750606283939298 30.029214944979767 47.226016201133795 1.354590791471358 -0.98775550061613859 2.5184109984077181 114.80519609143234 5.9839076512920863 9.6665785714285786 -4.6885194963636962 7707359.7416666681 0.69527069156982124 0.015967342754513506 -6.973593206615563 1.3981692096792295 -0.34702455368499119 -2.3647375307079961 1.7505333537216063 28.152919328275559 -1.774238780597438 15.556242857142868 15.089925000000013 3.4787924086233128 2.8972917890621752 33.668531184584069 1.180776585602223 21621916.000000004 40.939127536701115 15.556242857142868 268.95031743294959
decision_type=2 2 2 2 2 2 2 2 2 2 2 2 2 2 2 2 2 2 2 2 2 2 2 2 2 2 2 2 2 2 2 2 2 2 2 2 2 2 2 2 2 2 2 2 2 2 2 2 2 2 2 2 2 2 2 2 2 2 2 2 2 2 2
left_child=2 16 4 5 -1 6 10 17 12 -10 14 -12 31 18 27 -16 -2 -8 19 -13 -5 26 23 24 25 -6 44 -3 32 30 -30 -7 41 37 58 36 57 43 53 46 61 52 -17 49 -21 -18 -14 -48 -33 -25 -51 -52 -20 -39 -40 -15 -28 -36 59 -35 -54 -22 -24
right_child=1 3 -4 20 22 8 7 -9 9 -11 11 13 39 55 15 42 45 -19 28 21 40 -23 62 33 -26 -27 56 -29 29 -31 -32 48 -34 34 35 -37 -38 38 54 -41 -42 -43 -44 -45 -46 -47 47 -49 -50 50 51 -53 60 -55 -56 -57 -58 -59 -60 -61 -62 -63 -64
leaf_value=0.24857748597860338 0.59888900928199296 -0.10859752212251937 -0.37062719256981563 0.16177720883417698 0.022062819067920958 -0.12085020932058493 0.45441286861896518 0.024054330262926318 0.39171187444166705 -0.038295818458903924 0.40674966126680379 0.45225048410218388 0.03990666288882494 -0.0049742098152637491 0.015271799704607795 -0.43646364665549736 0.1318886073678732 0.17942774781129428 0.21439469601168779 -0.098407782872135821 -0.1199608224525076 -0.14748376041650774 0.19071881345340186 -0.18060221431347043 -0.23001988902688028 0.28829711057521679 0.12273133745597256 0.16960620389152797 0.23752804817380133 -0.060843435581249064 0.022220183750109489 0.2731645613908768 -0.11578601000032254 -0.10853889024417317 -0.32488480191076957 -0.080499198220670226 -0.10384172237664463 -0.13402355510190253 -0.079083362084236886 -0.34048823021973174 -0.30984381079673767 0.24559557014144959 -0.16716939449310303 0.07202377252418686 0.1258762245828455 0.39411264397203927 -0.097604430233068917 -0.34676171347498896 0.022047691140323879 -0.22417845046994361 0.031296652318816634 -0.1669066758453846 0.0807208917280271 -0.31140158952524266 0.1103384735143703 -0.23974597727948868 0.31346518741204193 -0.54473000026884533 -0.20162236526608468 0.10369371977345697 -0.065292719962696241 0.055805284457038279 0.002963556466040327
leaf_weight=20 24 28 23 21 70 30 34 62 22 44 20 21 20 20 34 23 20 45 33 26 92 20 21 39 28 27 31 39 37 197 136 20 28 28 31 50 25 166 84 24 20 32 20 54 33 22 47 20 24 22 125 30 240 24 23 27 39 21 20 29 30 23 67
leaf_count=20 24 28 23 21 70 30 34 62 22 44 20 21 20 20 34 23 20 45 33 26 92 20 21 39 28 27 31 39 37 197 136 20 28 28 31 50 25 166 84 24 20 32 20 54 33 22 47 20 24 22 125 30 240 24 23 27 39 21 20 29 30 23 67
internal_value=0.000820116 0.0427807 -0.0697815 0.0290273 -0.0628896 0.0403691 0.0560896 0.177416 -0.0382337 0.10504 0.0407332 0.0563564 -0.0893476 0.0489797 -0.0645062 -0.167049 0.389115 0.297776 0.0588077 0.142192 -0.0804643 0.098493 -0.0692202 -0.0807102 0.0231029 0.0961693 0.136629 0.053342 0.0394688 -0.000474795 0.0682687 0.0319855 0.0801827 -0.0975411 -0.157824 -0.22151 -0.313075 -0.0758519 -0.113895 -0.170236 -0.118146 0.0965621 -0.311211 -0.0340046 0.0270392 0.269244 -0.12327 -0.17198 0.136192 -0.0605117 -0.0340511 -0.00706528 0.0808226 -0.156429 -0.0383665 -0.139843 0.228997 -0.413668 -0.0527847 -0.000560896 0.0644972 -0.0848076 0.0477688
internal_weight=2755 1728 1027 1662 1004 1506 1255 141 251 66 1114 970 185 950 144 77 66 79 903 170 156 149 984 896 125 97 129 67 733 370 173 74 363 771 204 127 77 567 297 111 135 335 43 270 59 42 87 67 44 216 177 155 303 190 107 47 70 52 77 57 270 115 88
internal_count=2755 1728 1027 1662 1004 1506 1255 141 251 66 1114 970 185 950 144 77 66 79 903 170 156 149 984 896 125 97 129 67 733 370 173 74 363 771 204 127 77 567 297 111 135 335 43 270 59 42 87 67 44 216 177 155 303 190 107 47 70 52 77 57 270 115 88
is_linear=0
shrinkage=0.05


Tree=2
num_leaves=64
num_cat=0
split_feature=63 12 6 1 62 10 43 30 69 35 4 35 48 37 39 48 50 34 9 63 32 65 1 4 13 26 2 32 65 30 4 69 24 20 64 24 35 7 32 43 43 4 30 64 34 37 34 44 69 71 72 58 39 13 35 69 64 34 63 35 30 50 6
split_gain=2946.35 2971.36 822.815 984.3 789.175 747.523 1013.87 697.906 825.513 855.934 936.22 778.289 800.597 692.589 679.915 962.718 655.46 644.748 789.807 588.538 558.178 541.134 544.313 474.542 457.227 560.153 635.88 400.702 395.087 384.229 375.265 361.838 361.803 360.451 348.415 341.944 369.977 355.484 327.793 322.439 426.876 344.003 320.41 320.213 286.057 309.544 280.062 280.011 271.757 262.785 284.35 239.509 276.046 237.596 226.109 223.096 221.626 203.798 199.753 350.651 199.444 197.748 185.001
threshold=16648516.916666668 -9.6484818424535188 20.044 435.28500000000008 109320781.12500001 157.29108000000002 8.8576302741183799 55.552721378458607 -262543464.99999997 0.68212534729606566 114942079.50000001 1.0540339737572715 67.171913010272803 6.0300973748633222 67.58220114845642 77.967162982323416 45.122075054961719 3.1460506428254642 27.87629166666667 82497273.058333352 38.431382906131567 -1.0000000180025095e-35 185.88000000000002 17923035.500000004 29.665694205796875 1.1204760967700256 168.83800000000002 53.237345258575793 0.069692974143436795 84.284431391030608 25959746.000000004 630648605.00000012 0.93958095357612492 -2.7730712005168461 0.91728733781648508 1.0324175612335387 1.1383282608614738 186.18525000000002 34.253376204980633 -0.16668469201385602 -6.7765730458458782 83575158.000000015 114.80519609143234 1.1981166896325437 6.6078961907241034 4.4889717399907623 3.4375667048201661 -0.26831807448429673 854474032.50000012 0.21367797067859884 0.75337381257913771 0.65993590864518203 52.562175525287898 0.7715648319174363 1.0457929836905966 182124112.50000003 0.82390219573481993 1.7934131386675995 60064920.408333339 1.2643356357273896 25.96228859987362 6.5858493760731358 242.11000000000004
decision_type=2 2 2 2 2 2 2 2 2 2 2 2 2 2 2 2 2 2 2 2 2 2 2 2 2 2 2 2 2 2 2 2 2 2 2 2 2 2 2 2 2 2 2 2 2 2 2 2 2 2 2 2 2 2 2 2 2 2 2 2 2 2 2
left_child=2 4 3 21 28 7 33 8 9 -3 19 12 17 20 16 -16 27 61 32 -11 29 -1 -23 -13 25 -14 31 -9 -2 30 38 -27 -19 -7 56 51 -37 -38 49 40 -32 -42 44 -35 45 -18 -41 -36 -28 54 55 52 58 -22 -4 57 -20 -51 59 -25 -50 -10 -59
right_child=1 5 13 -5 -6 6 -8 14 11 10 -12 23 24 -15 15 -17 42 18 34 -21 53 22 -24 35 -26 26 48 -29 -30 -31 39 -33 -34 43 47 36 37 -39 -40 46 41 -43 -44 -45 -46 -47 -48 -49 60 50 -52 -53 -54 -55 -56 -57 -58 62 -60 -61 -62 -63 -64
leaf_value=0.011784385719469617 0.10912129598791186 0.018709398370425581 -0.097622917737748671 -0.2041076430976391 0.63186877548694609 0.10805572612211108 -0.39143682093847371 -0.085963357345679337 0.20063820447286834 0.26212550676785984 0.031033126033585646 0.20457430269036975 -0.053230870987369318 -0.35209582836731623 0.37212628627365291 -0.034532986200133037 -0.050827063355715046 -0.086400366445573473 0.2899505545385182 0.59044056109019694 0.12037966062004368 0.44960728998888622 0.089200763739645486 -0.11104317722009852 -0.21290001437067985 0.1107693137157531 0.071328193650786631 0.1467358736371672 0.40218874578890595 0.1058062356710434 -0.30867742385183061 0.40793226428329943 0.17046264435710579 -0.1028271002609522 0.21824890290431323 -0.23890658828119438 0.12547793903028256 -0.10493862653816387 -0.25973816188898952 -0.15356407955545803 -0.10526035188094658 0.10513237764437994 -0.32346381954848769 0.077064508968032908 0.048836308429017664 -0.26637141418177634 -0.33601520711725413 0.44684093079051457 -0.17959719310913769 -0.20087395807107292 0.020638563113072807 0.14182817497187192 -0.14733132498733925 -0.044618827803060417 -0.292159743309021 -0.23297785758972167 0.054564639255404473 0.075382130289519289 0.12509283222738773 0.10558991100518936 0.025854245890621786 0.044370627235869202 -0.06198033754034598
leaf_weight=35 23 59 59 25 20 40 21 37 23 39 29 21 127 23 22 43 31 26 20 21 48 22 20 47 20 21 163 37 23 25 21 20 29 109 21 36 22 70 22 58 102 24 24 32 20 36 33 37 21 24 113 27 33 40 20 20 20 27 31 31 27 169 266
leaf_count=35 23 59 59 25 20 40 21 37 23 39 29 21 127 23 22 43 31 26 20 21 48 22 20 47 20 21 163 37 23 25 21 20 29 109 21 36 22 70 22 58 102 24 24 32 20 36 33 37 21 24 113 27 33 40 20 20 20 27 31 31 27 169 266
internal_value=0.00077911 0.0406416 -0.0662924 0.0684817 0.369659 0.0275759 -0.0625744 0.0400488 0.0557622 0.166392 0.264293 0.0403449 0.0683286 -0.081154 -0.0360039 0.103106 -0.0848802 0.124107 0.200677 0.377036 -0.0742452 0.156985 0.277985 -0.0251264 0.020099 0.0323945 0.0755469 0.0303863 0.255655 -0.0871777 -0.0932926 0.255727 0.0490365 -0.0244191 0.285782 -0.0413679 -0.103014 -0.049839 -0.0706298 -0.14576 -0.0999701 -0.0651855 -0.161724 -0.0620006 -0.117107 -0.166642 -0.219728 0.364075 0.0405356 -0.0627652 -0.0479996 0.00532286 -0.0206324 0.0453803 -0.146873 -0.0710148 0.172258 -0.0607963 0.017726 -0.0249454 -0.0640308 0.0630902 -0.0493224
internal_weight=2755 1728 1027 102 66 1662 202 1460 1210 148 89 1062 744 925 250 65 185 345 153 60 902 77 42 318 399 379 252 74 46 814 789 41 55 181 98 297 128 92 551 238 147 126 111 141 87 67 91 58 211 529 450 169 142 88 79 337 40 317 109 78 48 192 293
internal_count=2755 1728 1027 102 66 1662 202 1460 1210 148 89 1062 744 925 250 65 185 345 153 60 902 77 42 318 399 379 252 74 46 814 789 41 55 181 98 297 128 92 551 238 147 126 111 141 87 67 91 58 211 529 450 169 142 88 79 337 40 317 109 78 48 192 293
is_linear=0
shrinkage=0.05


Tree=3
num_leaves=64
num_cat=0
split_feature=63 13 5 36 69 30 39 45 30 45 70 2 34 55 70 57 22 9 37 32 69 4 11 5 56 5 32 10 13 70 44 71 44 50 44 44 5 49 44 34 55 44 24 3 70 3 57 21 4 13 48 44 61 32 37 43 49 22 69 43 69 70 70
split_gain=2659.08 1974.52 900.301 944.656 839.513 1277.08 962.818 837.44 725.209 792.055 721.224 1292.23 713.976 1480.04 841.465 696.422 647.981 632.071 589.96 564.403 542.126 465.717 464.553 435.051 429.398 441.205 396.039 382.183 519.409 451.682 903.864 380.63 350.778 332.697 404.15 347.49 481.264 297.716 297.597 302.648 276.345 265.112 298.845 263.858 310.819 287.769 259.826 498.596 579.535 298.972 353.531 259.425 236.291 234.161 316.153 227.899 223.413 360.197 272.917 235.502 214.819 190.174 183.256
threshold=16648516.916666668 -20.521715594334282 20.122000000000003 2.4672155479203219 -262543464.99999997 132.16679906782687 41.805247133689214 0.85041528097656394 41.573543859058326 1.4277118540866616 -251544298.39999998 135.21500000000003 4.6167878420855137 167.41155780383122 -192093141.87499997 23.43028508187021 -8.3550574323894704 21.541083333333336 3.1226809283948262 66.013649319238013 -56483812.499999993 43767055.500000007 2.6835294919126 186.87000000000003 34.472868133387202 247.30400000000003 57.261461029864101 157.93889000000004 6.9655061842702057 -18458174.249999996 -0.14366159117260771 2.644635608715316 -0.84366069026169022 7.2595527068082371 3.9475350454040954 5.2928175509443447 296.9260000000001 63.633033508006861 0.56511519087326623 3.9487684140380237 237.34463509114389 -2.0907942359334952 0.92470351681984397 225.32500000000002 196890629.07500002 215.29000000000005 8.6984214817925949 3.739656036959949 7018512.5000000009 -6.5158517681027925 25.878543466033793 2.8334073431457538 22192975.400000002 30.646574132018447 3.1226809283948262 2.0940862714192385 40.992357069914767 0.59118659704324739 1485004881.0000002 -4.0892859612589652 -66619460.499999993 -26115814.624999996 723176459.25000012
decision_type=2 2 2 2 2 2 2 2 2 2 2 2 2 2 2 2 2 2 2 2 2 2 2 2 2 2 2 2 2 2 2 2 2 2 2 2 2 2 2 2 2 2 2 2 2 2 2 2 2 2 2 2 2 2 2 2 2 2 2 2 2 2 2
left_child=2 -2 3 -1 5 6 15 12 9 38 11 -4 13 14 -6 -3 21 -18 -16 26 41 -14 -21 -22 55 -26 27 29 -29 32 -31 -10 37 40 56 36 -36 -9 39 -8 -15 52 -43 45 46 51 47 48 -45 50 -48 -25 -12 -37 -55 -19 57 61 59 -58 -61 -35 -32
right_child=1 4 10 -5 7 -7 8 19 31 -11 20 -13 16 33 18 -17 17 24 -20 22 23 -23 -24 43 25 -27 -28 28 -30 30 62 -33 -34 34 35 53 -38 -39 -40 -41 -42 42 -44 44 -46 -47 49 -49 -50 -51 -52 -53 -54 54 -56 -57 58 -59 -60 60 -62 -63 -64
leaf_value=-0.095490960676509598 0.47973876929283144 0.12697369363158942 -0.055400841376360727 0.3102595860644215 0.0083318408865195055 -0.26372557908296584 -0.1219997687832169 -0.079780233427882208 -0.12866394537132839 0.39158042048842745 0.056300534358055432 -0.54719482226805249 -0.035051990910009906 0.24711977813032365 0.19467583384477732 0.45748253351933243 -0.333769291639328 -0.037326250575563831 0.49365390846223545 0.25797084031196743 -0.27775687177975977 0.29832017108798031 -0.038141693230028507 -0.19682488590478897 -0.25126908569493228 -0.0070031496009936457 -0.28416936680674554 -0.064485966101055975 -0.37655824683606626 0.2391239705702497 -0.009681136072151833 0.13535952329635623 -0.0084246625356814448 0.10516587854363024 0.076743251240501797 -0.036268831259187527 0.31194046895372973 -0.34098236113786701 0.23515236362814906 0.14394676074385646 0.066572604348201919 0.080403770661602425 -0.096180517253849449 -0.26451194916851817 -0.2888174557685852 0.12831007802280889 -0.053404643833637237 -0.36675658656639004 -0.037637763578248655 -0.038324289013284683 -0.31086727145496607 0.040879833279177547 -0.10004490986466408 0.11371857554574188 -0.082832802473925632 0.19049475547813235 -0.13915334177306957 0.17602054098887104 -0.20663031786680222 0.15577694058418276 -0.020066380329345438 -0.038706184737384325 -0.14235404037377414
leaf_weight=26 25 28 34 32 26 20 23 20 43 29 145 22 22 31 33 37 24 23 33 26 30 20 27 22 36 38 20 40 20 36 111 20 34 30 87 85 29 24 20 20 67 30 119 40 20 29 30 21 95 255 24 24 29 96 26 21 36 35 23 20 132 98 34
leaf_count=26 25 28 34 32 26 20 23 20 43 29 145 22 22 31 33 37 24 23 33 26 30 20 27 22 36 38 20 40 20 36 111 20 34 30 87 85 29 24 20 20 67 30 119 40 20 29 30 21 95 255 24 24 29 96 26 21 36 35 23 20 132 98 34
internal_value=0.000740154 0.0386095 -0.0629778 0.128371 0.0321338 0.118809 0.153584 0.0179151 0.0858481 0.175346 -0.0744311 -0.248606 0.0408012 0.0593949 0.249256 0.315109 -0.0488322 -0.0998619 0.344165 -0.0446132 -0.0637479 0.123697 0.107121 -0.0922554 -0.0522875 -0.125835 -0.0683357 -0.0548038 -0.16851 -0.0284625 0.014883 -0.044847 -0.129046 0.0374236 0.0252951 0.0662644 0.135543 -0.222254 0.0758093 0.00169629 0.123684 -0.0116752 -0.0606266 -0.0823178 -0.0958143 0.00495948 -0.0875131 -0.140115 -0.10486 -0.0609568 -0.167832 -0.072805 0.030243 0.0274419 0.0718306 0.0714065 -0.0100876 0.0338803 -0.0440533 -0.0241635 0.0030709 -0.00498617 -0.0407906
internal_weight=2755 1728 1027 58 1703 240 220 1463 155 92 969 56 1071 887 92 65 184 142 66 392 913 42 53 590 118 74 339 319 60 259 181 63 78 795 697 323 116 44 63 43 98 323 149 560 485 75 465 156 135 309 54 46 174 207 122 44 374 163 211 188 152 128 145
internal_count=2755 1728 1027 58 1703 240 220 1463 155 92 969 56 1071 887 92 65 184 142 66 392 913 42 53 590 118 74 339 319 60 259 181 63 78 795 697 323 116 44 63 43 98 323 149 560 485 75 465 156 135 309 54 46 174 207 122 44 374 163 211 188 152 128 145
is_linear=0
shrinkage=0.05


end of trees

feature_importances:
obv=14
volatility_5d=13
macd_signal=12
atr_14_pct=9
intraday_range_ma=9
volatility_60d=8
bb_width=8
volume_ma_60=8
Volume=7
rsi_14=7
macd=7
kdj_k=7
kdj_j=7
volume_ma_20=7
return_20d=6
volatility_20d=6
volatility_change=6
macd_hist=6
bb_upper=6
volume_ratio=6
obv_ma=6
ma_5=5
ma_60_bias=5
momentum_10=5
atr_14=5
ma_250=4
kdj_d=4
Low=3
Close=3
ma_10=3
ma_60=3
ma_120=3
ma_5_bias=3
ma_20_bias=3
return_60d=3
momentum_60=3
volume_ma_5=3
volume_change=3
upper_shadow_pct=3
High=2
return_5d=2
momentum_20=2
momentum_accel=2
bb_lower=2
bb_position=2
body_size=2
lower_shadow_pct=2
Open=1
ma_20=1
ema_26=1
return_10d=1
roc_20=1
intraday_range=1
rsi_6=1

parameters:
[boosting: gbdt]
[objective: regression]
[metric: rmse]
[tree_learner: serial]
[device_type: cpu]
[data_sample_strategy: bagging]
[data: ]
[valid: ]
[num_iterations: 500]
[learning_rate: 0.05]
[num_leaves: 64]
[num_threads: 0]
[seed: 0]
[deterministic: 0]
[force_col_wise: 0]
[force_row_wise: 0]
[histogram_pool_size: -1]
[max_depth: -1]
[min_data_in_leaf: 20]
[min_sum_hessian_in_leaf: 0.001]
[bagging_fraction: 0.8]
[pos_bagging_fraction: 1]
[neg_bagging_fraction: 1]
[bagging_freq: 5]
[bagging_seed: 3]
[bagging_by_query: 0]
[feature_fraction: 0.8]
[feature_fraction_bynode: 1]
[feature_fraction_seed: 2]
[extra_trees: 0]
[extra_seed: 6]
[early_stopping_round: 0]
[early_stopping_min_delta: 0]
[first_metric_only: 0]
[max_delta_step: 0]
[lambda_l1: 0]
[lambda_l2: 0]
[linear_lambda: 0]
[min_gain_to_split: 0]
[drop_rate: 0.1]
[max_drop: 50]
[skip_drop: 0.5]
[xgboost_dart_mode: 0]
[uniform_drop: 0]
[drop_seed: 4]
[top_rate: 0.2]
[other_rate: 0.1]
[min_data_per_group: 100]
[max_cat_threshold: 32]
[cat_l2: 10]
[cat_smooth: 10]
[max_cat_to_onehot: 4]
[top_k: 20]
[monotone_constraints: ]
[monotone_constraints_method: basic]
[monotone_penalty: 0]
[feature_contri: ]
[forcedsplits_filename: ]
[refit_decay_rate: 0.9]
[cegb_tradeoff: 1]
[cegb_penalty_split: 0]
[cegb_penalty_feature_lazy: ]
[cegb_penalty_feature_coupled: ]
[path_smooth: 0]
[interaction_constraints: ]
[verbosity: -1]
[saved_feature_importance_type: 0]
[use_quantized_grad: 0]
[num_grad_quant_bins: 4]
[quant_train_renew_leaf: 0]
[stochastic_rounding: 1]
[linear_tree: 0]
[max_bin: 255]
[max_bin_by_feature: ]
[min_data_in_bin: 3]
[bin_construct_sample_cnt: 200000]
[data_random_seed: 1]
[is_enable_sparse: 1]
[enable_bundle: 1]
[use_missing: 1]
[zero_as_missing: 0]
[feature_pre_filter: 1]
[pre_partition: 0]
[two_round: 0]
[header: 0]
[label_column: ]
[weight_column: ]
[group_column: ]
[ignore_column: ]
[categorical_feature: ]
[forcedbins_filename: ]
[precise_float_parser: 0]
[parser_config_file: ]
[objective_seed: 5]
[num_class: 1]
[is_unbalance: 0]
[scale_pos_weight: 1]
[sigmoid: 1]
[boost_from_average: 1]
[reg_sqrt: 0]
[alpha: 0.9]
[fair_c: 1]
[poisson_max_delta_step: 0.7]
[tweedie_variance_power: 1.5]
[lambdarank_truncation_level: 30]
[lambdarank_norm: 1]
[label_gain: ]
[lambdarank_position_bias_regularization: 0]
[eval_at: ]
[multi_error_top_k: 1]
[auc_mu_weights: ]
[num_machines: 1]
[local_listen_port: 12400]
[time_out: 120]
[machine_list_filename: ]
[machines: ]
[gpu_platform_id: -1]
[gpu_device_id: -1]
[gpu_use_dp: 0]
[num_gpu: 1]

end of parameters

pandas_categorical:[]
