tree
version=v4
num_class=1
num_tree_per_iteration=1
label_index=0
max_feature_idx=224
objective=binary sigmoid:1
feature_names=Open High Low Close Volume ma_5 ma_10 ma_20 ma_60 ma_120 ma_250 ma_5_bias ma_20_bias ma_60_bias ema_12 ema_26 ma_bullish ma_5_10_cross ma_10_20_cross return_1d return_5d return_10d return_20d return_60d momentum_10 momentum_20 momentum_60 roc_10 roc_20 momentum_accel volatility_5d volatility_20d volatility_60d atr_14 atr_14_pct volatility_change intraday_range intraday_range_ma rsi_6 rsi_14 rsi_overbought rsi_oversold rsi_divergence macd macd_signal macd_hist macd_cross macd_hist_trend kdj_k kdj_d kdj_j kdj_cross kdj_overbought kdj_oversold bb_middle bb_upper bb_lower bb_width bb_position bb_breakout_upper bb_breakout_lower volume_ma_5 volume_ma_20 volume_ma_60 volume_ratio volume_change volume_surge volume_shrink volume_price_confirm obv obv_ma body_size upper_shadow_pct lower_shadow_pct is_doji is_hammer is_inv_hammer consecutive_up consecutive_down near_high_20 near_low_20 near_high_60 near_low_60 blue_daily blue_weekly blue_monthly fund_market_cap fund_market_cap_log fund_cap_small fund_cap_mid fund_cap_large fund_industry_hash fund_has_market_cap fund_pe_ttm fund_pe_fwd fund_pb fund_ps fund_ev_ebitda fund_dividend_yield fund_beta fund_roe fund_roa fund_profit_margin fund_current_ratio fund_quick_ratio fund_debt_to_equity fund_revenue_growth fund_earnings_growth fund_target_upside fund_has_external adv_roc_5 adv_rs_5_20 adv_price_position_20 adv_price_position_60 adv_momentum_acceleration adv_volatility_10 adv_volatility_20 adv_volatility_60 adv_atr_pct adv_vol_ratio adv_true_range_pct adv_upper_wick adv_lower_wick adv_relative_volume_5 adv_relative_volume_20 adv_vol_price_up adv_obv_slope_10 adv_vol_deviation adv_volume_momentum adv_ma_distance_10 adv_ma_distance_20 adv_ma_distance_60 adv_ma_slope_10 adv_ma_slope_20 adv_ma_alignment adv_adx_14 adv_trend_consistency adv_body_direction adv_shadow_ratio adv_above_20d_high adv_below_20d_low adv_momentum_volatility adv_trend_volume_interaction adv_trend_strength_direction adv_tv_supertrend_dir adv_tv_supertrend_dist adv_tv_ichimoku_tenkan adv_tv_ichimoku_kijun adv_tv_ichimoku_cloud adv_tv_ichimoku_above_cloud adv_tv_stochrsi_k adv_tv_stochrsi_d adv_tv_sar_dir adv_tv_sar_dist adv_tv_kama_dist adv_tv_kama_slope adv_tv_aroon_up adv_tv_aroon_down adv_tv_aroon_osc adv_tv_squeeze_on adv_tv_squeeze_mom adv_tv_hull_dist adv_tv_hull_slope adv_tv_trix adv_tv_cmo adv_tv_ultosc adv_tv_bop adv_tv_plus_di adv_tv_minus_di adv_tv_di_spread adv_tv_ht_trendmode adv_tv_ht_sine adv_tv_ht_dcperiod adv_tv_willr a158_bias_5 a158_bias_10 a158_bias_20 a158_bias_60 a158_rsi_12 a158_rsi_24 a158_macd_dif a158_macd_dea a158_macd_dif_pct a158_kdj_k_9 a158_kdj_d_9 a158_kdj_j_9 a158_kdj_k_14 a158_kdj_d_14 a158_kdj_j_14 a158_bband_width_20 a158_bband_pctb_20 a158_bband_upper_dist_20 a158_bband_lower_dist_20 a158_vwap_bias a158_return_skew_20 a158_return_kurt_20 a158_return_mean_20 a158_return_std_20 a158_return_skew_60 a158_return_kurt_60 a158_return_mean_60 a158_return_std_60 a158_vol_skew_20 a158_up_ratio_20 a158_gap a158_gap_abs a158_gap_sum_5 a158_turnover_chg_5 a158_turnover_chg_20 a158_vol_ma5_ma20_ratio a158_willr_14 a158_willr_28 a158_cci_14 a158_cci_20 a158_mfi_14 a158_high_low_ratio_5 a158_price_efficiency_5 a158_high_low_ratio_20 a158_price_efficiency_20 a158_corr_close_vol_10 a158_corr_ret_vol_10 a158_corr_close_vol_20 a158_corr_ret_vol_20 a158_strong_day_ratio_10 a158_chaikin_vol
feature_infos=[0.14000000000000001:7250] [0.14380000000000001:7252.8599999999997] [0.1229:7022] [0.13500000000000001:7239.7299999999996] [103:1000000] [0.17438000000000001:7291.9560000000001] [0.1885:7331.7610000000004] [0.273285:7410.2035000000005] [0:7412.644166666666] [0:7714.1047500000004] none [-65.757587267823908:345.36913624394526] [-85.515330199119944:937.32868933141538] [-85.048260891234406:1269.8372377457899] [0.21840181346095061:7345.7886757006163] [0.39461193026318381:7390.8481216600476] [0:1] [-2:2] [-2:2] [-54.916985951468703:3959.2592592592596] [-85.040128410914932:3628.8676236044657] [-90.021956574774336:3705.4226475279111] [-84.571859675594112:3618.8279301745638] [-92.910943730615855:1580.9919684373679] [0.099780434252256633:38.054226475279108] [0.15428140324405884:37.188279301745638] [0:16.809919684373678] [-90.021956574774336:3705.4226475279111] [-84.571859675594112:3618.8279301745638] [-2.9977099249299748:27.475557588916619] [0:28178.774955339326] [0.94957309375218757:14085.983063838614] [0:8127.4176572161305] [0.0071428571428569908:241.34821428571428] [0.066943365912436645:149.71873908487598] [0:1.7607653494003681] [0:138.65779256794229] [0.046781443681832638:47.807791100008679] [0:99.999999997888807] [0.34178686154946547:99.999998000000033] [0:1] [0:1] [0:1] [-301.10955382422344:47.66713151708052] [-261.64406382299461:40.828060457628212] [-90.225849833225212:27.40825238038083] [-2:2] [-24.475389936327375:9.1504521050284779] [1.6030178238920814:97.229378995975395] [2.9534680426253086:95.44484445276575] [-24.863597146993854:120.87790743939433] [-2:2] [0:1] [0:1] [0.273285:7410.2035000000005] [0.51441367440081598:7623.0913363710515] [-272.39158002830584:7197.3156636289496] [0.2565446393965754:936.42217135798126] [-0.5291988968433512:1.5616612870328224] [0:1] [0:1] [377.87914000000001:1000000] [670.25:1000000] [0:1000000] [0.00037803834522958383:4.8963515754560527] [-0.99979074225402664:593.31871985971065] [0:1] [0:1] [0:1] [-1000000:1000000] [-1000000:1000000] [0:138.4359400998336] [0:24.197530864197525] [0:28.507417336907952] [0:1] [0:1] [0:1] [0:13] [0:13] [0:1] [0:1] [0:1] [0:1] [0:200] [0:200] [0:200] [0:1000000] [0:29.004515937003195] [0:1] [0:1] [0:1] [0:0.98969072164948457] [0:1] none none none none none none none none none none none none none none none none none [-85.040128410914932:3628.8676236044657] [-1994.0758293887798:133.63591394677272] [0:99.964041711614527] [0:99.978545376528643] [-36.268145868208904:36.377339026742334] [0.62700539563618407:19899.52459335751] [0.94957309375218757:14085.983063838614] [0:8127.4176572161305] [0.066943365912436645:149.71873908487598] [0:2.4595894711978992] [0:138.65779256794229] [0:24.197530864197525] [0:28.507417336907952] [0.00037803834522958383:4.8963515754560527] [0.00083059575238182421:15.894512499271228] [0:1] [-1000000:1000000] [-99.916637287625903:1489.4577279116922] [-99.957654818773449:339934.80392156861] [-79.666637577450032:664.26369886894554] [-85.515330199119944:937.32868933141538] [-85.048260891234406:1269.8372377457899] [-50.544141848489673:1247.4065620542081] [-53.493719422256333:636.87773274647384] [-1:1] [5.3687103818070039:93.723294238638474] [0:100] [-1:1] [0:0.9999577452885996] [0:1] [0:1] [-0.79541177440896726:0.83172788698023903] [-861.53545265948605:629.60882440367311] [-90.575385997666913:93.723294238638474] [-1:1] [-137.63661182742987:498.33440560064827] [-444.31540287980999:43.990590210444317] [-1053.3581894213225:45.117351177604903] [-1:1] [-1:1] [0:100.00000000000001] [-1.0421293457814802e-13:100.00000000000011] [-1:1] [-589.35386385339348:97.757299091683763] [-944.46843961182003:78.227956554182128] [-51.919140365010072:96.283235255201177] [0:100] [0:100] [-100:100] [0:1] [-617.22660714285723:144.66771999999995] [-240.68352636035985:86.836375327360315] [-267.98718162757143:94.29188012226129] [-5.4757880023151184:26.083694655863443] [-82.516420738529249:94.415091927244831] [7.5790429164302981:85.637393482764921] [-1:1] [2.993454544234539:92.022571046020772] [0.039851146832699073:71.937536744204948] [-64.291080471648144:89.649903183768984] [0:1] [-0.99999995233648808:0.99999832466266303] [0:45.237878381619019] [-99.999999999999986:0] [-65.757587255335281:345.36913343707022] [-79.666637560069233:664.26368960484638] [-85.515330183977383:937.32867158838746] [-85.048259949294106:1269.8372218165746] [0:99.999998268398301] [3.372725897281839:95.451166882553053] [-301.10955382422344:47.66713151708052] [-261.64406382299461:40.828060457628212] [-158.13104443814646:27.862160012783573] [1.6030178223764444:97.229378902093913] [2.9534680387870438:95.44481398763547] [-24.863596793594354:120.87790708804037] [1.1476577148489426:97.539702780230485] [1.7788191906555924:97.376041699953376] [-25.638744173644938:122.01446472746625] [0.25654463914611692:936.42216485154779] [-0.52919889593887348:1.5616612835489836] [-47.305539948258549:1284.5829150533555] [-83.370539648876033:292.09561353956013] [-81.942836941795946:2077.4409158143917] [-4.4063239353614057:4.4716269593058646] [-1.6058762393058279:19.99681451144599] [-6.9543672475778422:198.26523372612647] [0.059817482327297847:887.33352759011018] [-7.4840094300158171:7.7439584571747506] [-0.88932650539057578:59.978926396282191] [-2.5922108667077146:64.045161911930506] [0.080621820352510282:511.97918862259718] [-0.94849510089312783:0.99001466553334361] [5:90] [-53.852703255064824:3951.8515591221067] [0:3951.8515591221067] [-57.009429793941713:3928.1448442649912] [-0.99962196165477046:3.8963515754560527] [-0.99916940424761813:14.894512499271228] [0.0040268887556828888:3.6445460036239181] [-99.999999985307085:0] [-99.999999993964977:0] [-466.66629359584653:466.66642445619391] [-607.2376114286119:666.66618338007709] [0:100] [0.18850131933223491:4913.1810404246517] [0:0.9999999999539021] [0.46948347373756416:4913.1810404246517] [0:0.97158281915977107] [-0.9949058324656691:0.99277192917363322] [-0.99484076600949167:0.99831926413229422] [-0.97033613542970043:0.97760916255053554] [-0.98687160602119195:0.99207446764131335] [0:80] [-75.005926789640455:3698.7487551547256]
tree_sizes=6774 6834 6861 6852 6853 6875 6860 6852

Tree=0
num_leaves=63
num_cat=0
split_feature=33 91 44 34 30 162 117 31 63 111 6 9 63 162 218 202 72 198 198 204 221 117 145 162 9 8 179 200 19 158 30 169 119 206 194 129 114 73 86 200 113 206 202 63 189 206 148 83 221 168 115 162 172 166 19 223 129 189 87 187 145 195
split_gain=57.688 46.5458 53.6507 41.274 38.3169 31.9972 33.6904 28.8379 23.9182 23.1426 22.3841 22.4639 21.0626 20.3804 21.2093 20.0873 19.6675 19.4045 23.4009 17.7329 17.1756 29.6724 16.943 26.0369 27.8185 18.3667 16.4954 16.3647 16.0652 15.9192 15.697 15.2754 14.4081 14.0565 14.0339 13.9802 21.5414 15.3063 17.6181 13.8703 13.833 27.9435 25.0106 14.8879 14.2369 16.781 15.782 18.3813 18.216 14.31 13.7545 16.8869 13.4481 13.4386 13.2313 13.3589 15.4319 14.4398 12.9945 16.5083 14.0646 12.9137
threshold=0.14068571428571444 1.0000000180025095e-35 -0.60758810416255093 2.8006153689586082 16.543810560807298 0.30953175698069085 23.576726097182512 59.243191522846473 53766.64166666667 0.36405163024913229 7.8850000000000007 10.631708333333336 211511.61875000002 -21.968583523172295 0.57618000338924868 -0.06914493418537479 2.0006189543461619 -0.29390428614759911 0.67831485320080398 -3.2521107028751932 0.59349737130861668 68.469329684785933 -10.2983200465158 -4.8361185889919271 79.271833333333348 20.013711666666669 70.634272477522515 -0.21130674554796638 1.4078377124782662 -73.999999999999986 26.406804836157715 14.573888064553232 0.69668496759916321 -0.53407017617346531 1.0607476060249821 -13.680926483655485 -0.069550471677189127 1.0707953167983082 1.0000000180025095e-35 -0.37420190935798603 50.983024436805856 1.9048640550807761 0.053820620458029537 980861.66666666686 15.914275588515371 -5.084373227765556 -1.0000000180025095e-35 71.95620000000001 -0.4726653412702449 18.503098092369324 32.714487538444537 -4.9643898239954138 21.242536134012283 0.066175243973641995 0.54763921535201388 15.000000000000002 -4.2208964142404879 22.754546071192525 20.283248947990526 28.486271968843123 -13.741947364300342 1.9208478810407805
decision_type=2 2 2 2 2 2 2 2 2 2 2 2 2 2 2 2 2 2 2 2 2 2 2 2 2 2 2 2 2 2 2 2 2 2 2 2 2 2 2 2 2 2 2 2 2 2 2 2 2 2 2 2 2 2 2 2 2 2 2 2 2 2
left_child=-1 2 13 12 16 7 -7 40 53 -8 29 -12 -3 -2 19 -11 -4 33 -19 -15 21 -13 23 27 30 -24 31 39 -28 -9 -25 -17 -32 -14 -31 -27 -37 38 -38 -21 44 43 -43 -42 45 -6 -46 -48 -49 -47 -16 -52 -35 -5 55 56 -10 -58 60 -60 -51 -34
right_child=1 3 4 8 5 6 9 10 54 15 11 20 17 14 50 26 -18 18 -20 22 -22 -23 25 24 -26 35 28 -29 -30 34 32 -33 61 52 -36 36 37 -39 -40 -41 41 42 -44 -45 46 49 47 48 -50 58 51 -53 -54 -55 -56 -57 57 -59 59 -61 -62 -63
leaf_value=-0.50119597568267005 -0.49681805296562714 -0.37713196539025023 -0.47387499037480313 -0.37820877639092843 -0.36611912561058718 -0.38352147644849111 -0.42162317666827026 -0.44333759089804747 -0.46969377336267371 -0.40098105410245322 -0.47777905811492694 -0.40598007945680553 -0.47947243025309016 -0.48319784895704931 -0.45215760141576139 -0.45087537043669296 -0.3897237069304384 -0.40028340190483075 -0.49019712046145736 -0.44167944298771966 -0.36061601287984868 -0.47502170879260802 -0.39419793790099816 -0.35021169037329614 -0.35659788700140566 -0.37120950488652033 -0.46519972223142858 -0.48885110671060966 -0.3677098691343163 -0.36165280725550164 -0.49238439280658486 -0.49677538315357023 -0.39059210289872726 -0.39625952921808605 -0.44120221993060094 -0.48519764081545158 -0.40970549816076468 -0.45373032774941535 -0.48813851119545498 -0.36462195523531277 -0.49507709063385341 -0.4686609004478941 -0.36663855206731505 -0.4560099272751868 -0.48217356532225786 -0.38932526642734117 -0.48532420992041381 -0.47100556956227396 -0.40240964735532236 -0.38739532024046397 -0.40863781267704141 -0.36168590595429295 -0.47926075873581975 -0.46220003444382513 -0.47493501728247428 -0.44666706731856787 -0.41180527961208707 -0.48224340284281186 -0.36882677416161547 -0.46103348919309045 -0.45784199746938237 -0.46220003444382513
leaf_weight=41.671003401279449 8.8104407191276533 18.57336151599884 116.91692954301834 14.287201166152956 7.8579606413841239 39.527923226356506 176.2088143825531 14.04908114671707 195.49653595685959 16.906521379947662 29.526882410049438 36.908603012561798 29.526882410049438 13.096601068973539 10.953520894050596 42.385363459587097 7.3817206025123587 46.433403789997101 8.5723206996917707 20.954561710357666 8.8104407191276533 26.90756219625473 25.9550821185112 7.1436005830764762 32.622442662715912 7.1436005830764762 8.3342006802558917 12.382241010665892 8.5723206996917707 24.764482021331791 7.6198406219482413 31.669962584972382 18.573361515998844 13.572841107845308 7.1436005830764762 25.00260204076767 61.911205053329468 56.672564625740051 8.0960806608200055 8.0960806608200091 59.768124878406525 12.382241010665895 11.667880952358244 41.194763362407684 48.814603984355927 12.144120991230009 18.811481535434723 14.763441205024717 28.098162293434143 7.6198406219482413 56.196324586868286 29.050642371177673 7.6198406219482413 7.1436005830764762 117.39316958189011 203.11637657880783 23.812001943588257 10.477280855178831 11.191640913486482 8.5723206996917707 100.96288824081421 9.524800777435301
leaf_count=175 37 78 491 60 33 166 740 59 821 71 124 155 124 55 46 178 31 195 36 88 37 113 109 30 137 30 35 52 36 104 32 133 78 57 30 105 260 238 34 34 251 52 49 173 205 51 79 62 118 32 236 122 32 30 493 853 100 44 47 36 424 40
internal_value=-0.442943 -0.441784 -0.43653 -0.452351 -0.442937 -0.439168 -0.426771 -0.44671 -0.458028 -0.432789 -0.427969 -0.441006 -0.426238 -0.421574 -0.419961 -0.451029 -0.468878 -0.434865 -0.414296 -0.42624 -0.426056 -0.435091 -0.423768 -0.408872 -0.39139 -0.433193 -0.460331 -0.44072 -0.415768 -0.398989 -0.417871 -0.470505 -0.431403 -0.457172 -0.379462 -0.439565 -0.442784 -0.434413 -0.418776 -0.420204 -0.453942 -0.467599 -0.419165 -0.479137 -0.447345 -0.437225 -0.460933 -0.444121 -0.426037 -0.441202 -0.399414 -0.392637 -0.426103 -0.406206 -0.460047 -0.456009 -0.464267 -0.433328 -0.446111 -0.40882 -0.452898 -0.414866
internal_weight=2137.37 2095.69 1399.67 696.025 979.864 855.565 323.605 531.96 571.726 284.077 148.111 102.153 124.299 419.806 410.995 107.868 124.299 105.725 55.0057 314.795 72.6266 63.8162 301.698 116.917 75.484 184.781 90.9618 41.4329 16.9065 45.9572 42.8616 74.0553 35.718 50.7196 31.9081 158.826 151.682 126.68 70.0073 29.0506 383.849 125.013 24.0501 100.963 258.836 148.349 110.488 61.6731 42.8616 140.491 96.2005 85.247 21.1927 21.4308 550.295 432.902 229.786 34.2893 128.347 19.764 108.583 28.0982
internal_count=8976 8801 5878 2923 4115 3593 1359 2234 2401 1193 622 429 522 1763 1726 453 522 444 231 1322 305 268 1267 491 317 776 382 174 71 193 180 311 150 213 134 667 637 532 294 122 1612 525 101 424 1087 623 464 259 180 590 404 358 89 90 2311 1818 965 144 539 83 456 118
is_linear=0
shrinkage=1


Tree=1
num_leaves=63
num_cat=0
split_feature=33 91 215 160 30 4 143 224 70 163 219 23 126 23 191 224 206 224 33 72 216 222 83 32 213 174 191 32 216 160 126 128 219 195 179 191 199 112 168 188 32 217 133 195 119 47 8 73 111 9 55 73 32 219 163 30 65 49 9 220 166 33
split_gain=52.7732 42.0075 46.8076 45.8059 32.3265 27.3961 25.467 23.3224 28.583 24.8266 20.8529 20.6203 20.3829 18.796 18.7349 17.4753 17.4591 17.2441 18.4845 16.5661 16.1062 23.4565 15.622 15.3381 23.6763 19.9968 23.3424 18.899 18.1158 17.1868 17.8158 18.0925 16.0686 15.659 15.6399 16.0026 15.3434 15.2314 22.5373 17.3691 16.2917 16.4193 15.9189 15.125 14.4823 21.41 17.0786 18.0706 18.934 16.4619 25.7667 14.4029 14.3752 14.0956 13.6198 13.5757 13.4267 13.2979 15.133 12.5961 13.4411 11.826
threshold=0.14068571428571444 1.0000000180025095e-35 5.6580702518123536 -1.8244642857142856 21.897192782658092 29480.000000000004 38.378568322238799 3.0694115582293544 261141.12500000003 0.38802326569172824 -0.38919532535381668 22.393532682414889 456496.95000000001 -11.027486705056804 21.441929536436479 85.633506682565681 0.41146482664459838 27.601430368165023 3.6299821428571435 2.0498165163616133 0.35980410006811103 0.1968368323220917 106.41250000000001 22.165839717163887 -29.205701616112115 -0.96810300766515367 15.715940234894434 36.876175186904618 0.61115889697624193 0.80589285714285697 -35574.347749999979 8.9516838969664807 -0.66218776781693134 0.24286198649559618 60.084496973400235 2.1269975596732613 1.855051823629273 3.6705306882872546 25.216152236833739 3.6047318153710273 81.91125477750019 47.052281557791062 -3.1431605202619619 1.7851484446816108 1.4244966016815668 -0.024928712127498528 18.479166666666671 1.6589723444417996 0.32987858679676901 12.62547916666667 10.262278058478625 0.023487360993725098 53.577339659571479 0.18487271238220876 0.094056134643727432 38.220595749875464 0.34976729170431614 36.442785501295894 185.64958333333337 -0.58982485365294501 -0.044530779132839753 6.6974107142857173
decision_type=2 2 2 2 2 2 2 2 2 2 2 2 2 2 2 2 2 2 2 2 2 2 2 2 2 2 2 2 2 2 2 2 2 2 2 2 2 2 2 2 2 2 2 2 2 2 2 2 2 2 2 2 2 2 2 2 2 2 2 2 2 2
left_child=-1 3 13 5 12 -2 15 8 10 14 61 20 19 -3 -10 23 -14 -13 -19 53 21 -8 43 24 28 32 27 33 -6 30 52 36 59 -27 -31 -36 -32 38 -4 -40 41 42 56 -16 46 -46 49 48 54 50 -34 -9 -29 -5 -48 -38 -39 -53 -59 60 -25 -7
right_child=1 2 37 4 6 7 11 51 9 -11 -12 17 16 -15 22 -17 -18 18 -20 -21 -22 -23 -24 25 -26 26 -28 29 -30 34 31 -33 44 -35 35 -37 55 40 39 -41 -42 -43 -44 -45 45 -47 47 -49 -50 -51 -52 57 -54 -55 -56 -57 -58 58 -60 -61 -62 -63
leaf_value=-0.055967426572795978 -0.042246407000728681 -0.0041534406586281733 0.04838895491432043 -0.016368245184870244 -0.041604025803337719 0.0073911045010081715 0.076448697408658256 0.073474844222385732 -0.019856581316463087 0.10024931021093005 0.068403754699393846 -0.017286708278185573 -0.028345306118961511 0.046817647871322171 0.027589474394576308 -0.040417620933653739 0.041342929661717001 0.0098193451714405095 0.097744471380596498 0.044353692319491982 0.089644091909707124 -0.036065982605858964 0.072936366802977187 -0.011535972337333805 0.083596660079028148 0.0016778229075248596 -0.045845157344492626 -0.056340647212158701 0.059259781597504606 -0.045996244422923972 0.080458735582878124 0.0047547591752480469 0.033180268420224875 -0.036597198186304317 -0.035292433979897612 0.049697043926907825 0.072363948827037824 -0.045147150375210131 -0.015330369710370216 0.026553897941496964 -0.050276695508687533 0.015932810922145973 -0.011742030183549711 -0.029780248110078601 0.070254741378157681 -0.0095201464529613873 0.070553882585331948 0.038981173808206059 -0.046501632050523108 0.057382489758160231 -0.024407615013242016 0.0023298105847624211 0.032810879572037842 -0.045697197180642461 -0.015477886759784096 -0.014900572997512915 -0.0066178443052365482 0.059794272211796506 -0.011177043688916017 -0.042090756250563584 0.065771610402271183 0.07796604551257999
leaf_weight=41.113591194152832 17.600257337093353 28.819855555891991 20.267703652381897 117.77140249311924 11.170784771442415 29.395132288336754 10.044452086091043 8.6226486116647703 35.828576117753983 8.1629975438117963 67.594297409057617 28.392244681715965 14.018184736371039 48.564327985048294 46.628652319312096 24.024984791874886 25.044553801417351 18.391925469040874 8.8557418733835203 8.6265951693057996 19.397385343909264 8.5966683924198133 13.435226380825041 23.339567005634311 14.655670925974844 50.705736234784126 35.917626827955246 11.659750789403917 7.401168003678321 22.138937443494797 23.899081707000732 33.343835413455963 53.188895881175995 56.496313363313675 9.7200516462326068 12.8748222887516 7.4119752049446133 81.286599189043045 132.6752253472805 30.429220765829086 36.958748549222946 37.46039754152298 246.69836451113224 15.244803771376608 26.217434629797935 12.38301035761833 7.1739625334739712 15.253406465053557 32.355961367487907 26.469354569911957 30.597849905490875 185.48822532594204 7.3858801424503318 62.81790354847908 12.823665380477903 11.178434148430823 31.324947938323021 22.748254537582397 11.213536053895949 22.585032120347023 7.4068288952112189 7.4376388341188422
leaf_count=175 74 121 85 496 47 123 42 36 150 34 282 119 59 203 195 101 105 77 37 36 81 36 56 98 61 213 151 49 31 93 100 140 223 238 41 54 31 343 559 128 156 158 1038 64 110 52 30 64 136 111 129 777 31 265 54 47 132 95 47 95 31 31
internal_value=0.000132872 0.00123349 -0.00882159 0.00621738 -0.00019938 0.0189543 0.005106 0.0213385 0.0328084 0.0160878 0.0519104 0.029378 -0.0165483 0.0278347 0.00990621 0.00137717 0.0163344 0.00998183 0.0383958 -0.0233368 0.0577493 0.0245606 0.0240661 0.0030914 0.0360846 0.00110727 -0.00818458 -0.00270404 -0.00140847 0.00941987 0.0214657 0.0323239 0.0108447 -0.0184934 -0.016129 0.0131356 0.0539589 -0.0134183 -0.00133724 -0.00751632 -0.0185259 -0.0155683 -0.0188525 0.0134543 0.0169015 0.044663 0.0108766 -0.00890946 -0.0228626 0.023009 0.0121499 0.0100871 -0.0217678 -0.0265703 0.0153852 0.0198917 -0.0344295 0.00759642 0.0363609 -0.0137387 0.00708748 0.0216423
internal_weight=2136.74 2095.62 694.485 1401.14 931.737 469.4 703.458 451.8 223.727 119.3 104.427 93.6784 228.279 77.3842 111.137 609.78 39.0627 55.6399 27.2477 189.216 38.0385 18.6411 75.3087 585.755 33.2276 552.527 282.732 246.815 18.572 139.613 94.879 75.8333 269.795 107.202 44.7338 22.5949 42.4895 617.101 183.372 163.104 433.729 396.77 359.31 61.8735 216.464 38.6004 177.863 67.607 52.3536 110.256 83.7867 228.073 19.0456 180.589 19.9976 18.5904 112.612 219.45 33.9618 53.3314 30.7464 36.8328
internal_count=8976 8801 2923 5878 3914 1964 2953 1890 935 499 436 392 961 324 465 2561 164 233 114 797 159 78 315 2460 139 2321 1188 1037 78 586 398 318 1133 451 188 95 178 2599 772 687 1827 1671 1513 259 909 162 747 284 220 463 352 955 80 761 84 78 475 919 142 224 129 154
is_linear=0
shrinkage=0.05


Tree=2
num_leaves=63
num_cat=0
split_feature=33 91 44 34 30 26 162 32 135 11 206 221 35 126 21 20 25 132 172 72 151 216 203 199 204 49 199 206 170 202 199 4 47 162 128 196 146 129 129 11 29 212 187 194 172 187 189 84 209 221 4 43 35 132 61 172 189 205 135 115 167 165
split_gain=48.3281 37.9152 44.4856 35.347 32.1978 29.2364 26.8403 28.09 24.5689 24.4501 25.4521 23.7646 19.5978 19.1547 17.2562 16.6716 20.6297 20.3345 19.0063 16.6657 16.4913 16.2257 18.2377 16.1301 15.7985 16.4196 14.7623 18.5908 14.408 14.1272 15.0541 14.8399 17.7914 14.0428 14.0193 13.9886 13.9815 13.3358 16.2414 13.2839 16.3589 13.2813 13.044 12.8686 12.8473 14.7487 17.3378 15.7483 12.8334 15.7662 13.0977 12.6875 13.9648 12.6318 13.3333 12.3871 12.3036 12.0676 12.0329 12.0005 21.0836 15.6815
threshold=0.14068571428571444 1.0000000180025095e-35 -0.60758810416255093 3.2804337191136086 16.543810560807298 0.87994734440232081 0.30953175698069085 23.576726097182512 50.72794621591887 -1.7419940121418878 0.63605442502602239 0.53044443722806334 1.4379720185568015 76260.212500000009 -20.90401621160699 4.2581522508995171 1.1739354878159203 1.7319649127975489 17.491665072874358 2.0006189543461619 44.818382863367567 0.12512455905626546 47.500000000000007 -0.055452863814858207 -1.2441306401370762 40.227251131082433 2.0027020471405046 -0.81056056146793898 1.0000000180025095e-35 -0.057864260539101715 -0.021808002964608306 347292.00000000006 -0.30073800461896516 -1.394442042549165 -7.5721313114013471 -0.039979273524959051 -4.0706424229602272 -3.8686000253727078 -2.5870730707366119 -0.052956465287777775 -0.0004617401717473823 -203.79074477521388 19.734062535197022 -0.11519997238527811 23.377925046370752 24.946422026749207 18.254043868828468 102.49100000000001 1.0706228169933172 -0.75157830305198903 330217.44000000006 -0.081281386329928637 0.96440706814005761 5.3677488055152027 775022.06200000015 19.537552635240583 35.460369648646875 3.3173568549042343 23.70330771989698 48.943439962786307 15.625169636364818 44.905526102713964
decision_type=2 2 2 2 2 2 2 2 2 2 2 2 2 2 2 2 2 2 2 2 2 2 2 2 2 2 2 2 2 2 2 2 2 2 2 2 2 2 2 2 2 2 2 2 2 2 2 2 2 2 2 2 2 2 2 2 2 2 2 2 2 2
left_child=-1 2 8 5 19 44 9 -8 13 11 -11 12 14 20 -6 18 17 43 -9 36 24 39 -23 -5 -2 29 51 -28 -12 30 -26 -32 -33 34 58 -15 -4 -22 -39 40 -20 55 -29 -17 45 46 47 -3 50 56 -10 52 -7 -24 -55 -16 -50 -25 -30 60 -43 -61
right_child=1 3 4 23 6 26 7 15 48 10 28 -13 -14 35 41 16 -18 -19 21 -21 37 22 53 57 25 -27 27 42 33 -31 31 32 -34 -35 -36 -37 -38 38 -40 -41 -42 59 -44 -45 -46 -47 -48 -49 49 -51 -52 -53 -54 54 -56 -57 -58 -59 -60 61 -62 -63
leaf_value=-0.053964182632632432 -0.018914302597634061 0.0052612225223245997 0.031511703280554457 0.01905680651778132 -0.03705357337748804 0.072379566430762071 0.053898845057836375 -0.024014521161377866 0.00027561317436324587 -0.028558134030672901 -0.037737197434402417 0.070966263656018977 0.058836811561698676 0.064214549249287767 0.0085407733168408068 0.06326967522211506 0.023141494767929392 -0.040610673207996488 -0.05439061626011224 0.048328393841406164 -0.040860252041627715 0.0034412078524399623 0.060123167316730092 -0.020126261687898484 0.088457070596851303 0.0730613885541989 -0.026841348786269453 0.084328446265202903 0.056639043020948188 -0.023941026548989094 0.06026704070927829 0.056270489695031393 -0.0057310226703710318 0.032595477240224303 -0.033461180449607809 -0.0074877045809719905 -0.033602822824949266 0.067568992784719992 -0.010933899815101251 0.037476816539203393 0.023567733528870274 0.01940236423252677 0.0062800096181721762 -0.011106100659080761 -0.04026269003962988 -0.037754775635161962 -0.037503138700247352 0.081258531831734371 0.0080893149769664715 0.0075930514812858939 0.058642521584694157 -0.022499620679065087 0.025519565237733816 -0.04070883542505286 0.048989280784869416 -0.044936486836036203 0.085108932012421215 0.013507794200207349 -0.0081901646505092626 0.015073650640691248 -0.026644611257380199 0.073612188332445497
leaf_weight=40.522904694080353 29.087713241577148 15.462779730558397 8.9350494444370252 31.299595400691032 27.624115243554115 28.835361704230309 40.231463864445686 22.201861575245857 11.294648408889769 143.09784859418869 18.240529984235764 13.78069196641445 15.111836418509482 25.279311746358871 20.437513962388039 8.86827200651169 40.447962686419487 47.803205937147141 15.787798687815666 7.5040896236896506 28.850419878959656 30.637695699930191 58.817978084087372 430.23875647783279 8.1516699939966184 13.977014705538748 24.482557013630867 8.6389713287353533 11.75822462141514 18.81425179541111 16.327443093061447 14.651394829154013 55.020493492484093 41.70869542658329 25.073938101530075 9.3063821196556074 106.58977726101875 7.93013772368431 38.94626547396183 14.881494149565695 11.728303015232086 59.519570872187614 14.075504496693609 16.89643856883049 29.136886328458786 17.082988709211349 10.200187519192694 12.191222369670866 8.1690630912780779 58.269819021224976 64.508170291781425 7.4225725382566443 35.439311787486076 7.1619831472635278 9.8282981067895889 23.031615704298019 14.196283161640165 28.431011214852333 18.293322056531906 56.305812776088715 42.687934592366219 14.357711002230642
leaf_count=175 122 65 38 132 116 120 166 93 47 605 77 57 63 105 86 37 169 202 66 31 121 128 245 1820 34 58 103 36 49 79 68 61 230 175 106 39 453 33 163 62 49 250 59 71 123 72 43 51 34 243 267 31 148 30 41 97 59 120 77 236 180 60
internal_value=0.000118679 0.00116475 0.00589333 -0.00840333 4.17394e-05 0.00914233 0.0034781 0.0147882 0.0194483 -0.00345014 -0.0144798 0.00698597 0.00358275 0.0102107 0.000160162 0.00926843 -0.00554182 -0.021312 0.0191407 -0.0238765 0.00503084 0.0255778 0.0359965 -0.0156716 0.0143227 0.0219387 0.0251 0.00338497 0.00302685 0.0156133 0.0235175 0.017362 0.00730736 0.0107055 -0.00585672 0.0449208 -0.0285667 -0.0141144 0.00234653 -0.000579928 -0.0211621 0.00491192 0.0359641 0.0144942 -0.0134243 0.000809843 0.0182134 0.0387645 0.0351756 0.0212904 0.0499458 0.0393946 0.0465422 0.0491536 0.0111785 -0.0197935 0.0569771 -0.0180414 0.0171755 0.0111242 0.000170408 0.0269678
internal_weight=2135.59 2095.07 1402.13 692.938 979.351 202.968 856.322 325.293 422.78 531.029 258.173 272.857 259.076 266.342 243.964 285.061 114.016 73.5679 171.045 123.029 231.757 148.844 106.446 489.969 156.03 126.942 118.894 47.197 115.075 112.965 94.151 85.9993 69.6719 96.8342 55.1255 34.5857 115.525 75.7268 46.8764 42.3976 27.5161 216.34 22.7145 25.7647 84.0741 54.9372 37.8542 27.654 156.438 80.6352 75.8028 71.6972 64.2747 75.8083 16.9903 43.4691 22.3653 458.67 30.0515 172.871 102.208 70.6635
internal_count=8976 8801 5878 2923 4115 851 3593 1359 1763 2234 1089 1145 1088 1113 1025 1193 479 310 714 522 969 621 444 2072 652 530 497 198 484 472 393 359 291 407 232 144 491 317 196 177 115 909 95 108 354 231 159 116 650 336 314 299 268 316 71 183 93 1940 126 726 430 296
is_linear=0
shrinkage=0.05


Tree=3
num_leaves=63
num_cat=0
split_feature=33 91 171 115 57 32 115 145 221 191 8 120 141 158 23 114 222 70 224 187 91 84 202 172 22 22 160 30 111 20 126 135 163 198 70 151 209 222 58 185 20 115 215 198 195 126 114 214 44 37 31 123 209 91 202 55 215 72 202 56 23 70
split_gain=44.298 34.9171 40.1961 33.6771 29.9825 28.711 24.9261 24.1137 23.2119 22.188 20.6063 17.6664 17.2597 22.5276 22.7758 22.1087 20.2315 17.0986 18.5003 17.3455 16.7291 19.7459 19.4347 16.0607 15.7727 15.5825 15.3929 15.3887 15.4472 15.2051 15.1074 14.7348 17.9316 14.6109 14.4398 14.6704 14.2053 14.3754 13.8688 13.7237 13.6759 13.5454 13.5075 13.2565 15.9486 22.433 15.016 18.7164 14.16 13.8919 13.255 14.3524 13.1685 12.858 18.3601 12.7573 12.7531 12.7123 12.4545 18.4223 12.3638 20.8055
threshold=0.14068571428571444 0.14948453608247425 -0.44581322931469886 47.815268159889882 45.340298452817429 40.668646745410427 111.10120274730932 -7.264537961890702 -0.65769827522964752 60.77501432305079 21.725083333333338 10.081569143431595 -0.23994022956639174 86.000000000000014 23.570575547589502 -0.18616007957050748 0.035184610444100685 559730.27500000014 45.712510233103224 21.6358606967102 0.3144329896907217 106.96850000000002 -0.2188370503891145 30.432653909587376 -7.314968117938613 -20.20863270380001 -1.8244642857142856 18.274354792218102 0.38087263993761061 -14.034226882220262 -14846.249999999998 41.363272545019612 -0.015848151539549212 0.036998554839353083 827466.98105000018 21.502846876546155 0.77841146649482751 -0.16802316002238485 0.83139861209744137 87.766518188897933 2.5057183776292962 77.710108499542102 5.1893058091117004 3.3167815389374149 0.17091496091139077 7544.9000000000005 0.070411281454022381 57.964595207197348 0.96389591753716319 5.6605407295303491 33.675879204807259 0.84494995023112895 1.4747603785359744 0.88144329896907225 -0.18938742567712955 12.802964745976768 21.197577169815919 1.5859175107816428 -0.37693429908456327 6.7435526685502465 -13.865196411894035 205925.72500000001
decision_type=2 2 2 2 2 2 2 2 2 2 2 2 2 2 2 2 2 2 2 2 2 2 2 2 2 2 2 2 2 2 2 2 2 2 2 2 2 2 2 2 2 2 2 2 2 2 2 2 2 2 2 2 2 2 2 2 2 2 2 2 2 2
left_child=-1 2 3 31 7 8 56 10 26 23 17 42 16 15 -15 -14 24 18 57 -19 21 22 -10 34 -9 58 29 -17 43 -3 -27 32 -2 -16 36 41 -5 -38 -35 -40 -34 -36 -12 44 45 50 47 49 -47 -46 51 -29 -28 -22 -55 -21 60 -4 -7 -60 61 -6
right_child=1 5 4 9 6 25 -8 12 20 -11 11 -13 13 14 33 27 -18 19 -20 55 53 -23 -24 -25 -26 30 52 28 -30 -31 -32 -33 40 38 35 -37 37 -39 39 -41 -42 -43 -44 -45 46 48 -48 -49 -50 -51 -52 -53 -54 54 -56 -57 -58 -59 59 -61 -62 -63
leaf_value=-0.052078377237384482 0.0015839424259895289 0.022638623515727818 0.017720841217787837 0.047222264428695947 0.066064489896270104 0.0080502721347008414 -0.0024976107543159751 0.0026761576153777403 0.027760893279963547 -0.036345332857923553 0.084667684115755371 -0.022816709807164007 0.042232701284641558 0.045913756502031625 0.053466608742049518 -0.028612640545883101 0.06032768846355771 -0.055238576194725747 -0.032051473849939158 -0.029183620199793571 0.024542476870716173 -0.061195204672580654 -0.027463590979419406 0.063633070373758996 0.066449245957187028 -0.042993328366020031 -0.028380805210718386 -0.028085996576016792 -0.017246747540124893 -0.051736452798011978 0.00073908425901066522 -0.053670394382528942 -0.03631550217602536 -0.067375625875932349 0.029956071019703875 0.0080618902571525392 0.0030058707937251181 -0.049832267408639913 0.052336211458432473 -0.028420895814286737 0.018614262268510873 0.10838728891689542 0.028789923618829323 0.066775215125000897 0.00041657084653571122 0.056688751789942343 -0.049915353994257387 -0.031941131162045028 -0.010308687634619762 0.053843314073336972 -0.024792478474668589 0.061615873623657502 0.064964930293707659 -0.039531616105314804 0.054021211367057315 0.037385907704694958 0.019707122619416591 0.075341561934658671 0.04788609257067955 -0.037241951367779885 0.092205567263985766 -0.0038114533753885495
leaf_weight=39.906537532806396 77.999016955494881 8.2380354106426221 36.924291685223579 9.5756070017814618 33.531072929501534 54.006122663617134 39.831404387950897 100.84703409671783 33.722630307078362 25.171640947461128 11.549507468938826 15.77688020467758 22.280714362859726 44.947316765785217 8.3908733874559385 80.671740606427193 22.979593634605408 21.044325664639473 14.189589753746985 14.230433911085131 123.42490857839584 15.52378951013088 30.197344273328781 14.894296482205389 10.726802080869673 104.14759737253189 7.5671860128641111 7.194214969873431 148.8709517121315 41.437508687376976 24.368647366762161 31.51974792778492 95.953837618231773 10.655174463987349 17.690175056457523 51.244383960962296 30.978879183530807 22.024314239621162 8.4239243716001528 14.010308086872099 12.848650127649305 7.9919679164886466 170.12104693055153 7.9461770802736273 59.229131907224655 35.717943608760834 20.21584452688694 37.432316079735756 10.121367752552031 15.312612012028692 33.642814934253693 11.729952514171599 7.5457040220499039 19.154630929231647 7.2217655479907981 14.561074689030646 35.137431442737579 12.921950638294218 7.3415600508451453 47.309454724192619 18.098429426550865 15.612972840666769
leaf_count=175 329 35 155 40 138 229 167 423 142 106 48 66 93 187 35 343 96 89 60 60 517 66 127 62 45 443 32 30 627 176 103 134 408 45 74 215 130 93 35 59 54 33 708 33 249 148 85 157 42 64 141 49 32 81 30 61 146 54 31 201 75 65
internal_value=0.000106008 0.00110053 0.00486486 -0.0088557 0.00955145 -0.00997384 0.0310626 0.00656012 0.000466072 0.00718355 0.0181659 0.0279349 0.00148089 -0.0022808 0.0212562 -0.00642923 0.0176062 0.00122697 0.0183193 -0.0207356 0.00793443 -0.010613 0.00167151 0.01428 0.00880736 -0.0229166 -0.0259597 -0.00874552 -0.00460855 -0.0394023 -0.034701 -0.0220481 -0.0167124 -0.00546228 0.00901085 0.0235196 -0.00882441 -0.0189499 -0.0204056 0.00190293 -0.0298288 0.0543629 0.0323423 0.00327877 0.00109072 0.016331 -0.0102546 -0.00309425 0.0418956 0.0113917 -0.00596181 0.0275148 0.0182257 0.0177707 -0.0139172 0.00448338 0.0441194 0.0326582 -0.00897846 -0.0258063 0.056876 0.043865
internal_weight=2133.88 2093.98 1562.77 397.893 1164.88 531.207 142.211 1022.67 294.034 179.571 311.319 197.447 711.347 576.793 86.4276 490.366 134.553 113.872 64.0358 49.8358 229.245 79.4438 63.92 154.4 111.574 237.173 64.7884 468.085 387.413 49.6755 128.516 218.321 186.802 41.4803 139.505 76.9265 62.5788 53.0032 33.0894 22.4342 108.802 25.6821 181.671 238.542 230.596 98.4063 132.19 111.974 45.8393 74.5417 52.567 18.9242 15.1129 149.801 26.3764 28.7915 102.38 49.8462 108.657 54.651 67.2425 49.144
internal_count=8976 8801 6556 1678 4878 2245 591 4287 1238 753 1301 822 2986 2422 361 2061 564 479 269 210 963 335 269 647 468 1007 275 1968 1625 211 546 925 791 174 585 322 263 223 139 94 462 107 756 998 965 410 555 470 190 313 220 79 64 628 111 121 424 209 461 232 278 203
is_linear=0
shrinkage=0.05


Tree=4
num_leaves=63
num_cat=0
split_feature=33 91 171 115 157 57 32 199 61 115 145 206 47 168 30 209 172 30 202 147 61 111 120 70 209 33 119 35 44 224 209 206 202 30 206 222 201 91 91 220 131 113 193 37 158 224 37 111 143 222 113 131 206 3 220 145 215 44 61 194 158 21
split_gain=40.6339 31.5688 36.266 30.5721 32.7861 26.8475 26.1196 23.1027 23.7571 22.2253 21.6598 22.6121 18.6489 17.9606 16.0906 19.7633 18.0353 17.03 16.7351 15.7084 15.6842 16.7441 15.5523 15.5051 28.848 21.5112 20.5219 16.7245 16.6176 15.4096 15.2333 15.4645 15.0099 17.9348 14.8735 16.1885 14.5942 14.7329 16.7699 13.9317 13.6897 13.0059 13.1524 12.9766 12.9278 12.8699 12.8115 12.7051 12.6195 12.5451 12.5395 14.921 12.224 12.0726 12.0399 11.9569 12.6142 11.849 13.5513 14.4256 11.7748 11.6059
threshold=0.14068571428571444 0.14948453608247425 -0.44581322931469886 47.815268159889882 26.000000000000004 45.340298452817429 40.668646745410427 1.2022557262380662 244725.90000000002 111.10120274730932 -7.264537961890702 1.6611832484560276 -0.022317427405048326 18.857489965028773 22.83680271265052 1.1506965921278833 17.941306493362745 45.207109449603195 0.07462098327229584 -20.209777274044605 988806.31000000017 0.078285988951576249 4.0715978998397881 531290.42500000016 1.013293951285297 0.69723571428571451 1.0201431027286743 1.4131427210742855 -0.13383871646765017 9.5504347897036244 1.0026450242394898 0.75183713516816442 -0.39236794540227077 70.555155080718109 0.55497839613745514 -0.34519030328791095 1.0845712064877808 0.88144329896907225 0.28350515463917531 -0.42252361613707151 18.558447976127599 2.2500665174794254 -3.0667872817364317 7.7115836304919982 -93.999999999999986 29.054587452631271 5.2191050094027025 0.18414266323630055 -30.816692573689387 0.24857050606271028 81.438183811143531 2.8721095116969395 -2.6607379044225943 6.035000000000001 -0.79023909424344918 -12.649288801732277 18.044662784612111 -0.016168393822251565 630119.20000000007 -0.043614339454984379 50.000000000000007 -10.625370904468605
decision_type=2 2 2 2 2 2 2 2 2 2 2 2 2 2 2 2 2 2 2 2 2 2 2 2 2 2 2 2 2 2 2 2 2 2 2 2 2 2 2 2 2 2 2 2 2 2 2 2 2 2 2 2 2 2 2 2 2 2 2 2 2 2
left_child=-1 2 3 47 13 10 7 36 -9 34 11 23 22 40 20 16 -16 -18 -19 32 21 -12 -6 24 28 -25 39 46 61 -23 31 -22 33 -8 -7 -36 -3 38 -38 -27 -5 -40 -43 -37 -24 -28 55 -2 -49 53 51 -13 -50 -21 -17 56 -26 58 59 -54 -33 -4
right_child=1 6 5 4 12 9 19 8 -10 -11 14 50 -14 -15 15 54 17 18 -20 49 30 29 44 25 27 26 45 -29 -30 -31 -32 60 -34 -35 35 43 37 -39 41 -41 -42 42 -44 -45 -46 -47 -48 48 52 -51 -52 -53 57 -55 -56 -57 -58 -59 -60 -61 -62 -63
leaf_value=-0.050295836051175449 -0.039535600239974406 0.07810277418414488 0.012812443587698581 0.053806205281470981 0.063872203821251208 0.056370093562783156 0.05978236936341827 0.035166368720709822 -0.020130356492675999 -0.0023740043270105166 -0.049420983863126301 0.045220031027506324 -0.023319460109781986 0.07744227266916244 -0.008968806531794821 0.040038916305017568 0.028471986917148553 0.014724041413045242 -0.029635935793366569 0.013039155654779403 -0.036242852683199878 -0.025233234818885942 0.064175558184335083 -0.03968566732638304 0.051347185135571329 0.0300519316091333 0.054841537883141417 0.061330787431032055 0.00081851259939198719 0.02388082762911202 0.035045168732506002 -0.02236037533224694 -0.021951503650118928 -0.016411505239826797 -0.017183443573213008 0.087286949204688505 -0.021701059341757908 -0.042322714259179856 0.068155222120804465 -0.042084913586281407 -0.033358244093579369 0.0068605999469705456 0.057639914059031808 0.0079452085016671042 -0.006322204079257235 -0.0020910766252715861 -0.050722402714859276 -0.038437522495408022 -0.052174308429643303 0.0088817388957475318 0.089329954979434259 -0.028151406910185361 0.090085660280393526 -0.039842818627869564 -0.011826163165088922 -0.018857120026772919 -0.024885019932470106 -0.016473724453650845 -0.0037072633774849007 0.0074313098146776089 0.056387837525148012 0.071510166120876184
leaf_weight=39.271108061075211 65.17988695204258 8.7849282175302488 10.657438471913336 8.9524348825216311 12.506115868687628 64.274074822664261 16.317090094089512 22.607903108000755 137.91348645091057 39.810571432113647 39.259831637144089 41.648111522197723 68.10601332783699 21.758696615695953 76.300318703055382 12.042690500617026 168.49477230012417 82.06987576186657 28.694811955094337 11.751480668783186 26.474267095327377 47.743180885910988 7.4351699948310843 30.355210959911346 17.616122707724571 9.6224487721920031 26.08988781273365 9.903171241283415 16.041596785187721 23.998052105307579 28.704816281795502 8.3241128772497195 42.908940970897675 14.66390413045883 18.206238523125648 10.281412258744242 22.504120141267776 11.56658625602722 15.542914122343062 21.986075013875961 9.0666401982307416 58.662677943706505 16.293592929840095 10.33252692222595 51.869304031133652 16.022606536746025 14.071530923247336 37.235253065824509 12.234218820929526 17.876070708036423 12.321884110569952 8.3121536672115308 10.454822957515718 132.27159930765629 157.95563541352749 29.633258894085888 7.8423211425542823 50.704272463917732 30.635436862707138 10.662723928689955 11.046182021498678 40.134630769491196
leaf_count=175 280 36 44 37 52 264 69 94 585 167 168 173 287 90 321 50 702 343 121 50 112 203 31 129 73 40 108 41 67 101 120 35 183 62 75 42 95 49 65 92 38 246 68 43 218 67 59 159 52 76 51 35 44 567 664 124 33 216 129 45 46 165
internal_value=9.37333e-05 0.00103931 0.00461412 -0.00844288 0.00681222 0.00905651 -0.00951014 0.000435483 -0.0123423 0.0293573 0.00622166 0.0171989 -0.0045754 0.0468677 0.0014014 0.00587038 0.0125747 0.0184609 0.0032321 -0.0219059 -0.0112567 -0.0231699 0.0132017 0.0104828 0.0210002 -0.00426102 0.0103254 0.000559169 0.0451825 -0.00880416 0.00648164 -0.0114029 -0.00280279 0.0237183 0.0416106 0.0171736 0.0158164 0.0114238 0.0169251 -0.0201246 0.00994776 0.0265301 0.0178987 0.0475177 0.0025163 0.0331803 -0.00814244 -0.0210692 -0.0131467 -0.0306245 0.0441546 0.0330128 -0.0049359 -0.0355279 -0.00815204 0.00273333 0.0278643 0.000704741 0.0175351 0.0483516 0.0225469 0.0591939
internal_weight=2132.01 2092.74 1563.07 396.801 179.694 1166.27 529.665 293.876 160.521 142.905 1023.37 312.258 139.917 39.7778 711.109 525.558 355.56 279.259 110.765 235.789 185.55 111.001 71.8106 249.976 145.9 104.076 73.721 79.0664 66.8337 71.7412 74.5494 45.8446 73.8899 30.981 103.094 38.8202 133.355 124.57 113.003 31.6085 18.0191 90.4992 74.9563 20.6139 59.3045 42.1125 69.1632 217.107 151.927 161.899 62.2821 49.9603 114.691 144.023 169.998 55.0917 25.4584 102.457 51.753 21.1175 19.3703 50.7921
internal_count=8976 8801 6556 1678 753 4878 2245 1238 679 591 4287 1301 588 165 2986 2201 1487 1166 464 1007 785 472 301 1042 606 436 307 330 276 304 313 193 314 131 424 160 559 523 474 132 75 379 314 85 249 175 289 925 645 693 259 208 486 617 714 230 106 434 218 89 81 209
is_linear=0
shrinkage=0.05


Tree=5
num_leaves=63
num_cat=0
split_feature=189 171 86 44 206 199 33 47 164 154 199 113 126 47 37 33 31 211 72 145 157 30 209 36 214 20 172 158 195 212 119 32 151 206 114 161 158 135 216 204 43 214 199 114 169 171 127 47 164 127 154 55 195 195 35 119 199 22 34 120 151 214
split_gain=43.7536 34.8738 30.7417 46.8386 23.8268 20.8493 18.6609 17.0954 16.5194 16.4099 16.6371 15.4264 22.8967 14.8463 14.6362 15.1098 15.3336 14.8692 14.4973 18.2528 24.5914 16.3607 15.8288 21.3066 15.7498 14.708 14.1586 18.1532 14.5235 13.1325 13.6671 13.8871 13.1306 13.0291 12.6816 13.0587 12.4864 12.3577 17.2687 14.9114 12.3324 13.2769 12.1674 12.1261 12.0227 11.7132 12.3242 12.0805 11.4397 11.3672 11.2486 11.2364 11.6576 14.2037 11.1756 24.4198 13.701 12.3443 11.8659 11.1638 11.1265 11.1136
threshold=3.8262319962682008 -0.46940537557459483 1.0000000180025095e-35 -1.1057361810932298 3.67537917585586 1.8006549116657851 5.0776821428571406 -0.0033045780862485867 -28.156950407312909 -5.0965573987820729 -0.30054535808856958 2.3783246473493835 63896.600000000006 0.017802552043847512 2.0137950338693584 1.2251000000000001 29.096038085689433 -97.342052618524747 1.1036649357000823 7.2830264992257812 18.000000000000004 12.480359347973296 0.9115655360019731 2.6557527009103636 20.61648318381226 4.0045661398831713 23.900329337675853 -37.999999999999993 3.4163954948953807 -230.51894502033005 1.109735644905365 20.245566926521242 1.598147695292615 0.099236758567060171 0.10877340755085164 -9.0280193344039059 -57.999999999999993 58.514218511562319 0.55676388433882151 -1.1394054732121257 -5.0753114762565081 20.189330112354813 0.46033501159604734 -0.041170260780001793 -15.096075160763617 -0.12990263463323556 -20.695263038381363 -0.16778622106962554 -55.536019871292673 25.590928073324548 -10.969108269288908 7.6452894327107543 1.9957169153983416 1.0947134144444668 1.0809952797857967 0.83887335465625223 5.0908171295795777 14.743686334110096 2.9416736950169793 2.9304890376822672 85.173267009177636 61.000478511124506
decision_type=2 2 2 2 2 2 2 2 2 2 2 2 2 2 2 2 2 2 2 2 2 2 2 2 2 2 2 2 2 2 2 2 2 2 2 2 2 2 2 2 2 2 2 2 2 2 2 2 2 2 2 2 2 2 2 2 2 2 2 2 2 2
left_child=-1 4 3 11 7 9 14 29 -6 10 44 -3 37 32 -7 17 -17 -16 19 20 25 -22 23 -20 -21 -5 -9 28 -28 -2 31 -31 48 -29 35 -24 -18 39 -39 -13 -32 -42 -25 -14 -4 49 -47 -48 -12 50 -34 -37 53 -53 55 56 -26 -56 -57 -60 -41 -33
right_child=1 2 5 18 8 6 -8 26 -10 -11 13 12 43 -15 15 16 36 -19 22 24 21 -23 34 42 54 -27 27 33 -30 30 40 61 45 -35 -36 51 -38 38 -40 60 41 -43 -44 -45 -46 46 47 -49 -50 -51 -52 52 -54 -55 57 58 -58 -59 59 -61 -62 -63
leaf_value=-0.047146673560402447 -0.036615363902341692 0.053909049612983199 0.078777182995540471 0.048634643692897016 -0.032409205253093043 0.039308885154817952 -0.041542370174610828 -0.037990966894041092 0.054113009606749432 0.035713500465885901 0.027198789234109073 -0.03882912186404739 0.0045799756543699836 -0.031190939333204951 0.0068294540603507821 -0.031819409996824748 0.02317022001532449 -0.030131420016203888 -0.03429928387944383 0.041301182638805521 -0.057759039910916077 0.0039014089483029452 -0.030284686916602094 0.061980327708435624 -0.043582034927894114 -0.012456050431009894 -0.050550467275998268 -0.018377758671995845 0.026994680701020575 0.043702545367423386 0.054019156639009969 -0.012160253256268946 -0.031436409975600869 0.047551186830120683 -0.033452301925615394 -0.043473516517366334 -0.027032181480024037 0.06375454060498624 0.0015271655565670813 0.019350781352549053 -0.048619131820371225 0.009557922343818484 0.024045483618618944 0.073369955131264916 -0.00018215730537187442 0.047903729633844691 0.053629965385047274 -0.014420557450038597 -0.022552210504953311 0.063720311485288589 0.042212261995728084 0.019978050574262204 0.05274940106255839 -0.030909499417637116 -0.030539707245299835 0.051452674410370242 0.026672802859797302 0.004493353193072978 -0.031462337634114781 0.019835882281938638 -0.04219582025881187 -0.06026658418736152
leaf_weight=47.689693585038185 31.564592704176903 52.839682355523109 11.324647277593614 49.780615165829659 7.2834348827600506 15.641461431980131 47.787710249423981 97.701840102672577 22.742834731936455 39.61031799018383 14.217073142528532 16.957543089985847 8.2374694645404798 38.129931002855301 36.175285190343857 23.498563259840012 67.467809095978737 109.80957432091236 12.373316451907156 14.392693638801573 11.809442803263662 120.81875836849213 18.689814656972885 29.921017006039619 35.826976269483566 12.283568054437636 26.519289031624794 12.881834059953691 7.8182129859924308 10.248456582427023 13.847895964980124 132.82917791604996 9.1561416387558001 17.916475877165794 20.430685237050056 7.8153869211673728 15.171005189418791 24.538200005888939 20.432659462094307 69.981525242328644 10.828605249524115 103.94084510207176 72.008732184767723 28.819346010684967 8.3946658521890622 12.318277359008787 7.3602107912302008 57.247565537691116 61.696661576628685 18.806341126561165 11.952351212501524 78.89819347858429 20.427893936634064 16.597162023186684 104.29272194206715 18.739452198147774 8.6068496257066709 33.133253812789917 14.921992078423498 36.667395502328873 8.2041397839784604 13.198695480823515
leaf_count=212 134 217 47 208 31 66 204 417 95 165 60 71 34 162 153 100 286 469 52 60 51 506 78 124 152 51 113 55 33 43 58 566 39 75 86 33 65 100 84 290 46 438 300 118 35 52 31 242 262 79 50 329 85 70 441 78 36 139 63 153 34 57
internal_value=0.000206643 0.00129051 0.00496996 0.010496 -0.010082 -0.00386466 -0.0127605 -0.0127888 0.0331254 0.00580786 0.00108099 0.0301983 0.0231268 -0.002684 -0.00762383 -0.0105355 0.00381984 -0.0209725 0.0043591 -0.00107146 0.010567 -0.00158894 0.013397 0.0276598 -0.00957139 0.0365437 -0.0259528 -0.00789584 -0.0328944 -0.00601504 -0.0026247 -0.0125598 0.00295513 0.0199755 0.00338667 0.00867105 0.013954 0.0138829 0.0354813 0.00367415 0.00944688 0.00406886 0.0351811 0.0580784 0.0451636 0.0134741 0.00207053 -0.00666814 -0.0132349 0.0354516 0.010266 0.014555 0.0184672 0.0111338 -0.0124747 -0.000956752 -0.0299736 -0.0220933 0.0173761 0.00499811 0.0128926 -0.0165083
internal_weight=2131.22 2083.53 1574.21 968.446 509.322 605.766 315.551 479.296 30.0263 290.214 250.604 230.011 177.171 230.885 267.764 252.122 106.137 145.985 738.436 461.274 194.692 132.628 277.162 114.303 266.581 62.0642 162.838 65.1358 34.3375 316.458 284.894 156.276 192.755 30.7983 162.859 142.428 82.6388 140.114 44.9709 95.1432 128.617 114.769 101.93 37.0568 19.7193 116.841 76.9261 64.6078 75.9137 39.9148 21.1085 123.739 115.923 95.4954 252.189 114.763 44.4338 137.426 70.3288 51.5894 78.1857 146.028
internal_count=8983 8771 6610 4043 2161 2567 1343 2035 126 1224 1059 948 731 977 1139 1073 451 622 3095 1938 816 557 1157 476 1122 259 693 276 146 1342 1208 666 815 130 681 595 351 579 184 395 542 484 424 152 82 493 325 273 322 168 89 517 484 399 1062 482 188 580 294 216 324 623
is_linear=0
shrinkage=0.05


Tree=6
num_leaves=63
num_cat=0
split_feature=57 206 22 145 119 221 198 162 162 70 116 33 84 114 221 209 57 35 111 145 34 193 177 150 146 49 162 148 69 195 199 23 45 150 160 44 160 9 119 91 61 178 221 194 200 187 153 114 33 221 220 35 209 61 84 43 119 209 198 195 198 64
split_gain=40.0914 31.6345 26.0081 24.6843 24.3698 27.1967 31.8634 21.8958 20.5625 24.1668 20.1264 16.8903 15.7634 15.6925 15.2873 14.5201 25.2377 20.1643 16.0738 15.2817 14.5666 14.3946 14.0992 14.0247 20.051 26.8171 17.7117 15.6288 15.6268 14.8545 16.1498 19.8263 13.8446 17.0155 13.7283 13.5746 12.8523 15.0725 19.7783 14.4352 12.7977 14.6119 12.2845 20.1638 12.2481 13.7318 13.6818 12.2365 12.0626 11.962 11.8211 11.7709 11.6744 11.678 11.5358 22.4509 11.3649 15.8712 11.3475 18.3731 15.4209 13.1134
threshold=3.8262319985396598 1.7431410692624867 -26.178386735124445 6.3723647735751285 1.0661809786707976 -0.70649449948163401 0.5671766930512524 -7.764568050770932 -8.0222460168016312 999744.50000000012 79.932122094451358 0.38195000000000018 91.43340000000002 0.10877340755085164 -0.61099536132586196 0.93462772108836412 15.810292437337631 1.1846394652552554 -2.1831932839016961 9.4092897746458899 3.4580595825067353 -14.459472436493215 -14.818764278457619 39.906491667850524 -5.0636041737049657 21.540262388943344 0.050136156259683311 -1.0000000180025095e-35 -551793.99999999988 0.91940124516983024 13.029583498116924 10.474518582866324 0.0865273283610591 99.999999999999901 14.241835714285711 -1.3337600151565314 -5.6799892857142877 40.028625000000012 1.4244966016815668 0.15979381443298971 155112.60000000001 25.1122149736231 -0.42728373801283409 -0.69282550390973741 -0.46878385467444222 26.632897440762452 -2.4055044393655387 -0.017015104604900962 0.22540357142857145 -0.033822798417987743 0.31265265558473576 0.87617525569057864 0.81998578628763219 554258.60000000009 73.850000000000009 -1.0160496074693979 0.84284704471674121 0.59100067368912101 1.119712476155551 7.1233356239478303 0.400827612447132 0.76757725619869377
decision_type=2 2 2 2 2 2 2 2 2 2 2 2 2 2 2 2 2 2 2 2 2 2 2 2 2 2 2 2 2 2 2 2 2 2 2 2 2 2 2 2 2 2 2 2 2 2 2 2 2 2 2 2 2 2 2 2 2 2 2 2 2 2
left_child=-1 2 8 7 14 12 13 10 35 42 -3 -9 -6 15 54 16 17 32 -17 -20 -19 -11 -18 24 50 40 28 49 44 48 31 47 33 -7 -8 -2 39 38 -38 -14 -26 -42 43 -10 -25 46 -46 -31 -27 -28 -16 -29 53 -53 55 -4 -5 -58 60 -60 61 -59
right_child=1 3 4 56 5 6 34 11 9 21 -12 -13 36 -15 23 18 22 20 19 -21 -22 -23 -24 26 25 29 27 51 -30 30 -32 -33 -34 -35 -36 -37 37 -39 -40 -41 41 -43 -44 -45 45 -47 -48 -49 -50 -51 -52 52 -54 -55 -56 -57 57 58 59 -61 -62 -63
leaf_value=-0.0454888411232722 0.01702701307326672 -0.076727284424068509 0.039302956197153217 -0.014801655001328637 -0.037040175127384611 0.034507516338501208 -0.031480480418245103 -0.018996404307721385 0.074190028829307891 0.020869359564059227 0.029875788492448086 0.048212239902429871 0.019258785603876203 -0.023621200372566993 -0.020721275900746582 0.071975823146109105 0.084099777534663203 -0.056879396151798933 0.014850179108755704 -0.0072086612780064511 0.020528298822193401 -0.04410462396206391 0.034375589378339094 -0.045443841452640195 -0.01180322054467515 -0.04174169625939593 -0.010298514634115293 0.024871182338562697 -0.039385268674921793 0.015100375123773192 0.050526607783185268 -0.060925875928433737 0.081239173997146377 -0.043612896332959526 0.035514454591593268 -0.019335251390706382 0.050522690037261876 0.077566042769142973 -0.050249478177984808 -0.062170095292132278 0.028543823004663238 0.088688294701712689 0.079420583645834278 -0.0095406029023829188 0.0049006162702184136 -0.035119584196399684 0.081404604908186989 -0.038691278025713663 0.011224543319359299 0.053824411070836603 0.019600253472513148 0.049599461761725798 -0.052837327256098889 -0.028496818832331152 -0.050212372343567971 -0.042969939048877775 0.080979529262889718 0.044089957368624907 0.069919897411554036 -0.0067381962646360294 -0.017753537364970106 0.0044793064710914659
leaf_weight=46.974719673395157 53.112227573990822 8.0953884869813937 13.650533318519591 54.519597306847572 60.673376947641373 24.421743705868721 65.068786725401878 10.386074051260946 14.138269633054735 33.320320948958397 9.7723426669836027 93.543821334838867 9.4513294547796267 29.85105399787426 153.28512622416019 9.5925277918577176 19.874896436929703 16.663141310215 203.06649611890316 128.00609247386456 9.5669081062078458 11.454840555787085 50.425923272967339 17.282731801271439 11.359884351491926 11.659914091229437 11.661086544394495 14.318573117256163 98.926678285002708 26.382468536496162 7.39369212090969 26.921125799417496 9.2242891490459424 9.7544545382261258 8.6649561524391157 49.668668299913406 9.4594642221927696 8.7744749635457975 10.033865258097647 12.831898882985113 32.326978862285614 14.686147198081015 25.20191216468811 14.631176084280012 30.840643867850304 16.584979251027107 7.2103668451309195 17.641774564981461 137.64625786244869 19.328127473592758 20.622645184397697 7.4361861050128946 22.063924506306648 13.435714766383171 39.29312926530838 21.123558297753334 7.755322352051734 27.167796015739441 17.513514786958698 14.116812691092489 58.679727017879486 90.486715704202652
leaf_count=212 221 34 57 231 257 103 276 44 58 139 41 387 39 126 653 40 82 71 852 541 40 48 209 74 48 50 49 60 425 112 31 116 38 42 36 210 40 37 43 56 136 61 103 61 130 71 30 75 579 80 87 31 93 56 169 90 32 113 73 60 247 378
internal_value=0.000190375 0.00122098 -0.00174742 0.0140173 -0.00402973 0.00280251 0.00711706 0.0327057 0.0151097 0.0314041 -0.0184232 0.0414958 -0.0198587 0.0115552 -0.0100205 0.0137401 0.0273004 0.0059642 0.00817005 0.00632134 -0.0286464 0.00424705 0.0484332 -0.00779248 -0.00255131 0.0055893 -0.0170964 0.00109368 -0.0264918 -0.00216346 -0.0197962 -0.027125 0.0268819 0.0122107 -0.0236074 -0.000544981 0.000763251 0.0231473 -0.0013481 -0.0276324 0.0358238 0.047332 0.0539338 0.0316074 -0.0087565 0.00284863 0.0193975 -0.00645548 0.0070882 0.0296953 -0.0159398 -0.0143871 -0.0274792 -0.000672881 -0.0316493 -0.0106738 0.00559443 0.0107492 0.0081302 0.0357069 0.00318357 0.0136259
internal_weight=2129.03 2082.05 1690.02 392.037 1488.49 695.406 584.181 121.798 201.527 98.7465 17.8677 103.93 111.224 510.448 793.082 480.596 139.931 69.6305 340.665 331.073 26.23 44.7752 70.3008 719.015 459.926 286.018 259.089 88.2436 170.845 227.645 78.3391 70.9454 43.4005 34.1762 73.7337 102.781 50.551 28.2678 19.4933 22.2832 58.373 47.0131 53.9714 28.7694 71.9187 54.636 38.051 44.0242 149.306 30.9892 173.908 57.2544 42.9358 20.8719 74.0672 34.7741 270.239 215.72 207.965 31.6303 176.334 117.655
internal_count=8983 8771 7131 1640 6291 2928 2456 506 840 409 75 431 472 2144 3363 2018 585 294 1433 1393 111 187 291 3047 1948 1208 1099 369 730 963 334 303 183 145 312 431 215 120 83 95 245 197 222 119 305 231 160 187 629 129 740 240 180 87 316 147 1134 903 871 133 738 491
is_linear=0
shrinkage=0.05


Tree=7
num_leaves=63
num_cat=0
split_feature=57 91 44 201 206 84 55 35 45 73 37 117 209 26 141 156 117 167 142 73 203 151 117 224 135 3 9 199 209 9 135 199 63 91 179 73 72 209 37 114 30 35 221 111 145 213 55 72 33 37 216 186 31 198 9 199 63 156 220 198 62 141
split_gain=36.7503 28.9205 37.1671 23.6011 20.6019 20.287 19.1249 18.1399 16.6867 17.2217 16.5138 31.3836 23.2524 19.2712 21.3963 19.0413 20.1832 18.1883 16.4604 16.4357 15.9968 16.1577 15.4623 19.4128 15.3043 14.9985 24.4297 14.8824 14.6615 14.8068 16.4905 14.1602 14.0691 13.9489 13.9441 13.854 18.8196 13.689 15.8718 15.7849 13.2601 19.3092 14.3563 14.6478 13.1458 13.0961 14.1126 13.6816 13.0593 13.0433 12.7873 12.7822 15.9644 15.696 12.3233 12.2318 13.4703 12.1011 12.0629 12.9896 11.9874 11.8478
threshold=3.8262319985396598 0.14948453608247425 -1.2250456718215623 1.0845712064877808 1.7431410692624867 106.96850000000002 34.710316623931114 1.5225236001922871 -0.069005358213206469 3.6749494586513367 4.8922812391471071 48.974402837553193 0.93712659904279672 1.1052966109725499 0.16718190518736026 78.000000000000014 35.777364939448326 13.213562260108661 -1.1452099060168248 1.7290766118195531 52.500000000000007 3.8487731520338762e-14 56.593082774660431 -3.2009594783744455 41.363272545019612 16.035000000000004 17.668354166666671 3.8213429507412884 1.043044932884865 49.320500000000003 58.514218511562319 14.484199519546356 634270.47500000021 0.81958762886597947 41.783428828857687 0.73869372318607585 1.1276802377221771 1.2996115037596183 3.8112084538024003 0.051005775773641189 25.737100214093854 0.85657675920900489 -0.13364292567342326 0.5855287324023396 13.849982519279836 -258.61620336649082 8.7707967820406818 0.28056712988891302 2.0385428571428572 4.2808709165476744 0.092843586159235145 13.817547158755426 34.762788343405624 -0.45689815350688567 7.8369166666666681 7.2842152582776754 681992.62708333344 34.000000000000007 0.011536744173096851 0.19057725542353118 795075.94500000018 0.25279528084719849
decision_type=2 2 2 2 2 2 2 2 2 2 2 2 2 2 2 2 2 2 2 2 2 2 2 2 2 2 2 2 2 2 2 2 2 2 2 2 2 2 2 2 2 2 2 2 2 2 2 2 2 2 2 2 2 2 2 2 2 2 2 2 2 2
left_child=-1 2 6 -3 10 40 22 20 9 -7 11 13 17 15 -15 16 18 -12 24 -17 21 57 -2 -24 34 -6 -27 49 29 -23 51 -13 50 -10 58 44 -37 38 -34 -40 42 -42 -5 -44 -19 -43 -47 -48 -39 54 -28 53 -53 -31 -18 -29 -57 -8 -4 -60 -26 -16
right_child=1 3 4 5 25 8 7 -9 33 -11 12 31 -14 14 61 19 27 35 -20 -21 -22 28 23 -25 60 26 32 55 -30 30 -32 -33 37 -35 -36 36 -38 48 39 -41 41 45 43 -45 -46 46 47 -49 -50 -51 -52 52 -54 -55 -56 56 -58 -59 59 -61 -62 -63
leaf_value=-0.043907198120904628 0.087995184248498837 0.064367304842562006 0.008708186083853096 -0.0053676052263882876 -0.0018536181759026466 -0.042438229217589718 0.049365801742543118 0.064133305757092057 0.016824669106053187 0.037535611889814621 0.060415999149427468 -0.051244913897827565 -0.0062744285387401569 -0.02986486670881407 0.028500763818957393 0.039697516126275777 -0.013198375533597298 0.036473519935003605 -0.037588295671020386 -0.04064416965450577 0.052443996169146037 -0.036092662138787056 0.058728476125146367 -0.019189356519760756 -0.048811967359229193 0.075589383177837727 0.050827364934104995 -0.060052268645599483 -0.010740349922961977 0.08658247688295638 0.068683530587192398 0.013802087483830536 0.015262137356521564 -0.045569027253554335 -0.017046415645100045 -0.001061271769058706 0.046384374041123687 -0.05373759111003306 0.084897168017523825 0.0077378466430751552 -0.034031626611356121 -0.039690189397806434 0.058225884403469569 0.00093764273881757367 -0.03013222433497402 -0.052633699469752042 0.031138099706103851 -0.0023858546254055999 0.030002773227732218 -0.0047535886346858104 -0.010622023904849591 0.053060483312075482 -0.0302799598567376 -0.0077172131201057696 0.057040856681209312 0.061300653010811293 -0.030598241653919084 -0.014619616578943541 0.012480312075356291 0.10473327668521615 -0.0034097984426452732 -0.013472275552737577
leaf_weight=46.2521001547575 16.408349394798279 10.762786135077475 77.691462725400925 58.000845968723297 111.68463541567326 97.444646999239922 33.024000942707062 17.248580798506737 32.377684697508812 7.2311778068542472 24.474432155489922 53.088334143161774 165.71072901785374 118.30421249568462 30.46071545779705 49.357242584228516 7.4723865389823905 10.159468591213225 43.051141306757927 7.3082544505596152 21.412435173988342 10.903420388698576 20.840067327022552 12.968171387910841 27.66360630095005 18.716608181595802 9.8900590538978559 9.215542212128641 110.30123873054981 10.020194977521898 17.30122035741806 9.9319824725389463 34.566417694091797 12.383872821927069 45.660942420363426 38.875429973006248 45.203089162707329 8.783142492175104 24.080030336976051 9.1458971947431547 63.82401767373085 21.219712510704994 24.618565231561661 20.406990379095078 27.353523850440979 11.173117756843565 39.58608415722847 131.64776059985161 9.9075718820095044 18.03089202940464 58.799862086772919 7.7881943732500103 21.916126638650894 7.8853133767843238 38.007101207971573 7.4697713851928738 8.5534067749977094 9.5192468762397748 7.8515505045652372 7.4232959002256393 30.641662269830704 37.523494571447372
leaf_count=212 67 44 328 245 469 422 136 70 137 31 101 227 699 510 127 206 32 42 186 31 88 45 85 54 119 77 41 39 459 41 70 42 143 54 195 163 188 37 99 38 275 91 103 86 115 48 168 561 41 76 246 32 91 33 159 31 36 40 33 31 130 158
internal_value=0.000174655 0.00115476 0.00460476 -0.00891936 0.000673588 -0.0104365 0.0198579 0.0145395 -0.0259877 -0.0369135 -0.00287791 -0.00750675 0.00654538 -0.00381531 -0.0170194 0.00256708 -0.00204717 0.0210894 -0.00958133 0.0293357 0.0111188 0.00724895 0.0481695 0.0288407 -0.00345877 0.0124444 0.0216276 0.0183257 0.000894326 0.0178214 0.0268776 -0.0409935 0.0151188 -0.000437367 0.00558081 0.0131735 0.0244469 0.0285365 0.0389816 0.063658 -0.00416366 -0.0100347 0.0110772 0.0322611 -0.0120937 -0.0025132 0.00181167 0.00536426 -0.00934851 0.031233 -0.00177447 0.0116855 -0.00842888 0.0450543 0.0455004 -0.0141541 0.0122437 0.0350488 0.0166943 0.0573136 -0.0249514 0.00533399
internal_weight=2126.52 2080.27 1549.59 530.677 1232.06 519.914 317.537 267.32 149.437 104.676 946.484 634.707 311.777 571.687 186.288 385.398 328.733 146.066 239.984 56.6655 250.071 228.659 50.2166 33.8082 196.933 285.574 173.89 88.7491 186.116 75.8145 64.911 63.0203 155.173 44.7616 138.627 121.592 84.0785 86.4831 67.7923 33.2259 370.477 267.451 103.026 45.0256 37.513 203.627 182.407 171.234 18.6907 63.5104 68.6899 47.6098 29.7043 17.9055 45.4795 25.2387 16.0232 42.5432 92.9663 15.2748 58.3053 67.9842
internal_count=8983 8771 6506 2265 5195 2221 1311 1105 644 453 4004 2696 1308 2427 795 1632 1395 609 1022 237 1035 947 206 139 836 1191 722 373 771 312 267 269 645 191 587 508 351 358 280 137 1577 1143 434 189 157 868 777 729 78 267 287 197 123 74 191 106 67 176 392 64 249 285
is_linear=0
shrinkage=0.05


end of trees

feature_importances:
a158_gap_sum_5=14
atr_14=13
a158_return_kurt_60=13
a158_vol_ma5_ma20_ratio=13
fund_industry_hash=12
volatility_5d=11
a158_corr_close_vol_20=10
adv_tv_supertrend_dist=9
adv_tv_hull_slope=9
a158_return_kurt_20=9
a158_return_skew_60=9
ma_120=8
volatility_60d=8
volatility_change=8
macd_signal=8
adv_momentum_acceleration=8
adv_vol_ratio=8
a158_vol_skew_20=8
intraday_range_ma=7
upper_shadow_pct=7
adv_rs_5_20=7
adv_volatility_10=7
adv_tv_ht_dcperiod=7
a158_chaikin_vol=7
macd_hist_trend=6
volume_ma_5=6
obv_ma=6
lower_shadow_pct=6
adv_obv_slope_10=6
adv_adx_14=6
adv_tv_aroon_osc=6
return_60d=5
bb_upper=5
bb_width=5
volume_ma_60=5
blue_weekly=5
adv_volatility_60=5
adv_tv_stochrsi_d=5
adv_tv_squeeze_mom=5
a158_kdj_d_14=5
a158_bband_width_20=5
a158_price_efficiency_5=5
a158_corr_ret_vol_10=5
a158_corr_ret_vol_20=5
return_5d=4
return_20d=4
volatility_20d=4
atr_14_pct=4
adv_price_position_60=4
adv_ma_distance_10=4
adv_tv_ht_sine=4
a158_bband_upper_dist_20=4
a158_return_skew_20=4
a158_mfi_14=4
a158_high_low_ratio_5=4
Volume=3
ma_60=3
macd=3
kdj_d=3
adv_true_range_pct=3
adv_momentum_volatility=3
adv_tv_trix=3
adv_tv_minus_di=3
a158_rsi_24=3
a158_return_mean_60=3
a158_gap=3
a158_corr_close_vol_10=3
Close=2
ma_5_bias=2
return_1d=2
return_10d=2
momentum_60=2
macd_hist=2
blue_daily=2
fund_market_cap=2
adv_vol_deviation=2
adv_volume_momentum=2
adv_ma_distance_60=2
adv_ma_slope_10=2
adv_trend_strength_direction=2
adv_tv_ichimoku_tenkan=2
adv_tv_ichimoku_cloud=2
adv_tv_stochrsi_k=2
adv_tv_kama_dist=2
adv_tv_aroon_up=2
adv_tv_aroon_down=2
adv_tv_cmo=2
adv_tv_bop=2
adv_tv_plus_di=2
adv_tv_di_spread=2
a158_vwap_bias=2
a158_return_std_60=2
a158_up_ratio_20=2
a158_cci_14=2
a158_cci_20=2
ma_10=1
momentum_20=1
momentum_accel=1
intraday_range=1
bb_lower=1
bb_position=1
volume_ma_20=1
volume_ratio=1
volume_change=1
obv=1
fund_market_cap_log=1
adv_price_position_20=1
adv_volatility_20=1
adv_relative_volume_5=1
adv_ma_slope_20=1
adv_trend_volume_interaction=1
adv_tv_ichimoku_kijun=1
adv_tv_sar_dist=1
adv_tv_hull_dist=1
adv_tv_ultosc=1
adv_tv_ht_trendmode=1
a158_bias_5=1
a158_bias_60=1
a158_rsi_12=1
a158_kdj_j_9=1
a158_kdj_k_14=1
a158_kdj_j_14=1
a158_return_mean_20=1
a158_gap_abs=1
a158_willr_28=1
a158_high_low_ratio_20=1
a158_price_efficiency_20=1
a158_strong_day_ratio_10=1

parameters:
[boosting: gbdt]
[objective: binary]
[metric: binary_logloss]
[tree_learner: serial]
[device_type: cpu]
[data_sample_strategy: bagging]
[data: ]
[valid: ]
[num_iterations: 500]
[learning_rate: 0.05]
[num_leaves: 63]
[num_threads: 0]
[seed: 42]
[deterministic: 0]
[force_col_wise: 0]
[force_row_wise: 0]
[histogram_pool_size: -1]
[max_depth: -1]
[min_data_in_leaf: 30]
[min_sum_hessian_in_leaf: 0.001]
[bagging_fraction: 0.8]
[pos_bagging_fraction: 1]
[neg_bagging_fraction: 1]
[bagging_freq: 5]
[bagging_seed: 400]
[bagging_by_query: 0]
[feature_fraction: 0.7]
[feature_fraction_bynode: 1]
[feature_fraction_seed: 30056]
[extra_trees: 0]
[extra_seed: 12879]
[early_stopping_round: 0]
[early_stopping_min_delta: 0]
[first_metric_only: 0]
[max_delta_step: 0]
[lambda_l1: 0]
[lambda_l2: 0]
[linear_lambda: 0]
[min_gain_to_split: 0]
[drop_rate: 0.1]
[max_drop: 50]
[skip_drop: 0.5]
[xgboost_dart_mode: 0]
[uniform_drop: 0]
[drop_seed: 17869]
[top_rate: 0.2]
[other_rate: 0.1]
[min_data_per_group: 100]
[max_cat_threshold: 32]
[cat_l2: 10]
[cat_smooth: 10]
[max_cat_to_onehot: 4]
[top_k: 20]
[monotone_constraints: ]
[monotone_constraints_method: basic]
[monotone_penalty: 0]
[feature_contri: ]
[forcedsplits_filename: ]
[refit_decay_rate: 0.9]
[cegb_tradeoff: 1]
[cegb_penalty_split: 0]
[cegb_penalty_feature_lazy: ]
[cegb_penalty_feature_coupled: ]
[path_smooth: 0]
[interaction_constraints: ]
[verbosity: -1]
[saved_feature_importance_type: 0]
[use_quantized_grad: 0]
[num_grad_quant_bins: 4]
[quant_train_renew_leaf: 0]
[stochastic_rounding: 1]
[linear_tree: 0]
[max_bin: 255]
[max_bin_by_feature: ]
[min_data_in_bin: 3]
[bin_construct_sample_cnt: 200000]
[data_random_seed: 175]
[is_enable_sparse: 1]
[enable_bundle: 1]
[use_missing: 1]
[zero_as_missing: 0]
[feature_pre_filter: 1]
[pre_partition: 0]
[two_round: 0]
[header: 0]
[label_column: ]
[weight_column: ]
[group_column: ]
[ignore_column: ]
[categorical_feature: ]
[forcedbins_filename: ]
[precise_float_parser: 0]
[parser_config_file: ]
[objective_seed: 16083]
[num_class: 1]
[is_unbalance: 0]
[scale_pos_weight: 1]
[sigmoid: 1]
[boost_from_average: 1]
[reg_sqrt: 0]
[alpha: 0.9]
[fair_c: 1]
[poisson_max_delta_step: 0.7]
[tweedie_variance_power: 1.5]
[lambdarank_truncation_level: 30]
[lambdarank_norm: 1]
[label_gain: ]
[lambdarank_position_bias_regularization: 0]
[eval_at: ]
[multi_error_top_k: 1]
[auc_mu_weights: ]
[num_machines: 1]
[local_listen_port: 12400]
[time_out: 120]
[machine_list_filename: ]
[machines: ]
[gpu_platform_id: -1]
[gpu_device_id: -1]
[gpu_use_dp: 0]
[num_gpu: 1]

end of parameters

pandas_categorical:null
