tree
version=v4
num_class=1
num_tree_per_iteration=1
label_index=0
max_feature_idx=224
objective=regression
feature_names=Open High Low Close Volume ma_5 ma_10 ma_20 ma_60 ma_120 ma_250 ma_5_bias ma_20_bias ma_60_bias ema_12 ema_26 ma_bullish ma_5_10_cross ma_10_20_cross return_1d return_5d return_10d return_20d return_60d momentum_10 momentum_20 momentum_60 roc_10 roc_20 momentum_accel volatility_5d volatility_20d volatility_60d atr_14 atr_14_pct volatility_change intraday_range intraday_range_ma rsi_6 rsi_14 rsi_overbought rsi_oversold rsi_divergence macd macd_signal macd_hist macd_cross macd_hist_trend kdj_k kdj_d kdj_j kdj_cross kdj_overbought kdj_oversold bb_middle bb_upper bb_lower bb_width bb_position bb_breakout_upper bb_breakout_lower volume_ma_5 volume_ma_20 volume_ma_60 volume_ratio volume_change volume_surge volume_shrink volume_price_confirm obv obv_ma body_size upper_shadow_pct lower_shadow_pct is_doji is_hammer is_inv_hammer consecutive_up consecutive_down near_high_20 near_low_20 near_high_60 near_low_60 blue_daily blue_weekly blue_monthly fund_market_cap fund_market_cap_log fund_cap_small fund_cap_mid fund_cap_large fund_industry_hash fund_has_market_cap fund_pe_ttm fund_pe_fwd fund_pb fund_ps fund_ev_ebitda fund_dividend_yield fund_beta fund_roe fund_roa fund_profit_margin fund_current_ratio fund_quick_ratio fund_debt_to_equity fund_revenue_growth fund_earnings_growth fund_target_upside fund_has_external adv_roc_5 adv_rs_5_20 adv_price_position_20 adv_price_position_60 adv_momentum_acceleration adv_volatility_10 adv_volatility_20 adv_volatility_60 adv_atr_pct adv_vol_ratio adv_true_range_pct adv_upper_wick adv_lower_wick adv_relative_volume_5 adv_relative_volume_20 adv_vol_price_up adv_obv_slope_10 adv_vol_deviation adv_volume_momentum adv_ma_distance_10 adv_ma_distance_20 adv_ma_distance_60 adv_ma_slope_10 adv_ma_slope_20 adv_ma_alignment adv_adx_14 adv_trend_consistency adv_body_direction adv_shadow_ratio adv_above_20d_high adv_below_20d_low adv_momentum_volatility adv_trend_volume_interaction adv_trend_strength_direction adv_tv_supertrend_dir adv_tv_supertrend_dist adv_tv_ichimoku_tenkan adv_tv_ichimoku_kijun adv_tv_ichimoku_cloud adv_tv_ichimoku_above_cloud adv_tv_stochrsi_k adv_tv_stochrsi_d adv_tv_sar_dir adv_tv_sar_dist adv_tv_kama_dist adv_tv_kama_slope adv_tv_aroon_up adv_tv_aroon_down adv_tv_aroon_osc adv_tv_squeeze_on adv_tv_squeeze_mom adv_tv_hull_dist adv_tv_hull_slope adv_tv_trix adv_tv_cmo adv_tv_ultosc adv_tv_bop adv_tv_plus_di adv_tv_minus_di adv_tv_di_spread adv_tv_ht_trendmode adv_tv_ht_sine adv_tv_ht_dcperiod adv_tv_willr a158_bias_5 a158_bias_10 a158_bias_20 a158_bias_60 a158_rsi_12 a158_rsi_24 a158_macd_dif a158_macd_dea a158_macd_dif_pct a158_kdj_k_9 a158_kdj_d_9 a158_kdj_j_9 a158_kdj_k_14 a158_kdj_d_14 a158_kdj_j_14 a158_bband_width_20 a158_bband_pctb_20 a158_bband_upper_dist_20 a158_bband_lower_dist_20 a158_vwap_bias a158_return_skew_20 a158_return_kurt_20 a158_return_mean_20 a158_return_std_20 a158_return_skew_60 a158_return_kurt_60 a158_return_mean_60 a158_return_std_60 a158_vol_skew_20 a158_up_ratio_20 a158_gap a158_gap_abs a158_gap_sum_5 a158_turnover_chg_5 a158_turnover_chg_20 a158_vol_ma5_ma20_ratio a158_willr_14 a158_willr_28 a158_cci_14 a158_cci_20 a158_mfi_14 a158_high_low_ratio_5 a158_price_efficiency_5 a158_high_low_ratio_20 a158_price_efficiency_20 a158_corr_close_vol_10 a158_corr_ret_vol_10 a158_corr_close_vol_20 a158_corr_ret_vol_20 a158_strong_day_ratio_10 a158_chaikin_vol
feature_infos=[0.14000000000000001:7250] [0.14380000000000001:7252.8599999999997] [0.1229:7022] [0.13500000000000001:7239.7299999999996] [103:1000000] [0.17438000000000001:7291.9560000000001] [0.1885:7331.7610000000004] [0.273285:7410.2035000000005] [0:7412.644166666666] [0:7714.1047500000004] none [-65.757587267823908:345.36913624394526] [-85.515330199119944:937.32868933141538] [-85.048260891234406:1269.8372377457899] [0.21840181346095061:7345.7886757006163] [0.39461193026318381:7390.8481216600476] [0:1] [-2:2] [-2:2] [-54.916985951468703:3959.2592592592596] [-85.040128410914932:3628.8676236044657] [-90.021956574774336:3705.4226475279111] [-84.571859675594112:3618.8279301745638] [-92.910943730615855:1580.9919684373679] [0.099780434252256633:38.054226475279108] [0.15428140324405884:37.188279301745638] [0:16.809919684373678] [-90.021956574774336:3705.4226475279111] [-84.571859675594112:3618.8279301745638] [-2.9977099249299748:27.475557588916619] [0:28178.774955339326] [0.94957309375218757:14085.983063838614] [0:8127.4176572161305] [0.0071428571428569908:241.34821428571428] [0.066943365912436645:149.71873908487598] [0:1.7607653494003681] [0:138.65779256794229] [0.046781443681832638:47.807791100008679] [0:99.999999997888807] [0.34178686154946547:99.999998000000033] [0:1] [0:1] [0:1] [-301.10955382422344:47.66713151708052] [-261.64406382299461:40.828060457628212] [-90.225849833225212:27.40825238038083] [-2:2] [-24.475389936327375:9.1504521050284779] [1.6030178238920814:97.229378995975395] [2.9534680426253086:95.44484445276575] [-24.863597146993854:120.87790743939433] [-2:2] [0:1] [0:1] [0.273285:7410.2035000000005] [0.51441367440081598:7623.0913363710515] [-272.39158002830584:7197.3156636289496] [0.2565446393965754:936.42217135798126] [-0.5291988968433512:1.5616612870328224] [0:1] [0:1] [377.87914000000001:1000000] [670.25:1000000] [0:1000000] [0.00037803834522958383:4.8963515754560527] [-0.99979074225402664:593.31871985971065] [0:1] [0:1] [0:1] [-1000000:1000000] [-1000000:1000000] [0:138.4359400998336] [0:24.197530864197525] [0:28.507417336907952] [0:1] [0:1] [0:1] [0:13] [0:13] [0:1] [0:1] [0:1] [0:1] [0:200] [0:200] [0:200] [0:1000000] [0:29.004515937003195] [0:1] [0:1] [0:1] [0:0.98969072164948457] [0:1] none none none none none none none none none none none none none none none none none [-85.040128410914932:3628.8676236044657] [-1994.0758293887798:133.63591394677272] [0:99.964041711614527] [0:99.978545376528643] [-36.268145868208904:36.377339026742334] [0.62700539563618407:19899.52459335751] [0.94957309375218757:14085.983063838614] [0:8127.4176572161305] [0.066943365912436645:149.71873908487598] [0:2.4595894711978992] [0:138.65779256794229] [0:24.197530864197525] [0:28.507417336907952] [0.00037803834522958383:4.8963515754560527] [0.00083059575238182421:15.894512499271228] [0:1] [-1000000:1000000] [-99.916637287625903:1489.4577279116922] [-99.957654818773449:339934.80392156861] [-79.666637577450032:664.26369886894554] [-85.515330199119944:937.32868933141538] [-85.048260891234406:1269.8372377457899] [-50.544141848489673:1247.4065620542081] [-53.493719422256333:636.87773274647384] [-1:1] [5.3687103818070039:93.723294238638474] [0:100] [-1:1] [0:0.9999577452885996] [0:1] [0:1] [-0.79541177440896726:0.83172788698023903] [-861.53545265948605:629.60882440367311] [-90.575385997666913:93.723294238638474] [-1:1] [-137.63661182742987:498.33440560064827] [-444.31540287980999:43.990590210444317] [-1053.3581894213225:45.117351177604903] [-1:1] [-1:1] [0:100.00000000000001] [-1.0421293457814802e-13:100.00000000000011] [-1:1] [-589.35386385339348:97.757299091683763] [-944.46843961182003:78.227956554182128] [-51.919140365010072:96.283235255201177] [0:100] [0:100] [-100:100] [0:1] [-617.22660714285723:144.66771999999995] [-240.68352636035985:86.836375327360315] [-267.98718162757143:94.29188012226129] [-5.4757880023151184:26.083694655863443] [-82.516420738529249:94.415091927244831] [7.5790429164302981:85.637393482764921] [-1:1] [2.993454544234539:92.022571046020772] [0.039851146832699073:71.937536744204948] [-64.291080471648144:89.649903183768984] [0:1] [-0.99999995233648808:0.99999832466266303] [0:45.237878381619019] [-99.999999999999986:0] [-65.757587255335281:345.36913343707022] [-79.666637560069233:664.26368960484638] [-85.515330183977383:937.32867158838746] [-85.048259949294106:1269.8372218165746] [0:99.999998268398301] [3.372725897281839:95.451166882553053] [-301.10955382422344:47.66713151708052] [-261.64406382299461:40.828060457628212] [-158.13104443814646:27.862160012783573] [1.6030178223764444:97.229378902093913] [2.9534680387870438:95.44481398763547] [-24.863596793594354:120.87790708804037] [1.1476577148489426:97.539702780230485] [1.7788191906555924:97.376041699953376] [-25.638744173644938:122.01446472746625] [0.25654463914611692:936.42216485154779] [-0.52919889593887348:1.5616612835489836] [-47.305539948258549:1284.5829150533555] [-83.370539648876033:292.09561353956013] [-81.942836941795946:2077.4409158143917] [-4.4063239353614057:4.4716269593058646] [-1.6058762393058279:19.99681451144599] [-6.9543672475778422:198.26523372612647] [0.059817482327297847:887.33352759011018] [-7.4840094300158171:7.7439584571747506] [-0.88932650539057578:59.978926396282191] [-2.5922108667077146:64.045161911930506] [0.080621820352510282:511.97918862259718] [-0.94849510089312783:0.99001466553334361] [5:90] [-53.852703255064824:3951.8515591221067] [0:3951.8515591221067] [-57.009429793941713:3928.1448442649912] [-0.99962196165477046:3.8963515754560527] [-0.99916940424761813:14.894512499271228] [0.0040268887556828888:3.6445460036239181] [-99.999999985307085:0] [-99.999999993964977:0] [-466.66629359584653:466.66642445619391] [-607.2376114286119:666.66618338007709] [0:100] [0.18850131933223491:4913.1810404246517] [0:0.9999999999539021] [0.46948347373756416:4913.1810404246517] [0:0.97158281915977107] [-0.9949058324656691:0.99277192917363322] [-0.99484076600949167:0.99831926413229422] [-0.97033613542970043:0.97760916255053554] [-0.98687160602119195:0.99207446764131335] [0:80] [-75.005926789640455:3698.7487551547256]
tree_sizes=5437

Tree=0
num_leaves=63
num_cat=0
split_feature=221 86 31 162 163 218 117 172 217 115 63 84 163 163 160 212 171 56 171 194 34 44 162 221 34 115 221 13 203 195 202 209 44 117 195 91 169 84 45 63 70 219 198 206 111 62 169 23 87 221 48 160 33 222 61 163 38 91 117 91 171 198
split_gain=67818.2 9490.21 6414.95 6136.99 5630.64 4885.87 4334.86 3984.41 3327.74 4020.37 2275.35 2546.06 1888.64 2206.14 3825.69 1768.93 1602.75 1577.21 1576.55 1617.15 2611.31 1702.85 1529.5 1578.65 2328.52 2312.58 1441.93 1439.9 1312.09 2233.05 1673.44 1463.52 1306.43 1304.12 1591.84 1269.39 1262.79 1222.23 1193.66 1183.7 1516.52 1182.21 1169.55 1100.8 1281.4 1160.96 1080.93 1078.78 1139.8 1236.39 1189.25 1172.85 1078.74 1264.16 1397.39 1066.43 1018.6 987.222 1101.19 967.788 941.331 1090.13
threshold=0.81559332003019558 1.0000000180025095e-35 40.534848593113921 -21.968583523172295 -0.96922963476791513 0.41411295966001277 148.90099321386688 21.145384575785727 56.671710660081807 53.55672544159755 257026.87566666669 199.84500000000003 -0.24548715110255245 0.49850709734905468 -1.2784078571428539 -129.1361164082218 -0.92604639080262241 16.703566914534196 0.43668756267796377 -0.068340435588317663 4.7576645336502272 -1.5807928984906319 -0.48237973267443884 0.60897956152751587 8.3162708222396642 84.039696406915809 -0.63848120582321366 -28.522570792646285 47.500000000000007 -0.056820274861688981 0.093073411777611817 1.0186870604845939 -0.096343451246501996 44.048403357607263 4.3249091684566023 0.15979381443298971 -20.63597364982579 144.81500000000003 -0.25215283204533528 126654.25833333335 -161950.52499999997 -0.18514559994696086 0.28963930743768951 1.6611832484560276 0.37634213233856234 90051.004550000012 -3.7698401762642972 -38.040845146923026 21.780767030138655 -0.4992477651673719 14.135137009860024 -1.2530982142857148 0.73050357142857136 -0.064186737146282244 249448.60000000003 -0.65695304536318433 36.998393516865683 0.3144329896907217 36.531101337966618 0.67525773195876304 -0.39769166390034305 0.27419259954840119
decision_type=2 2 2 2 2 2 2 2 2 2 2 2 2 2 2 2 2 2 2 2 2 2 2 2 2 2 2 2 2 2 2 2 2 2 2 2 2 2 2 2 2 2 2 2 2 2 2 2 2 2 2 2 2 2 2 2 2 2 2 2 2 2
left_child=1 3 26 -1 5 27 8 -8 10 -10 39 18 28 22 -15 17 -16 -7 19 47 -21 -22 23 24 25 33 35 -5 30 42 31 37 -26 -14 -35 -3 -13 52 -11 40 -4 -23 -30 44 60 -45 -32 -12 49 51 -51 -49 -6 -54 -55 -50 -17 -28 -59 -37 61 -18
right_child=-2 2 6 4 12 15 7 -9 9 38 11 36 13 14 16 56 43 -19 -20 20 21 41 -24 -25 32 -27 57 -29 29 -31 46 -33 -34 34 -36 59 -38 -39 -40 -41 -42 -43 -44 45 -46 -47 -48 48 55 50 -52 -53 53 54 -56 -57 -58 58 -60 -61 -62 -63
leaf_value=-2.0461495251015762 0.68090038008155007 -1.473618799910875 -1.9266197008439032 -1.9130420633453258 -1.5081859116291074 -0.70945642412040844 -2.2804896546915283 -1.5988450927914639 -0.9495691734336319 -1.6371976560334163 -1.8203918449060439 -1.8127537530993136 -1.5488784734635042 -0.92262870312569956 -1.1294592236704328 -1.3272822797311472 -1.3797594958022779 -1.2068557256756351 -1.5022736759500581 -2.113920624139308 -2.0711082186101009 -1.8012252449152586 -1.4957737850429722 -1.2850340400450846 -2.0783803217725265 -1.2020481076803538 -1.541875014534315 -1.4344243491511399 -1.2703862926556626 -1.4524875988503316 -1.483042796279747 -1.5014143541984262 -1.6776366806185861 -1.6308991056477109 -2.020855463772826 -1.7251255930015166 -2.2318652747867631 -1.1916843562235502 -1.3672923387933746 -1.4366819724836417 -1.5334893997827856 -1.5185702657995748 -0.89880652279139817 -1.6717714051701751 -1.7440097269731625 -1.3359415906126197 -1.8460613699164812 -2.0501900233150376 -1.2911466998085923 -1.4169083218843594 -1.7486369251250424 -1.6653698618946704 -1.430214572580635 -1.4732136013771409 -1.065241248883976 -1.6033866779913164 -1.0674176444562307 -1.4241217239053121 -1.5718683620150704 -1.508222153422401 -1.4415347276326209 -1.7400955348758029
leaf_weight=48 35 113 36 30 201 34 53 36 32 134 94 41 932 35 35 125 31 30 100 58 30 73 1461 47 33 43 902 33 72 185 37 680 53 205 30 211 32 67 59 128 77 75 30 30 57 181 46 44 31 44 70 36 192 32 61 232 54 497 169 68 271 65
leaf_count=48 35 113 36 30 201 34 53 36 32 134 94 41 932 35 35 125 31 30 100 58 30 73 1461 47 33 43 902 33 72 185 37 680 53 205 30 211 32 67 59 128 77 75 30 30 57 181 46 44 31 44 70 36 192 32 61 232 54 497 169 68 271 65
internal_value=-1.51575 -1.52435 -1.58895 -1.48327 -1.47829 -1.26995 -1.66622 -2.00477 -1.64509 -1.46863 -1.67815 -1.71264 -1.49076 -1.5113 -1.43223 -1.16822 -1.45886 -0.942612 -1.68928 -1.71304 -1.82255 -1.72761 -1.53118 -1.5697 -1.58002 -1.56215 -1.52923 -1.66234 -1.44579 -1.34893 -1.46692 -1.45229 -1.83141 -1.57542 -1.68068 -1.615 -1.99647 -1.39188 -1.55469 -1.5408 -1.65873 -1.65799 -1.1611 -1.47701 -1.52345 -1.38369 -1.68423 -1.66613 -1.6344 -1.72634 -1.6206 -1.87702 -1.41948 -1.35693 -1.20562 -1.56658 -1.24889 -1.50778 -1.46161 -1.67226 -1.4892 -1.62374
internal_weight=8976 8941 3475 5466 5418 306 1515 89 1426 225 1201 960 5112 3509 705 243 670 64 887 787 236 178 2804 1343 1296 1210 1960 63 1603 287 1316 1233 86 1167 235 392 73 553 193 241 113 148 102 635 424 211 83 551 457 194 114 80 486 285 93 263 179 1568 666 279 367 96
internal_count=8976 8941 3475 5466 5418 306 1515 89 1426 225 1201 960 5112 3509 705 243 670 64 887 787 236 178 2804 1343 1296 1210 1960 63 1603 287 1316 1233 86 1167 235 392 73 553 193 241 113 148 102 635 424 211 83 551 457 194 114 80 486 285 93 263 179 1568 666 279 367 96
is_linear=0
shrinkage=1


end of trees

feature_importances:
adv_tv_trix=4
a158_corr_close_vol_20=4
fund_industry_hash=3
adv_volatility_60=3
adv_tv_ht_sine=3
atr_14_pct=2
macd_signal=2
volume_ma_60=2
blue_weekly=2
adv_volatility_10=2
adv_tv_squeeze_mom=2
adv_tv_hull_slope=2
adv_tv_di_spread=2
a158_return_kurt_20=2
a158_return_skew_60=2
ma_60_bias=1
return_60d=1
volatility_20d=1
atr_14=1
rsi_6=1
macd_hist=1
kdj_k=1
bb_lower=1
volume_ma_5=1
volume_ma_20=1
obv_ma=1
fund_market_cap=1
fund_market_cap_log=1
adv_rs_5_20=1
adv_tv_ht_dcperiod=1
a158_return_skew_20=1
a158_vol_skew_20=1
a158_up_ratio_20=1
a158_gap_sum_5=1
a158_vol_ma5_ma20_ratio=1
a158_cci_14=1
a158_high_low_ratio_20=1
a158_price_efficiency_20=1
a158_corr_close_vol_10=1
a158_corr_ret_vol_20=1

parameters:
[boosting: gbdt]
[objective: regression]
[metric: l1]
[tree_learner: serial]
[device_type: cpu]
[data_sample_strategy: bagging]
[data: ]
[valid: ]
[num_iterations: 500]
[learning_rate: 0.05]
[num_leaves: 63]
[num_threads: 0]
[seed: 42]
[deterministic: 0]
[force_col_wise: 0]
[force_row_wise: 0]
[histogram_pool_size: -1]
[max_depth: -1]
[min_data_in_leaf: 30]
[min_sum_hessian_in_leaf: 0.001]
[bagging_fraction: 0.8]
[pos_bagging_fraction: 1]
[neg_bagging_fraction: 1]
[bagging_freq: 5]
[bagging_seed: 400]
[bagging_by_query: 0]
[feature_fraction: 0.7]
[feature_fraction_bynode: 1]
[feature_fraction_seed: 30056]
[extra_trees: 0]
[extra_seed: 12879]
[early_stopping_round: 0]
[early_stopping_min_delta: 0]
[first_metric_only: 0]
[max_delta_step: 0]
[lambda_l1: 0]
[lambda_l2: 0]
[linear_lambda: 0]
[min_gain_to_split: 0]
[drop_rate: 0.1]
[max_drop: 50]
[skip_drop: 0.5]
[xgboost_dart_mode: 0]
[uniform_drop: 0]
[drop_seed: 17869]
[top_rate: 0.2]
[other_rate: 0.1]
[min_data_per_group: 100]
[max_cat_threshold: 32]
[cat_l2: 10]
[cat_smooth: 10]
[max_cat_to_onehot: 4]
[top_k: 20]
[monotone_constraints: ]
[monotone_constraints_method: basic]
[monotone_penalty: 0]
[feature_contri: ]
[forcedsplits_filename: ]
[refit_decay_rate: 0.9]
[cegb_tradeoff: 1]
[cegb_penalty_split: 0]
[cegb_penalty_feature_lazy: ]
[cegb_penalty_feature_coupled: ]
[path_smooth: 0]
[interaction_constraints: ]
[verbosity: -1]
[saved_feature_importance_type: 0]
[use_quantized_grad: 0]
[num_grad_quant_bins: 4]
[quant_train_renew_leaf: 0]
[stochastic_rounding: 1]
[linear_tree: 0]
[max_bin: 255]
[max_bin_by_feature: ]
[min_data_in_bin: 3]
[bin_construct_sample_cnt: 200000]
[data_random_seed: 175]
[is_enable_sparse: 1]
[enable_bundle: 1]
[use_missing: 1]
[zero_as_missing: 0]
[feature_pre_filter: 1]
[pre_partition: 0]
[two_round: 0]
[header: 0]
[label_column: ]
[weight_column: ]
[group_column: ]
[ignore_column: ]
[categorical_feature: ]
[forcedbins_filename: ]
[precise_float_parser: 0]
[parser_config_file: ]
[objective_seed: 16083]
[num_class: 1]
[is_unbalance: 0]
[scale_pos_weight: 1]
[sigmoid: 1]
[boost_from_average: 1]
[reg_sqrt: 0]
[alpha: 0.9]
[fair_c: 1]
[poisson_max_delta_step: 0.7]
[tweedie_variance_power: 1.5]
[lambdarank_truncation_level: 30]
[lambdarank_norm: 1]
[label_gain: ]
[lambdarank_position_bias_regularization: 0]
[eval_at: ]
[multi_error_top_k: 1]
[auc_mu_weights: ]
[num_machines: 1]
[local_listen_port: 12400]
[time_out: 120]
[machine_list_filename: ]
[machines: ]
[gpu_platform_id: -1]
[gpu_device_id: -1]
[gpu_use_dp: 0]
[num_gpu: 1]

end of parameters

pandas_categorical:null
