tree
version=v4
num_class=1
num_tree_per_iteration=1
label_index=0
max_feature_idx=194
objective=regression
feature_names=Open High Low Close Volume ma_5 ma_10 ma_20 ma_60 ma_120 ma_250 ma_5_bias ma_20_bias ma_60_bias ema_12 ema_26 ma_bullish ma_5_10_cross ma_10_20_cross return_1d return_5d return_10d return_20d return_60d momentum_10 momentum_20 momentum_60 roc_10 roc_20 momentum_accel volatility_5d volatility_20d volatility_60d atr_14 atr_14_pct volatility_change intraday_range intraday_range_ma rsi_6 rsi_14 rsi_overbought rsi_oversold rsi_divergence macd macd_signal macd_hist macd_cross macd_hist_trend kdj_k kdj_d kdj_j kdj_cross kdj_overbought kdj_oversold bb_middle bb_upper bb_lower bb_width bb_position bb_breakout_upper bb_breakout_lower volume_ma_5 volume_ma_20 volume_ma_60 volume_ratio volume_change volume_surge volume_shrink volume_price_confirm obv obv_ma body_size upper_shadow_pct lower_shadow_pct is_doji is_hammer is_inv_hammer consecutive_up consecutive_down near_high_20 near_low_20 near_high_60 near_low_60 blue_daily blue_weekly blue_monthly fund_market_cap fund_market_cap_log fund_cap_small fund_cap_mid fund_cap_large fund_industry_hash fund_has_market_cap fund_pe_ttm fund_pe_fwd fund_pb fund_ps fund_ev_ebitda fund_dividend_yield fund_beta fund_roe fund_roa fund_profit_margin fund_current_ratio fund_quick_ratio fund_debt_to_equity fund_revenue_growth fund_earnings_growth fund_target_upside fund_has_external adv_roc_5 adv_rs_5_20 adv_price_position_20 adv_price_position_60 adv_momentum_acceleration adv_volatility_10 adv_volatility_20 adv_volatility_60 adv_atr_pct adv_vol_ratio adv_true_range_pct adv_upper_wick adv_lower_wick adv_relative_volume_5 adv_relative_volume_20 adv_vol_price_up adv_obv_slope_10 adv_vol_deviation adv_volume_momentum adv_ma_distance_10 adv_ma_distance_20 adv_ma_distance_60 adv_ma_slope_10 adv_ma_slope_20 adv_ma_alignment adv_adx_14 adv_trend_consistency adv_body_direction adv_shadow_ratio adv_above_20d_high adv_below_20d_low adv_momentum_volatility adv_trend_volume_interaction adv_trend_strength_direction a158_bias_5 a158_bias_10 a158_bias_20 a158_bias_60 a158_rsi_12 a158_rsi_24 a158_macd_dif a158_macd_dea a158_macd_dif_pct a158_kdj_k_9 a158_kdj_d_9 a158_kdj_j_9 a158_kdj_k_14 a158_kdj_d_14 a158_kdj_j_14 a158_bband_width_20 a158_bband_pctb_20 a158_bband_upper_dist_20 a158_bband_lower_dist_20 a158_vwap_bias a158_return_skew_20 a158_return_kurt_20 a158_return_mean_20 a158_return_std_20 a158_return_skew_60 a158_return_kurt_60 a158_return_mean_60 a158_return_std_60 a158_vol_skew_20 a158_up_ratio_20 a158_gap a158_gap_abs a158_gap_sum_5 a158_turnover_chg_5 a158_turnover_chg_20 a158_vol_ma5_ma20_ratio a158_willr_14 a158_willr_28 a158_cci_14 a158_cci_20 a158_mfi_14 a158_high_low_ratio_5 a158_price_efficiency_5 a158_high_low_ratio_20 a158_price_efficiency_20 a158_corr_close_vol_10 a158_corr_ret_vol_10 a158_corr_close_vol_20 a158_corr_ret_vol_20 a158_strong_day_ratio_10 a158_chaikin_vol
feature_infos=[4.8300000000000001:4649.2799999999997] [4.9199999999999999:4697.0349999999999] [4.5300000000000002:4431.7200000000003] [4.6799999999999997:4607.1300000000001] [0:1000000] [4.9459999999999997:4875.54] [5.0960000000000001:4993.5429999999997] [5.2850000000000001:5120.8134999999993] [0:5148.4629999999997] [0:5256.5289166666671] none [-39.903846153846153:37.395106961352084] [-66.04776594299905:51.044238533708977] [-88.944971032154371:31.913850108659815] [5.132055956908542:4977.4755982531879] [5.4381473120255039:5099.0631620411759] none [-2:2] [-2:2] [-21.518987341772156:50.290885585003231] [-66.500765696784072:67.31016731016733] [-71.581682364404031:55.409444112372988] [-87.013319672131146:34.169884169884178] [-94.261904761904759:152.14446952595938] [0.28418317635595974:1.5540944411237299] [0.12986680327868855:1.3416988416988418] [0:2.5214446952595937] [-71.581682364404031:55.409444112372974] [-87.013319672131146:34.169884169884185] [-0.22664030314015648:0.54373379840739788] [1.3207296948914133:372.28036384735373] [2.201873291896657:641.64185741021913] [0:379.3457492913621] [0.038207142857142627:175.25307142857133] [0.14110774421293423:39.012816326530611] [0:1.6938827416992448] [0:47.657142857142858] [0:26.018121150475327] [0:97.345132691675133] [0:90.68047335400108] none [0:1] none [-155.18380336804967:0.99552125215258158] [-107.79178602266703:5.2918278488824804] [-69.979832369041873:10.473949637984077] [-2:2] [-16.101281487801117:10.079104335900936] [2.3157782304686503:91.983859568041794] [4.1566039384926636:83.038159625497144] [-24.406149730894654:124.75535011840171] [-2:2] [0:1] [0:1] [5.2850000000000001:5120.8134999999993] [5.7782598333109538:5573.48428916377] [-4.3266936761420869:4686.2561395672037] [0.51091071493654605:282.84558794742247] [-0.45144609197055535:1.5430371413321684] none [0:1] [0.40000000000000002:1000000] [10.65:1000000] [0:1000000] [0:4.9670433145009412] [-1:124] [0:1] [0:1] [0:1] [-1000000:1000000] [-1000000:1000000] [0:45.028571428571425] [0:20.588235294117638] [0:25.774877650897228] [0:1] [0:1] [0:1] [0:5] [0:12] [0:1] [0:1] none [0:1] [0:200] [0:200] [0:200] [0:1000000] [0:29.004515937003195] [0:1] [0:1] [0:1] [0:0.98969072164948457] [0:1] none none none none none none none none none none none none none none none none none [-66.500765696784072:67.31016731016733] [-157.5434156718664:100.38986354828768] [0:99.705172875904637] [0:99.30520250804949] [-0.69071640565210091:0.74423138021464408] [1.9026972858098841:268.33107444647669] [2.201873291896657:641.64185741021913] [0:379.3457492913621] [0.14110774421293423:39.012816326530611] [0:2.3907701269745925] [0.011379072463354577:47.657142857142858] [0:20.588235294117638] [0:25.774877650897228] [0:4.9670433145009412] [0:15.71109456440804] [0:1] [-1000000:1000000] [-99.794690701541882:1472.5986597170513] [-100:178666.66666666669] [-57.668118045476533:49.597238204833118] [-66.04776594299905:51.044238533708977] [-88.944971032154371:31.913850108659815] [-34.419079213460186:13.32429990966576] [-34.947100249894518:6.3888443660843039] [-1:1] [5.3687103818070039:92.134497688193264] [0:100] [-1:1] [0:0.99941904374600599] none [0:1] [-0.70998929098553787:0.41719341833630041] [-472.8541653148672:375.75029115727858] [-92.134497688193264:55.705867028700048] [-39.90384612643966:37.395106939253566] [-57.6681180175771:49.597238176296152] [-66.047765917370825:51.044238504055372] [-88.94497101855427:31.913850092467971] [0:92.031248274414096] [5.9532779631660588:83.770284631102584] [-155.18380336804967:0.99552125215258158] [-107.79178602266703:5.2918278488824804] [-158.99035975730098:4.756432162813848] [2.3157782164195022:91.983858716398359] [4.1566038982627243:83.038158127615816] [-24.406149384021873:124.75535001093036] [1.6238408552274521:91.725117167333295] [2.9177960209004414:82.807736879706567] [-25.018578495949178:126.50002467845336] [0.51091071465659099:282.84558767663242] [-0.45144609180569861:1.5430371381492867] [-12.765631724511243:372.69532367800673] [-18.650778115794829:178.95426383661788] [-72.580481536232128:28.400582240165807] [-4.4242051687939599:4.4183860699708699] [-1.6307808758723739:19.698931729414738] [-7.8364694048846966:1.8661089114767937] [0.1387049797341354:40.419637749452534] [-5.6714661940072117:7.1769843789348666] [-0.88546284751240156:54.192029373633531] [-4.2815733640741227:2.4554700817114123] [0.13331653564922627:23.896536036533352] [-0.90119946798695283:0.8851876027218436] [5:70] [-21.831412964322965:45.028571377110197] [0:45.028571377110197] [-49.066652270783194:38.304608544991389] [-1:3.9670433145009412] [-1:14.71109456440804] [0.008921933085501859:3.7767686849522284] [-99.999999965997958:0] [-99.999999970086748:-0.26809651402649781] [-436.47788888805553:466.66623258862069] [-433.23178572558055:645.42573836212421] [0:93.876179468267139] [0.32017072204901798:235.38732355001483] [0:0.9999999999493927] [0.68418327099897258:917.08706058363077] [0:0.90174326323020126] [-0.99232834098575406:0.99277192917363877] [-0.96133470820193623:0.99831926413229422] [-0.97678514502663016:0.9776091625505392] [-0.92051182981737845:0.99207446764131335] [0:60] [-86.556921744277417:1000000]
tree_sizes=5361 5440 5469 5465 5477 5454 5465 5463 5483 5476 5478 5478 5473 5484 5492 5512 5516 5523 5478 5503 5508 5514 5493 5525 5502 5511 5519 5524

Tree=0
num_leaves=63
num_cat=0
split_feature=32 86 143 113 32 169 138 149 37 26 22 35 21 169 176 174 194 191 148 173 39 50 26 113 174 148 176 114 191 34 57 30 169 190 113 190 43 49 73 174 141 50 174 57 180 186 91 31 39 189 91 50 110 194 185 1 71 4 71 185 186 83
split_gain=26050.4 18841.3 16539.1 13481.3 11836.7 7420.16 5469 5289.21 4988.45 4463.36 3805.41 3353.62 2651.92 2099.51 2057.37 1859.9 1778.4 2713.12 1789.87 1774.22 1646.67 2730.5 1592.06 1628.11 1350.67 1127.51 1084.28 1065.33 989.416 916.538 1169.99 814.771 929.714 797.987 747.719 699.446 668.946 666.458 655.348 627.631 620.508 874.895 769.495 620.038 594.583 629.251 670.482 688.618 805.908 587.728 532.312 523.733 535.775 540.772 522.991 939.253 695.776 516.549 513 496.911 448.565 429.514
threshold=40.084057483630865 678663.98540000012 -21.979106998500935 1.0000000180025095e-35 97.758147160129838 0.97007054305591722 0.076851294832732495 27.122002042315277 10.469995155820085 0.50699193315205637 -18.072139081893223 0.78592133648602258 -9.8632606479243865 6.4554531297802669 -2.2374134115331796 0.1207036211577236 9.7023049025323918 -0.33149410001215368 24.320616982484918 37.500000000000007 38.653662611089764 25.060747569685429 0.75391047748425033 4.1646981946108186 0.67759860248856307 28.766059254004919 -3.8360637852565658 0.0010517219704696548 -0.516802110382795 5.2639146906891243 41.590751836430876 71.308198097442371 0.94204004736680635 -0.63975823155788314 25.718318857812204 -0.53395820064825161 -0.97294142259174865 20.755464076822253 0.36459151471423745 1.0000000180025095e-35 -0.1392588478232539 1.8952620378659015 1.0286622909439156 28.511618334617378 -92.889909321933359 0.99999999203174628 0.29381443298969079 14.383457924495668 32.910595120922231 -0.59682888458070771 0.51030927835051554 -2.1492829568607408 -2.7914259629636478 15.993837394918026 6.7472935075447387 169.47000000000003 0.74329825045662179 625095.50000000012 0.69572509425446316 12.008652852176906 0.54261500320234179 89.550000000000011
decision_type=2 2 2 2 2 2 2 2 2 2 2 2 2 2 2 2 2 2 2 2 2 2 2 2 2 2 2 2 2 2 2 2 2 2 2 2 2 2 2 2 2 2 2 2 2 2 2 2 2 2 2 2 2 2 2 2 2 2 2 2 2 2
left_child=3 2 7 -1 5 -4 -3 11 9 13 19 -2 25 -8 -10 20 17 18 -17 -9 31 -22 23 -12 26 28 38 -26 39 37 43 32 50 -33 51 -30 -29 -18 -14 -5 41 -19 -43 -31 60 46 47 -46 -49 -35 -11 -34 53 59 -48 56 -56 -50 -37 -53 -28 -41
right_child=1 6 4 12 -6 -7 8 10 14 15 22 -13 24 -15 -16 16 29 40 -20 -21 21 -23 -24 -25 27 -27 44 36 35 30 -32 33 34 49 -36 58 -38 -39 -40 61 -42 42 -44 -45 45 -47 54 48 57 -51 -52 52 -54 -55 55 -57 -58 -59 -60 -61 -62 -63
leaf_value=-2.6771937024211887 -3.297279309399761 -3.2128267289397718 -4.6894126038334987 -3.7130000039863393 -5.396486437286848 -3.7118509272816 -3.1376074479498515 -4.592277725198092 -4.5298406773887292 -3.6717957613592422 -3.8351685894581484 -3.971460558631243 -3.6172112163486299 -3.6854899313996099 -3.9534905513706025 -3.9689925239212269 -3.4927339115607672 -3.6866134317513808 -4.3706982834387702 -4.1265698689246699 -4.2605646041372216 -3.6571317244584014 -3.6729736250102785 -4.3405288871707732 -3.632396679177107 -4.0036881043171277 -3.6325995197071399 -4.0328093639886715 -3.4583989423807964 -3.8249593757081497 -3.6809639231735352 -3.6568693338277622 -3.4004528928736208 -4.0971218371969673 -3.8437369071028846 -3.8532781060908121 -3.7525826822381383 -3.7738760439317884 -3.919960442380789 -3.751113081632278 -3.6280354118925549 -4.1709018714318704 -3.8241546800069228 -4.0857263591657969 -3.5538969881165547 -3.8229169121442261 -3.4815705550320977 -3.5913606897312333 -3.8142547198501391 -3.7974691787961175 -3.9372771527827051 -3.6035860185749145 -3.4253969315521138 -3.5180614841028657 -3.7270713596034515 -3.8569693335227386 -3.4820160447391091 -3.6484493588168112 -3.6259980031836498 -3.8535165943044456 -3.4897380947614889 -3.9669956577418093
leaf_weight=37 39 39 55 102 39 30 36 43 32 35 34 35 33 34 30 57 35 35 54 39 38 37 41 30 125 41 71 34 42 40 54 43 35 30 30 36 57 53 39 36 30 32 32 53 203 31 184 175 105 36 41 37 30 43 40 30 105 85 80 43 243 64
leaf_count=37 39 39 55 102 39 30 36 43 32 35 34 35 33 34 30 57 35 35 54 39 38 37 41 30 125 41 71 34 42 40 54 43 35 30 30 36 57 53 39 36 30 32 32 53 203 31 184 175 105 36 41 37 30 43 40 30 105 85 80 43 243 64
internal_value=-3.74116 -3.89796 -4.19984 -3.62273 -4.67529 -4.34439 -3.79456 -3.97396 -3.81547 -3.78908 -4.11555 -3.61615 -3.64057 -3.40372 -4.25096 -3.81738 -3.88745 -3.98319 -4.16442 -4.37078 -3.74775 -3.96287 -3.91622 -4.07206 -3.61109 -3.75525 -3.59244 -3.72714 -3.72696 -3.78968 -3.86608 -3.70772 -3.66443 -3.82448 -3.61193 -3.63323 -3.85728 -3.66206 -3.7812 -3.80027 -3.82724 -3.88761 -3.99753 -3.97357 -3.58175 -3.60132 -3.59391 -3.62772 -3.66878 -3.93367 -3.81502 -3.57494 -3.61485 -3.66106 -3.54043 -3.60231 -3.54962 -3.74008 -3.69653 -3.73792 -3.52204 -3.88928
internal_weight=3507 1509 385 1998 124 85 1124 261 1085 1023 187 74 1961 70 62 953 475 240 111 82 478 75 105 64 1560 401 1344 216 360 235 147 403 294 109 218 158 91 88 72 202 129 99 64 93 1272 958 927 568 365 66 76 188 153 123 359 175 145 190 116 80 314 100
internal_count=3507 1509 385 1998 124 85 1124 261 1085 1023 187 74 1961 70 62 953 475 240 111 82 478 75 105 64 1560 401 1344 216 360 235 147 403 294 109 218 158 91 88 72 202 129 99 64 93 1272 958 927 568 365 66 76 188 153 123 359 175 145 190 116 80 314 100
is_linear=0
shrinkage=1


Tree=1
num_leaves=63
num_cat=0
split_feature=117 87 135 172 164 34 181 45 23 152 73 155 35 115 111 61 135 113 23 164 87 135 35 161 37 35 191 23 23 7 181 173 132 23 33 23 63 163 180 141 152 194 126 73 180 62 69 34 172 135 23 149 23 63 194 191 186 56 181 72 55 33
split_gain=23510.5 21090.5 16184.9 15225.9 8010.44 5369.53 5140.56 3847.33 4508.95 3363.63 3417.62 3329.07 2874.37 2325.55 2278.68 2227.53 2593.16 1823.7 1860.16 1851.91 1502.71 1407.55 1299.32 1278.05 1879.8 1187.38 1136.6 1107.59 1069.72 1047.02 940.702 911.726 895.043 1323.31 1352.9 1163.78 885.942 815.716 810.299 793.01 753.436 749.913 651.787 647.759 642.482 617.983 692.588 611.434 608.458 589.101 537.084 469.192 649.925 465.063 462.651 452.166 447.363 465.278 429.464 408.509 372.561 544.551
threshold=40.084057483630865 15.794833729247655 17.547035069477143 0.1725354166187113 -0.30653286691403919 9.9298235966587907 -92.855667440054987 0.0153831885198748 -24.370171747545168 -10.311110237380344 0.31500320118324027 14.507085497515229 0.83358026702127153 25.351684508358144 0.72443232144601499 999213.70000000007 18.220431997412849 1.2566701512590388 -9.8509926829113841 -0.67750147465342059 20.609164992576456 36.499075359523253 1.0026677449304588 17.64007299249587 1.9221787509854849 0.89497771232670786 -0.31892715064195648 -49.300806684794374 -7.8907410646179832 7.8880500000000007 -95.828265657402554 37.500000000000007 -3.4723814118341454 -19.327419056305324 4.4442821428571415 -15.861786706491896 264708.00000000006 -10.656344983461704 -92.210473611634512 -0.20458091954823437 -3.272067649334041 15.993837394918026 -141299.44999999998 2.0599770935128476 -98.719120310085842 327230.35000000003 762454.00000000012 5.1542699782176591 -0.22778406007899679 23.088988732136276 -23.469511607014166 33.559717541812134 -14.33126799596287 491456.68333333341 30.371080703067403 1.0000000180025095e-35 0.69426701595358897 15.605465132872572 -97.326934839566349 1.365369126600595 18.925804179999414 0.23525714285714291
decision_type=2 2 2 2 2 2 2 2 2 2 2 2 2 2 2 2 2 2 2 2 2 2 2 2 2 2 2 2 2 2 2 2 2 2 2 2 2 2 2 2 2 2 2 2 2 2 2 2 2 2 2 2 2 2 2 2 2 2 2 2 2 2
left_child=3 2 -2 13 6 7 12 8 21 10 -3 -8 -4 38 27 20 -17 44 19 25 26 -6 41 24 -15 -19 28 -12 47 55 31 58 35 39 49 -26 -32 -24 60 -34 -22 56 59 -27 -18 46 -31 -11 51 53 -40 52 54 -35 -38 -28 57 -21 -25 -29 61 -1
right_child=1 9 4 -5 5 -7 11 -9 -10 15 14 -13 -14 23 -16 16 17 18 -20 22 40 -23 37 30 32 43 29 42 -30 45 36 -33 33 34 -36 -37 48 -39 50 -41 -42 -43 -44 -45 -46 -47 -48 -49 -50 -51 -52 -53 -54 -55 -56 -57 -58 -59 -60 -61 -62 -63
leaf_value=0.20871775699214956 -1.291839841300366 0.63944470514853802 0.40130851570516823 1.2259825958808264 -1.0295273068878386 -1.0464943303333389 -0.78039459200466377 0.053354628609888481 -0.14598501756787302 0.094235760955647993 0.39861326660170704 -0.11485408952548391 -0.12964274367460837 -0.19977294203697468 -0.33486035074417791 -0.56358949163130345 0.2900776700116694 0.20535522097665254 0.083233175459591788 -0.22027921651800475 0.28986555327803404 -0.56580050239960356 -0.32731017755701192 -0.11186453750706278 0.50934317727242751 -0.24111612129223642 0.3178726705186295 0.27810440959803984 -0.39839920012099256 0.19890062537820391 0.091262554377317437 0.20212531625360686 -0.26606449443433017 0.23353081849714119 -0.091584199285380946 0.1320577621459961 -0.16952552459373768 -0.66102478964875144 -0.036040768522902264 0.04437509286217392 0.02309469903508822 -0.011954202091223316 -0.1259403969010999 0.026336181877801818 -0.029307512145849968 -0.23886011596236911 -0.12438283003866674 -0.19336744606095768 -0.29652210356991576 0.25064749703933931 0.12528782728248994 0.088037164062261586 -0.31208948410219617 -0.018446625975218227 0.0512657068669796 0.056128556337772001 -0.14522936333243439 -0.49875072836875917 0.10400531859033638 0.0417640478327507 0.17299363543869173 0.46276969986577188
leaf_weight=66 51 30 50 30 36 45 34 33 40 33 33 42 52 51 30 35 32 33 68 30 59 30 47 64 31 61 33 33 36 30 54 69 36 30 52 60 49 30 56 48 48 38 31 36 31 35 37 42 46 146 655 30 36 47 46 33 41 30 36 41 229 31
leaf_count=66 51 30 50 30 36 45 34 33 40 33 33 42 52 51 30 35 32 33 68 30 59 30 47 64 31 61 33 33 36 30 54 69 36 30 52 60 49 30 56 48 48 38 31 36 31 35 37 42 46 146 655 30 36 47 46 33 41 30 36 41 229 31
internal_value=-0.00445602 -0.153422 -0.45793 0.108051 -0.340445 -0.571782 -0.101311 -0.418099 -0.564872 -0.0386754 0.147866 -0.412596 0.130627 0.0910094 0.0600836 -0.0798058 -0.148182 -0.117701 -0.155839 -0.202824 0.0108896 -0.818742 -0.292564 0.0336461 0.0879191 -0.0537174 -0.0502051 0.145941 -0.174361 0.0318261 -0.0295883 0.0623166 0.120524 0.0850216 0.138077 0.260584 -0.0890976 -0.457329 0.142509 -0.0886704 0.170193 -0.201292 0.0665297 -0.141855 0.13292 -0.0685809 0.020371 -0.066822 -0.136148 0.19163 0.112581 -0.0903269 -0.131174 0.0797264 -0.0626161 0.187001 -0.272528 -0.359515 -0.0341514 0.147159 0.207782 0.28991
internal_weight=3507 1509 413 1998 362 184 178 139 106 1096 198 76 102 1968 168 898 512 477 414 346 386 66 216 931 501 130 279 138 111 168 430 169 450 359 275 91 261 77 1037 84 107 139 105 97 63 102 67 75 207 223 711 161 131 77 95 66 101 60 100 74 326 97
internal_count=3507 1509 413 1998 362 184 178 139 106 1096 198 76 102 1968 168 898 512 477 414 346 386 66 216 931 501 130 279 138 111 168 430 169 450 359 275 91 261 77 1037 84 107 139 105 97 63 102 67 75 207 223 711 161 131 77 95 66 101 60 100 74 326 97
is_linear=0
shrinkage=0.05


Tree=2
num_leaves=63
num_cat=0
split_feature=32 135 172 86 149 26 138 39 8 148 32 128 175 194 115 174 184 26 194 191 182 191 39 166 9 149 178 31 172 156 187 191 111 50 11 180 83 135 172 12 72 187 91 184 63 91 72 170 164 170 13 174 183 194 84 182 39 43 26 148 185 19
split_gain=21218.2 15379.9 13741.3 9566.68 8032.74 8279.89 4465.87 3961.52 3525.62 3173.61 3068.31 2827.44 2353.4 2191.17 2098.8 2073.54 1919.88 1798.51 1622.09 1720.19 1596.44 1377.18 1364.52 1305.38 1104.3 1250.46 1065.73 908.93 929.992 879.543 818.856 791.059 802.31 745.298 804.22 731.294 725.934 966.327 1137.36 1632.13 774.129 713.149 682.491 723.762 666.83 574.572 551.756 543.666 524.545 513.737 626.534 495.096 493.197 481.047 476.259 446.24 428.022 418.166 664.653 393.225 389.535 348.998
threshold=40.084057483630865 12.581374816144178 0.1725354166187113 1.0000000180025095e-35 30.575621706268695 0.59298840266134667 0.076851294832732495 28.635817588648113 30.041833333333336 30.543377926015939 146.40479277182979 -19.064655546500791 1.4024093979124901 10.099304824976711 25.351684508358144 0.1207036211577236 30.354554459793999 0.50699193315205637 23.9044152880962 -0.65136852965300196 -90.749824820953492 -0.41273998208053475 39.761431949457993 -0.60771999081483719 52.026541666666674 22.430584410576405 -0.32559604462227221 45.035448309606913 -0.41889438343998692 13.511962631608148 13.689449695505431 -0.27166148714611282 0.23445730306785259 3.7277184733258513 -2.7111145095235214 -92.210473611634512 104.15000000000002 20.92947223041535 -0.15162822255732447 -6.1342794297842467 0.94921809240468324 57.876933446664552 0.64432989690721654 38.568951856476929 48198.000000000007 0.29381443298969079 0.72428834192966507 -0.23983859286351197 1.0000000180025095e-35 -0.27923946693323243 -9.9934355041666478 0.4599127640890428 -148.54691488959023 25.915183125428282 71.350000000000009 -134.08177727237839 18.069636447927227 -1.3129016404955782 0.92026525133490666 28.984015055541196 8.4996539950620207 -0.3024216257618228
decision_type=2 2 2 2 2 2 2 2 2 2 2 2 2 2 2 2 2 2 2 2 2 2 2 2 2 2 2 2 2 2 2 2 2 2 2 2 2 2 2 2 2 2 2 2 2 2 2 2 2 2 2 2 2 2 2 2 2 2 2 2 2 2
left_child=2 -2 14 4 8 11 -5 -7 13 -9 15 -6 44 -3 35 16 17 -8 19 -17 27 29 42 31 25 -21 30 56 -29 -18 -25 32 -16 52 -35 61 37 40 57 -40 -28 46 43 -23 -11 47 -20 53 -36 50 -37 -47 -27 -34 -30 -33 -19 58 -39 -48 -38 -1
right_child=1 3 -4 6 5 7 10 9 -10 12 -12 -13 -14 -15 23 18 21 20 41 24 -22 22 -24 26 -26 33 36 28 54 -31 -32 55 45 34 48 49 60 38 39 -41 -42 -43 -44 -45 -46 51 59 -49 -50 -51 -52 -53 -54 -55 -56 -57 -58 -59 -60 -61 -62 -63
leaf_value=0.22934004021828236 -1.1389059403224997 -0.38156285478540192 1.1646834669510524 0.48555344656894084 -1.3140488696098327 0.13999370167914191 0.46964760815491902 -0.8817204460982353 0.41283321670123513 -0.6446304084793214 -0.55620643323467622 -0.69527351657549552 0.042015555591294267 0.13743089252349103 -0.25237202954320415 -0.43113052069113178 -0.45883829983011371 0.0015028175794416004 0.11453175029526347 0.20311043122783304 0.38106558405082014 0.37260189225276313 -0.26713370610560688 -0.30230459486444794 -0.33811055143122326 0.084379452005028721 0.033482023569899544 0.077540907047448621 -0.035179087868891658 -0.12892591043792923 0.06413066718847521 0.24304715406262511 -0.16955044567584993 -0.43275791414082054 -0.23312495031704505 0.11512179350480439 0.10899040796927045 0.23698662928328285 -0.29271002841346405 0.1200660833284075 -0.2694516671697299 0.23151887630422913 -0.065820175413648749 0.045939168104758635 -0.31667734192263697 0.099463598707483877 -0.19750649775020207 -0.29170283824205401 -0.0027363271230743044 0.12827766532218576 -0.095690079991306576 -0.10365702122449877 -0.17205686608950299 0.072728734849952167 -0.2875014207263788 -0.0013913679954617522 0.22248218526531544 0.25645050202528469 -0.067075155628845098 0.027475030752529786 0.32559793749276333 0.11361874216753576
leaf_weight=236 38 53 30 38 30 38 30 31 35 31 31 48 33 33 53 58 31 36 39 32 34 30 35 30 54 50 71 62 32 58 31 33 42 30 60 80 35 41 34 81 30 30 43 39 31 90 52 33 42 568 63 45 30 40 45 43 56 116 32 31 51 90
leaf_count=236 38 53 30 38 30 38 30 31 35 31 31 48 33 33 53 58 31 36 39 32 34 30 35 30 54 50 71 62 32 58 31 33 42 30 60 80 35 41 34 81 30 30 43 39 31 90 52 33 42 568 63 45 30 40 45 43 56 116 32 31 51 90
internal_value=-0.00423322 -0.145751 0.102648 -0.120095 -0.342867 -0.509183 -0.0471106 -0.307485 -0.0102351 -0.442439 -0.0660276 -0.933264 -0.299095 -0.182414 0.0864589 -0.0514025 0.0176856 0.102722 -0.123619 -0.182 0.0611833 -0.08861 0.00537236 0.0319638 -0.133511 -0.088231 0.0810222 0.0141011 -0.0665882 -0.243839 -0.116083 -0.0394881 -0.0756658 -0.132207 -0.205191 0.135384 0.10551 0.0774943 0.122012 -0.00197207 -0.0564983 0.0131164 0.0905305 0.187966 -0.480654 -0.038204 -0.0405891 -0.120332 -0.138259 0.106952 0.0222466 0.0317567 -0.0117842 -0.0513655 -0.18264 0.104746 0.136012 0.197451 0.103699 -0.113477 0.237444 0.197392
internal_weight=3507 1509 1998 1471 363 242 1108 164 121 126 1070 78 95 86 1968 1039 531 295 508 356 265 236 147 931 298 244 552 231 139 89 61 379 303 212 132 1037 491 405 304 115 101 152 112 69 62 250 122 115 102 711 143 135 80 82 77 76 92 189 73 83 86 326
internal_count=3507 1509 1998 1471 363 242 1108 164 121 126 1070 78 95 86 1968 1039 531 295 508 356 265 236 147 931 298 244 552 231 139 89 61 379 303 212 132 1037 491 405 304 115 101 152 112 69 62 250 122 115 102 711 143 135 80 82 77 76 92 189 73 83 86 326
is_linear=0
shrinkage=0.05


Tree=3
num_leaves=63
num_cat=0
split_feature=117 87 135 30 149 170 133 122 43 180 27 166 31 192 135 61 149 135 84 87 170 64 177 71 148 170 30 115 44 47 112 45 135 176 84 0 135 120 85 29 152 180 47 128 126 87 69 142 149 164 165 175 170 13 37 115 37 184 87 127 164 72
split_gain=19149.4 17552.2 13900.7 13290.6 6896.39 6820.3 4167.72 3698.08 2969.58 2772.47 2493.26 2246.56 2199.66 2142.99 1630.56 1546.54 2636.7 1697.58 1578.25 1418.8 1345.99 1290.99 1049.99 1162.58 1035.83 1016.65 1012.17 926.364 876.37 868.114 853.885 838.228 819.437 867.742 782.444 872.193 738.413 731.969 722.885 691.838 688.578 672.218 651.754 621.272 613.821 575.692 558.741 548.427 507.201 496.34 495.647 486.424 642.528 981.54 430.208 426.776 564.836 418.49 456.635 417.119 433.775 503.485
threshold=40.084057483630865 15.794833729247655 15.94926199145511 74.347400525752093 30.575621706268695 -0.52465922112586616 -8.8469967836551735 1.3498785832969984 -1.8193050601210243 -87.180763741575376 -11.862610805375136 -0.83737566563089161 33.409366523583479 -0.22895534602876896 27.460787956480992 999213.70000000007 33.148278551140329 18.220431997412849 104.80000000000003 20.609164992576456 -0.091148372475219883 1.2625915833524484 0.43057498118807563 0.71843609228099337 22.562579826946493 -0.41987493320714714 74.347400525752093 39.085456867060948 -1.7623932599235415 -0.091153128642542089 17.082454433186065 -0.86647023916399035 20.015803165926375 2.997992616308538 94.000000000000014 116.39250000000003 41.543970592155809 2.5402769010697246 157.55000000000004 -0.028681784723527445 -3.272067649334041 -93.833011231769959 0.0028421516023992917 23.385962385684305 -27601.649999999998 22.344315915488433 474678.50000000006 -5.5555427439874654 26.414930611247041 -0.42902558627704829 0.03323021604128773 0.26978925178895158 -0.2720784348067779 -8.5784693121360878 3.8739027405720883 66.262973128874805 4.4348935153184401 25.154203318008765 22.509329086254116 -22.928032137237761 -0.08262360471413302 0.57024447400471534
decision_type=2 2 2 2 2 2 2 2 2 2 2 2 2 2 2 2 2 2 2 2 2 2 2 2 2 2 2 2 2 2 2 2 2 2 2 2 2 2 2 2 2 2 2 2 2 2 2 2 2 2 2 2 2 2 2 2 2 2 2 2 2 2
left_child=3 2 -2 12 8 13 7 -3 -4 -7 -10 -11 25 -6 -15 19 18 -18 26 21 28 32 23 37 48 30 29 31 -19 -17 45 34 -8 39 35 -27 57 -14 55 -34 43 59 49 -21 -44 47 -37 -1 -20 -41 -47 -43 53 -53 -38 56 -30 -25 -59 -33 -61 -62
right_child=1 6 4 -5 5 9 15 -9 10 11 -12 -13 22 14 -16 16 17 20 24 40 -22 -23 -24 36 -26 27 -28 -29 38 -31 -32 41 33 -35 -36 46 54 -39 -40 42 -42 51 44 -45 -46 50 -48 -49 -50 -51 -52 52 -54 -55 -56 -57 -58 58 -60 60 61 -63
leaf_value=0.2879276750707313 -1.369547968102353 0.76358334560568142 0.33655817264225335 1.1247414415612096 -0.46805265373127025 0.12722510613787633 0.18714178833365441 -0.015137401800001822 -0.41864808296354916 -0.71253091376274824 0.099305754332315366 -0.18006462244296786 0.031795010581845418 -1.1113025565480077 -0.6551962112387022 0.33096302261478022 -0.59363757550716401 -0.49534527838230136 0.012304180371575059 0.12292252453890713 0.086555941723701027 -0.26540566929528175 -0.22522871342620682 -0.01552662968395218 -0.36918724695356886 -0.15184788435697558 -0.12152912218830195 0.34303030520677569 -0.18519879151639101 0.057545100900579273 -0.18618593390317673 0.082031734110945373 -0.28548800204675095 0.17001282473405202 -0.15277593945171319 0.26803347553108253 -0.11737177875779925 -0.27444602537155149 -0.38441307742047953 -0.074613790568565166 0.023389935959130526 0.15178670947189044 -0.032245444061986192 0.43464144602898624 -0.31166221107045811 -0.19792302156488101 0.014757757908419558 0.017489970727144061 -0.23149419985711575 0.19193578230217101 0.079037662978683199 0.095448895826421937 0.10467861862093697 -0.22417243024924907 0.069703222105745227 -0.28138747769097489 0.10675027780234814 0.27092126970264047 0.043126834974144448 0.17868747455415443 0.22308471999234625 0.48752455939849226
leaf_weight=38 35 30 38 31 44 39 50 31 52 32 42 52 32 43 36 38 30 30 64 33 36 53 56 31 41 30 58 46 37 123 47 59 34 42 51 51 63 50 37 31 48 386 57 31 30 30 38 37 32 40 35 58 420 41 60 30 30 66 33 134 45 30
leaf_count=38 35 30 38 31 44 39 50 31 52 32 42 52 32 43 36 38 30 30 64 33 36 53 56 31 41 30 58 46 37 123 47 59 34 42 51 51 63 50 37 31 48 386 57 31 30 30 38 37 32 40 35 58 420 41 60 30 30 66 33 134 45 30
internal_value=-0.00402156 -0.138463 -0.416256 0.0975161 -0.327988 -0.484431 -0.0337837 0.36784 -0.0364367 -0.221159 -0.187222 -0.382909 0.081327 -0.747702 -0.903457 -0.0574543 -0.110954 -0.242905 -0.0257053 0.01237 -0.190295 -0.0388692 -0.0248267 0.00867336 -0.15881 0.107663 0.0575614 0.122398 -0.251068 0.122079 -0.00178466 0.114841 0.00340698 -0.0358526 0.0110794 0.0813031 0.0617013 -0.154937 -0.196379 -0.0808857 0.166545 0.129879 -0.0368573 0.273911 -0.128596 0.0601215 0.159893 0.154512 -0.0689619 0.075555 -0.0487903 0.109281 0.0776686 -0.0369195 -0.0261157 -0.124654 -0.0544753 0.14479 0.19499 0.199435 0.232577 0.328861
internal_weight=3507 1509 413 1998 378 246 1096 61 132 123 94 84 1967 123 79 1035 586 230 356 449 200 337 391 335 137 1576 219 1389 164 161 187 1343 284 234 170 119 253 82 134 192 112 1173 158 64 87 140 89 75 96 71 65 905 519 99 123 97 67 130 99 268 209 75
internal_count=3507 1509 413 1998 378 246 1096 61 132 123 94 84 1967 123 79 1035 586 230 356 449 200 337 391 335 137 1576 219 1389 164 161 187 1343 284 234 170 119 253 82 134 192 112 1173 158 64 87 140 89 75 96 71 65 905 519 99 123 97 67 130 99 268 209 75
is_linear=0
shrinkage=0.05


Tree=4
num_leaves=63
num_cat=0
split_feature=32 87 143 32 186 149 138 23 4 21 149 48 181 23 21 174 157 30 194 191 166 56 157 174 55 176 114 9 30 148 29 71 184 21 63 174 170 23 63 8 114 29 170 87 181 0 149 23 111 73 168 131 176 150 44 111 32 4 113 84 23 130
split_gain=17282.4 15840.9 13310.9 12651 6759.71 4981.5 3851.98 3567.2 3146.76 2909.98 2226.26 1925.03 1871.15 1897.42 1772.44 1715.75 1704.64 1580.63 1519.72 1861.88 1334.48 1310.53 1246.6 1068.65 978.461 974.064 917.268 836.427 949.526 799.542 780.86 698.585 694.21 781.307 692.156 691.974 685.701 682.391 867.074 638.636 625.677 625.503 563.529 575.715 548.642 516.651 495.287 646.773 486.746 456.521 441.9 435.815 565.759 410.565 416.632 407.737 384.622 342.315 341.087 353.967 353.359 336.958
threshold=40.084057483630865 15.794833729247655 -17.585831796482939 5.5312329183554443 0.78316266415052727 27.122002042315277 0.076851294832732495 -40.701159733865346 999760.00000000012 -11.096973050047085 15.85046149336671 18.354049235715554 -93.796177382436554 -24.608952251574973 -9.8632606479243865 -0.22224052808191366 15.627549072710798 26.651039509185637 9.7023049025323918 -0.33149410001215368 -0.60771999081483719 6.2472500188395044 12.507672251243195 0.67759860248856307 20.93171430055504 -3.8360637852565658 0.0010517219704696548 7.4168958333333341 74.347400525752093 28.766059254004919 0.0037891164974562246 0.71843609228099337 44.705349392006362 -7.4514388528890683 519427.87500000006 0.57654683875843371 -0.55619327164417054 -20.117126211389277 974755.79166666686 13.694125000000001 -0.0034495325026655528 0.0097207855126741922 -0.62791581606232227 21.429827611190859 -93.202254122176811 21.935000000000006 30.794113196334788 -15.563045026793274 0.49811938660053773 0.36459151471423745 -0.29301680192534768 -17.332404887958941 2.0503807194105472 -0.50403396158877445 -0.4749436677816658 0.48070320001868777 35.479127132269518 358993.00000000006 4.6887734362471223 122.60000000000001 -14.693009952881544 -4.585286603903449
decision_type=2 2 2 2 2 2 2 2 2 2 2 2 2 2 2 2 2 2 2 2 2 2 2 2 2 2 2 2 2 2 2 2 2 2 2 2 2 2 2 2 2 2 2 2 2 2 2 2 2 2 2 2 2 2 2 2 2 2 2 2 2 2
left_child=3 2 5 -1 -4 11 -3 9 12 16 -8 -2 -9 -14 24 32 -7 30 19 21 51 -19 -23 25 -5 49 -25 -20 46 31 -17 40 33 36 -33 48 39 38 -38 -12 -26 -24 -30 -44 56 -28 -29 -48 -36 -16 53 52 -21 54 -46 -41 57 -27 -52 60 -60 -55
right_child=1 6 4 14 -6 7 10 8 -10 -11 15 -13 13 -15 23 17 -18 18 27 20 -22 22 41 26 29 44 45 28 42 -31 -32 34 -34 -35 35 -37 37 -39 -40 55 -42 -43 43 -45 50 -47 47 -49 -50 -51 58 -53 -54 61 -56 -57 -58 -59 59 -61 -62 -63
leaf_value=1.1116699627041817 -0.10267506528783728 0.45589667506611503 -0.57707483092943823 0.18507610491986545 -1.5111934311249677 -0.55567974356313543 0.36058336333371699 -0.026917979036058699 0.21580817491631024 -0.21907364845275881 -0.057078147538610402 0.39686524391174322 -0.64774746910013548 -0.19006503438338257 0.072968361207417079 0.21712606135463597 -1.0886962928355206 -0.057812689046065013 -0.29732836126349865 -0.20157796564262087 -0.31168081385011859 -0.23311504093201263 -0.73555621591306508 0.085335043436498392 -0.28094268001261213 0.14275758022661597 0.039463766582775867 0.14399633515874546 0.039138348586857323 -0.26520837819254078 -0.10435345699389775 0.16476635182542462 -0.19064849641061191 0.22545427602742152 -0.10183448713893693 -0.20548563326398531 0.0093829159392043952 0.037550659110473304 -0.35589454336599874 0.096627300650608261 0.003121466168926822 -0.42041946048848333 -0.070547668529408317 -0.34988140795284361 0.048054789292456754 -0.21004652256240786 -0.1404542781555882 0.15108070688943068 0.095710377805353561 -0.1757740160975701 -0.024662081499894462 0.12451708787915911 0.081482609980289014 0.26315659287878695 -0.1480762914288789 0.33919701663156354 0.0077211726922541864 0.23565085017281573 0.3410632914593143 0.08437833078473593 0.16224882656529155 0.087676097846456941
leaf_weight=30 54 39 45 53 34 30 32 35 32 30 37 30 54 39 35 51 30 30 32 41 52 46 31 128 42 204 32 75 30 37 30 63 33 53 48 42 32 88 33 41 36 32 35 39 176 59 52 30 89 39 30 41 31 34 32 30 32 193 31 139 254 140
leaf_count=30 54 39 45 53 34 30 32 35 32 30 37 30 54 39 35 51 30 30 32 41 52 46 31 128 42 204 32 75 30 37 30 63 33 53 48 42 32 88 33 41 36 32 35 39 176 59 52 30 89 39 30 41 31 34 32 30 32 193 31 139 254 140
internal_value=-0.00382048 -0.13154 -0.395443 0.0926403 -0.979101 -0.257393 -0.0320945 -0.369323 -0.22767 -0.62115 -0.0500999 0.0757322 -0.338539 -0.455816 0.0771063 -0.0629212 -0.822188 -0.1092 -0.137321 -0.215639 -0.102066 -0.350456 -0.431 0.101448 -0.0153923 0.118195 -0.000945291 -0.0560627 -0.0264823 -0.0451537 0.0980596 -0.0197099 0.0275032 0.05043 0.0222316 -0.0279342 0.0148886 -0.0532014 -0.176066 0.111349 -0.149836 -0.575487 -0.143658 -0.217764 0.128509 -0.122307 0.0511371 -0.0337951 0.0264976 -0.0581256 0.104921 -0.00560651 -0.0797047 0.065291 0.0178808 0.199122 0.174476 0.187917 0.138266 0.149794 0.181699 0.121965
internal_weight=3507 1509 413 1998 79 334 1096 250 160 90 1057 84 128 93 1968 1025 60 678 597 304 165 139 109 1558 410 1339 219 293 261 357 81 320 347 314 242 179 261 153 65 108 78 63 104 74 1265 91 157 82 137 74 836 113 72 382 208 71 429 397 454 424 285 174
internal_count=3507 1509 413 1998 79 334 1096 250 160 90 1057 84 128 93 1968 1025 60 678 597 304 165 139 109 1558 410 1339 219 293 261 357 81 320 347 314 242 179 261 153 65 108 78 63 104 74 1265 91 157 82 137 74 836 113 72 382 208 71 429 397 454 424 285 174
is_linear=0
shrinkage=0.05


Tree=5
num_leaves=63
num_cat=0
split_feature=187 31 135 172 31 149 86 128 32 169 63 169 168 72 34 87 70 31 183 128 192 173 189 176 1 30 62 180 168 169 30 194 186 85 179 69 72 9 169 31 49 30 45 163 169 31 187 152 190 84 128 161 159 37 113 110 87 119 21 143 34 187
split_gain=49437.8 16616 9653.38 8966.61 8620.18 4299.58 5341.65 3878.37 2521.51 2342.12 2069.1 1936.53 1583.54 1491.65 1392.97 1589.81 1291.6 1251.85 1218.27 1210.56 1120.01 1103.54 1074.95 1063.87 990.607 974.933 1364.14 1460.59 933.151 994.99 901.452 865.236 1089.69 804.61 718.153 710.268 710.038 652.921 637.159 665.079 593.186 564.273 517.624 489.836 488.161 439.996 435.025 429.997 412.324 457.061 394.837 384.254 611.99 354.448 351.097 707.924 580.162 349.927 349.599 347.359 282.535 419.519
threshold=155.10129898133508 89.939518838332575 29.076167420610581 -0.021135962181948399 32.406297492489905 26.917472043218016 678663.98540000012 -36.848221762970987 71.167560742311593 1.3121815852646075 361858.6083333334 1.9750457884550789 0.2725617336356882 0.033946919205087293 3.9121385806796973 22.202317444915099 -25448.299999999996 61.445102571966125 -150.50676523052451 -17.349144468736259 -0.56657781922190809 32.500000000000007 -0.37212011108013016 -2.2374134115331796 12.475000000000001 20.178667443895446 23169.177855000002 -85.659265054303475 -0.31320016781106652 0.18348616804252829 68.13812738960921 -11.759449687231852 0.28554159913484217 196.45000000000002 1.1993078840323577 -680072.99999999988 1.3490681518139456 13.230104979166668 2.9695480557724143 23.139057104807254 14.618836742551045 85.019876467579607 -0.17315072670484391 -4.4828538023548612 1.3916713866289159 28.523676964191122 44.355406474040478 -2.9416714154716996 -0.63975823155788314 109.25000000000001 48.425206057599716 17.64007299249587 15.781021978776037 3.6757763288308962 1.7994760211053225 -5.1867179732552033 20.132287315019628 1.0233522116359082 -11.409406780797029 -43.242542886549252 2.317922795971493 12.121212033536223
decision_type=2 2 2 2 2 2 2 2 2 2 2 2 2 2 2 2 2 2 2 2 2 2 2 2 2 2 2 2 2 2 2 2 2 2 2 2 2 2 2 2 2 2 2 2 2 2 2 2 2 2 2 2 2 2 2 2 2 2 2 2 2 2
left_child=1 4 3 -3 25 8 7 -7 12 10 16 -4 20 57 43 17 -9 18 22 -17 30 -20 37 -11 -22 54 27 -27 29 -28 -6 -23 -33 60 -34 -14 38 -16 39 -30 -19 -42 48 -15 -24 -38 53 -35 -21 50 -50 52 -41 58 56 -56 -1 -8 -26 -55 -31 -62
right_child=-2 2 11 -5 5 6 13 9 -10 23 -12 -13 35 14 15 19 -18 40 21 42 24 31 44 -25 46 26 28 -29 36 33 -32 32 34 47 -36 -37 45 -39 -40 51 41 -43 -44 -45 -46 -47 -48 -49 49 -51 -52 -53 -54 59 55 -57 -58 -59 -60 -61 61 -63
leaf_value=0.14178621667836394 1.9890541251628631 -0.46099920138543427 -0.40459186783267392 -1.5765387262067487 0.29067668760703369 -0.68948013988944401 0.052594352867908589 -0.61864101910697566 0.40773193120308548 -0.18969177712996801 -0.024043542752042416 0.047526755172759297 0.41721852219873856 -0.0092036348059773444 -0.27054766364395622 -0.45502628473483997 -0.2438669583736322 -0.11694419744479306 0.04268413540862856 -0.27513243163173851 -0.32303418866225653 -0.47331790201591722 0.280531621543747 0.21881939225337088 -0.17637028961283407 0.081273050861139062 -0.20675896557725293 -0.34654897289971509 0.084243803216708366 0.087879253762799342 -0.025884248553674022 0.014811456449743774 -0.15412873509252129 0.05843359043614732 -0.42110983483144082 0.088565144773040505 0.088067070503787301 0.015136013850569724 0.0040155792655423286 0.22630596835852457 0.25396695473919745 0.017624529135147376 -0.33224956018699187 0.18511100038886072 0.014294834714382887 -0.16155772632168186 -0.15359429690986873 0.29265730190415712 0.11711166999820206 -0.21885609888604712 -0.12427153675816954 0.11179601781898074 0.48011691113313043 0.15104233272442666 -0.055239531465552077 0.13241459809029618 0.3919698473531753 0.27321859863586723 0.034145764986935417 -0.04478430556945312 -0.18368652948311398 0.0072053227826585006
leaf_weight=84 31 43 45 31 44 57 41 56 46 30 37 50 31 100 40 46 39 34 42 33 35 33 33 34 41 38 44 42 109 74 46 45 53 36 48 35 41 40 60 114 46 56 37 48 36 31 60 43 36 35 32 45 30 54 55 583 32 32 38 39 35 162
leaf_count=84 31 43 45 31 44 57 41 56 46 30 37 50 31 100 40 46 39 34 42 33 35 33 33 34 41 38 44 42 109 74 46 45 53 36 48 35 41 40 60 114 46 56 37 48 36 31 60 43 36 35 32 45 30 54 55 583 32 32 38 39 35 162
internal_value=0.00112454 -0.016508 -0.500154 -0.92832 0.00806687 -0.0721861 -0.122393 -0.326465 0.0561674 -0.220894 -0.341245 -0.166635 0.0179358 -0.0678154 -0.0859711 -0.114507 -0.464786 -0.065797 -0.113477 -0.227052 -0.0236602 -0.187974 -0.00298194 0.0273298 -0.0750779 0.0888039 0.0537879 -0.143334 0.0729259 0.0173395 0.128879 -0.242095 -0.189833 0.0455119 -0.281011 0.242933 0.123859 -0.127706 0.152672 0.182603 0.0639217 0.12421 -0.166435 0.0538173 0.141625 -0.0194103 -0.0376707 0.185922 -0.121324 -0.072045 0.00351957 0.239329 0.279183 0.00276776 0.130786 0.116238 0.210802 0.149306 -0.0751094 0.0689215 0.00458044 -0.0267095
internal_weight=3526 3495 169 74 3326 1668 1199 253 469 196 132 95 423 946 873 725 95 506 370 219 357 221 149 64 267 1658 904 80 824 394 90 179 146 350 101 66 430 80 358 298 136 102 173 148 69 72 232 79 136 103 68 189 144 172 754 638 116 73 79 93 271 197
internal_count=3526 3495 169 74 3326 1668 1199 253 469 196 132 95 423 946 873 725 95 506 370 219 357 221 149 64 267 1658 904 80 824 394 90 179 146 350 101 66 430 80 358 298 136 102 173 148 69 72 232 79 136 103 68 189 144 172 754 638 116 73 79 93 271 197
is_linear=0
shrinkage=0.05


Tree=6
num_leaves=63
num_cat=0
split_feature=187 31 31 87 191 13 86 50 23 180 48 186 123 19 177 138 133 57 164 173 83 35 189 30 62 23 45 4 113 111 191 168 128 35 22 179 194 71 71 31 83 168 138 168 89 43 110 172 186 138 127 119 49 45 48 181 110 23 176 83 9 191
split_gain=44617.6 14995.9 7779.71 7731.04 7678.65 4023.9 5250.11 3916.24 3632.59 3533.74 3637.04 3455.15 1543.79 1255.86 1396.1 1153.29 1324.85 1323.73 1264.48 1080.37 996.76 959.23 903.325 885.969 1512.72 1177.34 902.204 785.769 783.987 777.718 773.235 728.41 693.233 691.734 664.115 634.607 884.884 632.481 1130.79 1275 973.332 658.396 639.932 948.253 601.939 564.564 649.891 545.811 544.089 516.766 469.647 451.664 528.455 662.235 400.884 376.102 500.334 471.483 373.575 372.769 338.99 315.943
threshold=155.10129898133508 89.939518838332575 32.406297492489905 17.847126675714772 -0.11421156627407179 -40.696941615680039 678663.98540000012 10.366285991299636 -23.070376432078557 -87.180763741575376 21.328283149551304 0.61404709029270876 0.73094613301335032 -0.76665462275753427 -0.32934585543135925 0.76893200818174912 -7.3097231841215766 25.163301599404178 -0.81180998757620026 47.500000000000007 65.850000000000009 1.1169120942278632 -0.6339291957133969 22.972980917059946 23169.177855000002 -16.395724505463274 -0.83663255961047833 778934.00000000012 8.3072869828633298 0.7401361594075575 -0.48315031757347476 -0.31320016781106652 29.933882981288843 0.86927750954511895 -18.260560526825135 1.0239511027085484 3.0530590533201276 2.6176962376421078 3.9558183961305589 43.955285773716412 122.65000000000002 -0.77835454048044428 0.60257726022571567 0.18223685673116788 1.0000000180025095e-35 -0.81030996377247344 -3.7664500432031462 -0.19323622132159354 0.78947365650969747 0.51827265406459466 1.0000000180025095e-35 1.1915275050012715 20.897497589958146 -0.024004396995978516 17.49996612153199 -98.862685860052736 -5.670916959499027 -10.156628628154367 -0.053778108749165242 84.250000000000014 17.000291666666669 -0.51018425742413209
decision_type=2 2 2 2 2 2 2 2 2 2 2 2 2 2 2 2 2 2 2 2 2 2 2 2 2 2 2 2 2 2 2 2 2 2 2 2 2 2 2 2 2 2 2 2 2 2 2 2 2 2 2 2 2 2 2 2 2 2 2 2 2 2
left_child=1 2 23 4 7 -4 8 -3 9 11 -11 -7 -12 19 21 16 -16 33 49 37 -13 -15 -20 55 25 -25 27 -26 -24 -5 -29 32 51 -18 -10 59 -37 42 39 -39 41 -40 43 61 58 46 -33 -36 -38 -19 -35 52 -28 -54 -34 57 -57 -1 -43 -17 -41 -8
right_child=-2 3 5 29 -6 6 13 -9 34 10 12 20 -14 14 15 35 17 18 22 -21 -22 -23 28 24 26 -27 31 30 -30 -31 -32 45 54 50 47 36 48 38 40 60 -42 44 -44 -45 -46 -47 -48 -49 -50 -51 -52 -53 53 -55 -56 56 -58 -59 -60 -61 -62 -63
leaf_value=0.37909880379835764 1.8896014728853778 -0.74255266141146425 0.46979488205602937 0.15046237641645055 -1.3015142867439673 0.273250297109286 -0.023440948327382406 0.013171303768952689 -0.23373936477427681 -0.98262900302284639 -0.61013398181427936 -0.58096697541975206 -0.13366020113120186 -0.018539215879220711 0.24597001035105098 -0.19746803022921086 -0.14926021240525328 0.12368789405838863 -0.440900737443503 -0.24716553385768619 -0.17668099706371626 0.31702460732091881 -0.3609851438083056 -0.41000629665870819 -0.26028548965559289 0.025761809584594543 0.0567607747345436 -0.087745230821892617 -0.057618187205751605 -0.20664960565666357 0.21070688347167829 0.38563772861742313 0.25479787846024221 -0.085915754979942 0.21038247595230739 -0.45301279539153694 -0.086949589427133087 0.077572446848664975 -0.024015074849128723 -0.39546515138879901 -0.15625555221086895 -0.023508351792891822 0.029428385861683639 0.43553563182552657 0.35827250006432471 0.099020656113727734 0.12494157289757449 -0.061485032675166931 -0.32997519067815834 -0.12984372390942142 0.096719474729263427 0.1121624872676636 -0.30434781174291858 -0.0017605301557165204 0.061533149050245456 -0.019328399641173229 0.120359561945778 0.1154445204215172 0.22027916330279729 0.046056397564031862 -0.16685280957094886 0.20075455506642662
leaf_weight=30 31 40 34 31 38 30 30 30 30 38 34 31 34 57 33 30 59 37 47 35 30 34 34 31 34 31 41 60 57 30 34 45 39 48 30 42 61 42 50 31 39 30 120 30 37 195 51 48 37 44 132 38 40 33 86 70 761 39 33 33 34 33
leaf_count=30 31 40 34 31 38 30 30 30 30 38 34 31 34 57 33 30 59 37 47 35 30 34 34 31 34 31 41 60 57 30 34 45 39 48 30 42 61 42 50 31 39 30 120 30 37 195 51 48 37 44 132 38 40 33 86 70 761 39 33 33 34 33
internal_value=0.00106831 -0.0156826 0.00766353 -0.475146 -0.729301 -0.0685768 -0.0797792 -0.418671 -0.266865 -0.394628 -0.590839 -0.166076 -0.371897 -0.0368438 -0.0773053 -0.101451 -0.0600062 -0.0820526 -0.170853 0.0215428 -0.382138 0.106836 -0.262899 0.0843637 0.0445371 -0.192122 0.0656188 -0.0542999 -0.170964 -0.0251665 0.0202055 0.0926427 0.0346077 -0.000683423 -0.0338147 -0.201693 -0.260997 0.0400198 -0.0072603 -0.137144 0.0662716 0.124129 0.105724 0.204169 0.1982 0.147886 0.247143 0.0430794 -0.178704 -0.014033 0.0480167 -0.0371227 -0.0868844 -0.167562 0.121832 0.117907 0.108593 0.230077 0.10419 -0.0699076 -0.275883 0.0939948
internal_weight=3526 3495 3326 169 108 1668 1634 70 305 197 106 91 68 1329 785 694 491 458 219 544 61 91 138 1658 758 62 696 128 91 61 94 568 277 239 108 203 140 509 296 107 189 150 213 93 100 291 96 78 98 81 180 152 114 73 125 900 831 69 63 63 65 63
internal_count=3526 3495 3326 169 108 1668 1634 70 305 197 106 91 68 1329 785 694 491 458 219 544 61 91 138 1658 758 62 696 128 91 61 94 568 277 239 108 203 140 509 296 107 189 150 213 93 100 291 96 78 98 81 180 152 114 73 125 900 831 69 63 63 65 63
is_linear=0
shrinkage=0.05


Tree=7
num_leaves=63
num_cat=0
split_feature=119 31 135 172 31 172 149 86 170 13 22 194 13 72 34 87 128 19 165 128 47 31 72 31 30 69 168 119 30 62 170 128 173 22 44 192 70 15 43 62 35 190 47 69 163 182 170 161 35 138 188 49 173 169 39 180 113 145 194 87 148 119
split_gain=39294.2 11748.9 9889.76 8005.97 7060.13 3843.93 3688.7 4084.31 3597.94 2565.66 2342.41 2214.36 2046.6 1230.51 1200.23 1350.51 1190.78 1181.48 1153.29 1136.98 1075.97 1430.66 1376.67 1098.52 937.658 1035.07 998.855 917.271 821.656 1364.45 927.848 817.797 805.61 884.885 739.651 704.967 671.844 608.16 814.736 677.552 597.119 500.933 498.615 486.251 485.603 484.966 462.219 520.88 461.685 456.434 498.188 456.384 443.131 425.909 365.603 352.978 347.271 594.887 411.756 486.56 325.956 277.449
threshold=0.33264172132246111 89.939518838332575 29.076167420610581 -0.021135962181948399 32.406297492489905 -0.41588093170441615 27.496407583121272 678663.98540000012 -0.5065222578077363 -33.866609413467309 -17.057361417643399 4.6609980164089828 -36.887893871492373 0.017614637842705585 3.9121385806796973 22.202317444915099 -34.240846644545769 0.16895846017220831 1.6308979660083167 -17.349144468736259 -0.018159798261485161 59.237597737382707 0.98851803085321033 53.453300496783193 49.645749595495211 999575.50000000012 0.3307112773638396 1.1141262295087042 22.972980917059946 23169.177855000002 -0.29062422451249087 48.425206057599716 37.500000000000007 -10.47908688555845 -1.2336797199216993 -0.38796884716477237 -356048.27499999997 85.304941474804863 -0.90066489811106887 533292.45000000007 1.1406550633444106 -0.50528667131348814 -0.0033764059105861051 -985527.99999999988 -6.7266627124303744 -130.52108661671409 -0.28352040321013955 14.442702317765574 0.98948467269777118 0.26533031458131368 0.42222221958333256 19.881983052569222 42.500000000000007 3.0220420100097627 20.328817860482697 -93.833011231769959 1.7719069052682326 -4.7531068469922344 24.357081853618205 20.109287226308087 24.320616982484918 1.0190401803604583
decision_type=2 2 2 2 2 2 2 2 2 2 2 2 2 2 2 2 2 2 2 2 2 2 2 2 2 2 2 2 2 2 2 2 2 2 2 2 2 2 2 2 2 2 2 2 2 2 2 2 2 2 2 2 2 2 2 2 2 2 2 2 2 2
left_child=-1 4 3 -3 28 -4 12 8 11 -7 -10 -8 -6 61 44 16 42 -12 19 -17 22 23 -18 27 26 34 45 32 56 30 -30 60 -22 -34 40 49 -24 38 43 -39 -26 -20 -16 -37 -15 55 47 -40 -47 -31 -51 -23 -41 -48 -36 -14 58 -58 59 -2 -21 -9
right_child=1 2 5 -5 6 9 7 13 10 -11 17 -13 24 14 15 18 20 -19 41 31 21 51 36 -25 25 -27 -28 -29 29 35 -32 -33 33 -35 54 37 -38 39 46 52 -42 -43 -44 -45 -46 48 53 -49 -50 50 -52 -53 -54 -55 -56 -57 57 -59 -60 -61 -62 -63
leaf_value=1.7182728910084926 0.1640395478035013 -0.4251469766611562 0.32895151042329096 -1.4440150282075328 0.41229675706062052 -0.59073413056699009 -0.77264216262847185 0.049583919587973008 -0.44130042564609778 -0.0095101136427659261 0.16622697434255057 -0.29482494660330061 0.041559062965891583 -0.068988060737875376 0.27014666865269343 -0.56608473658561709 0.2899282859431373 -0.16595045320563398 -0.20133789271554528 0.0061743397566099319 -0.065257254570722581 0.17214488136685557 -0.24007898055844837 -0.43341153236952695 0.14427347099169707 0.16755558937153919 0.31137805972248317 0.029879116411415899 -0.38228460614879928 0.12580787160379045 0.0047668152255937457 -0.39416234014289725 -0.51505637992830844 -0.18166041875568528 -0.1181082109817802 0.16702513951928386 0.08030027727286021 -0.20361010732970414 -0.10074377987470667 -0.02716216320970229 -0.090759386487876667 0.055483565375555391 0.018312681409154544 0.40460484447804368 0.11881120778296306 -0.19810267575085164 0.15929504980489334 0.14731225283308463 0.047358891255450702 0.017297547361103154 -0.1928784370870778 -0.077915158616127189 0.16061884108604046 -0.02680651610227008 -0.33751336051260727 0.25980644058436159 -0.064790180599426525 0.11204486078259053 0.031901270535308869 0.40250911621316787 -0.21800002070034252 0.25419911424318953
leaf_weight=33 69 51 37 31 36 37 48 37 46 39 49 49 44 55 30 31 36 59 34 31 50 36 36 44 39 47 44 49 30 34 32 42 34 48 43 62 30 31 59 70 88 43 57 33 92 30 161 33 53 59 54 37 57 38 34 32 51 705 32 31 34 30
leaf_count=33 69 51 37 31 36 37 48 37 46 39 49 49 44 55 30 31 36 59 34 31 50 36 36 44 39 47 44 49 30 34 32 42 34 48 43 62 30 31 59 70 88 43 57 33 92 30 161 33 53 59 54 37 57 38 34 32 51 705 32 31 34 30
internal_value=0.0010149 -0.0152088 -0.392327 -0.810329 0.00708894 -0.0889987 -0.0657132 -0.114053 -0.292745 -0.292474 -0.142505 -0.531271 0.0494153 -0.0650887 -0.0813684 -0.108573 -0.0624935 -0.0152403 -0.212948 -0.29945 -0.0989564 -0.146933 0.0412116 -0.209336 0.0206406 -0.0439807 0.100542 -0.154864 0.0806009 0.0421798 -0.182516 -0.2222 -0.223443 -0.319898 -0.092717 0.0623407 -0.094452 0.0885934 0.122417 0.00596208 -0.0185839 -0.0579181 0.105152 0.249553 0.0485462 0.0421971 0.0809116 -0.0117672 -0.0413622 -0.0348123 -0.0831405 0.0454021 0.0571175 0.123758 -0.214988 0.133453 0.113181 0.100116 0.18801 0.237965 -0.111086 0.141203
internal_weight=3526 3493 195 82 3298 113 1657 1167 251 76 154 97 490 916 849 702 487 108 215 138 400 298 102 225 454 251 203 181 1641 753 62 107 132 82 204 691 66 544 386 158 127 77 87 95 147 159 291 92 83 147 113 73 127 199 77 76 888 756 132 100 65 67
internal_count=3526 3493 195 82 3298 113 1657 1167 251 76 154 97 490 916 849 702 487 108 215 138 400 298 102 225 454 251 203 181 1641 753 62 107 132 82 204 691 66 544 386 158 127 77 87 95 147 159 291 92 83 147 113 73 127 199 77 76 888 756 132 100 65 67
is_linear=0
shrinkage=0.05


Tree=8
num_leaves=63
num_cat=0
split_feature=187 167 135 164 167 13 92 23 128 169 169 194 166 61 164 167 33 33 47 142 175 30 37 192 176 173 121 141 164 181 11 91 119 120 73 45 126 30 45 120 194 114 73 29 89 169 167 114 11 138 37 13 121 6 45 65 174 176 135 49 43 49
split_gain=40165.1 12289.4 7286.19 6406.12 6308.89 3418.14 4297.54 3110.67 3131.85 2343.71 1536.36 1475.22 1075.16 1330 1887.74 1976.79 2313.35 1502.81 1069.6 901.211 742.434 724.404 1090.46 695.584 677.772 1252.01 1277.25 968.986 647.313 641.707 1211.15 1068.29 699.575 605.534 593.339 551.528 793.407 539.193 512.696 486.961 467.079 457.812 590.472 460.171 456.937 453.756 444.636 443.871 443.864 436.595 427.59 419.687 416.341 408.493 392.711 391.279 333.205 329.699 326.576 323.701 318.145 315.377
threshold=155.10129898133508 5.6656571400723061 29.076167420610581 0.044929355293661273 2.0414048589881979 -40.696941615680039 1.0000000180025095e-35 -23.070376432078557 -36.848221762970987 1.2894684371758813 1.9750457884550789 11.297809410306161 -1.892932205846009 999213.70000000007 -0.76982666508551267 2.5812389974050558 0.49709642857142827 1.7542035714285718 0.037329457008182361 -12.298697255528127 0.46475607267614111 20.178667443895446 1.338130439838801 -0.3933221770908456 -3.5131014023396019 47.500000000000007 2.6406536155734375 -0.35231412850714033 0.51970355645857025 -84.821560273679111 -1.0539384935052434 0.79896907216494861 0.80633292183925531 3.8775684164458588 1.827963456558769 -0.061744781306362691 -65542.499999999985 46.942959528252523 -0.074264593038110852 6.3163509866643066 11.67365350913113 0.025613785147778793 0.52019080659150208 0.01154609847145416 1.0000000180025095e-35 0.23092871660021327 1.0286399755718081 -0.079095300284006617 1.0302949079321373 0.25336982917807493 4.4009440104693853 -14.201404865721701 1.2349408095217556 25.678000000000001 -0.86647023916399035 -0.10573584085754333 0.77681491454621465 0.7850393386775385 36.281937901008725 22.405643085187204 -1.8455762239763869 17.96379232810115
decision_type=2 2 2 2 2 2 2 2 2 2 2 2 2 2 2 2 2 2 2 2 2 2 2 2 2 2 2 2 2 2 2 2 2 2 2 2 2 2 2 2 2 2 2 2 2 2 2 2 2 2 2 2 2 2 2 2 2 2 2 2 2 2
left_child=1 4 3 -3 21 -6 7 8 -7 11 -4 -10 44 24 20 18 -17 34 -16 52 47 -1 46 49 -14 26 27 37 35 41 -31 32 -32 38 39 40 -37 -26 -9 -18 53 42 43 59 -8 -34 -23 -15 -33 -24 -49 -51 -19 -29 -44 56 -22 -42 -57 -25 61 -60
right_child=-2 2 10 -5 5 6 12 33 9 -11 -12 -13 13 14 15 16 17 19 -20 -21 55 22 23 29 25 -27 -28 28 -30 30 31 48 45 -35 -36 36 -38 -39 -40 -41 57 -43 54 -45 -46 -47 -48 50 -50 51 -52 -53 -54 -55 -56 58 -58 -59 60 -61 -62 -63
leaf_value=0.1114640806245788 1.7927910045510338 -0.33763882763482433 -0.35306346370114222 -1.2680643537962759 0.43374544233083728 -0.73754911677435386 0.0320020991563797 -0.21530423254113307 -0.5668672809648243 0.030608876417295972 0.049641119763255123 -0.19161260643601419 0.18242586368162717 -0.024479690230892678 0.061848231752504826 -0.61055311999387207 -0.099253212798524781 -0.10863119717155184 -0.21775661713133254 -0.55341544127272024 -0.036170251678456278 -0.024757478199899197 0.12791213972324675 0.25571735220135383 0.053023613556738826 -0.22562469403852115 -0.19760177610097107 -0.070840211103687864 -0.043228421973642607 -0.24350208303815613 -0.17419051171042199 0.10869562222111612 -0.10971592504891657 0.1482831182602026 -0.22487149285999211 0.4552859282990297 0.10927175075520534 -0.22634528995706488 0.052753852009773256 0.13260867333947085 0.088653648251460659 -0.006182649089023471 -0.069882521471556491 0.35898541233888492 0.30573153272271159 0.10872092085397418 -0.29698165184507769 0.080760815516114248 0.37626039344079715 -0.22962395877323372 0.33047443548838301 -0.022364729761760287 -0.36246920252839726 0.15120665904353647 0.11754523089902986 0.12223167662771467 -0.2575314189800445 0.31110456114815133 0.10049325505316985 0.088644091412425047 -0.18473050296306612 -0.10895639033988119
leaf_weight=754 31 37 45 37 34 43 30 44 55 49 50 50 56 38 119 36 54 35 48 31 34 30 33 53 31 55 54 53 58 37 43 31 31 34 44 30 37 39 30 39 36 60 34 41 31 102 30 40 31 33 30 94 30 34 157 39 34 31 41 64 30 32
leaf_count=754 31 37 45 37 34 43 30 44 55 49 50 50 56 38 119 36 54 35 48 31 34 30 33 53 31 55 54 53 58 37 43 31 31 34 44 30 37 39 30 39 36 60 34 41 31 102 30 40 31 33 30 94 30 34 157 39 34 31 41 64 30 32
internal_value=0.000964154 -0.014929 -0.430869 -0.802852 0.00620562 -0.0624506 -0.0727753 -0.24204 -0.36027 -0.254925 -0.141114 -0.388175 -0.0339298 -0.0437937 -0.0860733 -0.153639 -0.237525 -0.17989 -0.0185172 -0.331584 0.0065639 0.0752759 0.0450924 0.0597343 0.0182275 -0.00184921 0.0286909 0.0637046 0.105436 0.0816878 0.0226262 0.0639991 0.00112584 -0.026381 -0.0735933 0.144452 0.264203 -0.102625 -0.106632 -0.00202081 0.0923524 0.121399 0.143333 0.21484 0.17111 0.0578071 -0.16087 0.113097 0.242478 -0.0341173 0.187781 -0.0762195 -0.225787 0.0159367 0.0841811 -0.0482244 -0.146851 0.191579 -0.000994794 0.164327 -0.0476534 0.00867971
internal_weight=3526 3495 169 74 3326 1668 1634 305 197 154 95 105 1329 1268 754 436 269 233 167 96 318 1658 904 844 514 458 403 349 279 684 275 238 176 108 137 221 67 70 74 93 154 409 349 158 61 133 60 108 62 160 70 127 65 87 191 210 68 67 142 117 103 73
internal_count=3526 3495 169 74 3326 1668 1634 305 197 154 95 105 1329 1268 754 436 269 233 167 96 318 1658 904 844 514 458 403 349 279 684 275 238 176 108 137 221 67 70 74 93 154 409 349 158 61 133 60 108 62 160 70 127 65 87 191 210 68 67 142 117 103 73
is_linear=0
shrinkage=0.05


Tree=9
num_leaves=63
num_cat=0
split_feature=179 31 192 31 87 149 87 26 128 183 32 169 87 176 61 164 31 33 6 168 38 173 174 185 192 30 5 156 45 120 19 181 26 169 118 87 71 177 9 83 45 22 157 132 26 190 153 56 176 141 192 184 118 149 26 126 173 172 168 71 169 63
split_gain=38672.5 13013.9 8111.44 5612.2 4215.5 3103.1 3759.92 3578.88 2767.15 2689.98 2193.05 2017.13 1688.01 1341.67 1387.53 1231.97 2095.51 1644.93 1548.23 997.423 964.26 893.208 884.515 824.865 796.204 865.301 769.275 755.016 717.54 691.122 671.674 666.214 768.638 1145.68 1436.88 685.19 655.765 622.607 592.6 587.684 574.972 681.6 585.775 561.968 528 482.396 463.295 452.075 636.424 419.537 415.766 677.447 405.243 404.649 612.66 645.668 610.919 408.913 397.544 370.525 338.854 286.059
threshold=0.35599549144580694 89.939518838332575 -0.089742048708585806 32.406297492489905 15.361149384863429 26.414930611247041 15.794833729247655 0.75391047748425033 -36.848221762970987 -121.00606363814198 70.091934251752818 1.1578539572434479 17.210911745036576 -5.8038359243185278 999213.70000000007 -0.65241922068359559 40.741679545731664 0.49709642857142827 21.973000000000003 0.34817085881681492 21.396717266667007 47.500000000000007 0.73089976761542186 8.4480514750495015 -0.56657781922190809 68.13812738960921 12.657000000000002 8.7762222468110682 -0.074264593038110852 6.7743019095524835 0.16895846017220831 -98.862685860052736 0.77233919101018633 0.23092871660021327 3.3631935715838881 22.425528148730638 0.72776563805188699 -0.34204764718483688 8.1827500000000004 98.350000000000009 -0.86647023916399035 -7.5998090691215152 23.764415907905299 -6.3794346718008832 0.71082372408644712 -0.33562313564759627 7.532942303873134 14.448973058262837 -1.4271671604392604 -0.23336531643981548 0.19866747407256963 28.172404109346697 3.4091521265353375 35.478980043985992 0.84464141897106382 -154832.94999999998 32.500000000000007 -0.02713883948272235 -0.18529216611557758 0.67982771891092364 1.7003629540493697 954845.62500000012
decision_type=2 2 2 2 2 2 2 2 2 2 2 2 2 2 2 2 2 2 2 2 2 2 2 2 2 2 2 2 2 2 2 2 2 2 2 2 2 2 2 2 2 2 2 2 2 2 2 2 2 2 2 2 2 2 2 2 2 2 2 2 2 2
left_child=-1 3 9 31 -4 10 7 8 -7 12 19 20 -3 -8 21 22 47 -18 58 24 -10 23 43 -15 25 -5 -26 -25 30 45 -9 39 33 34 -33 44 -29 -38 -39 -2 41 52 -43 -16 -35 -20 -28 -17 -49 -45 51 -40 -34 56 55 -55 61 -56 -19 -48 -59 -42
right_child=1 2 4 5 -6 6 13 28 11 -11 -12 -13 -14 14 15 16 17 18 29 -21 -22 -23 -24 27 26 -27 46 36 -30 -31 -32 32 40 35 -36 -37 37 38 50 -41 53 42 -44 49 -46 -47 59 48 -50 -51 -52 -53 -54 54 57 -57 -58 60 -60 -61 -62 -63
leaf_value=1.4411751824066692 0.11902986042484452 -0.60583136631175882 -1.090943421636309 0.27677146923683943 -0.35310038848547265 -0.80392614953421271 0.20261539686859276 0.00073934931133408106 -0.61111892793327582 0.15183718293581322 0.37397093521431091 0.037804875300536236 -0.088138814847315519 0.21856403252482415 0.18587380579362314 0.15907918532689413 -0.61141828562944167 -0.19648660337552429 -0.57831922787608525 0.21508344299056464 -0.26606453460891072 -0.179759724008835 -0.18347953368073044 -0.22265709568472469 -0.27596698502699535 -0.038788795239395574 -0.19203613038573947 -0.15634229056900595 0.10146458312791462 -0.15661430546653368 -0.32582113358282272 -0.36961657513626095 -0.023776911944150925 0.021715829458374247 0.076943949141329349 -0.092869538261272422 0.26914703754648084 0.19407526862231039 -0.16944532412471194 0.37897467186053596 0.088566129370638638 0.26722242808900776 -0.028758653828075954 -0.14302388657219481 0.2311892048322729 -0.3099622440414832 -0.13592000860306952 0.109859872441138 -0.17849021203257143 0.080522895448429652 -0.18147964612130196 0.096199872138888837 -0.2440284162759781 0.10166175091443093 0.059623457147433168 -0.16948368070073999 0.1672792445538222 0.19854163078493195 0.02833691072814605 0.043933919229145565 0.024396547272398667 -0.065420953236347029
leaf_weight=46 79 32 49 42 32 37 48 32 40 46 48 31 31 50 48 30 31 32 33 54 41 59 59 34 36 45 35 41 45 31 31 43 64 65 31 56 31 42 33 30 101 32 35 41 56 34 36 31 50 43 31 88 31 38 410 52 309 114 51 140 37 43
leaf_count=46 79 32 49 42 32 37 48 32 40 46 48 31 31 50 48 30 31 32 33 54 41 59 59 34 36 45 35 41 45 31 31 43 64 65 31 56 31 42 33 30 101 32 35 41 56 34 36 31 50 43 31 88 31 38 410 52 309 114 51 140 37 43
internal_value=0.000915947 -0.018122 -0.420473 0.00511411 -0.79945 -0.0594397 -0.100125 -0.270185 -0.429038 -0.138848 0.0551504 -0.305192 -0.351094 -0.055114 -0.068517 -0.123202 -0.182728 -0.27488 -0.217241 0.0157087 -0.436462 0.000207203 -0.0225385 0.0305445 -0.0165256 0.113551 -0.0623419 -0.000792106 -0.0510268 -0.351819 -0.159949 0.0711766 0.0625976 -0.0173339 -0.182544 0.0517369 0.0275666 0.0610789 0.0278309 0.190574 0.078445 -0.00951876 0.112605 0.0493973 0.118662 -0.442138 -0.025894 -0.00672504 -0.068134 -0.0285892 -0.0181051 0.0237512 -0.0956485 0.0913527 0.0661014 -0.0550001 0.127641 0.0855295 -0.058342 0.00714562 0.15587 0.0425839
internal_weight=3526 3480 190 3290 81 1664 1228 257 149 109 436 112 63 971 923 514 323 212 181 388 81 409 191 350 334 87 247 300 108 98 63 1626 1517 251 74 177 266 225 194 109 1266 162 67 132 121 67 211 111 81 84 152 121 95 1104 651 90 453 561 83 176 151 144
internal_count=3526 3480 190 3290 81 1664 1228 257 149 109 436 112 63 971 923 514 323 212 181 388 81 409 191 350 334 87 247 300 108 98 63 1626 1517 251 74 177 266 225 194 109 1266 162 67 132 121 67 211 111 81 84 152 121 95 1104 651 90 453 561 83 176 151 144
is_linear=0
shrinkage=0.05


Tree=10
num_leaves=63
num_cat=0
split_feature=179 23 164 116 169 92 169 190 152 32 166 128 132 63 138 194 63 185 174 85 114 113 50 39 26 50 191 116 48 190 194 84 37 111 83 170 169 181 188 161 26 177 63 187 179 83 34 122 177 24 68 119 24 39 49 186 194 190 43 169 71 131
split_gain=42156 11344.4 7267.71 4409.44 3755.61 3386.82 2684.04 3169.78 2474.5 2396.63 1335.47 1277.8 1130.18 1123.31 1024.94 992.29 1482.27 1083.8 878.277 967.181 1054.69 846.344 947.32 1087.28 851.376 821.171 780.052 770.009 750.078 670.405 714.831 640.47 631.628 625.159 621.987 1013.75 671.276 624.982 620.245 676.019 618.054 568.016 560.592 487.264 466.447 443.47 432.285 488.806 421.98 385.115 379.415 356.902 351.695 502.767 434.343 342.038 324.019 356.945 308.549 295.364 280.153 459.544
threshold=0.35599549144580694 -53.732093080245463 0.77101671467058275 33.85347108373535 2.3073281347450751 1.0000000180025095e-35 2.5861756882791447 -0.4594833132978135 -14.823378912524754 56.819794465860717 -1.892932205846009 -35.288584452989546 -8.0797374132546498 399838.46666666673 0.5062652628735772 44.237467079328312 255026.88333333336 13.509729281935769 0.63408241192431747 98.350000000000009 0.0010517219704696548 4.9843679513316426 15.78263776980843 31.501843411458442 0.85674880464480885 7.3418503158101176 -0.47075886940233519 41.954010067645655 19.596503457828653 0.088395628380812025 8.3908105549373833 113.45000000000002 6.6732192901031704 0.51662144498157703 69.750000000000014 -0.42440477738680671 0.53691801146581752 -99.047874995950565 0.47346691759907739 38.740932126714434 0.91048181524431848 0.35731121489537537 132599.80000000002 24.244508652732215 1.1136870904511076 83.450000000000017 6.3937893693540993 1.805575192714999 0.14597902015745903 0.96938964367900826 1.0000000180025095e-35 0.87425016589534377 0.92946138944318146 40.131212780443271 24.221218362898451 0.41942628701070833 16.725832366789664 -0.066421862623513503 -0.25418019948281051 3.6681709833320437 0.85326896703716093 -5.6901376310916687
decision_type=2 2 2 2 2 2 2 2 2 2 2 2 2 2 2 2 2 2 2 2 2 2 2 2 2 2 2 2 2 2 2 2 2 2 2 2 2 2 2 2 2 2 2 2 2 2 2 2 2 2 2 2 2 2 2 2 2 2 2 2 2 2
left_child=-1 2 4 18 8 6 7 9 -2 -5 14 -9 -6 43 -7 16 17 42 34 20 -20 24 23 40 27 -8 32 44 -25 30 -19 33 38 -29 35 36 -3 51 -17 -40 46 48 -12 -13 -18 -22 47 -23 55 50 -37 -36 54 -54 -39 56 57 -24 -55 -28 61 -51
right_child=1 3 -4 5 12 10 25 11 -10 -11 15 13 -14 -15 -16 26 21 29 19 -21 45 22 41 28 -26 -27 59 31 -30 -31 -32 -33 -34 -35 37 49 -38 52 39 -41 -42 -43 -44 -45 -46 -47 -48 -49 -50 60 -52 -53 53 58 -56 -57 -58 -59 -60 -61 -62 -63
leaf_value=1.6188335955375805 -0.17736450543006263 -0.32723816941181821 -1.098855433613062 -0.22332214862108232 -0.19132860024770104 0.32420711203788721 0.26560440964996818 -0.42760491412627744 -0.78843269251488357 -0.76300450794709229 0.080234917024658486 -0.021185123765220248 0.23916472980091649 0.19278163373470308 -0.0060733743538351169 0.17631753677671608 0.21034021799763047 -0.30798791262411301 0.021010959363084728 0.16688004517211363 -0.32042123017705637 -0.2432562603056431 0.023897887736728247 -0.52285820527656657 0.16476751458644867 -0.082346850652725276 0.29607760855514142 0.061320043592874351 -0.18943491514411667 0.14770923651033832 0.026379528257882957 -0.26928048318653713 -0.20164369167760016 -0.16213081501328441 0.376158608943224 0.034816268671606171 0.0019776221713982524 0.073220434546884566 -0.15219148144407094 0.12207520745503597 0.013614946231245996 -0.25630769768068867 0.33886356566101317 -0.26144182912859265 -0.029997542428855713 -0.088851222443657049 -0.34046161187191809 0.021262546220133384 0.12603388523330558 -0.1043056180079778 -0.15397827000387254 0.14113774457148143 0.13106372819639153 -0.12704666723166744 -0.083040277596942533 -0.17976363700899212 0.12211153745470989 -0.19363887264873045 0.072973037029013907 0.092095361181667876 0.17946295634408793 0.10051058839763637
leaf_weight=40 30 30 32 36 30 48 30 32 37 48 44 36 31 30 46 55 33 31 118 52 44 40 44 37 50 39 36 58 31 31 33 51 32 68 30 188 32 252 53 39 50 31 40 51 52 39 36 31 37 33 31 35 493 31 54 44 31 33 51 35 75 161
leaf_count=40 30 30 32 36 30 48 30 32 37 48 44 36 31 30 46 55 33 31 118 52 44 40 44 37 50 39 36 58 31 31 33 51 32 68 30 188 32 252 53 39 50 31 40 51 52 39 36 31 37 33 31 35 493 31 54 44 31 33 51 35 75 161
internal_value=0.00486206 -0.0136309 -0.424888 0.00612328 -0.256396 -0.0543643 -0.204978 -0.286094 -0.51482 -0.531712 -0.0188289 -0.147625 0.0274467 -0.0710491 0.16258 -0.0332071 -0.0568433 0.0725518 0.0608353 -0.0253228 -0.075047 -0.0874401 -0.131708 -0.203845 -0.024301 0.0689363 0.0552871 -0.0603828 -0.370856 -0.043138 -0.13558 -0.119783 -0.000337145 -0.0592725 0.0754062 0.0331238 -0.15732 0.099989 0.0434847 -0.0359263 -0.131509 -0.0579318 0.203391 -0.162025 0.0633101 -0.211611 -0.199325 -0.127762 -0.025394 0.0573196 0.00809193 0.249609 0.08895 0.111996 0.045645 -0.0622547 -0.0143807 -0.0693322 -0.00264417 0.195523 0.0973972 0.0656707
internal_weight=3531 3491 160 3331 128 1582 302 233 67 84 1280 149 61 117 94 1186 936 179 1749 253 201 757 445 225 312 69 250 262 68 95 64 177 179 126 1496 550 62 946 147 92 157 220 84 87 85 83 107 71 189 488 219 65 881 575 306 152 108 77 82 71 269 194
internal_count=3531 3491 160 3331 128 1582 302 233 67 84 1280 149 61 117 94 1186 936 179 1749 253 201 757 445 225 312 69 250 262 68 95 64 177 179 126 1496 550 62 946 147 92 157 220 84 87 85 83 107 71 189 488 219 65 881 575 306 152 108 77 82 71 269 194
is_linear=0
shrinkage=0.05


Tree=11
num_leaves=63
num_cat=0
split_feature=187 26 151 172 30 86 170 169 38 149 165 26 83 190 176 138 169 84 169 169 169 50 34 78 143 35 152 37 32 37 32 147 7 179 161 11 181 143 179 34 78 50 128 175 186 161 141 73 13 35 13 47 2 28 165 143 28 7 179 126 184 84
split_gain=38602.8 9260.6 7543.23 4858.79 3821.82 1985.36 2269.64 2320.54 2102.43 1237.54 1176.23 1160.89 1826.01 1604.55 1054.01 999.148 973.825 971.229 845.569 885.259 788.592 752.336 689.821 687.309 660.186 923.779 972.097 658.7 640.88 636.257 966.155 617.694 773.442 624.841 1020.12 842.273 746.783 608.307 606.434 740.456 562.17 542.494 519.503 507.377 506.214 534.496 493.172 470.75 553.184 467.104 435.223 376.936 421.667 363.684 352.428 351.356 397.165 345.5 339.114 323.084 284.287 248.004
threshold=155.10129898133508 0.46267906919754537 -1.5327209817817911 -0.021135962181948399 41.086394999840195 678663.98540000012 -0.2720784348067779 2.5861756882791447 17.543859642351546 15.85046149336671 0.13986405423349921 0.79882873788610731 67.950000000000017 -0.52103338827802459 4.4956468877197464 0.95464278217055598 10.044915431002396 113.45000000000002 -0.10247200437106473 0.25723382025227265 1.5225412266061535 -6.5075694495688152 3.4091521265353375 1.0000000180025095e-35 -63.467623539229145 1.0378841867751658 -7.339663038341512 2.344589793120043 52.389665004757639 4.8992401975465816 42.216991658991383 -26.381188809467336 13.726500000000003 1.1549723257236078 37.622670349640536 1.3356475805814114 -77.180796550651181 -45.958904984076703 1.3015034270888046 4.7405036600275468 1.0000000180025095e-35 2.0221152713758301 -36.303133851912108 0.7419376576980391 0.91163455459319931 14.948076445017541 -0.22199577798093784 1.114859035818055 -15.287234055136766 0.80175131533739752 -4.5084062571509671 0.032129293247934849 11.202800000000002 -31.143285210270854 0.42160016483921164 -54.058821051174078 -16.151420090400048 21.495385000000002 0.82433266523259785 -743863.29999999993 22.118622226126792 70.350000000000009
decision_type=2 2 2 2 2 2 2 2 2 2 2 2 2 2 2 2 2 2 2 2 2 2 2 2 2 2 2 2 2 2 2 2 2 2 2 2 2 2 2 2 2 2 2 2 2 2 2 2 2 2 2 2 2 2 2 2 2 2 2 2 2 2
left_child=1 2 -1 20 9 6 7 8 -6 -3 -10 12 13 -11 15 18 24 -16 -7 28 -4 -21 46 43 -14 26 -26 -28 -20 30 58 32 -24 34 40 36 38 53 39 -35 51 -18 -15 59 45 -29 -23 48 -40 -46 57 52 -33 -34 -44 -49 -57 -45 -25 -13 -61 -59
right_child=-2 4 3 -5 5 14 -8 -9 10 11 -12 23 16 42 17 -17 41 -19 19 21 -22 22 31 29 25 -27 27 44 -30 -31 -32 33 37 35 -36 -37 -38 -39 47 -41 -42 -43 54 50 49 -47 -48 55 -50 -51 -52 -53 -54 -55 -56 56 -58 61 -60 60 -62 -63
leaf_value=0.18801341484754514 1.7612628265734642 0.3145112014592214 -0.51875392328947789 -1.0426108761912301 -0.62330821465168684 0.19809589643736145 0.12757404651087911 0.062679016977808505 -0.057532080864677065 -0.46741753452840973 -0.39070582941726406 0.15010692646535928 0.21205112090277856 -0.25263575022108853 0.010119082183952917 -0.31208315925563085 0.36634076833724977 0.35432115416042509 -0.081964242233093398 0.14778975637121636 -0.16192789485057196 -0.053097825517525545 -0.17553417068539245 0.012005522719970565 -0.24572989849839361 -0.28146514694596969 -0.10896989971515723 0.038863442433731903 -0.37490107552571733 0.326599262158076 -0.13529189827597954 0.020336643751296735 -0.086570193314630742 -0.088680459377242296 -0.23228852614050821 -0.33255564666220122 0.13472442611819133 0.27580026125206664 -0.064188437789146388 -0.39300731535141287 0.16895701828701745 0.080994156603184014 0.072680957372091265 0.010449848114512862 -0.12772911103332746 0.29695037375105188 0.1847786378185704 0.13720828864723444 -0.31758315707107876 0.14295741463700931 0.087235197277429205 0.10276831546798348 -0.23123410257600968 0.14220779039897025 -0.12469904644503481 -0.16149098801803083 0.046332344373481146 -0.060605572133014596 0.12091326039699134 -0.066546536413106053 0.053964272338628508 -0.24045172604255197
leaf_weight=39 31 43 32 42 49 37 46 43 52 34 54 78 33 32 57 34 31 32 43 55 30 37 33 82 32 31 48 35 33 30 44 36 38 41 42 42 32 34 56 39 58 36 49 52 34 47 53 30 35 30 48 37 31 32 42 47 45 36 557 55 444 41
leaf_count=39 31 43 32 42 49 37 46 43 52 34 54 78 33 32 57 34 31 32 43 55 30 37 33 82 32 31 48 35 33 30 44 36 38 41 42 42 32 34 56 39 58 36 49 52 34 47 53 30 35 30 48 37 31 32 42 47 45 36 557 55 444 41
internal_value=0.00461896 -0.0109399 -0.405001 -0.627381 0.00584614 -0.0598924 -0.188804 -0.262307 -0.352464 0.0491413 -0.227262 0.0433811 -0.0212821 -0.163392 -0.0310085 -0.0456833 0.0412144 0.133877 -0.0363069 -0.0456427 -0.346096 -0.0310737 -0.0434014 0.0660375 0.0015213 -0.0255117 0.00959694 0.0517127 -0.20916 0.101232 0.0913328 -0.0599759 0.0353691 -0.082852 -0.0126977 -0.121848 -0.094618 0.10229 -0.119666 -0.23704 0.0442333 0.21302 -0.0793523 0.032757 0.10454 0.186791 0.086985 -0.0755814 -0.161648 -0.000844802 -0.0412974 -0.0253241 -0.0960618 0.018014 -0.0184175 -0.0113842 -0.0598383 -0.0891235 0.106938 0.0554739 0.0406815 -0.156368
internal_weight=3531 3500 143 104 3357 1333 244 198 155 2024 106 1981 514 157 1089 1000 357 89 966 929 62 853 798 1467 290 257 226 194 76 713 683 708 137 571 204 367 325 104 293 80 162 67 123 754 146 82 90 213 91 64 177 104 67 70 91 122 92 129 639 577 499 77
internal_count=3531 3500 143 104 3357 1333 244 198 155 2024 106 1981 514 157 1089 1000 357 89 966 929 62 853 798 1467 290 257 226 194 76 713 683 708 137 571 204 367 325 104 293 80 162 67 123 754 146 82 90 213 91 64 177 104 67 70 91 122 92 129 639 577 499 77
is_linear=0
shrinkage=0.05


Tree=12
num_leaves=63
num_cat=0
split_feature=179 26 164 31 169 86 156 128 33 43 141 39 62 166 138 80 62 63 73 156 39 113 174 153 185 83 35 138 34 29 164 37 9 44 147 184 32 25 44 185 135 73 24 181 111 132 176 114 47 162 91 164 35 126 135 44 111 162 72 120 165 7
split_gain=37425.3 9806.03 5875.56 3634.09 3243.06 2807.99 2366.47 2952.87 2186.9 1492.6 1831.47 1608.59 1427.35 1107.01 944.018 913.788 895.471 779.455 1136.5 891.174 1106.46 802.684 898.046 775.506 774.175 734.028 722.475 709.005 801.3 654.735 638.432 629.272 617.216 905.653 835.694 586.393 580.019 563.452 548.824 494.652 627.431 623.804 482.645 843.319 480.069 453.101 403.535 531.865 459.732 393.534 386.157 376.681 432.203 398.997 350.42 347.62 493.562 503.986 340.674 339.151 337.47 405.71
threshold=0.35599549144580694 0.46267906919754537 0.77101671467058275 33.85347108373535 2.3073281347450751 678663.98540000012 7.3582211707569734 -35.288584452989546 1.0833964285714288 -0.51774020032259027 -0.19331416009870597 41.983512340997031 148111.22500000003 -1.892932205846009 0.5062652628735772 1.0000000180025095e-35 11649.200000000003 264708.00000000006 2.9729918321225859 25.578352257144104 38.653662611089764 6.7188655085714961 1.267680861089471 19.925100168313936 18.161414665567445 144.85000000000005 0.88260411774151037 0.59844269078636692 4.3423481695741009 -0.0070514098297405617 -0.89131239742489388 3.4429295357524881 166.75962500000003 -1.9928327204090286 -13.772871277065761 26.25018928552981 43.692977970515301 0.75127557220243624 -0.45012304272252662 6.7785533975806898 24.128963483617152 0.15763270275734195 0.92832848091994447 -97.633890899334418 0.79409735224498423 -2.4801750344551921 -2.2785762027963661 -0.016378215924642 -0.017706320783976746 2.0569933668559472 0.68556701030927847 -0.64131934868158469 0.73708650528314967 -560319.14999999991 30.331723722646615 -0.27944332694063961 0.54484853869714744 0.1157915060753479 0.37023329769442975 2.9107801101480564 2.2109394935166398 47.078505000000007
decision_type=2 2 2 2 2 2 2 2 2 2 2 2 2 2 2 2 2 2 2 2 2 2 2 2 2 2 2 2 2 2 2 2 2 2 2 2 2 2 2 2 2 2 2 2 2 2 2 2 2 2 2 2 2 2 2 2 2 2 2 2 2 2
left_child=-1 2 4 15 8 6 -5 -8 -2 10 49 -12 -6 14 -7 16 -3 18 24 20 21 22 25 -22 35 32 39 28 -23 -29 -24 45 33 37 51 -15 -31 -19 60 41 -41 -18 43 50 -21 -28 48 55 -44 -9 -17 53 -53 -35 -47 56 -48 -58 -43 -42 61 -30
right_child=1 3 -4 5 12 13 7 9 -10 -11 11 -13 -14 17 -16 42 26 19 -20 44 23 27 30 -25 -26 -27 31 29 38 36 -32 -33 -34 34 -36 -37 -38 -39 -40 40 59 58 46 -45 -46 54 47 -49 -50 -51 -52 52 -54 -55 -56 -57 57 -59 -60 -61 -62 -63
leaf_value=1.5251064472405416 -0.21089764228888921 -0.24459636526949266 -1.001382315531373 0.17674125860898923 0.26572905672093233 0.30305411995699011 -0.55912232974119358 -0.31692568537912202 -0.7827875716611743 0.067779704515955275 0.1096269505370098 -0.33251328511784473 -0.21806339559055146 0.3533358720193307 -0.013920515241182369 0.20126805470650455 -0.15830508030951024 0.10442931654197829 -0.23528144307434562 0.012286769927507549 -0.42570450558217571 -0.24413401529192927 0.0081751864636316895 -0.10776521124961702 -0.059707319248339233 -0.20601102863588641 -0.03995991708589313 -0.39232152006588877 -0.016010909717530011 -0.019215543071428934 -0.28534159785644575 0.25634907076046581 -0.09311922178381965 0.1680413388987867 0.22638991877090101 0.10488950770936514 -0.25205049607551322 0.39715136717404093 0.16908196571927805 -0.26431792393326758 -0.17431754381819206 -0.00010205995031567508 -0.11991395941231309 -0.020258184952695889 0.24355197235503617 0.022263611438892671 0.091473694027147515 0.081097092469802734 0.098059969887895115 -0.56156043215023899 0.0012052176383269184 0.070713517417510349 -0.15872088372707369 -0.06754445843398571 0.18279943850593292 0.1153852391988039 0.1862212685092042 0.42492643754656723 0.19096439143314081 0.012522933443846264 0.091093093132780453 -0.24859338949124019
leaf_weight=40 35 34 32 39 30 48 57 35 32 56 48 36 31 30 46 83 30 35 30 66 34 40 32 44 58 31 92 32 50 54 44 42 63 41 43 114 53 31 39 40 33 43 41 243 34 67 44 424 59 31 34 30 65 32 69 139 48 41 51 92 31 30
leaf_count=40 35 34 32 39 30 48 57 35 32 56 48 36 31 30 46 83 30 35 30 66 34 40 32 44 58 31 92 32 50 54 44 42 63 41 43 114 53 31 39 40 33 43 41 243 34 67 44 424 59 31 34 30 65 32 69 139 48 41 51 92 31 30
internal_value=0.00438801 -0.0130364 -0.395393 0.00532955 -0.243896 -0.0495831 -0.186724 -0.240622 -0.484039 -0.152493 -0.234728 -0.0798617 0.0198673 -0.0172265 0.147939 0.054999 0.00453871 -0.0303171 0.0518794 -0.0503062 -0.0668429 -0.0487992 -0.0051722 -0.246354 0.094527 0.0269042 0.0196918 -0.108074 -0.0452928 -0.193889 -0.161756 0.0785006 0.0481406 0.0802683 0.0297042 0.156649 -0.134545 0.24192 0.00773157 -0.0352507 -0.0919581 0.0402068 0.0808838 0.032843 0.0909169 0.0457391 0.102611 0.116105 0.00869066 -0.43183 0.14313 -0.020638 -0.0862679 0.0647709 0.103712 0.170676 0.228462 0.296187 0.103562 -0.036803 -0.0489591 -0.103229
internal_weight=3531 3491 160 3331 128 1582 302 263 67 206 150 84 61 1280 94 1749 593 1186 232 954 854 776 447 78 202 371 559 329 190 139 76 270 340 277 211 144 107 66 150 289 165 124 1156 360 100 228 796 696 100 66 117 168 95 73 136 272 133 89 94 125 111 80
internal_count=3531 3491 160 3331 128 1582 302 263 67 206 150 84 61 1280 94 1749 593 1186 232 954 854 776 447 78 202 371 559 329 190 139 76 270 340 277 211 144 107 66 150 289 165 124 1156 360 100 228 796 696 100 66 117 168 95 73 136 272 133 89 94 125 111 80
is_linear=0
shrinkage=0.05


Tree=13
num_leaves=63
num_cat=0
split_feature=119 23 164 31 131 30 87 45 62 169 34 186 23 138 174 58 56 83 170 170 190 194 87 33 50 7 91 168 70 143 32 30 44 192 91 43 113 83 64 30 164 33 32 44 87 36 32 164 168 45 114 111 190 178 43 72 29 91 174 156 169 32
split_gain=36090.1 9119.17 4889.72 3202.48 3413.82 2871.69 2279.3 2592.41 2425.94 1601.17 1476.51 1380.7 1302.87 1056.13 1038.34 1109.18 927.884 788.719 839.286 769.129 766.807 748.383 1104.02 1063.03 832.58 818.258 748.234 742.085 899.342 704.587 694.039 687.463 685.309 1075.54 616.469 589.379 512.97 547.791 484.138 522.034 478.626 681.239 634.589 476.853 476.625 432.57 430.878 430.323 426.36 400.128 391.818 376.524 413.724 404.898 370.971 357.359 354.226 338.53 418.7 335.244 318.799 315.851
threshold=0.33264172132246111 -53.732093080245463 0.77101671467058275 108.38793664460364 -40.696941615680039 41.086394999840195 17.993039358818695 -0.33914590447426307 77053.97500000002 1.3916713866289159 6.9222353586659722 0.61404709029270876 -43.394140158022644 0.95464278217055598 0.58504886334638861 0.075843092329645381 20.393776749399755 69.750000000000014 -0.34957495807078182 -1.0087106398701196 -0.41948099212430312 25.436126233479509 20.454794168790148 2.8275464285714311 6.3944559506235672 91.004000000000005 0.36082474226804129 -0.42439157641174913 -580509.29999999993 -58.481056149552735 45.358821128470687 61.79674941584706 -3.2597402277207981 -0.36423018382915034 0.97422680412371143 -0.76542175188714701 7.1248648764191751 132.60000000000002 0.87189806165230543 47.676090043538629 -0.024665968589495185 0.73668214285714306 46.605771350447121 -0.79988291668667266 21.483405195093376 6.893536271034848 40.557277346209702 0.027330896709959186 0.24317006387163187 -0.26694701530942694 -0.0067411900675555794 0.68502143468560439 -0.13636268110826186 -0.13675565986410051 -0.56603006404181488 1.132566577275534 0.0070569471070933152 0.22164948453608249 -0.019373185287839993 14.75664762585275 1.0281138305838993 32.191567591560592
decision_type=2 2 2 2 2 2 2 2 2 2 2 2 2 2 2 2 2 2 2 2 2 2 2 2 2 2 2 2 2 2 2 2 2 2 2 2 2 2 2 2 2 2 2 2 2 2 2 2 2 2 2 2 2 2 2 2 2 2 2 2 2 2
left_child=-1 2 3 4 -2 10 7 -7 -8 11 12 16 -3 19 17 -16 47 18 20 -10 -14 26 24 27 -23 -25 29 28 43 -21 54 -11 -28 44 36 -29 37 48 55 -40 42 -42 -35 -24 -34 56 -38 -9 51 -20 -50 52 -19 -54 60 -31 -41 -51 -59 -53 -17 -27
right_child=1 5 -4 -5 -6 6 8 9 13 31 -12 -13 14 -15 15 30 -18 34 49 21 -22 22 23 25 -26 61 32 35 -30 38 -32 -33 33 40 -36 -37 46 -39 39 45 41 -43 -44 -45 -46 -47 -48 -49 50 57 -52 59 53 -55 -56 -57 -58 58 -60 -61 -62 -63
leaf_value=1.7310031170646352 0.37695568387707074 -0.27674238076433538 -0.92009933356082796 -0.56167094564686226 -0.29522634454655883 -0.59365833826137315 0.39913041587261594 0.1198415340799274 0.22854375347495079 0.18035413214693899 0.39313051318128905 -0.42970164156733798 -0.29266662775866087 -0.30417156134019879 0.095727334924427296 -0.21442477125309264 -0.34365679418047268 0.051583743523410032 -0.057037634074658852 0.057911370184627324 -0.018459521075029198 0.006977899620930355 0.073849979428470963 -0.25207087086779734 -0.36553171006341778 -0.10124159535256827 -0.20107144121080639 0.41092775595538761 0.22635846764958922 -0.39830334320577099 -0.3070736561316465 -0.09451769371827444 0.060699067916721111 0.051803611939953226 -0.11891548788973264 0.12777964983135462 0.07250873816830726 0.0010489263335863748 0.063244471652433285 -0.37737184071913366 0.22643420407848974 -0.073058253271999413 -0.23299456345409439 -0.18350118419362441 0.33359594997018577 -0.059008640247695858 -0.080622790279225087 -0.13012591178218524 0.14605629039116394 0.040299039607904603 0.37480519331163831 0.2785454778932035 0.32777956128120422 0.1087131291627884 0.01909153972837058 -0.16712322752922773 -0.14164992211496127 0.066747698989430712 0.2891858018934727 0.11021903141507541 -0.035839541531072897 0.061972719494897494
leaf_weight=30 30 32 33 48 51 33 34 33 30 46 30 52 37 34 104 51 30 188 80 42 82 30 36 35 30 41 40 34 47 32 35 45 32 31 35 40 394 75 32 30 31 49 53 36 32 53 52 36 39 302 36 64 31 66 77 35 34 56 34 55 49 107
leaf_count=30 30 32 33 48 51 33 34 33 30 46 30 52 37 34 104 51 30 188 80 42 82 30 36 35 30 41 40 34 47 32 35 45 32 31 35 40 394 75 32 30 31 49 53 36 32 53 52 36 39 302 36 64 31 66 77 35 34 56 34 55 49 107
internal_value=0.00416861 -0.0106286 -0.376984 -0.238047 -0.04627 0.00714604 -0.0496658 -0.177933 -0.0163888 -0.121244 0.0449922 -0.221086 0.0397014 -0.0301584 0.0449157 -0.038018 -0.11151 0.0610332 0.0149495 -0.0207668 -0.103717 -0.0285416 0.0198973 0.0516804 -0.179277 -0.0346574 -0.0686925 0.133545 0.0562303 -0.129471 -0.103629 0.0444285 -0.0101814 0.0233081 0.0873476 0.257875 0.0945668 0.126698 -0.165907 -0.115711 -0.0445317 0.0429951 -0.12789 -0.0548256 0.197148 -0.164656 0.0546548 -0.0105763 0.146372 0.0448676 0.255856 0.126047 0.0948561 0.178724 -0.0633997 -0.277538 -0.252145 0.0656645 0.15078 0.200748 -0.126918 0.0167579
internal_weight=3531 3501 162 129 81 3339 1335 275 1060 242 2004 151 1974 1026 1942 316 99 1626 591 992 119 962 436 376 60 183 526 193 119 258 212 91 268 228 1035 74 1000 554 216 149 164 80 84 72 64 117 446 69 479 472 75 404 285 97 177 67 64 392 90 119 100 148
internal_count=3531 3501 162 129 81 3339 1335 275 1060 242 2004 151 1974 1026 1942 316 99 1626 591 992 119 962 436 376 60 183 526 193 119 258 212 91 268 228 1035 74 1000 554 216 149 164 80 84 72 64 117 446 69 479 472 75 404 285 97 177 67 64 392 90 119 100 148
is_linear=0
shrinkage=0.05


Tree=14
num_leaves=63
num_cat=0
split_feature=187 23 44 164 171 39 87 148 169 191 181 48 190 73 172 110 152 182 143 34 37 188 84 191 142 83 24 39 61 188 113 83 63 149 168 152 152 5 91 48 165 156 30 154 119 24 179 112 72 169 179 115 143 191 128 129 149 169 91 158 140 110
split_gain=34897.1 6726.65 6177.83 4190.65 2876.3 2892 2625.56 2944.68 2087.75 1723.95 1347.86 1288.3 1605.75 1203.41 895.765 894.729 1147.18 1023.76 903.305 1138.53 780.333 724.354 719.237 714.672 710.188 688.621 694.208 914.345 747.601 642.376 779.947 773.051 631.031 1254.52 603.56 588.597 751.751 561.63 652.135 561.052 521.437 485.381 485.209 476.642 469.984 384.981 377.959 451.12 503.06 503.668 373.16 361.023 352.424 349.966 326.877 373.845 320.753 319.122 309.253 276.991 268.374 293.827
threshold=155.10129898133508 -53.732093080245463 -1.5327209817817911 0.74839078206669163 2.5153953301479759 28.635817588648113 15.794833729247655 30.543377926015939 1.892823619620827 -0.41273998208053475 -98.911859053230955 41.257149495474913 -0.29894415086017107 0.50595121212848515 -0.30309387267391513 -2.2851443530714231 -10.311110237380344 -68.40723534123434 -41.035839781930839 5.4152355802079546 4.2240234497143723 0.65324464444501196 199.75000000000003 -0.75893712638923383 -20.603381056666304 72.550000000000011 0.9698721641478717 38.653662611089764 999213.70000000007 0.25611935141538983 2.3348802889164486 80.350000000000009 999084.06666666677 39.725797833113916 -0.66706974274401676 -5.7740920997022691 -4.2165986170029024 15.566000000000001 0.88144329896907225 26.379731603989239 0.31631460078650736 6.6252755367355283 51.023706569094266 15.650501665491463 0.68010763751675796 0.93968262013778781 1.6746470398001467 36.168893910416266 1.365369126600595 1.3326637172299336 0.53267227819165031 36.148705181143399 -38.591941488732786 -0.63074011093747762 24.966951879320391 -4.3070471567855808 29.483786608626115 0.92507947478327435 0.21134020618556704 9.5999069272348958 1.0000000180025095e-35 -5.8254950061382402
decision_type=2 2 2 2 2 2 2 2 2 2 2 2 2 2 2 2 2 2 2 2 2 2 2 2 2 2 2 2 2 2 2 2 2 2 2 2 2 2 2 2 2 2 2 2 2 2 2 2 2 2 2 2 2 2 2 2 2 2 2 2 2 2
left_child=1 2 -1 8 23 10 7 -7 -4 34 14 12 -9 -14 -6 16 22 -17 19 20 21 -18 41 45 -21 26 27 52 -29 -20 -31 -32 35 -34 -8 -11 -37 38 -27 -38 -36 -12 44 -44 -33 58 47 48 51 -50 -28 53 56 -39 55 -54 -25 -53 -3 -60 61 -55
right_child=-2 4 3 -5 5 6 9 11 -10 32 15 -13 13 -15 -16 17 18 -19 29 24 -22 -23 -24 25 -26 37 50 28 -30 30 31 42 33 -35 40 36 39 46 -40 -41 -42 -43 43 -45 -46 -47 -48 -49 49 -51 -52 57 54 60 -56 -57 -58 -59 59 -61 -62 -63
leaf_value=0.18998513191174238 1.674161789301903 0.049665427411144436 -0.5906951981782913 -1.0464130531251432 0.32655146144471081 -0.62290060860770091 -0.049999230842859975 -0.48923428479668707 -0.057783412768998565 -0.10916540268276419 -0.11170721377589202 0.11238985919663985 -0.3191160521904628 0.1216792091028765 -0.015355225006739298 0.36734778615646069 -0.24220595922248039 -0.035818774649693123 -0.21882757109499751 -0.16864336836233473 0.15290399992114143 0.064262962100967283 0.28987326054937312 0.0039040779133877124 -0.45737916031742798 0.10568476729094983 -0.098950331285595897 -0.29986306911706928 -0.0010374280727571913 -0.12416462218532197 0.30978258114929003 0.058186223953962328 0.037671079656972389 -0.29327799596569759 -0.14877543466334994 0.34094010125845675 -0.044947620536805247 -0.073494867187865229 0.3149157006707457 0.20508533011417129 -0.38065406827738996 0.11324040886301262 -0.0036383120014387019 0.26311348739898571 -0.19466087116914638 0.09407806581742055 0.21502725109457971 -0.12350781329959218 0.084045670308511372 -0.13947021180795413 0.079557577310519864 0.26213994297350562 -0.14897851549809979 -0.10464317601835055 0.13183712780905457 0.059589060339078841 -0.16308657852086156 0.092487703454800146 -0.18281024108968072 -0.025500899660918449 0.12272897661693634 0.058969952196280262
leaf_weight=39 31 33 40 30 53 49 42 43 34 35 38 31 30 32 30 32 51 31 31 57 36 31 36 83 34 216 32 50 36 65 30 40 82 44 44 30 57 47 45 37 54 65 34 33 34 37 36 36 44 59 344 43 31 31 78 70 44 78 74 45 155 239
leaf_count=39 31 33 40 30 53 49 42 43 34 35 38 31 30 32 30 32 51 31 31 57 36 31 36 83 34 216 32 50 36 65 30 40 82 44 44 30 57 47 45 37 54 65 34 33 34 37 36 36 44 59 344 43 31 31 78 70 44 78 74 45 155 239
internal_value=0.00396018 -0.010833 -0.346681 -0.547931 0.00347328 -0.0522302 -0.133341 -0.290567 -0.345844 -0.0649013 0.0127862 -0.170829 -0.254446 -0.0916088 0.202971 -0.010496 -0.0288797 0.168964 -0.065782 -0.143633 -0.0411509 -0.126346 0.0974906 0.0419272 -0.276523 0.0516545 0.0158272 -0.0307298 -0.174773 -0.00484216 0.0232661 0.079307 0.00567843 -0.0778984 -0.208581 0.0719092 0.123019 0.0783943 0.141759 0.0534696 -0.276545 0.03025 0.0302697 0.127747 -0.0579868 -0.050559 0.0568602 0.0490815 0.0580085 -0.0439877 0.0643654 0.0757246 0.00975302 0.0559716 0.0549508 -0.00442673 -0.053951 0.152777 -0.0857667 -0.123324 0.0702891 0.0401847
internal_weight=3531 3500 143 104 3357 1371 610 185 74 425 761 136 105 62 83 678 615 63 476 209 118 82 139 1986 91 1797 768 392 86 267 236 171 285 126 140 159 124 1029 261 94 98 103 141 67 74 189 768 732 696 103 376 593 306 472 179 101 127 121 152 119 425 270
internal_count=3531 3500 143 104 3357 1371 610 185 74 425 761 136 105 62 83 678 615 63 476 209 118 82 139 1986 91 1797 768 392 86 267 236 171 285 126 140 159 124 1029 261 94 98 103 141 67 74 189 768 732 696 103 376 593 306 472 179 101 127 121 152 119 425 270
is_linear=0
shrinkage=0.05


Tree=15
num_leaves=63
num_cat=0
split_feature=191 37 171 86 135 128 13 36 192 164 111 191 149 22 174 43 174 19 185 29 30 64 62 55 177 73 56 58 128 190 114 169 31 49 187 55 141 21 162 65 158 162 73 21 91 39 62 111 30 30 19 142 65 174 21 55 177 91 39 191 32 64
split_gain=37066.9 8646.11 4023.39 3665.46 4235.63 4679.34 2184.24 2205.71 2021.56 1876.76 1702.01 2263.59 1799.1 1492.09 1345.51 1218.99 973.495 932.397 1214.02 1012.22 907.597 868.639 821.896 767.79 677.974 602.867 877.496 587.603 584.923 555.779 546.917 538.383 512.61 497.845 486.181 478.247 462.638 443.638 411.061 540.579 410.891 401.785 394.197 376.827 448.907 502.769 435.844 425.945 416.519 396.352 366.796 407.343 346.952 313.378 297.477 295.014 546.819 418.239 362.761 294.46 262.885 255.095
threshold=0.67917180239652697 11.700030233088196 2.5404028112530521 678663.98540000012 22.050135276366401 -29.925576912303367 -26.666008260158787 4.8407307230350618 -0.18785721838313788 -0.22138943539060171 0.68874765829182316 -0.66822228868364053 25.875946315053216 -18.072139081893223 0.021513666299467386 -1.7418061233673716 0.53419490305211681 -5.3797807184078108 10.731286623110528 -0.015238130008749793 63.443386316153685 1.0420152692440088 317556.90000000008 41.190550260910435 -0.076029287047881519 0.4066262596882374 23.708025571462041 0.20446648448312971 18.38473959591304 -0.25132213049486957 -0.0046846332811032445 1.5376901515164889 46.313634155877807 18.237529738333443 27.122091245313488 21.991476802741488 -0.27181329791653436 -14.600155028744913 6.0180988484260221 -0.075752211629759633 -5.4879574703828444 -0.50348151116912632 0.63957362894333025 -9.3494062488885898 0.22164948453608249 31.213453310032637 11460.750000000002 0.32329097384323402 53.456414619688189 11.699916606744294 -2.3051325857506795 -11.799506504316359 0.14751553482602967 0.077436505556289226 -2.51335761929613 45.201218159332143 -0.19515922439628172 0.43298969072164956 29.545454529786515 -0.087748822862054626 46.024715527343439 1.2562960386301292
decision_type=2 2 2 2 2 2 2 2 2 2 2 2 2 2 2 2 2 2 2 2 2 2 2 2 2 2 2 2 2 2 2 2 2 2 2 2 2 2 2 2 2 2 2 2 2 2 2 2 2 2 2 2 2 2 2 2 2 2 2 2 2 2
left_child=1 2 16 4 5 -4 7 -5 -7 -3 11 -6 -13 -14 17 20 43 -8 19 -19 -9 24 -20 -22 27 -23 33 37 -26 -15 40 -17 60 -27 -28 -32 -33 -16 39 -34 -18 -42 -39 48 45 47 49 -45 50 -47 -1 -52 -37 55 -48 -46 -57 -58 -59 -53 -24 -50
right_child=-2 9 3 6 10 8 14 15 -10 -11 -12 12 13 29 21 31 30 18 22 -21 23 25 32 -25 28 26 34 -29 -30 -31 35 36 38 -35 -36 52 -38 42 -40 -41 41 -43 -44 44 53 46 54 -49 61 -51 51 59 -54 -55 -56 56 57 58 -60 -61 -62 -63
leaf_value=0.12180809456816254 1.7523627755542597 -0.31589974054268433 -1.0079710014661154 0.46638951583488569 -0.55118417104240514 0.030387980421073737 0.22961285987070632 0.38329857310110871 -0.52330692910096221 -0.84147896676352529 0.15525683764404119 0.22647718493427549 -0.36586094129316771 -0.16195866018533708 -0.1815275040073473 -0.21669527245004006 0.19006168407504448 0.36137240588665009 0.087178389741866688 0.026921687040316025 0.24585126782908584 0.13286601792021496 -0.14641490817070008 -0.079959635306149732 -0.47525529390381227 -0.080550380907952801 0.19774972304701807 -0.28049819397987152 -0.17700799099169673 0.11785239699163608 0.051700946262904585 -0.12045919784655175 -0.14782833216918842 -0.33876679109409458 -0.080363564006984245 -0.096204858716606098 0.15722110072150827 -0.14307739080921297 -0.050417006714269519 -0.4098302701009171 -0.15404530411793127 0.031156128350716489 0.083858698315918453 0.010338023733817229 0.12854606139841246 0.0042352650846753806 -0.028270894420146943 0.12427654717801928 -0.012301941252435031 -0.24343411676585675 -0.10005265277577564 0.11449511365436421 -0.28835601383639919 0.17019683454616541 0.070538776129221492 -0.12382147513329983 0.21820276729052976 -0.070594627437336993 0.11185837536754589 -0.067033703927882021 0.045532300742343074 -0.19613107261247933
leaf_weight=96 30 35 30 37 32 32 42 33 34 33 52 35 58 36 61 41 32 30 54 92 33 41 30 40 31 40 30 49 35 35 42 30 45 35 33 97 30 31 32 35 36 157 50 119 190 35 125 264 46 30 64 74 31 147 195 40 42 48 63 32 44 32
leaf_count=96 30 35 30 37 32 32 42 33 34 33 52 35 58 36 61 41 32 30 54 92 33 41 30 40 31 40 30 49 35 35 42 30 45 35 33 97 30 31 32 35 36 157 50 119 190 35 125 264 46 30 64 74 31 147 195 40 42 48 63 32 44 32
internal_value=0.00224963 -0.0126112 -0.00165372 -0.0660033 -0.208205 -0.490199 -0.0208765 0.110813 -0.254849 -0.57096 -0.0990462 -0.166514 -0.0914568 -0.177718 -0.0591291 0.0472556 0.0434573 0.00661048 -0.0192627 0.109164 0.165694 -0.120044 -0.0845461 0.0673247 -0.178943 -0.0354796 -0.0854954 -0.131204 -0.317094 -0.0240236 -0.0270167 -0.077046 -0.134402 -0.201051 0.0520713 -0.0947028 0.018381 -0.0796876 -0.201872 -0.262454 0.0241238 -0.00338922 -0.00299339 0.0604106 0.0727415 0.0483146 0.0079647 0.0888753 0.0138828 -0.110074 0.0436758 -0.000445941 -0.142741 0.108138 0.0319412 0.0843184 0.0407782 0.0838108 0.0329598 0.059694 -0.0322841 -0.087719
internal_weight=3563 3533 3465 1428 344 96 1084 244 66 68 248 196 164 129 840 207 2037 404 362 122 106 436 240 73 257 179 138 191 66 71 395 101 186 75 63 170 60 142 112 80 225 193 81 1642 1298 768 385 383 344 65 266 170 128 530 320 383 193 153 111 106 74 78
internal_count=3563 3533 3465 1428 344 96 1084 244 66 68 248 196 164 129 840 207 2037 404 362 122 106 436 240 73 257 179 138 191 66 71 395 101 186 75 63 170 60 142 112 80 225 193 81 1642 1298 768 385 383 344 65 266 170 128 530 320 383 193 153 111 106 74 78
is_linear=0
shrinkage=0.05


Tree=16
num_leaves=63
num_cat=0
split_feature=191 23 143 44 171 169 57 83 31 172 190 32 128 165 181 174 114 190 144 194 121 44 194 172 44 63 33 47 165 187 179 191 5 179 28 143 190 21 181 186 129 85 118 23 91 165 114 194 181 65 190 65 44 190 114 84 69 170 166 128 38 154
split_gain=33452.8 6427.76 4861.08 3060.97 2895.42 2388.66 2381.05 1662.83 1573.2 1445.88 1270.28 1151.6 1124.07 1212.63 894.204 888.94 875.502 891.012 759.622 751.423 1087.3 749.964 732.955 704.399 689.318 655.114 683.815 600.523 598.792 509.771 492.311 459.247 440.409 436.168 525.892 755.273 431.243 424.679 414.102 387.279 379.616 378.774 372.114 425.512 370.039 604.551 363.792 363.241 768.625 381.505 346.602 344.929 327.091 362.954 312.637 309.508 293.881 288.657 284.594 275.97 274.934 290.499
threshold=0.67917180239652697 -51.759607975716904 -13.12628342280791 -1.5327209817817911 2.5404028112530521 19.817248611307196 36.461724389407784 67.65000000000002 60.414608358924745 -0.056622256152405549 0.070943854381201196 95.74261372249525 30.669531880507311 0.62888073952892054 -86.49599092206104 0.64222899147280754 0.078013373635653097 0.38694364712611323 0.98434401800870119 11.864598487749829 2.4260104951583776 -0.79988291668667266 19.049010681642532 -0.26210586500782579 -0.94521766492172332 843453.71666666679 2.9105892857142868 -0.0126080450555502 1.498839225171797 24.244508652732215 0.82433266523259785 -0.62075121297330216 14.017000000000001 1.1136870904511076 -8.6518942019663267 -23.043200711026181 -0.081645303205578293 -7.4514388528890683 -96.056658927438164 0.48999332395235806 -3.7336352846728689 196.45000000000002 3.3252225196170015 -15.775997535581768 0.24226804123711343 0.019247680243513532 0.028641290445616533 -3.1207252374378394 -97.282434722024149 0.079162814314017074 -0.45142334510566245 0.20492696221908893 -0.31170569434116874 -0.15962933028517132 -0.0091613825606752224 178.35000000000002 22620.000000000004 -0.18900634042549821 -0.31051041172292232 64.638980373514357 11.57746668545685 17.551526102655828
decision_type=2 2 2 2 2 2 2 2 2 2 2 2 2 2 2 2 2 2 2 2 2 2 2 2 2 2 2 2 2 2 2 2 2 2 2 2 2 2 2 2 2 2 2 2 2 2 2 2 2 2 2 2 2 2 2 2 2 2 2 2 2 2
left_child=1 2 3 -1 15 7 36 8 10 27 12 14 13 32 16 30 17 19 22 31 25 46 -10 -23 54 -21 28 -5 -27 -25 55 -9 -6 44 35 39 56 47 -26 40 -35 59 43 -36 50 -46 -16 49 -49 -33 -32 60 53 -47 -17 -3 -7 -55 -44 -40 61 -41
right_child=-2 4 -4 9 5 6 -8 11 18 -11 -12 -13 -14 -15 21 24 -18 -19 -20 20 -22 23 -24 29 38 26 -28 -29 -30 -31 33 37 -34 34 42 -37 -38 -39 41 51 -42 -43 58 -45 45 52 -48 48 -50 -51 -52 -53 -54 57 -56 -57 -58 -59 -60 -61 -62 -63
leaf_value=0.11292132488612472 1.6647447036517165 0.026849192125981095 -0.81888767008980123 -0.056691551977588288 -0.10911525401376909 0.21821964047228298 0.54344536601876225 -0.21894041105192535 -0.089854983120195339 -0.63539258768161144 -0.0034688710712078145 -0.26382508404828886 -0.11190875235384293 -0.56044049614976188 0.11332222758195339 -0.047317729477072135 0.23621226932093697 0.23320876930441178 -0.19342945261956437 -0.038721034627153796 -0.18266687822010785 -0.40396951253215474 0.2440060773066112 -0.23261593340658676 0.19479141955574353 0.33060463498612602 -0.024256480524414467 -0.36316090266949635 0.071392933178592383 0.0011074010196120241 -0.033150758777987469 -0.074643053114414215 -0.37563684098422528 -0.17543608454857457 -0.066173298018085844 -0.23557704869777926 -0.12513203280667465 0.11849976545199753 -0.096240466996863658 0.037281239690149535 0.022871597639539026 0.12651681938185924 0.30206572922567526 0.080428212194485552 0.045289802884080396 0.38105944039652478 -0.11827224204937617 0.1723278317306387 -0.11074438961079487 -0.2628404532105495 0.090857586605843865 0.1251400146780923 0.11569517285430007 0.071077409759163865 -0.20422088888192935 -0.10300452116390933 0.00039039857219904663 0.28243756807276182 0.096057356972443442 0.058705784228541669 0.080627411648042893 -0.13409646473204095
leaf_weight=58 30 137 36 31 31 30 30 49 31 30 41 54 49 58 39 64 38 35 38 66 45 30 35 51 30 56 38 33 37 43 73 87 31 43 57 31 30 32 91 51 55 41 30 376 102 37 30 38 65 39 247 101 70 30 63 69 32 35 38 42 76 48
